svm_type c_svc
kernel_type linear
nr_class 2
total_sv 36
rho -1.00128
label 2 3
nr_sv 29 7
SV
8.644129148528641 1:0.05 2:0.05 3:0 4:0 5:0 6:0.025 7:0.05 8:0 9:0 10:0 11:0 12:0 13:0 14:0 15:0.025 16:0 17:0 18:0 19:0 20:0 21:0.025 22:0 23:0 24:0 25:0 26:0 27:0 28:0 29:0 30:0 31:0.025 32:0.05 33:0.05 34:0 35:0 36:0 37:0.05 38:0 39:0 40:0 41:0 42:0 43:0 44:0 45:0 46:0 47:0 48:0 49:0.05 50:0 51:0 52:0 53:0 54:0 55:0 56:0.025 57:0 58:0 59:0.025 60:0 61:0 62:0.025 63:0 64:0 65:0 66:0 67:0 68:0.025 69:0 70:0 71:0 72:0.025 73:0 74:0 75:0 76:0.025 77:0 78:0.025 79:0 80:0 81:0 82:0 83:0 84:0.025 85:0.075 86:0.025 87:0.025 88:0 89:0.075 90:0.075 91:0 92:0 93:0 94:0 95:0 96:0 97:0.025 98:0 99:0.05 100:0 
3.23786789981724 1:0.011494 2:0.022989 3:0 4:0.011494 5:0.011494 6:0 7:0.022989 8:0 9:0 10:0 11:0 12:0 13:0 14:0.011494 15:0.011494 16:0 17:0 18:0.034483 19:0.011494 20:0.057471 21:0 22:0.011494 23:0.011494 24:0 25:0.034483 26:0 27:0.011494 28:0.011494 29:0 30:0 31:0 32:0 33:0.057471 34:0.034483 35:0.011494 36:0 37:0 38:0.011494 39:0 40:0.011494 41:0.011494 42:0.011494 43:0 44:0 45:0.011494 46:0 47:0.022989 48:0 49:0.011494 50:0.011494 51:0.011494 52:0.022989 53:0.022989 54:0.011494 55:0 56:0 57:0 58:0 59:0.011494 60:0.011494 61:0 62:0 63:0.011494 64:0 65:0.011494 66:0 67:0.022989 68:0.034483 69:0.011494 70:0 71:0.034483 72:0 73:0.011494 74:0.011494 75:0.022989 76:0.022989 77:0 78:0.011494 79:0.011494 80:0 81:0.011494 82:0 83:0.022989 84:0.011494 85:0 86:0 87:0.034483 88:0 89:0.011494 90:0 91:0.011494 92:0.011494 93:0 94:0 95:0 96:0 97:0.011494 98:0 99:0.034483 100:0.034483 
8.213866506765189 1:0.012195 2:0 3:0 4:0 5:0 6:0.012195 7:0 8:0.02439 9:0 10:0.012195 11:0.012195 12:0 13:0 14:0 15:0 16:0 17:0 18:0 19:0.012195 20:0.02439 21:0.02439 22:0 23:0.012195 24:0 25:0.02439 26:0 27:0 28:0.036585 29:0.012195 30:0 31:0 32:0.012195 33:0.073171 34:0 35:0.012195 36:0.012195 37:0.02439 38:0.012195 39:0.012195 40:0.02439 41:0.012195 42:0.012195 43:0.012195 44:0 45:0 46:0 47:0.012195 48:0.012195 49:0.012195 50:0 51:0 52:0.012195 53:0 54:0.02439 55:0.012195 56:0 57:0.012195 58:0.012195 59:0.012195 60:0 61:0.02439 62:0 63:0.012195 64:0.02439 65:0.02439 66:0.012195 67:0.02439 68:0 69:0 70:0 71:0 72:0 73:0 74:0 75:0.04878 76:0 77:0 78:0 79:0.073171 80:0.012195 81:0 82:0.012195 83:0 84:0.012195 85:0.012195 86:0 87:0.02439 88:0.012195 89:0.012195 90:0.036585 91:0.012195 92:0 93:0.012195 94:0 95:0 96:0.012195 97:0 98:0 99:0.02439 100:0 
1.934845956269387 1:0 2:0 3:0.015152 4:0 5:0.030303 6:0.015152 7:0 8:0.015152 9:0.045455 10:0 11:0.030303 12:0 13:0.015152 14:0.015152 15:0.015152 16:0 17:0 18:0 19:0.015152 20:0 21:0.015152 22:0 23:0.015152 24:0.015152 25:0 26:0 27:0 28:0.015152 29:0.015152 30:0.030303 31:0 32:0.015152 33:0 34:0 35:0 36:0 37:0 38:0 39:0 40:0.045455 41:0.015152 42:0 43:0.015152 44:0 45:0 46:0 47:0.015152 48:0.030303 49:0 50:0.015152 51:0 52:0.015152 53:0 54:0 55:0 56:0 57:0.015152 58:0.015152 59:0 60:0.015152 61:0.015152 62:0 63:0 64:0 65:0.030303 66:0.060606 67:0.015152 68:0 69:0.015152 70:0 71:0.015152 72:0 73:0 74:0.030303 75:0 76:0 77:0 78:0.030303 79:0.015152 80:0.015152 81:0 82:0 83:0 84:0.015152 85:0.030303 86:0.015152 87:0.015152 88:0 89:0 90:0 91:0.015152 92:0 93:0.045455 94:0.030303 95:0 96:0.015152 97:0 98:0.030303 99:0 100:0.015152 
16.61291549649805 1:0.009091 2:0.009091 3:0 4:0.018182 5:0 6:0.018182 7:0 8:0.027273 9:0.009091 10:0.018182 11:0.009091 12:0.009091 13:0 14:0.009091 15:0.009091 16:0 17:0.009091 18:0.009091 19:0.009091 20:0.027273 21:0.009091 22:0.027273 23:0 24:0 25:0.027273 26:0.018182 27:0.009091 28:0.009091 29:0 30:0.009091 31:0.009091 32:0 33:0 34:0 35:0 36:0 37:0.009091 38:0.009091 39:0.009091 40:0.009091 41:0.018182 42:0.009091 43:0 44:0.018182 45:0.009091 46:0.036364 47:0 48:0 49:0.009091 50:0 51:0.009091 52:0.027273 53:0.009091 54:0.009091 55:0.027273 56:0.009091 57:0.018182 58:0 59:0 60:0.018182 61:0.018182 62:0 63:0.009091 64:0 65:0 66:0.009091 67:0.018182 68:0.009091 69:0.009091 70:0.018182 71:0.009091 72:0 73:0.018182 74:0.009091 75:0.045455 76:0.009091 77:0.018182 78:0.009091 79:0 80:0.009091 81:0.009091 82:0.018182 83:0.009091 84:0 85:0.009091 86:0.009091 87:0.018182 88:0.009091 89:0.018182 90:0.009091 91:0.009091 92:0 93:0 94:0.018182 95:0.009091 96:0.018182 97:0.009091 98:0.018182 99:0 100:0.009091 
3.655126062547714 1:0.010753 2:0 3:0.021505 4:0 5:0.043011 6:0.010753 7:0.010753 8:0 9:0.010753 10:0 11:0.010753 12:0 13:0 14:0.021505 15:0.010753 16:0 17:0 18:0.010753 19:0.010753 20:0.010753 21:0 22:0 23:0.010753 24:0.032258 25:0 26:0 27:0.021505 28:0.010753 29:0.010753 30:0 31:0 32:0.010753 33:0.021505 34:0 35:0 36:0.021505 37:0.032258 38:0 39:0.010753 40:0.021505 41:0 42:0 43:0.010753 44:0 45:0 46:0 47:0.021505 48:0.010753 49:0.021505 50:0.010753 51:0.053763 52:0 53:0 54:0 55:0 56:0 57:0 58:0.021505 59:0.021505 60:0 61:0.010753 62:0.010753 63:0.010753 64:0.010753 65:0 66:0.010753 67:0.010753 68:0 69:0 70:0 71:0.010753 72:0 73:0 74:0.021505 75:0.021505 76:0.010753 77:0.010753 78:0.032258 79:0.010753 80:0 81:0 82:0 83:0 84:0.010753 85:0.053763 86:0 87:0.043011 88:0.021505 89:0.010753 90:0.043011 91:0 92:0.053763 93:0.010753 94:0 95:0 96:0 97:0.010753 98:0 99:0 100:0 
3.264449401640686 1:0.046875 2:0.015625 3:0 4:0 5:0.015625 6:0.015625 7:0.03125 8:0 9:0 10:0 11:0.015625 12:0 13:0.015625 14:0.015625 15:0.015625 16:0 17:0 18:0 19:0.015625 20:0 21:0.015625 22:0.015625 23:0 24:0.015625 25:0.015625 26:0 27:0 28:0 29:0.015625 30:0 31:0 32:0.015625 33:0.046875 34:0 35:0 36:0.015625 37:0 38:0 39:0.015625 40:0 41:0 42:0 43:0 44:0 45:0.03125 46:0.015625 47:0 48:0.015625 49:0.03125 50:0.015625 51:0 52:0 53:0.015625 54:0.015625 55:0 56:0.015625 57:0 58:0.015625 59:0 60:0 61:0 62:0.015625 63:0 64:0 65:0.015625 66:0.015625 67:0 68:0.015625 69:0.015625 70:0.015625 71:0 72:0 73:0 74:0 75:0.015625 76:0 77:0 78:0.015625 79:0 80:0 81:0 82:0 83:0 84:0.015625 85:0.0625 86:0.03125 87:0.046875 88:0.03125 89:0.078125 90:0.015625 91:0.015625 92:0 93:0 94:0.015625 95:0 96:0 97:0.015625 98:0 99:0 100:0 
16.36729011686037 1:0 2:0 3:0.016393 4:0 5:0 6:0 7:0.032787 8:0.016393 9:0 10:0.032787 11:0 12:0 13:0 14:0 15:0.016393 16:0 17:0 18:0 19:0 20:0 21:0.032787 22:0 23:0 24:0 25:0 26:0.016393 27:0 28:0 29:0 30:0 31:0.016393 32:0 33:0.081967 34:0 35:0 36:0 37:0.032787 38:0 39:0 40:0.016393 41:0 42:0 43:0 44:0 45:0.032787 46:0 47:0.032787 48:0 49:0.04918 50:0 51:0 52:0 53:0 54:0 55:0 56:0.016393 57:0.032787 58:0 59:0.016393 60:0.016393 61:0 62:0 63:0 64:0.016393 65:0.016393 66:0.032787 67:0.016393 68:0 69:0.016393 70:0.032787 71:0.04918 72:0 73:0.016393 74:0 75:0.016393 76:0.016393 77:0 78:0 79:0 80:0 81:0 82:0.016393 83:0 84:0.032787 85:0.04918 86:0.032787 87:0.04918 88:0 89:0.04918 90:0 91:0 92:0 93:0 94:0.016393 95:0 96:0 97:0 98:0.016393 99:0 100:0 
12.19208765658131 1:0 2:0.012987 3:0 4:0.012987 5:0 6:0 7:0 8:0.012987 9:0 10:0.012987 11:0 12:0.025974 13:0.012987 14:0.012987 15:0 16:0 17:0.012987 18:0 19:0 20:0.038961 21:0.038961 22:0 23:0 24:0 25:0.025974 26:0.012987 27:0 28:0.012987 29:0.025974 30:0.012987 31:0.012987 32:0 33:0.012987 34:0 35:0.012987 36:0 37:0.012987 38:0.025974 39:0.012987 40:0 41:0.025974 42:0.012987 43:0.012987 44:0.025974 45:0.012987 46:0 47:0 48:0 49:0 50:0 51:0 52:0.025974 53:0.038961 54:0.025974 55:0 56:0 57:0.025974 58:0.012987 59:0 60:0 61:0.025974 62:0 63:0 64:0.025974 65:0.012987 66:0 67:0.012987 68:0 69:0.012987 70:0 71:0.038961 72:0.012987 73:0.012987 74:0.012987 75:0.012987 76:0.038961 77:0 78:0 79:0.012987 80:0.012987 81:0 82:0 83:0.012987 84:0 85:0 86:0 87:0.038961 88:0.012987 89:0 90:0 91:0.025974 92:0.012987 93:0 94:0 95:0.038961 96:0 97:0 98:0 99:0.012987 100:0 
27.69730159894948 1:0 2:0 3:0.011494 4:0 5:0.011494 6:0 7:0.011494 8:0 9:0.022989 10:0 11:0 12:0 13:0 14:0.045977 15:0 16:0.011494 17:0 18:0 19:0.045977 20:0.022989 21:0 22:0 23:0.011494 24:0 25:0.034483 26:0.011494 27:0 28:0.022989 29:0 30:0.011494 31:0 32:0 33:0.011494 34:0.011494 35:0 36:0.022989 37:0.034483 38:0 39:0 40:0 41:0 42:0 43:0.011494 44:0 45:0 46:0 47:0 48:0 49:0.011494 50:0.022989 51:0.045977 52:0 53:0 54:0.022989 55:0 56:0 57:0 58:0.034483 59:0.011494 60:0 61:0 62:0.011494 63:0 64:0 65:0.011494 66:0.011494 67:0.045977 68:0 69:0 70:0.011494 71:0.011494 72:0 73:0 74:0.011494 75:0 76:0.022989 77:0 78:0.011494 79:0.011494 80:0.022989 81:0 82:0 83:0 84:0 85:0.045977 86:0 87:0.057471 88:0.011494 89:0.011494 90:0.034483 91:0 92:0.011494 93:0 94:0.022989 95:0.011494 96:0.045977 97:0.022989 98:0 99:0.022989 100:0 
9.151878773601709 1:0.011628 2:0 3:0.011628 4:0.023256 5:0.011628 6:0 7:0 8:0.011628 9:0.011628 10:0 11:0 12:0 13:0 14:0.011628 15:0.011628 16:0 17:0.011628 18:0 19:0 20:0.011628 21:0 22:0 23:0 24:0.011628 25:0 26:0.011628 27:0 28:0.023256 29:0 30:0.023256 31:0.011628 32:0.034884 33:0 34:0 35:0 36:0.011628 37:0.011628 38:0 39:0 40:0.023256 41:0.011628 42:0 43:0 44:0 45:0 46:0.011628 47:0.023256 48:0.011628 49:0.023256 50:0.011628 51:0.023256 52:0 53:0 54:0.023256 55:0 56:0.011628 57:0.034884 58:0.023256 59:0.023256 60:0 61:0 62:0.023256 63:0.023256 64:0.011628 65:0.011628 66:0.034884 67:0.011628 68:0.011628 69:0 70:0.023256 71:0.023256 72:0 73:0 74:0.011628 75:0.011628 76:0 77:0 78:0.023256 79:0.011628 80:0.011628 81:0 82:0 83:0 84:0 85:0.034884 86:0.023256 87:0.069767 88:0.011628 89:0.011628 90:0.034884 91:0 92:0 93:0.023256 94:0 95:0 96:0.011628 97:0 98:0.011628 99:0 100:0 
13.81821178561611 1:0.018519 2:0.018519 3:0 4:0 5:0.018519 6:0.018519 7:0 8:0.009259 9:0 10:0 11:0 12:0 13:0 14:0.018519 15:0.009259 16:0 17:0 18:0.027778 19:0 20:0.009259 21:0.018519 22:0.009259 23:0 24:0 25:0.018519 26:0 27:0.018519 28:0.009259 29:0.018519 30:0.009259 31:0 32:0.018519 33:0.018519 34:0.018519 35:0 36:0 37:0.027778 38:0 39:0.009259 40:0 41:0.009259 42:0 43:0.009259 44:0 45:0.009259 46:0.037037 47:0 48:0.009259 49:0.009259 50:0 51:0 52:0.018519 53:0 54:0.009259 55:0 56:0 57:0 58:0.018519 59:0.037037 60:0 61:0.037037 62:0.027778 63:0 64:0.018519 65:0 66:0 67:0 68:0.027778 69:0.009259 70:0 71:0.009259 72:0.009259 73:0.009259 74:0 75:0.009259 76:0 77:0 78:0.018519 79:0.009259 80:0 81:0.018519 82:0.009259 83:0.009259 84:0 85:0.027778 86:0.027778 87:0.064815 88:0 89:0 90:0.027778 91:0 92:0.037037 93:0 94:0.009259 95:0 96:0.009259 97:0.018519 98:0.009259 99:0.018519 100:0.018519 
7.543223567195854 1:0.021978 2:0.032967 3:0 4:0.043956 5:0.032967 6:0.021978 7:0 8:0.010989 9:0.010989 10:0.010989 11:0 12:0 13:0 14:0 15:0.010989 16:0 17:0.010989 18:0 19:0 20:0 21:0.010989 22:0 23:0 24:0 25:0.010989 26:0 27:0.010989 28:0.021978 29:0 30:0.032967 31:0 32:0 33:0.021978 34:0 35:0 36:0 37:0.010989 38:0.010989 39:0.010989 40:0.010989 41:0.043956 42:0.021978 43:0 44:0 45:0.010989 46:0 47:0.010989 48:0.010989 49:0.010989 50:0 51:0.010989 52:0.010989 53:0.010989 54:0 55:0.010989 56:0 57:0.010989 58:0.010989 59:0.021978 60:0 61:0.032967 62:0 63:0.032967 64:0.010989 65:0 66:0.021978 67:0 68:0 69:0 70:0.010989 71:0 72:0 73:0 74:0.010989 75:0 76:0.021978 77:0.010989 78:0.010989 79:0.021978 80:0.043956 81:0 82:0 83:0.021978 84:0 85:0.010989 86:0.010989 87:0.010989 88:0.010989 89:0 90:0.032967 91:0 92:0.043956 93:0.010989 94:0.010989 95:0.010989 96:0 97:0.010989 98:0 99:0.010989 100:0.010989 
16.31148148476353 1:0 2:0.011236 3:0 4:0.011236 5:0.011236 6:0.022472 7:0.022472 8:0 9:0 10:0.011236 11:0.011236 12:0.011236 13:0.011236 14:0 15:0 16:0 17:0.022472 18:0 19:0 20:0.022472 21:0 22:0.044944 23:0 24:0.011236 25:0.011236 26:0.011236 27:0 28:0 29:0.011236 30:0.011236 31:0.011236 32:0 33:0 34:0.05618 35:0 36:0.011236 37:0 38:0 39:0 40:0 41:0.022472 42:0.033708 43:0.022472 44:0.011236 45:0 46:0.05618 47:0.011236 48:0 49:0 50:0 51:0.011236 52:0.022472 53:0.011236 54:0.022472 55:0.022472 56:0 57:0.033708 58:0 59:0.011236 60:0.022472 61:0.022472 62:0.022472 63:0 64:0.022472 65:0.022472 66:0.011236 67:0.022472 68:0 69:0.011236 70:0 71:0.011236 72:0 73:0.011236 74:0.011236 75:0 76:0 77:0 78:0.033708 79:0 80:0 81:0.022472 82:0.011236 83:0.022472 84:0 85:0 86:0 87:0 88:0 89:0 90:0.011236 91:0 92:0.011236 93:0 94:0.011236 95:0 96:0.033708 97:0 98:0 99:0.011236 100:0 
7.368902128415043 1:0.020408 2:0.030612 3:0 4:0.020408 5:0.030612 6:0 7:0.010204 8:0.020408 9:0 10:0.010204 11:0.010204 12:0.010204 13:0 14:0.010204 15:0 16:0 17:0.010204 18:0 19:0 20:0 21:0 22:0.010204 23:0.020408 24:0.05102 25:0.061224 26:0.010204 27:0 28:0 29:0.010204 30:0 31:0.010204 32:0 33:0.040816 34:0.020408 35:0.020408 36:0 37:0 38:0 39:0 40:0 41:0 42:0 43:0 44:0.030612 45:0 46:0.010204 47:0 48:0 49:0.010204 50:0 51:0 52:0.010204 53:0.020408 54:0.030612 55:0.010204 56:0.010204 57:0.010204 58:0 59:0 60:0 61:0.030612 62:0.020408 63:0 64:0.010204 65:0.010204 66:0.010204 67:0 68:0 69:0 70:0.020408 71:0 72:0 73:0 74:0 75:0.030612 76:0.010204 77:0.010204 78:0.010204 79:0.010204 80:0.010204 81:0.020408 82:0 83:0.010204 84:0 85:0 86:0 87:0.010204 88:0.020408 89:0 90:0.030612 91:0 92:0 93:0.010204 94:0 95:0 96:0.020408 97:0.020408 98:0.020408 99:0.05102 100:0.020408 
29.11754185669156 1:0 2:0.020833 3:0 4:0.041667 5:0.020833 6:0.020833 7:0.020833 8:0.020833 9:0.010417 10:0 11:0 12:0 13:0.010417 14:0.010417 15:0 16:0 17:0.010417 18:0.010417 19:0 20:0 21:0 22:0 23:0.010417 24:0.010417 25:0 26:0.03125 27:0.010417 28:0.020833 29:0 30:0.010417 31:0 32:0.010417 33:0 34:0 35:0 36:0 37:0 38:0 39:0 40:0 41:0.041667 42:0 43:0 44:0 45:0.010417 46:0 47:0 48:0.03125 49:0.010417 50:0.03125 51:0.020833 52:0 53:0.010417 54:0.03125 55:0 56:0 57:0 58:0.020833 59:0.020833 60:0.020833 61:0.03125 62:0 63:0 64:0 65:0.010417 66:0.010417 67:0.010417 68:0.010417 69:0.010417 70:0.010417 71:0.010417 72:0.010417 73:0 74:0 75:0.020833 76:0.010417 77:0.010417 78:0.010417 79:0.010417 80:0.010417 81:0 82:0.010417 83:0.041667 84:0.010417 85:0 86:0.03125 87:0.010417 88:0 89:0.020833 90:0 91:0 92:0.041667 93:0.03125 94:0.03125 95:0 96:0 97:0.03125 98:0 99:0 100:0 
19.7427987121972 1:0.01087 2:0.01087 3:0 4:0.01087 5:0 6:0.032609 7:0 8:0.01087 9:0 10:0 11:0 12:0 13:0 14:0 15:0 16:0 17:0 18:0 19:0.032609 20:0.021739 21:0.032609 22:0 23:0.021739 24:0.01087 25:0 26:0.01087 27:0.01087 28:0.021739 29:0.01087 30:0.01087 31:0 32:0 33:0.032609 34:0.01087 35:0 36:0 37:0 38:0.021739 39:0.01087 40:0.01087 41:0 42:0.01087 43:0 44:0 45:0 46:0.01087 47:0.01087 48:0.01087 49:0 50:0 51:0 52:0.01087 53:0.01087 54:0 55:0 56:0.01087 57:0 58:0 59:0.021739 60:0 61:0.043478 62:0.021739 63:0 64:0 65:0 66:0 67:0.01087 68:0 69:0 70:0 71:0.021739 72:0.032609 73:0.021739 74:0 75:0.032609 76:0.021739 77:0 78:0.021739 79:0.021739 80:0.01087 81:0.043478 82:0 83:0.043478 84:0.01087 85:0 86:0 87:0.043478 88:0 89:0 90:0 91:0 92:0.021739 93:0.043478 94:0.01087 95:0.01087 96:0.01087 97:0 98:0.032609 99:0.021739 100:0 
12.06835592879724 1:0 2:0.015152 3:0 4:0 5:0.015152 6:0.045455 7:0 8:0 9:0 10:0 11:0.015152 12:0 13:0.015152 14:0 15:0 16:0 17:0.030303 18:0.015152 19:0.015152 20:0.015152 21:0 22:0.015152 23:0 24:0 25:0 26:0 27:0 28:0.030303 29:0 30:0.015152 31:0 32:0.015152 33:0 34:0 35:0 36:0 37:0.030303 38:0.015152 39:0 40:0.015152 41:0 42:0.015152 43:0.030303 44:0 45:0 46:0 47:0 48:0 49:0.015152 50:0.015152 51:0 52:0.015152 53:0 54:0.030303 55:0 56:0 57:0 58:0.045455 59:0.030303 60:0 61:0 62:0 63:0.015152 64:0.015152 65:0.015152 66:0 67:0 68:0.030303 69:0 70:0 71:0.030303 72:0 73:0 74:0 75:0 76:0 77:0 78:0.015152 79:0 80:0.030303 81:0 82:0 83:0.030303 84:0.015152 85:0.060606 86:0.045455 87:0.030303 88:0.015152 89:0.015152 90:0.015152 91:0 92:0.015152 93:0 94:0.015152 95:0 96:0.015152 97:0.030303 98:0.015152 99:0.015152 100:0 
0.6771943832087851 1:0.007692 2:0.023077 3:0 4:0.007692 5:0.007692 6:0 7:0.007692 8:0.023077 9:0.023077 10:0.007692 11:0 12:0.023077 13:0.030769 14:0.023077 15:0.015385 16:0 17:0 18:0 19:0 20:0.030769 21:0.030769 22:0.023077 23:0 24:0 25:0.015385 26:0.023077 27:0 28:0.007692 29:0 30:0 31:0.023077 32:0 33:0 34:0.007692 35:0 36:0 37:0 38:0.007692 39:0.015385 40:0 41:0.007692 42:0.015385 43:0 44:0.023077 45:0.007692 46:0.015385 47:0 48:0 49:0.007692 50:0.007692 51:0.007692 52:0 53:0.015385 54:0.015385 55:0.007692 56:0 57:0.007692 58:0 59:0.007692 60:0.015385 61:0.007692 62:0.023077 63:0.007692 64:0.007692 65:0 66:0.015385 67:0.007692 68:0.023077 69:0.007692 70:0.023077 71:0.007692 72:0.007692 73:0.015385 74:0.023077 75:0.015385 76:0.023077 77:0.030769 78:0 79:0.007692 80:0.015385 81:0.023077 82:0.015385 83:0.015385 84:0.007692 85:0.015385 86:0.023077 87:0.007692 88:0 89:0 90:0 91:0 92:0.030769 93:0.023077 94:0 95:0.007692 96:0 97:0 98:0 99:0 100:0.015385 
26.10982896986312 1:0.028986 2:0 3:0 4:0 5:0 6:0.043478 7:0.028986 8:0.014493 9:0.014493 10:0.028986 11:0 12:0.014493 13:0 14:0.014493 15:0.014493 16:0 17:0 18:0.014493 19:0 20:0.028986 21:0.072464 22:0 23:0 24:0 25:0 26:0 27:0.028986 28:0.014493 29:0 30:0.014493 31:0 32:0.014493 33:0.014493 34:0 35:0 36:0 37:0 38:0 39:0.028986 40:0.028986 41:0.028986 42:0 43:0 44:0 45:0 46:0 47:0 48:0.014493 49:0 50:0 51:0 52:0 53:0.057971 54:0.014493 55:0 56:0 57:0.014493 58:0 59:0.057971 60:0 61:0.028986 62:0 63:0.014493 64:0 65:0 66:0 67:0 68:0.014493 69:0 70:0 71:0.014493 72:0 73:0.014493 74:0.014493 75:0.014493 76:0 77:0 78:0.014493 79:0 80:0 81:0 82:0 83:0.057971 84:0.028986 85:0 86:0 87:0 88:0.014493 89:0 90:0 91:0 92:0 93:0.043478 94:0 95:0 96:0 97:0.014493 98:0 99:0.028986 100:0.028986 
18.90455164748074 1:0 2:0 3:0 4:0.018349 5:0.018349 6:0.018349 7:0.009174 8:0 9:0 10:0.018349 11:0 12:0.009174 13:0 14:0 15:0 16:0 17:0 18:0.009174 19:0 20:0.018349 21:0.009174 22:0.009174 23:0.018349 24:0 25:0.027523 26:0.018349 27:0.009174 28:0.018349 29:0 30:0.009174 31:0.009174 32:0.009174 33:0.018349 34:0.009174 35:0.018349 36:0 37:0.009174 38:0.009174 39:0.073394 40:0.009174 41:0 42:0.027523 43:0.009174 44:0.009174 45:0 46:0.018349 47:0 48:0 49:0 50:0 51:0.009174 52:0.009174 53:0 54:0.009174 55:0.036697 56:0.027523 57:0.009174 58:0 59:0.009174 60:0 61:0.027523 62:0 63:0.009174 64:0 65:0 66:0.009174 67:0.009174 68:0.009174 69:0 70:0.009174 71:0.027523 72:0.018349 73:0.009174 74:0 75:0.027523 76:0.009174 77:0 78:0 79:0.018349 80:0.009174 81:0.018349 82:0.009174 83:0.018349 84:0.027523 85:0.018349 86:0 87:0.027523 88:0 89:0.027523 90:0.009174 91:0.009174 92:0.018349 93:0.009174 94:0.009174 95:0.009174 96:0.009174 97:0 98:0.009174 99:0 100:0 
21.82346754649724 1:0 2:0.022727 3:0 4:0.011364 5:0 6:0.022727 7:0 8:0.011364 9:0 10:0 11:0.045455 12:0.011364 13:0 14:0 15:0.011364 16:0 17:0 18:0.034091 19:0 20:0.056818 21:0.011364 22:0.011364 23:0 24:0.011364 25:0 26:0 27:0.011364 28:0.034091 29:0 30:0 31:0 32:0 33:0.034091 34:0 35:0.011364 36:0 37:0 38:0.034091 39:0.045455 40:0.011364 41:0.022727 42:0 43:0.011364 44:0 45:0 46:0 47:0 48:0 49:0 50:0 51:0 52:0 53:0 54:0 55:0 56:0.034091 57:0 58:0 59:0.045455 60:0 61:0.079545 62:0 63:0.011364 64:0 65:0 66:0.011364 67:0 68:0 69:0 70:0 71:0.011364 72:0.011364 73:0.022727 74:0.011364 75:0 76:0 77:0.022727 78:0 79:0.022727 80:0.011364 81:0.034091 82:0 83:0.034091 84:0.011364 85:0.011364 86:0 87:0.011364 88:0 89:0 90:0.011364 91:0 92:0.045455 93:0.011364 94:0.011364 95:0.022727 96:0 97:0 98:0.011364 99:0.011364 100:0 
26.6923640462102 1:0.009434 2:0.009434 3:0.018868 4:0.018868 5:0 6:0.028302 7:0.018868 8:0.028302 9:0 10:0 11:0 12:0.009434 13:0.009434 14:0.009434 15:0.009434 16:0 17:0 18:0.037736 19:0.009434 20:0.009434 21:0.009434 22:0 23:0.009434 24:0 25:0.009434 26:0.018868 27:0 28:0.037736 29:0 30:0 31:0 32:0.009434 33:0.009434 34:0.009434 35:0.009434 36:0 37:0 38:0 39:0 40:0.028302 41:0.009434 42:0.009434 43:0 44:0 45:0.009434 46:0.018868 47:0.037736 48:0 49:0.018868 50:0.009434 51:0.037736 52:0.009434 53:0.009434 54:0 55:0 56:0 57:0.009434 58:0 59:0.028302 60:0.009434 61:0.009434 62:0.009434 63:0 64:0.018868 65:0.009434 66:0 67:0 68:0.056604 69:0.009434 70:0.009434 71:0.018868 72:0 73:0.009434 74:0.009434 75:0.009434 76:0.018868 77:0.009434 78:0 79:0 80:0 81:0 82:0.028302 83:0.037736 84:0.009434 85:0 86:0 87:0.037736 88:0 89:0.009434 90:0.009434 91:0.009434 92:0.009434 93:0.009434 94:0.009434 95:0 96:0.009434 97:0.009434 98:0 99:0 100:0.018868 
4.332968000295582 1:0 2:0 3:0.00885 4:0 5:0.00885 6:0 7:0.00885 8:0.017699 9:0 10:0.00885 11:0 12:0.017699 13:0 14:0.017699 15:0.026549 16:0.00885 17:0.00885 18:0.00885 19:0.017699 20:0.026549 21:0.026549 22:0 23:0 24:0 25:0.017699 26:0 27:0.017699 28:0.017699 29:0 30:0 31:0 32:0.00885 33:0.026549 34:0.017699 35:0.00885 36:0 37:0 38:0.017699 39:0.026549 40:0 41:0.017699 42:0.044248 43:0.00885 44:0.026549 45:0.00885 46:0.00885 47:0.00885 48:0 49:0.017699 50:0 51:0 52:0.017699 53:0.026549 54:0.017699 55:0.00885 56:0 57:0.017699 58:0.00885 59:0.017699 60:0 61:0.035398 62:0 63:0 64:0 65:0.00885 66:0 67:0 68:0 69:0.017699 70:0.017699 71:0.026549 72:0.026549 73:0.00885 74:0.00885 75:0.017699 76:0.017699 77:0 78:0.00885 79:0.017699 80:0 81:0.017699 82:0 83:0 84:0 85:0 86:0 87:0.053097 88:0 89:0 90:0 91:0.00885 92:0 93:0 94:0 95:0.017699 96:0.035398 97:0.017699 98:0 99:0 100:0.00885 
21.98177412177848 1:0.012987 2:0.025974 3:0 4:0 5:0.038961 6:0.012987 7:0 8:0.012987 9:0.012987 10:0.012987 11:0 12:0 13:0.012987 14:0.012987 15:0.012987 16:0 17:0.025974 18:0 19:0.025974 20:0 21:0 22:0 23:0.012987 24:0 25:0.012987 26:0 27:0.025974 28:0 29:0.012987 30:0 31:0 32:0.012987 33:0.051948 34:0 35:0.012987 36:0 37:0 38:0 39:0 40:0 41:0.038961 42:0 43:0.025974 44:0.012987 45:0.051948 46:0.012987 47:0.012987 48:0 49:0.012987 50:0 51:0.012987 52:0 53:0 54:0.012987 55:0 56:0.012987 57:0 58:0.025974 59:0.025974 60:0.012987 61:0 62:0.012987 63:0 64:0.025974 65:0.025974 66:0.012987 67:0.012987 68:0 69:0.038961 70:0 71:0.025974 72:0 73:0 74:0 75:0 76:0 77:0 78:0 79:0.012987 80:0.012987 81:0 82:0 83:0.012987 84:0.025974 85:0 86:0 87:0.012987 88:0.025974 89:0 90:0.012987 91:0 92:0 93:0 94:0.012987 95:0 96:0.012987 97:0.051948 98:0 99:0 100:0.012987 
5.56849760421918 1:0.012987 2:0.012987 3:0.012987 4:0.025974 5:0.025974 6:0.025974 7:0.012987 8:0.012987 9:0 10:0.038961 11:0.012987 12:0 13:0 14:0.012987 15:0.012987 16:0.012987 17:0 18:0 19:0.012987 20:0.012987 21:0 22:0.012987 23:0.012987 24:0 25:0.012987 26:0.025974 27:0 28:0 29:0 30:0 31:0 32:0 33:0.012987 34:0.012987 35:0 36:0.012987 37:0.012987 38:0 39:0.012987 40:0 41:0.038961 42:0.012987 43:0.012987 44:0.012987 45:0 46:0 47:0 48:0.038961 49:0 50:0.025974 51:0.025974 52:0 53:0 54:0.012987 55:0 56:0 57:0.012987 58:0.012987 59:0.012987 60:0 61:0 62:0.038961 63:0.012987 64:0 65:0 66:0.012987 67:0.012987 68:0 69:0.012987 70:0 71:0 72:0 73:0 74:0 75:0.025974 76:0 77:0 78:0 79:0 80:0.012987 81:0 82:0 83:0.012987 84:0 85:0.025974 86:0.025974 87:0 88:0.012987 89:0.025974 90:0.025974 91:0 92:0 93:0.038961 94:0.012987 95:0 96:0.012987 97:0.012987 98:0.025974 99:0.012987 100:0.012987 
26.06301366491253 1:0.0125 2:0 3:0 4:0 5:0.025 6:0.05 7:0 8:0.0125 9:0.0125 10:0.0125 11:0.025 12:0 13:0.0125 14:0 15:0.0125 16:0 17:0 18:0 19:0.025 20:0 21:0.0125 22:0 23:0.0125 24:0 25:0.025 26:0.0125 27:0.0125 28:0.0125 29:0.0125 30:0 31:0 32:0.0125 33:0.0125 34:0 35:0 36:0.025 37:0.025 38:0.0125 39:0.0125 40:0 41:0.0375 42:0 43:0.0125 44:0 45:0.0125 46:0.0125 47:0.0125 48:0 49:0 50:0 51:0.05 52:0 53:0 54:0 55:0 56:0 57:0 58:0.0375 59:0.0125 60:0 61:0 62:0 63:0 64:0 65:0 66:0.0125 67:0 68:0 69:0 70:0 71:0.0125 72:0 73:0 74:0.025 75:0 76:0.025 77:0 78:0.0375 79:0.025 80:0.0125 81:0 82:0.0375 83:0 84:0.0375 85:0.025 86:0 87:0.05 88:0.025 89:0 90:0.0125 91:0 92:0.0125 93:0.0125 94:0 95:0 96:0.0375 97:0.0125 98:0 99:0 100:0 
12.35798250138241 1:0 2:0.017544 3:0.017544 4:0 5:0.017544 6:0.052632 7:0 8:0 9:0 10:0.052632 11:0 12:0 13:0.017544 14:0 15:0 16:0 17:0 18:0 19:0 20:0 21:0.017544 22:0 23:0 24:0.017544 25:0.035088 26:0 27:0 28:0 29:0.017544 30:0.017544 31:0 32:0.017544 33:0 34:0 35:0 36:0.017544 37:0.017544 38:0 39:0 40:0 41:0 42:0 43:0 44:0 45:0.035088 46:0 47:0.035088 48:0 49:0.052632 50:0.017544 51:0.017544 52:0.035088 53:0 54:0 55:0.017544 56:0 57:0.017544 58:0 59:0.052632 60:0 61:0.035088 62:0 63:0 64:0.035088 65:0 66:0 67:0.017544 68:0 69:0.017544 70:0.017544 71:0.017544 72:0 73:0 74:0 75:0.017544 76:0 77:0 78:0 79:0 80:0 81:0 82:0 83:0.017544 84:0.017544 85:0.035088 86:0 87:0.017544 88:0.052632 89:0.017544 90:0 91:0 92:0 93:0 94:0 95:0.017544 96:0 97:0.052632 98:0 99:0 100:0 
10.54608343241544 1:0 2:0.009091 3:0.009091 4:0.009091 5:0.009091 6:0 7:0.018182 8:0 9:0 10:0.018182 11:0.009091 12:0 13:0 14:0.009091 15:0.018182 16:0 17:0 18:0.009091 19:0 20:0.018182 21:0.027273 22:0.009091 23:0.009091 24:0 25:0.027273 26:0 27:0 28:0.018182 29:0.018182 30:0.009091 31:0 32:0 33:0.018182 34:0.009091 35:0.018182 36:0.018182 37:0 38:0.009091 39:0.027273 40:0.009091 41:0.018182 42:0.009091 43:0.027273 44:0 45:0.018182 46:0.063636 47:0 48:0.018182 49:0 50:0.009091 51:0.036364 52:0.018182 53:0.009091 54:0.018182 55:0 56:0.009091 57:0.018182 58:0 59:0.009091 60:0 61:0.027273 62:0 63:0.009091 64:0.009091 65:0 66:0 67:0.018182 68:0.018182 69:0.009091 70:0 71:0.009091 72:0 73:0.009091 74:0 75:0.018182 76:0 77:0.009091 78:0 79:0.018182 80:0.009091 81:0 82:0.027273 83:0 84:0 85:0.027273 86:0.009091 87:0.045455 88:0 89:0 90:0.009091 91:0.018182 92:0.036364 93:0 94:0 95:0 96:0 97:0 98:0.009091 99:0.009091 100:0 
-56 1:0 2:0.019608 3:0.009804 4:0 5:0 6:0.04902 7:0 8:0 9:0.04902 10:0.009804 11:0 12:0 13:0.009804 14:0.019608 15:0 16:0 17:0.009804 18:0 19:0.009804 20:0 21:0.029412 22:0 23:0 24:0 25:0 26:0 27:0.019608 28:0.019608 29:0.019608 30:0.019608 31:0 32:0 33:0.039216 34:0.009804 35:0.009804 36:0.019608 37:0.029412 38:0 39:0.009804 40:0.019608 41:0.029412 42:0.009804 43:0 44:0.019608 45:0 46:0.009804 47:0.009804 48:0.019608 49:0 50:0 51:0 52:0 53:0 54:0.009804 55:0 56:0 57:0.019608 58:0 59:0.04902 60:0 61:0.009804 62:0.009804 63:0 64:0 65:0 66:0.029412 67:0.009804 68:0 69:0 70:0.009804 71:0.009804 72:0.009804 73:0 74:0 75:0 76:0.009804 77:0.009804 78:0.019608 79:0 80:0 81:0.009804 82:0.009804 83:0.029412 84:0 85:0.039216 86:0 87:0.04902 88:0 89:0.019608 90:0.04902 91:0.029412 92:0 93:0 94:0.009804 95:0 96:0 97:0.009804 98:0 99:0.009804 100:0 
-56 1:0.003311 2:0.006623 3:0.033113 4:0.006623 5:0.033113 6:0.006623 7:0.016556 8:0.006623 9:0 10:0.003311 11:0.003311 12:0 13:0.003311 14:0 15:0.009934 16:0 17:0.056291 18:0.003311 19:0.003311 20:0.019868 21:0.003311 22:0 23:0.013245 24:0.009934 25:0.006623 26:0.003311 27:0.029801 28:0.016556 29:0.006623 30:0.016556 31:0.013245 32:0.006623 33:0.009934 34:0 35:0.013245 36:0.009934 37:0 38:0.006623 39:0.009934 40:0.006623 41:0.023179 42:0.003311 43:0.003311 44:0.02649 45:0.019868 46:0 47:0.009934 48:0.02649 49:0.023179 50:0.006623 51:0.039735 52:0.023179 53:0 54:0.036424 55:0 56:0.006623 57:0.003311 58:0 59:0.006623 60:0 61:0.009934 62:0 63:0.006623 64:0.006623 65:0.009934 66:0.006623 67:0.009934 68:0.006623 69:0.003311 70:0.003311 71:0.003311 72:0.006623 73:0.003311 74:0.009934 75:0.009934 76:0.006623 77:0 78:0.006623 79:0.003311 80:0.023179 81:0 82:0 83:0.003311 84:0.009934 85:0 86:0.009934 87:0.016556 88:0.003311 89:0.003311 90:0.003311 91:0.003311 92:0.066225 93:0.003311 94:0.016556 95:0.003311 96:0.019868 97:0.016556 98:0.029801 99:0 100:0 
-56 1:0.005181 2:0 3:0 4:0.005181 5:0.005181 6:0.103627 7:0.005181 8:0.005181 9:0.025907 10:0.005181 11:0.005181 12:0.010363 13:0 14:0.005181 15:0 16:0 17:0 18:0.005181 19:0.010363 20:0 21:0.025907 22:0 23:0.005181 24:0 25:0.025907 26:0.031088 27:0 28:0.020725 29:0.015544 30:0 31:0.015544 32:0.005181 33:0.025907 34:0.005181 35:0 36:0.005181 37:0.020725 38:0.010363 39:0.005181 40:0.005181 41:0.005181 42:0.010363 43:0 44:0.005181 45:0 46:0 47:0.010363 48:0.010363 49:0.010363 50:0.010363 51:0.005181 52:0.005181 53:0 54:0.010363 55:0.005181 56:0 57:0.010363 58:0 59:0.119171 60:0.015544 61:0 62:0.005181 63:0 64:0.010363 65:0.005181 66:0.015544 67:0 68:0.005181 69:0 70:0.005181 71:0.005181 72:0 73:0.005181 74:0.005181 75:0.015544 76:0 77:0.046632 78:0.010363 79:0.020725 80:0.005181 81:0.005181 82:0.015544 83:0.041451 84:0.005181 85:0.010363 86:0.005181 87:0.015544 88:0 89:0.005181 90:0 91:0.015544 92:0 93:0.005181 94:0.020725 95:0.005181 96:0.010363 97:0.005181 98:0 99:0.020725 100:0 
-56 1:0 2:0 3:0 4:0 5:0.013333 6:0.053333 7:0.04 8:0 9:0.066667 10:0 11:0 12:0.013333 13:0.026667 14:0.013333 15:0.013333 16:0 17:0 18:0 19:0.013333 20:0.04 21:0 22:0.013333 23:0 24:0 25:0.013333 26:0.04 27:0.013333 28:0 29:0 30:0 31:0 32:0 33:0.066667 34:0 35:0.013333 36:0 37:0 38:0.013333 39:0 40:0 41:0.013333 42:0.026667 43:0.026667 44:0 45:0 46:0.026667 47:0.013333 48:0 49:0 50:0.026667 51:0 52:0 53:0.013333 54:0.013333 55:0.013333 56:0 57:0 58:0 59:0.026667 60:0 61:0 62:0 63:0 64:0 65:0 66:0 67:0 68:0.013333 69:0.013333 70:0 71:0.04 72:0 73:0 74:0.013333 75:0.013333 76:0 77:0 78:0 79:0.013333 80:0.026667 81:0 82:0.013333 83:0.026667 84:0.013333 85:0.013333 86:0 87:0.08 88:0 89:0.013333 90:0.013333 91:0 92:0 93:0 94:0 95:0 96:0 97:0 98:0 99:0.013333 100:0.013333 
-56 1:0.008264 2:0.024793 3:0 4:0.016529 5:0 6:0 7:0.008264 8:0.008264 9:0 10:0 11:0.008264 12:0 13:0 14:0.082645 15:0.016529 16:0.008264 17:0.033058 18:0 19:0.008264 20:0.008264 21:0 22:0 23:0 24:0.024793 25:0.057851 26:0.008264 27:0.008264 28:0.008264 29:0.041322 30:0.008264 31:0.016529 32:0.008264 33:0.033058 34:0 35:0 36:0 37:0.008264 38:0.008264 39:0.008264 40:0.016529 41:0.008264 42:0 43:0.016529 44:0 45:0.008264 46:0 47:0.016529 48:0.016529 49:0 50:0 51:0.024793 52:0.016529 53:0.016529 54:0.016529 55:0.008264 56:0.008264 57:0.041322 58:0.016529 59:0.024793 60:0 61:0.024793 62:0.016529 63:0.008264 64:0 65:0 66:0 67:0 68:0.016529 69:0.008264 70:0.016529 71:0.008264 72:0 73:0 74:0 75:0.008264 76:0 77:0 78:0.008264 79:0.016529 80:0 81:0 82:0 83:0.008264 84:0.008264 85:0.033058 86:0.008264 87:0.016529 88:0 89:0 90:0.008264 91:0.008264 92:0.008264 93:0 94:0.008264 95:0.008264 96:0.016529 97:0 98:0 99:0 100:0.008264 
-56 1:0 2:0.013158 3:0 4:0.026316 5:0 6:0.026316 7:0 8:0.026316 9:0.013158 10:0.013158 11:0.013158 12:0.013158 13:0 14:0 15:0 16:0 17:0 18:0 19:0.013158 20:0.026316 21:0 22:0 23:0.013158 24:0 25:0.026316 26:0.039474 27:0 28:0 29:0.013158 30:0 31:0.013158 32:0.013158 33:0 34:0.013158 35:0.026316 36:0 37:0 38:0.013158 39:0.013158 40:0 41:0.013158 42:0.013158 43:0 44:0 45:0 46:0.026316 47:0 48:0 49:0 50:0.013158 51:0.026316 52:0 53:0.013158 54:0 55:0 56:0.013158 57:0 58:0.026316 59:0.026316 60:0.026316 61:0.052632 62:0 63:0.013158 64:0.013158 65:0 66:0 67:0 68:0 69:0.013158 70:0.013158 71:0.026316 72:0.026316 73:0.013158 74:0 75:0.039474 76:0 77:0 78:0.013158 79:0.013158 80:0.013158 81:0.026316 82:0.013158 83:0 84:0.013158 85:0 86:0.013158 87:0.013158 88:0 89:0.013158 90:0.013158 91:0.013158 92:0.013158 93:0.013158 94:0 95:0 96:0.013158 97:0 98:0.026316 99:0 100:0 
-56 1:0.020979 2:0.020979 3:0 4:0 5:0 6:0.027972 7:0.027972 8:0.006993 9:0 10:0.006993 11:0 12:0 13:0.006993 14:0.020979 15:0.020979 16:0 17:0.013986 18:0.006993 19:0.013986 20:0.027972 21:0 22:0 23:0.020979 24:0 25:0.027972 26:0.013986 27:0.020979 28:0 29:0.013986 30:0.013986 31:0.006993 32:0 33:0.027972 34:0 35:0 36:0.006993 37:0 38:0 39:0.006993 40:0.006993 41:0.027972 42:0.013986 43:0 44:0 45:0 46:0.006993 47:0.006993 48:0.013986 49:0.020979 50:0 51:0 52:0.013986 53:0 54:0 55:0.006993 56:0.013986 57:0.013986 58:0.013986 59:0.020979 60:0.006993 61:0.013986 62:0 63:0.013986 64:0.006993 65:0 66:0 67:0 68:0.013986 69:0.006993 70:0.013986 71:0.020979 72:0 73:0 74:0.013986 75:0 76:0.020979 77:0 78:0.006993 79:0.027972 80:0 81:0 82:0.006993 83:0.034965 84:0.006993 85:0.020979 86:0 87:0.041958 88:0.020979 89:0.048951 90:0.006993 91:0.013986 92:0.020979 93:0 94:0.006993 95:0 96:0 97:0.006993 98:0.013986 99:0.013986 100:0 
