svm_type c_svc
kernel_type linear
nr_class 2
total_sv 35
rho 1.09925
label 0 2
nr_sv 12 23
SV
56 1:0.015873 2:0.005291 3:0 4:0 5:0.010582 6:0.021164 7:0.015873 8:0.010582 9:0.026455 10:0.010582 11:0.005291 12:0 13:0 14:0.005291 15:0.037037 16:0 17:0.005291 18:0.005291 19:0.005291 20:0 21:0.042328 22:0.010582 23:0.005291 24:0.026455 25:0.031746 26:0.005291 27:0.005291 28:0.015873 29:0.010582 30:0.010582 31:0 32:0.005291 33:0.037037 34:0.005291 35:0.021164 36:0.005291 37:0 38:0 39:0.010582 40:0.015873 41:0.010582 42:0.010582 43:0.010582 44:0.005291 45:0.005291 46:0 47:0.015873 48:0.005291 49:0.005291 50:0.010582 51:0 52:0 53:0.031746 54:0 55:0 56:0 57:0.015873 58:0 59:0.010582 60:0.010582 61:0.015873 62:0.005291 63:0 64:0.021164 65:0.010582 66:0 67:0.005291 68:0.015873 69:0 70:0.010582 71:0.010582 72:0 73:0 74:0 75:0.021164 76:0.005291 77:0.015873 78:0.005291 79:0.015873 80:0 81:0 82:0.026455 83:0.021164 84:0.010582 85:0.010582 86:0.010582 87:0.021164 88:0.005291 89:0.005291 90:0 91:0.005291 92:0.010582 93:0.031746 94:0.026455 95:0.005291 96:0.005291 97:0.010582 98:0 99:0.015873 100:0.026455 
24.90472404812469 1:0 2:0 3:0 4:0 5:0 6:0.061947 7:0.00885 8:0.00885 9:0.017699 10:0.00885 11:0.00885 12:0.00885 13:0.017699 14:0.017699 15:0.00885 16:0 17:0 18:0.00885 19:0.026549 20:0 21:0 22:0.017699 23:0.00885 24:0 25:0.053097 26:0 27:0 28:0 29:0.017699 30:0.00885 31:0.00885 32:0.017699 33:0.044248 34:0 35:0.00885 36:0 37:0.017699 38:0 39:0 40:0 41:0 42:0 43:0 44:0 45:0 46:0.00885 47:0 48:0 49:0 50:0 51:0 52:0 53:0.017699 54:0.00885 55:0.017699 56:0 57:0.017699 58:0 59:0.00885 60:0 61:0.053097 62:0 63:0 64:0.017699 65:0.00885 66:0.017699 67:0 68:0.044248 69:0.00885 70:0.00885 71:0.00885 72:0 73:0 74:0 75:0 76:0.00885 77:0.017699 78:0.017699 79:0 80:0 81:0.017699 82:0.026549 83:0.00885 84:0.017699 85:0.00885 86:0.017699 87:0.061947 88:0 89:0 90:0.00885 91:0 92:0.00885 93:0.00885 94:0.044248 95:0.00885 96:0.017699 97:0.00885 98:0 99:0.00885 100:0.026549 
56 1:0.017316 2:0 3:0 4:0.017316 5:0 6:0.017316 7:0.012987 8:0 9:0.008658 10:0 11:0.004329 12:0 13:0.004329 14:0.012987 15:0 16:0.004329 17:0.004329 18:0 19:0.004329 20:0.030303 21:0.025974 22:0.012987 23:0.004329 24:0.012987 25:0.021645 26:0.004329 27:0 28:0 29:0 30:0 31:0.004329 32:0.008658 33:0.012987 34:0 35:0.008658 36:0.017316 37:0.025974 38:0.030303 39:0 40:0.012987 41:0.012987 42:0 43:0 44:0.017316 45:0.008658 46:0.025974 47:0.012987 48:0 49:0.004329 50:0.004329 51:0.051948 52:0.012987 53:0.047619 54:0.012987 55:0 56:0.004329 57:0.004329 58:0.017316 59:0.021645 60:0.012987 61:0.012987 62:0.017316 63:0.012987 64:0.012987 65:0.004329 66:0.004329 67:0.008658 68:0.025974 69:0.021645 70:0.004329 71:0.034632 72:0.008658 73:0.004329 74:0.008658 75:0.008658 76:0.012987 77:0.012987 78:0.012987 79:0.008658 80:0.004329 81:0 82:0.008658 83:0.004329 84:0.008658 85:0.012987 86:0.004329 87:0.021645 88:0.017316 89:0.008658 90:0.008658 91:0.008658 92:0 93:0.004329 94:0.008658 95:0.004329 96:0.004329 97:0.008658 98:0.004329 99:0.004329 100:0 
56 1:0.035928 2:0.017964 3:0 4:0.041916 5:0.011976 6:0.017964 7:0.02994 8:0.011976 9:0.011976 10:0.017964 11:0 12:0.011976 13:0 14:0.005988 15:0.005988 16:0 17:0 18:0.005988 19:0.011976 20:0.023952 21:0 22:0.005988 23:0.011976 24:0.005988 25:0.011976 26:0.005988 27:0.005988 28:0 29:0.011976 30:0 31:0.005988 32:0.005988 33:0.035928 34:0.017964 35:0.017964 36:0.005988 37:0.005988 38:0.017964 39:0 40:0.005988 41:0.005988 42:0.005988 43:0.005988 44:0.017964 45:0.005988 46:0.005988 47:0.011976 48:0.005988 49:0 50:0 51:0.017964 52:0.011976 53:0.017964 54:0.005988 55:0 56:0 57:0.011976 58:0.011976 59:0 60:0.005988 61:0.023952 62:0 63:0.041916 64:0.005988 65:0 66:0.005988 67:0 68:0.023952 69:0 70:0.011976 71:0.017964 72:0 73:0 74:0 75:0.011976 76:0.017964 77:0.005988 78:0.02994 79:0.011976 80:0 81:0 82:0.005988 83:0.005988 84:0.023952 85:0.011976 86:0.005988 87:0.023952 88:0 89:0.005988 90:0.005988 91:0.005988 92:0 93:0.035928 94:0.005988 95:0.011976 96:0.005988 97:0.011976 98:0.011976 99:0 100:0.017964 
56 1:0.013605 2:0.047619 3:0.020408 4:0.020408 5:0.020408 6:0.013605 7:0.034014 8:0.020408 9:0.006803 10:0 11:0 12:0.006803 13:0.013605 14:0.006803 15:0.006803 16:0 17:0 18:0 19:0 20:0.020408 21:0 22:0.013605 23:0 24:0.013605 25:0.027211 26:0 27:0.013605 28:0.006803 29:0.013605 30:0 31:0 32:0 33:0.006803 34:0 35:0 36:0.013605 37:0.027211 38:0.027211 39:0.006803 40:0 41:0.006803 42:0 43:0.006803 44:0 45:0 46:0.006803 47:0 48:0.013605 49:0 50:0 51:0.054422 52:0 53:0.020408 54:0.020408 55:0 56:0.006803 57:0.006803 58:0.054422 59:0.020408 60:0 61:0.013605 62:0.006803 63:0.034014 64:0.006803 65:0 66:0.006803 67:0 68:0.047619 69:0.006803 70:0.006803 71:0.020408 72:0 73:0.006803 74:0 75:0 76:0.027211 77:0 78:0.006803 79:0.006803 80:0 81:0.006803 82:0.006803 83:0.006803 84:0.020408 85:0 86:0.006803 87:0.006803 88:0.006803 89:0.006803 90:0 91:0.006803 92:0.040816 93:0 94:0.006803 95:0 96:0.013605 97:0.013605 98:0 99:0 100:0.013605 
56 1:0.009434 2:0 3:0.009434 4:0 5:0.009434 6:0.037736 7:0.028302 8:0.009434 9:0.04717 10:0.009434 11:0.009434 12:0 13:0.009434 14:0.009434 15:0.009434 16:0.009434 17:0 18:0 19:0 20:0.028302 21:0 22:0.009434 23:0 24:0 25:0.018868 26:0.009434 27:0 28:0.009434 29:0.009434 30:0.009434 31:0 32:0 33:0.075472 34:0 35:0.009434 36:0 37:0.009434 38:0.018868 39:0 40:0.009434 41:0.018868 42:0.009434 43:0 44:0 45:0.009434 46:0.009434 47:0.028302 48:0.018868 49:0.009434 50:0.009434 51:0 52:0 53:0 54:0 55:0.028302 56:0 57:0.018868 58:0 59:0 60:0.009434 61:0.056604 62:0 63:0.009434 64:0.009434 65:0 66:0 67:0.018868 68:0.018868 69:0 70:0 71:0 72:0.009434 73:0 74:0 75:0.018868 76:0.018868 77:0.018868 78:0.009434 79:0.018868 80:0 81:0 82:0.037736 83:0.009434 84:0 85:0.018868 86:0.009434 87:0.018868 88:0 89:0.009434 90:0.009434 91:0 92:0 93:0.009434 94:0.009434 95:0 96:0.018868 97:0.009434 98:0 99:0.028302 100:0.009434 
46.98505989291478 1:0.014925 2:0 3:0 4:0 5:0 6:0.044776 7:0 8:0.014925 9:0 10:0 11:0.014925 12:0 13:0.014925 14:0.029851 15:0.014925 16:0 17:0 18:0 19:0 20:0 21:0.044776 22:0 23:0 24:0 25:0.044776 26:0 27:0 28:0 29:0.074627 30:0 31:0 32:0.014925 33:0.059701 34:0 35:0 36:0 37:0.029851 38:0 39:0 40:0.014925 41:0 42:0 43:0 44:0 45:0 46:0 47:0.044776 48:0 49:0 50:0 51:0 52:0 53:0.014925 54:0.029851 55:0.014925 56:0 57:0 58:0.014925 59:0 60:0 61:0 62:0 63:0.014925 64:0.014925 65:0 66:0.014925 67:0 68:0 69:0.029851 70:0 71:0 72:0 73:0 74:0 75:0.014925 76:0.014925 77:0 78:0 79:0 80:0.014925 81:0 82:0.059701 83:0.029851 84:0.014925 85:0.029851 86:0.014925 87:0.044776 88:0 89:0.044776 90:0 91:0 92:0 93:0.014925 94:0.014925 95:0.014925 96:0 97:0 98:0 99:0.014925 100:0.029851 
41.20579868645537 1:0.00885 2:0.00885 3:0 4:0 5:0.017699 6:0.026549 7:0.026549 8:0.00885 9:0.017699 10:0.017699 11:0 12:0 13:0.017699 14:0.00885 15:0.00885 16:0 17:0 18:0.00885 19:0 20:0.00885 21:0.044248 22:0.026549 23:0 24:0.00885 25:0.061947 26:0.00885 27:0 28:0 29:0.00885 30:0 31:0.00885 32:0 33:0.061947 34:0 35:0 36:0.00885 37:0.035398 38:0 39:0.00885 40:0 41:0 42:0 43:0 44:0 45:0 46:0.00885 47:0.017699 48:0.026549 49:0 50:0.026549 51:0.00885 52:0 53:0.017699 54:0 55:0.00885 56:0 57:0.00885 58:0.017699 59:0.017699 60:0 61:0.017699 62:0 63:0 64:0.00885 65:0 66:0 67:0 68:0.017699 69:0 70:0 71:0.00885 72:0 73:0 74:0.00885 75:0.026549 76:0.017699 77:0.017699 78:0.00885 79:0 80:0 81:0 82:0.035398 83:0.017699 84:0.00885 85:0.00885 86:0 87:0.070796 88:0.00885 89:0.017699 90:0 91:0 92:0.00885 93:0.035398 94:0 95:0 96:0 97:0 98:0 99:0.00885 100:0.017699 
56 1:0.01005 2:0 3:0 4:0 5:0.005025 6:0.025126 7:0.025126 8:0.01005 9:0.040201 10:0.030151 11:0 12:0 13:0 14:0.005025 15:0.030151 16:0 17:0.01005 18:0.01005 19:0.005025 20:0.020101 21:0.050251 22:0.01005 23:0 24:0.015075 25:0.020101 26:0.005025 27:0 28:0.020101 29:0.01005 30:0.005025 31:0 32:0 33:0.030151 34:0.01005 35:0.01005 36:0.005025 37:0.005025 38:0 39:0.01005 40:0.015075 41:0.015075 42:0.005025 43:0.015075 44:0 45:0.005025 46:0.01005 47:0.020101 48:0.005025 49:0.005025 50:0.015075 51:0 52:0 53:0.020101 54:0 55:0 56:0 57:0 58:0.005025 59:0.01005 60:0.005025 61:0.020101 62:0.005025 63:0 64:0.015075 65:0.015075 66:0.005025 67:0 68:0.020101 69:0 70:0.020101 71:0.015075 72:0 73:0 74:0 75:0.01005 76:0.01005 77:0.015075 78:0 79:0.020101 80:0 81:0.005025 82:0.030151 83:0.015075 84:0.020101 85:0.005025 86:0.015075 87:0.045226 88:0.005025 89:0.005025 90:0.005025 91:0 92:0.01005 93:0.020101 94:0.035176 95:0 96:0 97:0.015075 98:0 99:0.01005 100:0.005025 
56 1:0.043011 2:0 3:0 4:0.010753 5:0.010753 6:0.043011 7:0.010753 8:0.010753 9:0.010753 10:0.010753 11:0 12:0 13:0.010753 14:0 15:0.010753 16:0 17:0.010753 18:0.010753 19:0 20:0.043011 21:0.053763 22:0.010753 23:0 24:0.010753 25:0.032258 26:0 27:0.032258 28:0.021505 29:0.021505 30:0 31:0 32:0 33:0.021505 34:0.010753 35:0.010753 36:0 37:0 38:0.010753 39:0 40:0.010753 41:0.010753 42:0 43:0.032258 44:0 45:0 46:0 47:0.032258 48:0.010753 49:0 50:0.010753 51:0 52:0 53:0.021505 54:0 55:0 56:0 57:0.010753 58:0.021505 59:0.010753 60:0 61:0.010753 62:0.010753 63:0 64:0.010753 65:0 66:0 67:0 68:0 69:0 70:0.010753 71:0 72:0 73:0 74:0 75:0 76:0.032258 77:0 78:0.010753 79:0.021505 80:0 81:0 82:0.064516 83:0.010753 84:0 85:0.010753 86:0 87:0 88:0.010753 89:0 90:0 91:0 92:0.010753 93:0.010753 94:0.021505 95:0 96:0 97:0.010753 98:0.032258 99:0.032258 100:0.032258 
56 1:0.006667 2:0 3:0 4:0.006667 5:0 6:0.026667 7:0.073333 8:0.006667 9:0 10:0 11:0.006667 12:0.006667 13:0 14:0 15:0.006667 16:0.013333 17:0 18:0 19:0.006667 20:0 21:0 22:0.006667 23:0 24:0.046667 25:0.053333 26:0.02 27:0 28:0 29:0.02 30:0 31:0 32:0.006667 33:0.046667 34:0.006667 35:0.02 36:0.006667 37:0.02 38:0 39:0 40:0.013333 41:0 42:0 43:0 44:0 45:0 46:0.006667 47:0.006667 48:0.02 49:0 50:0.02 51:0.006667 52:0.006667 53:0.06 54:0 55:0.013333 56:0 57:0.006667 58:0 59:0.02 60:0 61:0.086667 62:0 63:0.013333 64:0.006667 65:0.006667 66:0.006667 67:0 68:0.02 69:0.006667 70:0 71:0.006667 72:0.006667 73:0.006667 74:0 75:0.006667 76:0.006667 77:0.006667 78:0.013333 79:0 80:0 81:0 82:0.006667 83:0.006667 84:0.006667 85:0 86:0.02 87:0.053333 88:0.006667 89:0.013333 90:0.006667 91:0 92:0.026667 93:0.02 94:0 95:0.033333 96:0.006667 97:0 98:0 99:0 100:0 
56 1:0 2:0.04878 3:0.01626 4:0.03252 5:0.02439 6:0.03252 7:0.01626 8:0 9:0.00813 10:0.01626 11:0 12:0 13:0.00813 14:0.00813 15:0.03252 16:0 17:0.01626 18:0 19:0 20:0.00813 21:0 22:0.00813 23:0.00813 24:0.00813 25:0 26:0 27:0 28:0.03252 29:0.03252 30:0 31:0.00813 32:0.02439 33:0.02439 34:0.00813 35:0 36:0 37:0.01626 38:0.02439 39:0 40:0 41:0 42:0.00813 43:0 44:0.00813 45:0.00813 46:0.00813 47:0 48:0 49:0.01626 50:0 51:0 52:0 53:0.00813 54:0.00813 55:0 56:0 57:0.00813 58:0.02439 59:0.02439 60:0.00813 61:0.00813 62:0 63:0.02439 64:0.01626 65:0.01626 66:0.03252 67:0.00813 68:0.01626 69:0.00813 70:0 71:0.04065 72:0 73:0 74:0 75:0 76:0.02439 77:0 78:0 79:0.00813 80:0.01626 81:0.01626 82:0 83:0 84:0.01626 85:0.00813 86:0.00813 87:0.01626 88:0 89:0.00813 90:0.00813 91:0 92:0 93:0.00813 94:0.02439 95:0.01626 96:0.01626 97:0 98:0 99:0.01626 100:0.02439 
-5.971699104020791 1:0 2:0.024096 3:0 4:0 5:0.024096 6:0.012048 7:0.012048 8:0 9:0.024096 10:0.012048 11:0 12:0 13:0.012048 14:0.012048 15:0 16:0 17:0.024096 18:0.012048 19:0.012048 20:0.012048 21:0 22:0.012048 23:0 24:0.024096 25:0 26:0 27:0.012048 28:0.012048 29:0.012048 30:0 31:0 32:0.012048 33:0.012048 34:0 35:0.012048 36:0 37:0.024096 38:0 39:0 40:0.024096 41:0 42:0 43:0.012048 44:0 45:0.012048 46:0 47:0.012048 48:0.012048 49:0 50:0.012048 51:0.048193 52:0.012048 53:0.012048 54:0.012048 55:0 56:0.012048 57:0 58:0.012048 59:0 60:0 61:0 62:0.012048 63:0.012048 64:0.012048 65:0.036145 66:0 67:0 68:0 69:0 70:0 71:0 72:0 73:0 74:0.012048 75:0 76:0.024096 77:0.012048 78:0.060241 79:0 80:0.012048 81:0 82:0.012048 83:0.024096 84:0.012048 85:0.024096 86:0.012048 87:0.012048 88:0.012048 89:0.024096 90:0.036145 91:0 92:0.012048 93:0.012048 94:0.012048 95:0 96:0.012048 97:0.012048 98:0 99:0.036145 100:0.024096 
-51.86418636721133 1:0.011494 2:0.022989 3:0 4:0.011494 5:0.011494 6:0 7:0.022989 8:0 9:0 10:0 11:0 12:0 13:0 14:0.011494 15:0.011494 16:0 17:0 18:0.034483 19:0.011494 20:0.057471 21:0 22:0.011494 23:0.011494 24:0 25:0.034483 26:0 27:0.011494 28:0.011494 29:0 30:0 31:0 32:0 33:0.057471 34:0.034483 35:0.011494 36:0 37:0 38:0.011494 39:0 40:0.011494 41:0.011494 42:0.011494 43:0 44:0 45:0.011494 46:0 47:0.022989 48:0 49:0.011494 50:0.011494 51:0.011494 52:0.022989 53:0.022989 54:0.011494 55:0 56:0 57:0 58:0 59:0.011494 60:0.011494 61:0 62:0 63:0.011494 64:0 65:0.011494 66:0 67:0.022989 68:0.034483 69:0.011494 70:0 71:0.034483 72:0 73:0.011494 74:0.011494 75:0.022989 76:0.022989 77:0 78:0.011494 79:0.011494 80:0 81:0.011494 82:0 83:0.022989 84:0.011494 85:0 86:0 87:0.034483 88:0 89:0.011494 90:0 91:0.011494 92:0.011494 93:0 94:0 95:0 96:0 97:0.011494 98:0 99:0.034483 100:0.034483 
-15.86505787515799 1:0.012195 2:0 3:0 4:0 5:0 6:0.012195 7:0 8:0.02439 9:0 10:0.012195 11:0.012195 12:0 13:0 14:0 15:0 16:0 17:0 18:0 19:0.012195 20:0.02439 21:0.02439 22:0 23:0.012195 24:0 25:0.02439 26:0 27:0 28:0.036585 29:0.012195 30:0 31:0 32:0.012195 33:0.073171 34:0 35:0.012195 36:0.012195 37:0.02439 38:0.012195 39:0.012195 40:0.02439 41:0.012195 42:0.012195 43:0.012195 44:0 45:0 46:0 47:0.012195 48:0.012195 49:0.012195 50:0 51:0 52:0.012195 53:0 54:0.02439 55:0.012195 56:0 57:0.012195 58:0.012195 59:0.012195 60:0 61:0.02439 62:0 63:0.012195 64:0.02439 65:0.02439 66:0.012195 67:0.02439 68:0 69:0 70:0 71:0 72:0 73:0 74:0 75:0.04878 76:0 77:0 78:0 79:0.073171 80:0.012195 81:0 82:0.012195 83:0 84:0.012195 85:0.012195 86:0 87:0.02439 88:0.012195 89:0.012195 90:0.036585 91:0.012195 92:0 93:0.012195 94:0 95:0 96:0.012195 97:0 98:0 99:0.02439 100:0 
-3.933893274285091 1:0 2:0 3:0.015152 4:0 5:0.030303 6:0.015152 7:0 8:0.015152 9:0.045455 10:0 11:0.030303 12:0 13:0.015152 14:0.015152 15:0.015152 16:0 17:0 18:0 19:0.015152 20:0 21:0.015152 22:0 23:0.015152 24:0.015152 25:0 26:0 27:0 28:0.015152 29:0.015152 30:0.030303 31:0 32:0.015152 33:0 34:0 35:0 36:0 37:0 38:0 39:0 40:0.045455 41:0.015152 42:0 43:0.015152 44:0 45:0 46:0 47:0.015152 48:0.030303 49:0 50:0.015152 51:0 52:0.015152 53:0 54:0 55:0 56:0 57:0.015152 58:0.015152 59:0 60:0.015152 61:0.015152 62:0 63:0 64:0 65:0.030303 66:0.060606 67:0.015152 68:0 69:0.015152 70:0 71:0.015152 72:0 73:0 74:0.030303 75:0 76:0 77:0 78:0.030303 79:0.015152 80:0.015152 81:0 82:0 83:0 84:0.015152 85:0.030303 86:0.015152 87:0.015152 88:0 89:0 90:0 91:0.015152 92:0 93:0.045455 94:0.030303 95:0 96:0.015152 97:0 98:0.030303 99:0 100:0.015152 
-11.89065669797623 1:0.046875 2:0.015625 3:0 4:0 5:0.015625 6:0.015625 7:0.03125 8:0 9:0 10:0 11:0.015625 12:0 13:0.015625 14:0.015625 15:0.015625 16:0 17:0 18:0 19:0.015625 20:0 21:0.015625 22:0.015625 23:0 24:0.015625 25:0.015625 26:0 27:0 28:0 29:0.015625 30:0 31:0 32:0.015625 33:0.046875 34:0 35:0 36:0.015625 37:0 38:0 39:0.015625 40:0 41:0 42:0 43:0 44:0 45:0.03125 46:0.015625 47:0 48:0.015625 49:0.03125 50:0.015625 51:0 52:0 53:0.015625 54:0.015625 55:0 56:0.015625 57:0 58:0.015625 59:0 60:0 61:0 62:0.015625 63:0 64:0 65:0.015625 66:0.015625 67:0 68:0.015625 69:0.015625 70:0.015625 71:0 72:0 73:0 74:0 75:0.015625 76:0 77:0 78:0.015625 79:0 80:0 81:0 82:0 83:0 84:0.015625 85:0.0625 86:0.03125 87:0.046875 88:0.03125 89:0.078125 90:0.015625 91:0.015625 92:0 93:0 94:0.015625 95:0 96:0 97:0.015625 98:0 99:0 100:0 
-44.66099086343984 1:0 2:0 3:0.016393 4:0 5:0 6:0 7:0.032787 8:0.016393 9:0 10:0.032787 11:0 12:0 13:0 14:0 15:0.016393 16:0 17:0 18:0 19:0 20:0 21:0.032787 22:0 23:0 24:0 25:0 26:0.016393 27:0 28:0 29:0 30:0 31:0.016393 32:0 33:0.081967 34:0 35:0 36:0 37:0.032787 38:0 39:0 40:0.016393 41:0 42:0 43:0 44:0 45:0.032787 46:0 47:0.032787 48:0 49:0.04918 50:0 51:0 52:0 53:0 54:0 55:0 56:0.016393 57:0.032787 58:0 59:0.016393 60:0.016393 61:0 62:0 63:0 64:0.016393 65:0.016393 66:0.032787 67:0.016393 68:0 69:0.016393 70:0.032787 71:0.04918 72:0 73:0.016393 74:0 75:0.016393 76:0.016393 77:0 78:0 79:0 80:0 81:0 82:0.016393 83:0 84:0.032787 85:0.04918 86:0.032787 87:0.04918 88:0 89:0.04918 90:0 91:0 92:0 93:0 94:0.016393 95:0 96:0 97:0 98:0.016393 99:0 100:0 
-21.74209937348178 1:0 2:0.012987 3:0 4:0.012987 5:0 6:0 7:0 8:0.012987 9:0 10:0.012987 11:0 12:0.025974 13:0.012987 14:0.012987 15:0 16:0 17:0.012987 18:0 19:0 20:0.038961 21:0.038961 22:0 23:0 24:0 25:0.025974 26:0.012987 27:0 28:0.012987 29:0.025974 30:0.012987 31:0.012987 32:0 33:0.012987 34:0 35:0.012987 36:0 37:0.012987 38:0.025974 39:0.012987 40:0 41:0.025974 42:0.012987 43:0.012987 44:0.025974 45:0.012987 46:0 47:0 48:0 49:0 50:0 51:0 52:0.025974 53:0.038961 54:0.025974 55:0 56:0 57:0.025974 58:0.012987 59:0 60:0 61:0.025974 62:0 63:0 64:0.025974 65:0.012987 66:0 67:0.012987 68:0 69:0.012987 70:0 71:0.038961 72:0.012987 73:0.012987 74:0.012987 75:0.012987 76:0.038961 77:0 78:0 79:0.012987 80:0.012987 81:0 82:0 83:0.012987 84:0 85:0 86:0 87:0.038961 88:0.012987 89:0 90:0 91:0.025974 92:0.012987 93:0 94:0 95:0.038961 96:0 97:0 98:0 99:0.012987 100:0 
-34.08801340781596 1:0.032258 2:0.016129 3:0.016129 4:0 5:0.016129 6:0 7:0.032258 8:0 9:0 10:0.016129 11:0.016129 12:0 13:0.032258 14:0 15:0 16:0 17:0.016129 18:0 19:0.016129 20:0.032258 21:0 22:0 23:0.016129 24:0.016129 25:0 26:0 27:0 28:0 29:0.032258 30:0 31:0 32:0.016129 33:0.016129 34:0 35:0 36:0.016129 37:0 38:0.016129 39:0 40:0 41:0.016129 42:0.016129 43:0 44:0 45:0.016129 46:0 47:0.016129 48:0 49:0.032258 50:0.016129 51:0.016129 52:0 53:0.096774 54:0 55:0 56:0 57:0 58:0.016129 59:0 60:0.016129 61:0.016129 62:0 63:0 64:0.016129 65:0 66:0 67:0 68:0.016129 69:0 70:0 71:0 72:0.016129 73:0 74:0 75:0 76:0.016129 77:0 78:0.016129 79:0.016129 80:0 81:0 82:0 83:0.016129 84:0 85:0.016129 86:0 87:0.032258 88:0.016129 89:0.048387 90:0.032258 91:0 92:0.032258 93:0 94:0.032258 95:0.016129 96:0 97:0 98:0.016129 99:0 100:0 
-24.18999240234873 1:0.018519 2:0.018519 3:0 4:0 5:0.018519 6:0.018519 7:0 8:0.009259 9:0 10:0 11:0 12:0 13:0 14:0.018519 15:0.009259 16:0 17:0 18:0.027778 19:0 20:0.009259 21:0.018519 22:0.009259 23:0 24:0 25:0.018519 26:0 27:0.018519 28:0.009259 29:0.018519 30:0.009259 31:0 32:0.018519 33:0.018519 34:0.018519 35:0 36:0 37:0.027778 38:0 39:0.009259 40:0 41:0.009259 42:0 43:0.009259 44:0 45:0.009259 46:0.037037 47:0 48:0.009259 49:0.009259 50:0 51:0 52:0.018519 53:0 54:0.009259 55:0 56:0 57:0 58:0.018519 59:0.037037 60:0 61:0.037037 62:0.027778 63:0 64:0.018519 65:0 66:0 67:0 68:0.027778 69:0.009259 70:0 71:0.009259 72:0.009259 73:0.009259 74:0 75:0.009259 76:0 77:0 78:0.018519 79:0.009259 80:0 81:0.018519 82:0.009259 83:0.009259 84:0 85:0.027778 86:0.027778 87:0.064815 88:0 89:0 90:0.027778 91:0 92:0.037037 93:0 94:0.009259 95:0 96:0.009259 97:0.018519 98:0.009259 99:0.018519 100:0.018519 
-2.451773350003167 1:0.022727 2:0.056818 3:0.011364 4:0.022727 5:0 6:0.022727 7:0 8:0.022727 9:0.011364 10:0 11:0 12:0 13:0 14:0 15:0 16:0 17:0 18:0 19:0.022727 20:0.011364 21:0.034091 22:0 23:0.011364 24:0 25:0 26:0.011364 27:0 28:0.022727 29:0.011364 30:0 31:0 32:0 33:0.011364 34:0.034091 35:0 36:0.022727 37:0 38:0 39:0.011364 40:0.011364 41:0.022727 42:0 43:0.022727 44:0 45:0 46:0 47:0.011364 48:0 49:0 50:0.022727 51:0 52:0 53:0.011364 54:0 55:0 56:0 57:0.011364 58:0 59:0.034091 60:0 61:0.022727 62:0.011364 63:0.022727 64:0.022727 65:0.011364 66:0 67:0.022727 68:0.011364 69:0.011364 70:0 71:0 72:0 73:0 74:0.011364 75:0 76:0.022727 77:0.022727 78:0 79:0.045455 80:0.011364 81:0.022727 82:0 83:0.034091 84:0 85:0 86:0.011364 87:0 88:0 89:0.022727 90:0.011364 91:0 92:0.022727 93:0.034091 94:0.022727 95:0.011364 96:0.011364 97:0.011364 98:0.011364 99:0 100:0 
-10.31218223929953 1:0.021978 2:0.032967 3:0 4:0.043956 5:0.032967 6:0.021978 7:0 8:0.010989 9:0.010989 10:0.010989 11:0 12:0 13:0 14:0 15:0.010989 16:0 17:0.010989 18:0 19:0 20:0 21:0.010989 22:0 23:0 24:0 25:0.010989 26:0 27:0.010989 28:0.021978 29:0 30:0.032967 31:0 32:0 33:0.021978 34:0 35:0 36:0 37:0.010989 38:0.010989 39:0.010989 40:0.010989 41:0.043956 42:0.021978 43:0 44:0 45:0.010989 46:0 47:0.010989 48:0.010989 49:0.010989 50:0 51:0.010989 52:0.010989 53:0.010989 54:0 55:0.010989 56:0 57:0.010989 58:0.010989 59:0.021978 60:0 61:0.032967 62:0 63:0.032967 64:0.010989 65:0 66:0.021978 67:0 68:0 69:0 70:0.010989 71:0 72:0 73:0 74:0.010989 75:0 76:0.021978 77:0.010989 78:0.010989 79:0.021978 80:0.043956 81:0 82:0 83:0.021978 84:0 85:0.010989 86:0.010989 87:0.010989 88:0.010989 89:0 90:0.032967 91:0 92:0.043956 93:0.010989 94:0.010989 95:0.010989 96:0 97:0.010989 98:0 99:0.010989 100:0.010989 
-56 1:0.020408 2:0.030612 3:0 4:0.020408 5:0.030612 6:0 7:0.010204 8:0.020408 9:0 10:0.010204 11:0.010204 12:0.010204 13:0 14:0.010204 15:0 16:0 17:0.010204 18:0 19:0 20:0 21:0 22:0.010204 23:0.020408 24:0.05102 25:0.061224 26:0.010204 27:0 28:0 29:0.010204 30:0 31:0.010204 32:0 33:0.040816 34:0.020408 35:0.020408 36:0 37:0 38:0 39:0 40:0 41:0 42:0 43:0 44:0.030612 45:0 46:0.010204 47:0 48:0 49:0.010204 50:0 51:0 52:0.010204 53:0.020408 54:0.030612 55:0.010204 56:0.010204 57:0.010204 58:0 59:0 60:0 61:0.030612 62:0.020408 63:0 64:0.010204 65:0.010204 66:0.010204 67:0 68:0 69:0 70:0.020408 71:0 72:0 73:0 74:0 75:0.030612 76:0.010204 77:0.010204 78:0.010204 79:0.010204 80:0.010204 81:0.020408 82:0 83:0.010204 84:0 85:0 86:0 87:0.010204 88:0.020408 89:0 90:0.030612 91:0 92:0 93:0.010204 94:0 95:0 96:0.020408 97:0.020408 98:0.020408 99:0.05102 100:0.020408 
-19.95169520652946 1:0 2:0.015873 3:0 4:0.015873 5:0 6:0.015873 7:0 8:0 9:0 10:0 11:0.015873 12:0.031746 13:0 14:0 15:0.015873 16:0 17:0 18:0 19:0 20:0 21:0.015873 22:0 23:0 24:0 25:0 26:0.015873 27:0 28:0.015873 29:0 30:0.015873 31:0 32:0 33:0.031746 34:0 35:0 36:0 37:0 38:0.015873 39:0.047619 40:0.015873 41:0.015873 42:0 43:0.015873 44:0.015873 45:0 46:0.015873 47:0 48:0 49:0 50:0 51:0 52:0 53:0.079365 54:0.031746 55:0 56:0.031746 57:0 58:0 59:0.015873 60:0 61:0.111111 62:0 63:0.015873 64:0 65:0 66:0 67:0.015873 68:0 69:0 70:0.031746 71:0.015873 72:0.015873 73:0.031746 74:0 75:0 76:0 77:0 78:0 79:0.015873 80:0.015873 81:0.047619 82:0.031746 83:0.015873 84:0 85:0 86:0.015873 87:0.015873 88:0 89:0 90:0 91:0.015873 92:0.015873 93:0.015873 94:0 95:0.015873 96:0 97:0 98:0.015873 99:0.015873 100:0 
-10.92075892872598 1:0.007692 2:0.023077 3:0 4:0.007692 5:0.007692 6:0 7:0.007692 8:0.023077 9:0.023077 10:0.007692 11:0 12:0.023077 13:0.030769 14:0.023077 15:0.015385 16:0 17:0 18:0 19:0 20:0.030769 21:0.030769 22:0.023077 23:0 24:0 25:0.015385 26:0.023077 27:0 28:0.007692 29:0 30:0 31:0.023077 32:0 33:0 34:0.007692 35:0 36:0 37:0 38:0.007692 39:0.015385 40:0 41:0.007692 42:0.015385 43:0 44:0.023077 45:0.007692 46:0.015385 47:0 48:0 49:0.007692 50:0.007692 51:0.007692 52:0 53:0.015385 54:0.015385 55:0.007692 56:0 57:0.007692 58:0 59:0.007692 60:0.015385 61:0.007692 62:0.023077 63:0.007692 64:0.007692 65:0 66:0.015385 67:0.007692 68:0.023077 69:0.007692 70:0.023077 71:0.007692 72:0.007692 73:0.015385 74:0.023077 75:0.015385 76:0.023077 77:0.030769 78:0 79:0.007692 80:0.015385 81:0.023077 82:0.015385 83:0.015385 84:0.007692 85:0.015385 86:0.023077 87:0.007692 88:0 89:0 90:0 91:0 92:0.030769 93:0.023077 94:0 95:0.007692 96:0 97:0 98:0 99:0 100:0.015385 
-56 1:0.028986 2:0 3:0 4:0 5:0 6:0.043478 7:0.028986 8:0.014493 9:0.014493 10:0.028986 11:0 12:0.014493 13:0 14:0.014493 15:0.014493 16:0 17:0 18:0.014493 19:0 20:0.028986 21:0.072464 22:0 23:0 24:0 25:0 26:0 27:0.028986 28:0.014493 29:0 30:0.014493 31:0 32:0.014493 33:0.014493 34:0 35:0 36:0 37:0 38:0 39:0.028986 40:0.028986 41:0.028986 42:0 43:0 44:0 45:0 46:0 47:0 48:0.014493 49:0 50:0 51:0 52:0 53:0.057971 54:0.014493 55:0 56:0 57:0.014493 58:0 59:0.057971 60:0 61:0.028986 62:0 63:0.014493 64:0 65:0 66:0 67:0 68:0.014493 69:0 70:0 71:0.014493 72:0 73:0.014493 74:0.014493 75:0.014493 76:0 77:0 78:0.014493 79:0 80:0 81:0 82:0 83:0.057971 84:0.028986 85:0 86:0 87:0 88:0.014493 89:0 90:0 91:0 92:0 93:0.043478 94:0 95:0 96:0 97:0.014493 98:0 99:0.028986 100:0.028986 
-16.92079420119509 1:0 2:0 3:0.016949 4:0 5:0 6:0 7:0.016949 8:0.016949 9:0 10:0.016949 11:0.033898 12:0 13:0 14:0 15:0 16:0.016949 17:0 18:0 19:0.033898 20:0 21:0.033898 22:0.016949 23:0.016949 24:0.016949 25:0 26:0 27:0.016949 28:0 29:0.050847 30:0.016949 31:0 32:0 33:0 34:0 35:0 36:0.016949 37:0.033898 38:0 39:0 40:0.016949 41:0.016949 42:0 43:0.016949 44:0.033898 45:0 46:0.016949 47:0.050847 48:0 49:0 50:0.016949 51:0 52:0 53:0.016949 54:0.016949 55:0.016949 56:0 57:0 58:0.067797 59:0 60:0.016949 61:0 62:0 63:0 64:0.050847 65:0 66:0.033898 67:0 68:0.016949 69:0.016949 70:0 71:0.016949 72:0.016949 73:0 74:0.016949 75:0.016949 76:0 77:0 78:0.016949 79:0 80:0 81:0 82:0 83:0 84:0 85:0.033898 86:0 87:0.016949 88:0 89:0 90:0 91:0 92:0.033898 93:0 94:0 95:0.016949 96:0 97:0.016949 98:0 99:0 100:0 
-55.57707257654752 1:0.009434 2:0.009434 3:0.018868 4:0.018868 5:0 6:0.028302 7:0.018868 8:0.028302 9:0 10:0 11:0 12:0.009434 13:0.009434 14:0.009434 15:0.009434 16:0 17:0 18:0.037736 19:0.009434 20:0.009434 21:0.009434 22:0 23:0.009434 24:0 25:0.009434 26:0.018868 27:0 28:0.037736 29:0 30:0 31:0 32:0.009434 33:0.009434 34:0.009434 35:0.009434 36:0 37:0 38:0 39:0 40:0.028302 41:0.009434 42:0.009434 43:0 44:0 45:0.009434 46:0.018868 47:0.037736 48:0 49:0.018868 50:0.009434 51:0.037736 52:0.009434 53:0.009434 54:0 55:0 56:0 57:0.009434 58:0 59:0.028302 60:0.009434 61:0.009434 62:0.009434 63:0 64:0.018868 65:0.009434 66:0 67:0 68:0.056604 69:0.009434 70:0.009434 71:0.018868 72:0 73:0.009434 74:0.009434 75:0.009434 76:0.018868 77:0.009434 78:0 79:0 80:0 81:0 82:0.028302 83:0.037736 84:0.009434 85:0 86:0 87:0.037736 88:0 89:0.009434 90:0.009434 91:0.009434 92:0.009434 93:0.009434 94:0.009434 95:0 96:0.009434 97:0.009434 98:0 99:0 100:0.018868 
-18.84333727396992 1:0 2:0.012195 3:0 4:0.012195 5:0 6:0.012195 7:0.012195 8:0.012195 9:0.012195 10:0.02439 11:0 12:0 13:0.02439 14:0.012195 15:0.02439 16:0 17:0 18:0.012195 19:0.02439 20:0.036585 21:0 22:0 23:0 24:0 25:0.012195 26:0.02439 27:0 28:0.012195 29:0.012195 30:0 31:0 32:0 33:0 34:0.012195 35:0 36:0 37:0.02439 38:0 39:0.02439 40:0.012195 41:0.012195 42:0 43:0 44:0 45:0 46:0 47:0.02439 48:0.036585 49:0.02439 50:0.04878 51:0.012195 52:0 53:0 54:0 55:0 56:0.012195 57:0 58:0 59:0 60:0.02439 61:0.036585 62:0.012195 63:0.02439 64:0.012195 65:0.012195 66:0 67:0 68:0 69:0.012195 70:0.036585 71:0 72:0.02439 73:0 74:0 75:0 76:0.012195 77:0.012195 78:0.012195 79:0 80:0.02439 81:0 82:0 83:0.02439 84:0.012195 85:0 86:0 87:0 88:0.02439 89:0 90:0 91:0.012195 92:0 93:0.02439 94:0.012195 95:0.012195 96:0.02439 97:0.012195 98:0 99:0.036585 100:0.012195 
-9.273226348308963 1:0.012195 2:0.04878 3:0.02439 4:0.012195 5:0 6:0.012195 7:0 8:0.02439 9:0 10:0.012195 11:0 12:0.036585 13:0 14:0.04878 15:0.02439 16:0.012195 17:0 18:0 19:0 20:0 21:0.04878 22:0.012195 23:0 24:0 25:0 26:0 27:0 28:0 29:0.012195 30:0 31:0 32:0 33:0.02439 34:0.02439 35:0 36:0.012195 37:0 38:0 39:0.012195 40:0 41:0 42:0 43:0 44:0.012195 45:0 46:0 47:0.012195 48:0 49:0 50:0 51:0 52:0.02439 53:0 54:0 55:0 56:0.012195 57:0 58:0 59:0.012195 60:0.012195 61:0.134146 62:0.012195 63:0 64:0.012195 65:0.02439 66:0.012195 67:0.012195 68:0 69:0 70:0.02439 71:0.012195 72:0 73:0 74:0 75:0.04878 76:0 77:0 78:0.012195 79:0 80:0 81:0.036585 82:0 83:0.012195 84:0.012195 85:0 86:0 87:0.036585 88:0 89:0.02439 90:0 91:0.02439 92:0 93:0.012195 94:0 95:0 96:0.012195 97:0 98:0.012195 99:0 100:0.012195 
-34.91098519773398 1:0.014493 2:0.014493 3:0.014493 4:0 5:0.014493 6:0.014493 7:0.028986 8:0 9:0 10:0 11:0.014493 12:0.014493 13:0 14:0 15:0 16:0.028986 17:0 18:0 19:0 20:0 21:0.014493 22:0 23:0.028986 24:0 25:0.028986 26:0 27:0.014493 28:0.028986 29:0.028986 30:0 31:0 32:0 33:0.028986 34:0.014493 35:0.014493 36:0 37:0 38:0 39:0 40:0.028986 41:0 42:0 43:0.014493 44:0 45:0.014493 46:0 47:0.043478 48:0 49:0.028986 50:0.014493 51:0 52:0 53:0.028986 54:0.014493 55:0.014493 56:0 57:0 58:0.014493 59:0.014493 60:0.028986 61:0.028986 62:0.014493 63:0.014493 64:0.014493 65:0.014493 66:0.057971 67:0 68:0 69:0.014493 70:0 71:0 72:0 73:0 74:0 75:0.014493 76:0.014493 77:0.014493 78:0.014493 79:0.014493 80:0 81:0.014493 82:0.014493 83:0 84:0 85:0.014493 86:0.028986 87:0 88:0 89:0.028986 90:0.014493 91:0 92:0 93:0 94:0 95:0 96:0 97:0.028986 98:0 99:0 100:0 
-23.48992625149014 1:0.010417 2:0 3:0.010417 4:0 5:0.010417 6:0 7:0 8:0.010417 9:0.03125 10:0.010417 11:0.010417 12:0 13:0.020833 14:0.020833 15:0.010417 16:0 17:0 18:0 19:0.010417 20:0.020833 21:0.010417 22:0 23:0 24:0 25:0.052083 26:0.020833 27:0 28:0.020833 29:0 30:0.010417 31:0 32:0.010417 33:0.010417 34:0.010417 35:0 36:0.020833 37:0.010417 38:0.010417 39:0 40:0.020833 41:0.010417 42:0 43:0.010417 44:0 45:0 46:0 47:0.010417 48:0 49:0.010417 50:0.010417 51:0.03125 52:0 53:0 54:0.010417 55:0 56:0 57:0 58:0 59:0 60:0.010417 61:0 62:0.010417 63:0.010417 64:0.010417 65:0.010417 66:0 67:0.010417 68:0.03125 69:0 70:0.010417 71:0 72:0 73:0.010417 74:0.010417 75:0.010417 76:0 77:0.010417 78:0.0625 79:0.020833 80:0.010417 81:0 82:0 83:0 84:0.020833 85:0.020833 86:0.010417 87:0.010417 88:0.020833 89:0.020833 90:0.010417 91:0 92:0.041667 93:0.041667 94:0.03125 95:0 96:0.03125 97:0.010417 98:0 99:0 100:0.010417 
-56 1:0.0125 2:0 3:0 4:0 5:0.025 6:0.05 7:0 8:0.0125 9:0.0125 10:0.0125 11:0.025 12:0 13:0.0125 14:0 15:0.0125 16:0 17:0 18:0 19:0.025 20:0 21:0.0125 22:0 23:0.0125 24:0 25:0.025 26:0.0125 27:0.0125 28:0.0125 29:0.0125 30:0 31:0 32:0.0125 33:0.0125 34:0 35:0 36:0.025 37:0.025 38:0.0125 39:0.0125 40:0 41:0.0375 42:0 43:0.0125 44:0 45:0.0125 46:0.0125 47:0.0125 48:0 49:0 50:0 51:0.05 52:0 53:0 54:0 55:0 56:0 57:0 58:0.0375 59:0.0125 60:0 61:0 62:0 63:0 64:0 65:0 66:0.0125 67:0 68:0 69:0 70:0 71:0.0125 72:0 73:0 74:0.025 75:0 76:0.025 77:0 78:0.0375 79:0.025 80:0.0125 81:0 82:0.0375 83:0 84:0.0375 85:0.025 86:0 87:0.05 88:0.025 89:0 90:0.0125 91:0 92:0.0125 93:0.0125 94:0 95:0 96:0.0375 97:0.0125 98:0 99:0 100:0 
-32.23724168795336 1:0 2:0.009091 3:0.009091 4:0.009091 5:0.009091 6:0 7:0.018182 8:0 9:0 10:0.018182 11:0.009091 12:0 13:0 14:0.009091 15:0.018182 16:0 17:0 18:0.009091 19:0 20:0.018182 21:0.027273 22:0.009091 23:0.009091 24:0 25:0.027273 26:0 27:0 28:0.018182 29:0.018182 30:0.009091 31:0 32:0 33:0.018182 34:0.009091 35:0.018182 36:0.018182 37:0 38:0.009091 39:0.027273 40:0.009091 41:0.018182 42:0.009091 43:0.027273 44:0 45:0.018182 46:0.063636 47:0 48:0.018182 49:0 50:0.009091 51:0.036364 52:0.018182 53:0.009091 54:0.018182 55:0 56:0.009091 57:0.018182 58:0 59:0.009091 60:0 61:0.027273 62:0 63:0.009091 64:0.009091 65:0 66:0 67:0.018182 68:0.018182 69:0.009091 70:0 71:0.009091 72:0 73:0.009091 74:0 75:0.018182 76:0 77:0.009091 78:0 79:0.018182 80:0.009091 81:0 82:0.027273 83:0 84:0 85:0.027273 86:0.009091 87:0.045455 88:0 89:0 90:0.009091 91:0.018182 92:0.036364 93:0 94:0 95:0 96:0 97:0 98:0.009091 99:0.009091 100:0 
