svm_type c_svc
kernel_type linear
nr_class 2
total_sv 64
rho 0.67544
label 1 2
nr_sv 27 37
SV
56 1:0.01 2:0.01 3:0.02 4:0 5:0 6:0 7:0.03 8:0 9:0 10:0 11:0.01 12:0 13:0.01 14:0.02 15:0.02 16:0.01 17:0 18:0 19:0 20:0.01 21:0 22:0.01 23:0.02 24:0 25:0 26:0 27:0.02 28:0.02 29:0.02 30:0 31:0 32:0.02 33:0.03 34:0 35:0 36:0.02 37:0.02 38:0.01 39:0 40:0 41:0.01 42:0.02 43:0.03 44:0.01 45:0 46:0 47:0 48:0.02 49:0.02 50:0 51:0 52:0.02 53:0.02 54:0.01 55:0 56:0.02 57:0 58:0.01 59:0 60:0 61:0.08 62:0.01 63:0 64:0 65:0.01 66:0 67:0 68:0.02 69:0 70:0.04 71:0 72:0.05 73:0 74:0.01 75:0 76:0.01 77:0 78:0.04 79:0.01 80:0.01 81:0 82:0 83:0 84:0 85:0.01 86:0.02 87:0.02 88:0 89:0.05 90:0.03 91:0 92:0 93:0 94:0 95:0 96:0 97:0.02 98:0 99:0.02 100:0.01 
56 1:0.00885 2:0.00885 3:0.00885 4:0.044248 5:0 6:0.00885 7:0.00885 8:0 9:0.026549 10:0.00885 11:0 12:0 13:0.00885 14:0.00885 15:0.00885 16:0 17:0.00885 18:0.017699 19:0 20:0.00885 21:0.00885 22:0.017699 23:0.00885 24:0.026549 25:0.044248 26:0.017699 27:0 28:0.00885 29:0.00885 30:0 31:0 32:0 33:0.00885 34:0 35:0 36:0 37:0.017699 38:0.035398 39:0 40:0.00885 41:0 42:0 43:0.00885 44:0.017699 45:0.017699 46:0.017699 47:0.00885 48:0.00885 49:0.026549 50:0 51:0 52:0 53:0.035398 54:0.017699 55:0 56:0.00885 57:0 58:0.00885 59:0 60:0.017699 61:0.00885 62:0 63:0.017699 64:0.00885 65:0.017699 66:0 67:0.00885 68:0 69:0.026549 70:0.026549 71:0.026549 72:0.017699 73:0.00885 74:0.00885 75:0 76:0.00885 77:0.00885 78:0.026549 79:0.00885 80:0 81:0.00885 82:0.017699 83:0 84:0.00885 85:0 86:0.00885 87:0.00885 88:0 89:0.026549 90:0.00885 91:0 92:0 93:0 94:0 95:0 96:0.00885 97:0.061947 98:0 99:0 100:0.017699 
56 1:0 2:0 3:0 4:0.027397 5:0 6:0.013699 7:0 8:0 9:0 10:0.013699 11:0.041096 12:0 13:0.027397 14:0 15:0 16:0 17:0 18:0.027397 19:0 20:0 21:0 22:0 23:0 24:0.013699 25:0 26:0 27:0 28:0 29:0.027397 30:0 31:0 32:0 33:0.09589 34:0.027397 35:0.013699 36:0 37:0.013699 38:0.013699 39:0 40:0 41:0 42:0.013699 43:0.013699 44:0.013699 45:0.013699 46:0.013699 47:0 48:0 49:0.013699 50:0 51:0 52:0.013699 53:0 54:0.013699 55:0.013699 56:0.013699 57:0 58:0 59:0 60:0.013699 61:0.041096 62:0 63:0.027397 64:0 65:0 66:0 67:0.027397 68:0.027397 69:0.027397 70:0 71:0.013699 72:0.041096 73:0 74:0.013699 75:0.013699 76:0.027397 77:0 78:0.013699 79:0 80:0.013699 81:0.041096 82:0.027397 83:0 84:0.013699 85:0.013699 86:0 87:0.027397 88:0 89:0 90:0.013699 91:0 92:0 93:0 94:0.027397 95:0 96:0 97:0.013699 98:0 99:0.027397 100:0 
56 1:0.013699 2:0.027397 3:0 4:0.013699 5:0 6:0 7:0 8:0 9:0.013699 10:0 11:0 12:0 13:0 14:0 15:0 16:0.013699 17:0.013699 18:0 19:0 20:0 21:0.013699 22:0 23:0 24:0 25:0.09589 26:0.013699 27:0.041096 28:0.013699 29:0 30:0 31:0.027397 32:0 33:0.041096 34:0 35:0 36:0 37:0.027397 38:0.013699 39:0 40:0 41:0 42:0.013699 43:0.068493 44:0 45:0 46:0 47:0.013699 48:0 49:0.041096 50:0 51:0.013699 52:0 53:0 54:0 55:0 56:0 57:0.013699 58:0.041096 59:0 60:0 61:0 62:0.013699 63:0.027397 64:0.013699 65:0.013699 66:0.013699 67:0.041096 68:0 69:0.013699 70:0 71:0.027397 72:0 73:0 74:0 75:0 76:0.013699 77:0.013699 78:0.041096 79:0.013699 80:0 81:0 82:0 83:0 84:0 85:0 86:0.013699 87:0 88:0.013699 89:0 90:0.013699 91:0.041096 92:0.013699 93:0.013699 94:0.013699 95:0 96:0 97:0.027397 98:0.013699 99:0 100:0 
56 1:0.011494 2:0.011494 3:0.011494 4:0.034483 5:0 6:0 7:0.011494 8:0.011494 9:0.022989 10:0 11:0 12:0.011494 13:0 14:0 15:0 16:0 17:0 18:0 19:0 20:0 21:0.045977 22:0.011494 23:0 24:0.011494 25:0.045977 26:0 27:0 28:0 29:0.011494 30:0 31:0 32:0 33:0.034483 34:0.011494 35:0.011494 36:0 37:0.011494 38:0.011494 39:0 40:0.011494 41:0.011494 42:0 43:0 44:0 45:0.022989 46:0.045977 47:0 48:0.011494 49:0 50:0 51:0.011494 52:0.034483 53:0.022989 54:0.034483 55:0 56:0.022989 57:0.011494 58:0.011494 59:0 60:0.022989 61:0.034483 62:0.011494 63:0.034483 64:0 65:0 66:0 67:0 68:0.011494 69:0 70:0 71:0.022989 72:0.011494 73:0.034483 74:0 75:0 76:0 77:0 78:0.034483 79:0.022989 80:0 81:0.022989 82:0 83:0 84:0.022989 85:0.011494 86:0 87:0.011494 88:0 89:0.011494 90:0.011494 91:0.011494 92:0 93:0 94:0.011494 95:0 96:0 97:0.011494 98:0.011494 99:0.011494 100:0.022989 
56 1:0.018182 2:0.009091 3:0 4:0.009091 5:0 6:0.018182 7:0.018182 8:0.018182 9:0.018182 10:0.009091 11:0.009091 12:0.018182 13:0 14:0.018182 15:0.036364 16:0 17:0 18:0 19:0 20:0 21:0.009091 22:0.009091 23:0.009091 24:0 25:0.009091 26:0 27:0.009091 28:0.018182 29:0.009091 30:0.009091 31:0.009091 32:0 33:0.018182 34:0.018182 35:0 36:0.009091 37:0 38:0 39:0.009091 40:0.009091 41:0 42:0 43:0.009091 44:0 45:0 46:0.009091 47:0.018182 48:0.009091 49:0 50:0.009091 51:0.009091 52:0 53:0.018182 54:0.018182 55:0.009091 56:0.018182 57:0.009091 58:0.009091 59:0.018182 60:0.009091 61:0.018182 62:0.018182 63:0.036364 64:0.018182 65:0 66:0 67:0 68:0.027273 69:0 70:0 71:0 72:0 73:0.036364 74:0 75:0.018182 76:0.018182 77:0.009091 78:0.027273 79:0.009091 80:0.009091 81:0.027273 82:0.009091 83:0.018182 84:0.009091 85:0.018182 86:0 87:0.018182 88:0 89:0 90:0.009091 91:0 92:0.018182 93:0.009091 94:0 95:0.018182 96:0 97:0 98:0.027273 99:0.027273 100:0.018182 
56 1:0.009009 2:0 3:0 4:0 5:0.009009 6:0.018018 7:0.009009 8:0.027027 9:0 10:0.009009 11:0 12:0.009009 13:0 14:0.009009 15:0.009009 16:0 17:0.009009 18:0.009009 19:0 20:0.018018 21:0.009009 22:0 23:0 24:0.009009 25:0.009009 26:0 27:0.009009 28:0.027027 29:0 30:0 31:0.027027 32:0 33:0.027027 34:0 35:0.027027 36:0 37:0 38:0.018018 39:0.009009 40:0 41:0 42:0 43:0.036036 44:0 45:0 46:0 47:0.009009 48:0.018018 49:0 50:0 51:0.009009 52:0.036036 53:0 54:0.009009 55:0 56:0.018018 57:0 58:0.009009 59:0.018018 60:0.036036 61:0.027027 62:0.018018 63:0 64:0.018018 65:0.009009 66:0.027027 67:0 68:0.018018 69:0 70:0 71:0.018018 72:0 73:0.018018 74:0.009009 75:0.036036 76:0 77:0.009009 78:0 79:0.036036 80:0.009009 81:0.045045 82:0 83:0.009009 84:0 85:0.009009 86:0 87:0.027027 88:0 89:0.009009 90:0 91:0 92:0.009009 93:0.009009 94:0 95:0.027027 96:0.018018 97:0.009009 98:0.018018 99:0.009009 100:0.036036 
56 1:0.009615 2:0.009615 3:0.009615 4:0.009615 5:0 6:0.009615 7:0 8:0.009615 9:0.028846 10:0.009615 11:0.019231 12:0.019231 13:0.009615 14:0.009615 15:0.019231 16:0 17:0 18:0 19:0 20:0.009615 21:0.057692 22:0.009615 23:0 24:0 25:0 26:0.019231 27:0 28:0.028846 29:0 30:0.009615 31:0.019231 32:0.019231 33:0.009615 34:0.009615 35:0 36:0.019231 37:0.019231 38:0.009615 39:0.009615 40:0.009615 41:0 42:0 43:0 44:0.009615 45:0.009615 46:0.028846 47:0 48:0.009615 49:0.019231 50:0 51:0 52:0 53:0.028846 54:0.028846 55:0.009615 56:0 57:0.009615 58:0.019231 59:0.009615 60:0.019231 61:0.028846 62:0.009615 63:0.009615 64:0.009615 65:0.028846 66:0.009615 67:0 68:0.009615 69:0.009615 70:0 71:0.009615 72:0.019231 73:0.019231 74:0 75:0.019231 76:0 77:0 78:0.009615 79:0.019231 80:0.019231 81:0.009615 82:0 83:0.009615 84:0 85:0.019231 86:0.009615 87:0 88:0.009615 89:0.009615 90:0.009615 91:0 92:0.009615 93:0 94:0 95:0 96:0.009615 97:0.009615 98:0 99:0.028846 100:0 
56 1:0 2:0.031915 3:0.010638 4:0.031915 5:0 6:0 7:0.010638 8:0.021277 9:0 10:0 11:0 12:0.021277 13:0.010638 14:0 15:0 16:0 17:0.010638 18:0 19:0 20:0 21:0.021277 22:0.021277 23:0 24:0.010638 25:0.031915 26:0 27:0.042553 28:0 29:0 30:0 31:0.021277 32:0 33:0.021277 34:0.031915 35:0 36:0 37:0.021277 38:0.010638 39:0 40:0.010638 41:0.010638 42:0 43:0 44:0.010638 45:0.021277 46:0.021277 47:0 48:0.021277 49:0.010638 50:0 51:0.021277 52:0.031915 53:0 54:0.021277 55:0 56:0 57:0.010638 58:0.021277 59:0.010638 60:0 61:0.06383 62:0.010638 63:0.042553 64:0 65:0.010638 66:0 67:0 68:0 69:0.010638 70:0 71:0.010638 72:0.021277 73:0.010638 74:0 75:0.010638 76:0 77:0 78:0.010638 79:0.010638 80:0.010638 81:0.010638 82:0 83:0 84:0.021277 85:0.010638 86:0.010638 87:0.010638 88:0 89:0.010638 90:0.010638 91:0.010638 92:0 93:0 94:0.010638 95:0 96:0.010638 97:0.010638 98:0.021277 99:0.010638 100:0.010638 
56 1:0.018868 2:0 3:0 4:0.018868 5:0 6:0 7:0.018868 8:0.056604 9:0 10:0.018868 11:0 12:0.018868 13:0 14:0 15:0 16:0 17:0 18:0.037736 19:0 20:0 21:0 22:0.018868 23:0 24:0 25:0 26:0 27:0.018868 28:0.056604 29:0 30:0 31:0.018868 32:0 33:0 34:0.037736 35:0 36:0 37:0 38:0 39:0 40:0.018868 41:0 42:0 43:0 44:0 45:0 46:0.018868 47:0 48:0.018868 49:0 50:0 51:0 52:0 53:0.056604 54:0.018868 55:0 56:0 57:0.018868 58:0 59:0.018868 60:0.018868 61:0 62:0 63:0.037736 64:0 65:0 66:0 67:0 68:0 69:0.018868 70:0 71:0 72:0 73:0 74:0 75:0.037736 76:0.075472 77:0 78:0 79:0.018868 80:0.018868 81:0.018868 82:0.018868 83:0.018868 84:0 85:0 86:0 87:0.056604 88:0.018868 89:0 90:0 91:0 92:0.056604 93:0 94:0.018868 95:0 96:0 97:0 98:0.018868 99:0.018868 100:0.018868 
8.838136989225985 1:0 2:0 3:0 4:0 5:0.022222 6:0.022222 7:0 8:0 9:0 10:0.022222 11:0 12:0 13:0 14:0.022222 15:0 16:0 17:0.022222 18:0 19:0 20:0 21:0 22:0 23:0 24:0.022222 25:0.111111 26:0 27:0.022222 28:0 29:0 30:0.022222 31:0 32:0.022222 33:0 34:0 35:0 36:0 37:0 38:0 39:0 40:0.022222 41:0 42:0.022222 43:0.022222 44:0.022222 45:0 46:0.022222 47:0 48:0 49:0 50:0 51:0 52:0 53:0.022222 54:0.022222 55:0 56:0 57:0.022222 58:0 59:0.022222 60:0.044444 61:0.155556 62:0 63:0.022222 64:0 65:0 66:0 67:0 68:0 69:0 70:0 71:0 72:0.044444 73:0 74:0 75:0 76:0 77:0 78:0 79:0 80:0 81:0.022222 82:0 83:0 84:0.022222 85:0.022222 86:0 87:0.022222 88:0 89:0 90:0 91:0 92:0 93:0.044444 94:0 95:0.022222 96:0 97:0.022222 98:0 99:0.022222 100:0.022222 
56 1:0.044643 2:0.008929 3:0.017857 4:0 5:0.008929 6:0 7:0.008929 8:0 9:0 10:0.017857 11:0.017857 12:0 13:0.026786 14:0.008929 15:0.017857 16:0 17:0.008929 18:0 19:0 20:0.026786 21:0 22:0.008929 23:0.008929 24:0 25:0 26:0 27:0 28:0.008929 29:0.008929 30:0.008929 31:0 32:0.008929 33:0.008929 34:0.008929 35:0.008929 36:0.017857 37:0.008929 38:0 39:0.008929 40:0.017857 41:0 42:0.008929 43:0.008929 44:0.017857 45:0 46:0.026786 47:0.008929 48:0.017857 49:0 50:0.008929 51:0.017857 52:0.008929 53:0.044643 54:0.008929 55:0.017857 56:0.017857 57:0 58:0 59:0.008929 60:0.008929 61:0.026786 62:0.044643 63:0.026786 64:0.017857 65:0 66:0 67:0.008929 68:0.035714 69:0.008929 70:0.008929 71:0 72:0.008929 73:0.008929 74:0 75:0.026786 76:0 77:0 78:0.017857 79:0.017857 80:0.008929 81:0.008929 82:0 83:0.008929 84:0.008929 85:0.008929 86:0 87:0.017857 88:0.008929 89:0 90:0 91:0 92:0.017857 93:0.017857 94:0.017857 95:0 96:0.035714 97:0 98:0 99:0 100:0 
56 1:0.017241 2:0.017241 3:0 4:0 5:0 6:0.017241 7:0.051724 8:0.017241 9:0 10:0 11:0 12:0 13:0 14:0 15:0.051724 16:0 17:0 18:0 19:0 20:0.034483 21:0 22:0.017241 23:0 24:0 25:0.034483 26:0 27:0.017241 28:0.017241 29:0 30:0 31:0 32:0.034483 33:0.034483 34:0 35:0 36:0.017241 37:0.034483 38:0 39:0.017241 40:0 41:0 42:0.017241 43:0.017241 44:0 45:0 46:0 47:0 48:0 49:0 50:0.017241 51:0 52:0 53:0 54:0.017241 55:0 56:0 57:0 58:0.017241 59:0 60:0 61:0.034483 62:0 63:0.017241 64:0 65:0.017241 66:0 67:0 68:0.034483 69:0 70:0 71:0 72:0 73:0.017241 74:0 75:0.034483 76:0.051724 77:0.017241 78:0.034483 79:0.034483 80:0 81:0 82:0 83:0 84:0.051724 85:0.017241 86:0.017241 87:0.034483 88:0 89:0 90:0 91:0.017241 92:0 93:0.034483 94:0 95:0 96:0 97:0 98:0 99:0 100:0.017241 
56 1:0.026667 2:0 3:0 4:0.04 5:0 6:0.013333 7:0.026667 8:0.026667 9:0 10:0 11:0.013333 12:0.013333 13:0 14:0.013333 15:0 16:0 17:0.026667 18:0.013333 19:0.013333 20:0.013333 21:0.013333 22:0.013333 23:0 24:0 25:0.026667 26:0 27:0.026667 28:0 29:0 30:0 31:0 32:0 33:0.04 34:0 35:0.013333 36:0 37:0.053333 38:0.013333 39:0 40:0.013333 41:0 42:0 43:0 44:0.013333 45:0.013333 46:0.026667 47:0 48:0 49:0 50:0 51:0.013333 52:0.013333 53:0.026667 54:0 55:0 56:0.013333 57:0 58:0.013333 59:0 60:0 61:0.026667 62:0 63:0.013333 64:0 65:0.013333 66:0 67:0.013333 68:0.026667 69:0.013333 70:0.013333 71:0.013333 72:0.04 73:0 74:0.013333 75:0 76:0.013333 77:0 78:0.026667 79:0.013333 80:0 81:0.013333 82:0 83:0 84:0 85:0.013333 86:0 87:0.013333 88:0 89:0 90:0.026667 91:0.013333 92:0 93:0.013333 94:0 95:0.013333 96:0.013333 97:0.04 98:0 99:0.013333 100:0 
56 1:0 2:0 3:0.027027 4:0.040541 5:0 6:0.013514 7:0.013514 8:0.013514 9:0 10:0 11:0 12:0 13:0.013514 14:0.027027 15:0.013514 16:0 17:0.013514 18:0 19:0 20:0 21:0 22:0 23:0 24:0 25:0.027027 26:0.013514 27:0 28:0 29:0.013514 30:0 31:0.027027 32:0.013514 33:0 34:0 35:0 36:0.013514 37:0.013514 38:0.013514 39:0 40:0.013514 41:0 42:0 43:0 44:0.013514 45:0 46:0.027027 47:0 48:0.013514 49:0.040541 50:0 51:0 52:0 53:0.027027 54:0.040541 55:0.013514 56:0.013514 57:0 58:0 59:0.013514 60:0.013514 61:0.013514 62:0 63:0.013514 64:0.027027 65:0 66:0.013514 67:0 68:0.013514 69:0 70:0.013514 71:0.013514 72:0 73:0 74:0.013514 75:0.054054 76:0.013514 77:0.013514 78:0 79:0.013514 80:0.027027 81:0 82:0.013514 83:0.013514 84:0.013514 85:0.013514 86:0.013514 87:0.040541 88:0.027027 89:0 90:0.040541 91:0 92:0 93:0 94:0 95:0.013514 96:0 97:0.013514 98:0.013514 99:0 100:0 
56 1:0.010989 2:0 3:0 4:0.032967 5:0 6:0 7:0 8:0.021978 9:0.010989 10:0 11:0 12:0.010989 13:0 14:0.010989 15:0.021978 16:0 17:0.010989 18:0.021978 19:0 20:0.021978 21:0 22:0 23:0.010989 24:0 25:0 26:0 27:0 28:0 29:0.010989 30:0.021978 31:0.010989 32:0 33:0 34:0.010989 35:0 36:0.010989 37:0.010989 38:0.010989 39:0 40:0 41:0.021978 42:0 43:0 44:0 45:0.021978 46:0.010989 47:0 48:0.010989 49:0 50:0 51:0.021978 52:0.010989 53:0.065934 54:0.021978 55:0 56:0.010989 57:0 58:0 59:0.010989 60:0.021978 61:0.120879 62:0 63:0.010989 64:0 65:0 66:0.010989 67:0 68:0.010989 69:0 70:0.032967 71:0.021978 72:0 73:0 74:0.010989 75:0.021978 76:0.010989 77:0 78:0 79:0 80:0.010989 81:0.021978 82:0.010989 83:0 84:0.010989 85:0 86:0 87:0.010989 88:0 89:0 90:0.032967 91:0 92:0.021978 93:0.010989 94:0.010989 95:0.010989 96:0 97:0.032967 98:0.032967 99:0.010989 100:0.010989 
56 1:0 2:0.040323 3:0 4:0.016129 5:0 6:0.008065 7:0 8:0.008065 9:0 10:0.008065 11:0 12:0.008065 13:0.008065 14:0.008065 15:0.008065 16:0 17:0.008065 18:0.016129 19:0.008065 20:0 21:0.016129 22:0.008065 23:0.024194 24:0.024194 25:0 26:0.08871 27:0.008065 28:0 29:0.008065 30:0.008065 31:0.008065 32:0 33:0.056452 34:0 35:0.008065 36:0.008065 37:0.016129 38:0 39:0.008065 40:0 41:0.024194 42:0 43:0.016129 44:0.016129 45:0 46:0 47:0 48:0.016129 49:0 50:0.024194 51:0 52:0 53:0.008065 54:0 55:0 56:0 57:0.008065 58:0.040323 59:0.008065 60:0 61:0.008065 62:0.024194 63:0.016129 64:0 65:0.016129 66:0.024194 67:0.008065 68:0.016129 69:0 70:0 71:0.008065 72:0.016129 73:0 74:0 75:0.016129 76:0.008065 77:0 78:0.008065 79:0.008065 80:0.016129 81:0.008065 82:0.008065 83:0 84:0.008065 85:0.008065 86:0 87:0.024194 88:0.016129 89:0.024194 90:0.016129 91:0 92:0 93:0.008065 94:0 95:0.008065 96:0.032258 97:0 98:0.016129 99:0.024194 100:0.008065 
56 1:0.030303 2:0.045455 3:0.015152 4:0 5:0 6:0.075758 7:0.030303 8:0.030303 9:0 10:0.045455 11:0 12:0.030303 13:0 14:0.015152 15:0.015152 16:0 17:0 18:0.015152 19:0 20:0 21:0 22:0 23:0 24:0 25:0 26:0 27:0.015152 28:0.015152 29:0.015152 30:0 31:0 32:0 33:0.015152 34:0 35:0 36:0.015152 37:0.015152 38:0.015152 39:0 40:0 41:0 42:0 43:0.015152 44:0.015152 45:0 46:0 47:0 48:0 49:0 50:0 51:0 52:0 53:0.015152 54:0.045455 55:0 56:0 57:0 58:0.015152 59:0.060606 60:0.015152 61:0.075758 62:0 63:0 64:0.015152 65:0 66:0 67:0 68:0.030303 69:0 70:0 71:0 72:0 73:0.030303 74:0 75:0 76:0 77:0 78:0 79:0.015152 80:0.015152 81:0.030303 82:0 83:0.030303 84:0 85:0.015152 86:0 87:0 88:0.015152 89:0.015152 90:0.015152 91:0 92:0 93:0 94:0 95:0.015152 96:0 97:0.015152 98:0.015152 99:0 100:0.015152 
56 1:0.018519 2:0.018519 3:0 4:0.018519 5:0 6:0.018519 7:0.037037 8:0 9:0 10:0.018519 11:0 12:0 13:0.018519 14:0.018519 15:0.018519 16:0 17:0.018519 18:0 19:0 20:0 21:0 22:0 23:0 24:0 25:0 26:0 27:0.037037 28:0.018519 29:0 30:0 31:0.018519 32:0 33:0 34:0 35:0.018519 36:0.018519 37:0 38:0.018519 39:0.018519 40:0 41:0.037037 42:0 43:0.018519 44:0.018519 45:0 46:0 47:0.037037 48:0 49:0 50:0 51:0.018519 52:0 53:0.018519 54:0.018519 55:0 56:0.037037 57:0.018519 58:0 59:0.018519 60:0 61:0.074074 62:0 63:0 64:0 65:0 66:0 67:0 68:0 69:0 70:0 71:0.037037 72:0.018519 73:0.018519 74:0 75:0 76:0.018519 77:0 78:0.037037 79:0 80:0 81:0.018519 82:0 83:0 84:0.018519 85:0 86:0 87:0.037037 88:0.018519 89:0.018519 90:0 91:0.018519 92:0 93:0.037037 94:0.037037 95:0 96:0 97:0 98:0 99:0 100:0 
56 1:0.013333 2:0.006667 3:0.02 4:0.026667 5:0.013333 6:0.013333 7:0 8:0.013333 9:0.006667 10:0.013333 11:0.006667 12:0.02 13:0 14:0 15:0.013333 16:0.006667 17:0.026667 18:0.006667 19:0 20:0 21:0.006667 22:0 23:0 24:0 25:0.033333 26:0 27:0.006667 28:0.006667 29:0.013333 30:0.006667 31:0.006667 32:0.006667 33:0.026667 34:0.006667 35:0 36:0.033333 37:0.033333 38:0.006667 39:0 40:0 41:0.006667 42:0.006667 43:0.006667 44:0.013333 45:0 46:0.013333 47:0.013333 48:0 49:0.02 50:0.006667 51:0 52:0.006667 53:0.02 54:0 55:0.006667 56:0 57:0.013333 58:0.02 59:0 60:0.026667 61:0.026667 62:0.02 63:0.013333 64:0.02 65:0 66:0.013333 67:0.013333 68:0.02 69:0.02 70:0 71:0.026667 72:0.026667 73:0.02 74:0 75:0.04 76:0.006667 77:0.006667 78:0.013333 79:0 80:0.006667 81:0.006667 82:0 83:0 84:0 85:0 86:0.006667 87:0.006667 88:0.013333 89:0.006667 90:0.013333 91:0 92:0 93:0.006667 94:0.026667 95:0 96:0.006667 97:0.006667 98:0.013333 99:0.006667 100:0.006667 
56 1:0.037037 2:0 3:0 4:0.018519 5:0.018519 6:0.018519 7:0.018519 8:0.018519 9:0 10:0.018519 11:0 12:0 13:0 14:0.018519 15:0.018519 16:0 17:0 18:0.037037 19:0 20:0.018519 21:0 22:0.018519 23:0 24:0.037037 25:0 26:0 27:0 28:0.037037 29:0 30:0 31:0 32:0 33:0.037037 34:0.037037 35:0 36:0 37:0 38:0 39:0.018519 40:0.037037 41:0 42:0 43:0 44:0 45:0 46:0 47:0.018519 48:0 49:0 50:0 51:0 52:0 53:0.074074 54:0 55:0 56:0 57:0.018519 58:0.018519 59:0.018519 60:0 61:0.018519 62:0 63:0.018519 64:0 65:0 66:0 67:0 68:0 69:0 70:0 71:0.037037 72:0 73:0.018519 74:0.018519 75:0 76:0.018519 77:0 78:0.018519 79:0.018519 80:0.037037 81:0 82:0 83:0.018519 84:0.018519 85:0 86:0 87:0.074074 88:0 89:0 90:0 91:0 92:0.018519 93:0 94:0 95:0 96:0 97:0 98:0.037037 99:0 100:0.018519 
56 1:0.017699 2:0 3:0 4:0 5:0.00885 6:0.00885 7:0 8:0 9:0.00885 10:0.044248 11:0 12:0 13:0.00885 14:0.00885 15:0.035398 16:0.00885 17:0.00885 18:0 19:0 20:0.00885 21:0.017699 22:0.00885 23:0.00885 24:0 25:0.00885 26:0 27:0 28:0 29:0.026549 30:0 31:0 32:0.044248 33:0.026549 34:0 35:0 36:0.017699 37:0.00885 38:0.00885 39:0 40:0.017699 41:0.00885 42:0.00885 43:0.017699 44:0 45:0.00885 46:0.017699 47:0 48:0.017699 49:0.026549 50:0.017699 51:0 52:0 53:0.00885 54:0 55:0 56:0 57:0.00885 58:0.017699 59:0 60:0 61:0.00885 62:0.00885 63:0 64:0.017699 65:0.035398 66:0.026549 67:0 68:0 69:0 70:0.026549 71:0.00885 72:0 73:0 74:0 75:0.026549 76:0.017699 77:0.00885 78:0.00885 79:0.00885 80:0.00885 81:0 82:0.00885 83:0 84:0.017699 85:0.00885 86:0.00885 87:0.044248 88:0 89:0.017699 90:0.026549 91:0 92:0 93:0.026549 94:0.061947 95:0 96:0 97:0.00885 98:0 99:0.035398 100:0 
56 1:0 2:0.010526 3:0 4:0.010526 5:0.010526 6:0 7:0 8:0.010526 9:0 10:0 11:0.010526 12:0.010526 13:0.021053 14:0.031579 15:0 16:0.021053 17:0.010526 18:0.010526 19:0.010526 20:0.021053 21:0.010526 22:0.010526 23:0.010526 24:0 25:0 26:0.031579 27:0 28:0.010526 29:0.021053 30:0.010526 31:0 32:0.021053 33:0 34:0.010526 35:0.010526 36:0.031579 37:0.021053 38:0.010526 39:0 40:0.021053 41:0.021053 42:0.010526 43:0.010526 44:0 45:0 46:0 47:0.010526 48:0 49:0.010526 50:0 51:0 52:0 53:0 54:0.010526 55:0 56:0.010526 57:0.010526 58:0.021053 59:0 60:0.021053 61:0.031579 62:0.010526 63:0.010526 64:0.031579 65:0.021053 66:0 67:0.010526 68:0 69:0.031579 70:0 71:0.010526 72:0.021053 73:0.031579 74:0.010526 75:0.010526 76:0 77:0 78:0.010526 79:0 80:0 81:0.021053 82:0 83:0 84:0 85:0 86:0.010526 87:0.021053 88:0.031579 89:0.021053 90:0.021053 91:0 92:0.042105 93:0 94:0 95:0.010526 96:0.010526 97:0.010526 98:0 99:0 100:0 
56 1:0 2:0 3:0.035088 4:0.035088 5:0.017544 6:0 7:0 8:0 9:0 10:0.017544 11:0 12:0.035088 13:0 14:0 15:0 16:0 17:0.017544 18:0.017544 19:0.017544 20:0.017544 21:0.070175 22:0 23:0 24:0 25:0 26:0 27:0 28:0.017544 29:0 30:0 31:0 32:0.017544 33:0 34:0 35:0.017544 36:0.035088 37:0 38:0.052632 39:0 40:0 41:0 42:0.017544 43:0 44:0 45:0 46:0 47:0 48:0.017544 49:0.017544 50:0 51:0 52:0 53:0.017544 54:0.017544 55:0.017544 56:0 57:0.035088 58:0 59:0.017544 60:0 61:0.052632 62:0 63:0.035088 64:0 65:0 66:0 67:0.017544 68:0 69:0.052632 70:0 71:0.017544 72:0 73:0.017544 74:0 75:0 76:0.017544 77:0 78:0.017544 79:0 80:0 81:0.035088 82:0 83:0 84:0 85:0 86:0 87:0.017544 88:0 89:0.052632 90:0 91:0.017544 92:0 93:0.017544 94:0 95:0.017544 96:0 97:0 98:0 99:0.035088 100:0 
56 1:0.01 2:0 3:0.01 4:0.03 5:0 6:0.01 7:0.01 8:0.01 9:0.01 10:0.01 11:0.01 12:0 13:0.01 14:0.01 15:0.01 16:0 17:0.01 18:0.01 19:0 20:0.01 21:0.01 22:0.02 23:0 24:0.03 25:0.04 26:0.02 27:0 28:0 29:0 30:0 31:0 32:0 33:0.01 34:0 35:0.02 36:0 37:0.01 38:0.04 39:0 40:0.02 41:0.01 42:0.01 43:0.02 44:0.03 45:0 46:0.02 47:0.01 48:0 49:0.02 50:0 51:0 52:0 53:0.04 54:0.01 55:0 56:0 57:0.01 58:0.02 59:0 60:0.01 61:0.01 62:0 63:0.02 64:0 65:0.01 66:0 67:0.01 68:0.01 69:0.03 70:0.02 71:0.04 72:0.01 73:0 74:0.01 75:0 76:0 77:0.02 78:0.01 79:0.02 80:0 81:0.02 82:0 83:0 84:0.01 85:0 86:0.01 87:0 88:0 89:0.03 90:0.01 91:0.01 92:0 93:0 94:0 95:0 96:0.03 97:0.03 98:0 99:0 100:0.03 
56 1:0.026316 2:0 3:0 4:0 5:0.013158 6:0.013158 7:0.026316 8:0.026316 9:0 10:0.013158 11:0 12:0 13:0.013158 14:0 15:0 16:0 17:0 18:0 19:0 20:0.052632 21:0.013158 22:0 23:0.013158 24:0 25:0 26:0 27:0 28:0.026316 29:0 30:0 31:0.052632 32:0 33:0 34:0 35:0.039474 36:0 37:0 38:0.013158 39:0 40:0 41:0 42:0 43:0 44:0 45:0 46:0 47:0.013158 48:0.026316 49:0.013158 50:0 51:0 52:0.013158 53:0.026316 54:0.013158 55:0.013158 56:0.013158 57:0 58:0.013158 59:0.013158 60:0.013158 61:0.013158 62:0.013158 63:0.013158 64:0.013158 65:0.013158 66:0.013158 67:0 68:0 69:0.013158 70:0.013158 71:0.026316 72:0 73:0.026316 74:0 75:0.013158 76:0 77:0.013158 78:0 79:0.039474 80:0.013158 81:0.026316 82:0 83:0 84:0.026316 85:0.013158 86:0 87:0.013158 88:0.013158 89:0 90:0 91:0 92:0.013158 93:0.039474 94:0 95:0 96:0 97:0.013158 98:0.026316 99:0.065789 100:0 
3.997986096102823 1:0.011111 2:0 3:0.011111 4:0.033333 5:0 6:0.011111 7:0.011111 8:0 9:0 10:0 11:0.011111 12:0.022222 13:0 14:0.022222 15:0 16:0 17:0 18:0 19:0 20:0 21:0.022222 22:0.011111 23:0.011111 24:0 25:0.033333 26:0 27:0.022222 28:0 29:0 30:0 31:0.022222 32:0 33:0.022222 34:0.011111 35:0 36:0 37:0.022222 38:0.022222 39:0 40:0.011111 41:0.011111 42:0 43:0 44:0.011111 45:0 46:0.022222 47:0 48:0.033333 49:0 50:0.011111 51:0.011111 52:0.011111 53:0.011111 54:0.033333 55:0 56:0 57:0.011111 58:0.011111 59:0.011111 60:0 61:0.055556 62:0.011111 63:0.044444 64:0 65:0 66:0 67:0.011111 68:0.011111 69:0.011111 70:0 71:0.022222 72:0.011111 73:0.022222 74:0.022222 75:0.022222 76:0.011111 77:0 78:0.022222 79:0 80:0 81:0.011111 82:0 83:0 84:0.011111 85:0.011111 86:0 87:0.022222 88:0 89:0.011111 90:0.011111 91:0.011111 92:0 93:0.011111 94:0 95:0 96:0.011111 97:0.011111 98:0.022222 99:0.033333 100:0.011111 
-55.80628590551577 1:0.05 2:0.05 3:0 4:0 5:0 6:0.025 7:0.05 8:0 9:0 10:0 11:0 12:0 13:0 14:0 15:0.025 16:0 17:0 18:0 19:0 20:0 21:0.025 22:0 23:0 24:0 25:0 26:0 27:0 28:0 29:0 30:0 31:0.025 32:0.05 33:0.05 34:0 35:0 36:0 37:0.05 38:0 39:0 40:0 41:0 42:0 43:0 44:0 45:0 46:0 47:0 48:0 49:0.05 50:0 51:0 52:0 53:0 54:0 55:0 56:0.025 57:0 58:0 59:0.025 60:0 61:0 62:0.025 63:0 64:0 65:0 66:0 67:0 68:0.025 69:0 70:0 71:0 72:0.025 73:0 74:0 75:0 76:0.025 77:0 78:0.025 79:0 80:0 81:0 82:0 83:0 84:0.025 85:0.075 86:0.025 87:0.025 88:0 89:0.075 90:0.075 91:0 92:0 93:0 94:0 95:0 96:0 97:0.025 98:0 99:0.05 100:0 
-44.16817592695234 1:0.011494 2:0.022989 3:0 4:0.011494 5:0.011494 6:0 7:0.022989 8:0 9:0 10:0 11:0 12:0 13:0 14:0.011494 15:0.011494 16:0 17:0 18:0.034483 19:0.011494 20:0.057471 21:0 22:0.011494 23:0.011494 24:0 25:0.034483 26:0 27:0.011494 28:0.011494 29:0 30:0 31:0 32:0 33:0.057471 34:0.034483 35:0.011494 36:0 37:0 38:0.011494 39:0 40:0.011494 41:0.011494 42:0.011494 43:0 44:0 45:0.011494 46:0 47:0.022989 48:0 49:0.011494 50:0.011494 51:0.011494 52:0.022989 53:0.022989 54:0.011494 55:0 56:0 57:0 58:0 59:0.011494 60:0.011494 61:0 62:0 63:0.011494 64:0 65:0.011494 66:0 67:0.022989 68:0.034483 69:0.011494 70:0 71:0.034483 72:0 73:0.011494 74:0.011494 75:0.022989 76:0.022989 77:0 78:0.011494 79:0.011494 80:0 81:0.011494 82:0 83:0.022989 84:0.011494 85:0 86:0 87:0.034483 88:0 89:0.011494 90:0 91:0.011494 92:0.011494 93:0 94:0 95:0 96:0 97:0.011494 98:0 99:0.034483 100:0.034483 
-56 1:0.012195 2:0 3:0 4:0 5:0 6:0.012195 7:0 8:0.02439 9:0 10:0.012195 11:0.012195 12:0 13:0 14:0 15:0 16:0 17:0 18:0 19:0.012195 20:0.02439 21:0.02439 22:0 23:0.012195 24:0 25:0.02439 26:0 27:0 28:0.036585 29:0.012195 30:0 31:0 32:0.012195 33:0.073171 34:0 35:0.012195 36:0.012195 37:0.02439 38:0.012195 39:0.012195 40:0.02439 41:0.012195 42:0.012195 43:0.012195 44:0 45:0 46:0 47:0.012195 48:0.012195 49:0.012195 50:0 51:0 52:0.012195 53:0 54:0.02439 55:0.012195 56:0 57:0.012195 58:0.012195 59:0.012195 60:0 61:0.02439 62:0 63:0.012195 64:0.02439 65:0.02439 66:0.012195 67:0.02439 68:0 69:0 70:0 71:0 72:0 73:0 74:0 75:0.04878 76:0 77:0 78:0 79:0.073171 80:0.012195 81:0 82:0.012195 83:0 84:0.012195 85:0.012195 86:0 87:0.02439 88:0.012195 89:0.012195 90:0.036585 91:0.012195 92:0 93:0.012195 94:0 95:0 96:0.012195 97:0 98:0 99:0.02439 100:0 
-43.722673884387 1:0 2:0 3:0 4:0.011765 5:0.011765 6:0 7:0 8:0 9:0.023529 10:0 11:0 12:0.023529 13:0.011765 14:0.023529 15:0.023529 16:0 17:0.011765 18:0.011765 19:0.023529 20:0.047059 21:0 22:0.023529 23:0 24:0 25:0.023529 26:0 27:0.011765 28:0.023529 29:0 30:0 31:0 32:0.011765 33:0 34:0 35:0.011765 36:0 37:0.011765 38:0.011765 39:0 40:0 41:0.011765 42:0.011765 43:0 44:0.011765 45:0.011765 46:0.035294 47:0 48:0 49:0.011765 50:0 51:0.011765 52:0.011765 53:0 54:0.023529 55:0 56:0 57:0.011765 58:0 59:0 60:0 61:0.011765 62:0.011765 63:0.023529 64:0 65:0.035294 66:0 67:0 68:0.011765 69:0 70:0.011765 71:0.035294 72:0 73:0 74:0.011765 75:0.047059 76:0.023529 77:0.011765 78:0.023529 79:0.023529 80:0.023529 81:0.023529 82:0.023529 83:0 84:0 85:0 86:0 87:0.047059 88:0 89:0 90:0.023529 91:0 92:0.011765 93:0.011765 94:0 95:0.011765 96:0.011765 97:0.023529 98:0 99:0 100:0 
-27.01670067709103 1:0 2:0.014706 3:0 4:0.029412 5:0.058824 6:0 7:0 8:0 9:0.014706 10:0 11:0 12:0.014706 13:0 14:0.014706 15:0 16:0 17:0 18:0 19:0 20:0.029412 21:0.014706 22:0.014706 23:0.029412 24:0 25:0.014706 26:0 27:0.029412 28:0.044118 29:0.014706 30:0.029412 31:0 32:0 33:0 34:0.014706 35:0 36:0 37:0 38:0.014706 39:0 40:0 41:0.014706 42:0.014706 43:0 44:0.029412 45:0 46:0.044118 47:0 48:0 49:0 50:0 51:0 52:0.029412 53:0 54:0.029412 55:0 56:0.014706 57:0 58:0 59:0 60:0 61:0 62:0.014706 63:0.044118 64:0 65:0.014706 66:0 67:0 68:0 69:0.044118 70:0 71:0.044118 72:0 73:0.014706 74:0.014706 75:0.029412 76:0.029412 77:0 78:0.014706 79:0.014706 80:0.014706 81:0.029412 82:0 83:0 84:0 85:0 86:0 87:0.044118 88:0 89:0.014706 90:0 91:0.014706 92:0 93:0 94:0 95:0 96:0.014706 97:0 98:0 99:0 100:0.014706 
-29.11788996937078 1:0.009091 2:0.009091 3:0 4:0.018182 5:0 6:0.018182 7:0 8:0.027273 9:0.009091 10:0.018182 11:0.009091 12:0.009091 13:0 14:0.009091 15:0.009091 16:0 17:0.009091 18:0.009091 19:0.009091 20:0.027273 21:0.009091 22:0.027273 23:0 24:0 25:0.027273 26:0.018182 27:0.009091 28:0.009091 29:0 30:0.009091 31:0.009091 32:0 33:0 34:0 35:0 36:0 37:0.009091 38:0.009091 39:0.009091 40:0.009091 41:0.018182 42:0.009091 43:0 44:0.018182 45:0.009091 46:0.036364 47:0 48:0 49:0.009091 50:0 51:0.009091 52:0.027273 53:0.009091 54:0.009091 55:0.027273 56:0.009091 57:0.018182 58:0 59:0 60:0.018182 61:0.018182 62:0 63:0.009091 64:0 65:0 66:0.009091 67:0.018182 68:0.009091 69:0.009091 70:0.018182 71:0.009091 72:0 73:0.018182 74:0.009091 75:0.045455 76:0.009091 77:0.018182 78:0.009091 79:0 80:0.009091 81:0.009091 82:0.018182 83:0.009091 84:0 85:0.009091 86:0.009091 87:0.018182 88:0.009091 89:0.018182 90:0.009091 91:0.009091 92:0 93:0 94:0.018182 95:0.009091 96:0.018182 97:0.009091 98:0.018182 99:0 100:0.009091 
-11.11505404755546 1:0 2:0 3:0.010309 4:0.020619 5:0.010309 6:0 7:0 8:0 9:0 10:0.010309 11:0 12:0.020619 13:0.020619 14:0.020619 15:0.020619 16:0 17:0 18:0.010309 19:0 20:0.030928 21:0.020619 22:0.010309 23:0.020619 24:0 25:0.020619 26:0 27:0 28:0 29:0 30:0.010309 31:0 32:0 33:0 34:0 35:0 36:0 37:0.010309 38:0.020619 39:0.051546 40:0 41:0 42:0.010309 43:0 44:0 45:0 46:0.030928 47:0 48:0.020619 49:0 50:0 51:0.030928 52:0 53:0 54:0 55:0.020619 56:0.010309 57:0.020619 58:0.020619 59:0.020619 60:0 61:0.020619 62:0.020619 63:0.020619 64:0.010309 65:0 66:0 67:0 68:0 69:0.020619 70:0 71:0.020619 72:0.041237 73:0.010309 74:0.010309 75:0.051546 76:0 77:0 78:0 79:0.010309 80:0.041237 81:0.020619 82:0.010309 83:0 84:0.020619 85:0 86:0 87:0.020619 88:0 89:0 90:0.010309 91:0.030928 92:0.010309 93:0 94:0 95:0.020619 96:0.010309 97:0.010309 98:0 99:0.010309 100:0.020619 
-56 1:0 2:0.014925 3:0.014925 4:0.014925 5:0 6:0 7:0 8:0 9:0 10:0.014925 11:0.029851 12:0.029851 13:0 14:0.014925 15:0.014925 16:0 17:0 18:0 19:0 20:0 21:0.044776 22:0 23:0 24:0.014925 25:0 26:0 27:0 28:0 29:0.014925 30:0 31:0 32:0 33:0.014925 34:0 35:0 36:0.014925 37:0 38:0.014925 39:0 40:0.014925 41:0 42:0.014925 43:0 44:0.014925 45:0 46:0.014925 47:0 48:0.029851 49:0 50:0 51:0 52:0.014925 53:0 54:0.014925 55:0.014925 56:0.044776 57:0.014925 58:0 59:0 60:0.014925 61:0.014925 62:0 63:0.014925 64:0.014925 65:0 66:0 67:0 68:0 69:0 70:0 71:0.029851 72:0.044776 73:0 74:0 75:0.029851 76:0.029851 77:0 78:0.029851 79:0.014925 80:0.029851 81:0.044776 82:0 83:0 84:0.014925 85:0.029851 86:0 87:0.059701 88:0 89:0.029851 90:0.029851 91:0 92:0 93:0 94:0.014925 95:0 96:0 97:0.014925 98:0 99:0.029851 100:0 
-29.05912556335566 1:0 2:0 3:0.016393 4:0 5:0 6:0 7:0.032787 8:0.016393 9:0 10:0.032787 11:0 12:0 13:0 14:0 15:0.016393 16:0 17:0 18:0 19:0 20:0 21:0.032787 22:0 23:0 24:0 25:0 26:0.016393 27:0 28:0 29:0 30:0 31:0.016393 32:0 33:0.081967 34:0 35:0 36:0 37:0.032787 38:0 39:0 40:0.016393 41:0 42:0 43:0 44:0 45:0.032787 46:0 47:0.032787 48:0 49:0.04918 50:0 51:0 52:0 53:0 54:0 55:0 56:0.016393 57:0.032787 58:0 59:0.016393 60:0.016393 61:0 62:0 63:0 64:0.016393 65:0.016393 66:0.032787 67:0.016393 68:0 69:0.016393 70:0.032787 71:0.04918 72:0 73:0.016393 74:0 75:0.016393 76:0.016393 77:0 78:0 79:0 80:0 81:0 82:0.016393 83:0 84:0.032787 85:0.04918 86:0.032787 87:0.04918 88:0 89:0.04918 90:0 91:0 92:0 93:0 94:0.016393 95:0 96:0 97:0 98:0.016393 99:0 100:0 
-56 1:0.009524 2:0.028571 3:0.028571 4:0 5:0 6:0 7:0.009524 8:0 9:0 10:0.009524 11:0 12:0.028571 13:0.009524 14:0.009524 15:0 16:0.009524 17:0.009524 18:0.009524 19:0.009524 20:0.009524 21:0 22:0.019048 23:0 24:0.009524 25:0 26:0 27:0.009524 28:0.019048 29:0.038095 30:0 31:0.009524 32:0.009524 33:0.019048 34:0 35:0.009524 36:0.009524 37:0.009524 38:0.019048 39:0 40:0 41:0 42:0.019048 43:0.038095 44:0.038095 45:0 46:0.028571 47:0 48:0 49:0.009524 50:0.009524 51:0 52:0.009524 53:0.066667 54:0 55:0 56:0.009524 57:0.019048 58:0.009524 59:0 60:0.009524 61:0.028571 62:0.009524 63:0 64:0 65:0.009524 66:0 67:0 68:0.019048 69:0 70:0 71:0.009524 72:0.028571 73:0.028571 74:0.009524 75:0.009524 76:0 77:0 78:0.019048 79:0 80:0.019048 81:0 82:0 83:0 84:0 85:0.028571 86:0.009524 87:0.028571 88:0.009524 89:0.028571 90:0.038095 91:0 92:0 93:0 94:0 95:0 96:0.009524 97:0.019048 98:0.009524 99:0 100:0 
-56 1:0.026316 2:0 3:0.013158 4:0.013158 5:0.013158 6:0 7:0.026316 8:0.039474 9:0 10:0.013158 11:0.013158 12:0.039474 13:0 14:0.013158 15:0.013158 16:0 17:0 18:0 19:0 20:0 21:0 22:0 23:0 24:0 25:0.013158 26:0 27:0.013158 28:0.026316 29:0.013158 30:0.013158 31:0.039474 32:0 33:0.013158 34:0 35:0 36:0 37:0.026316 38:0 39:0 40:0 41:0 42:0.013158 43:0.013158 44:0.013158 45:0 46:0.026316 47:0.013158 48:0 49:0 50:0.013158 51:0.013158 52:0 53:0.052632 54:0.013158 55:0.013158 56:0.013158 57:0 58:0.052632 59:0 60:0.013158 61:0.052632 62:0.013158 63:0 64:0 65:0 66:0 67:0.013158 68:0 69:0 70:0 71:0 72:0.026316 73:0.013158 74:0 75:0 76:0 77:0 78:0.026316 79:0.013158 80:0.026316 81:0.039474 82:0 83:0 84:0 85:0 86:0.013158 87:0.039474 88:0 89:0 90:0.026316 91:0.026316 92:0 93:0 94:0 95:0.013158 96:0 97:0 98:0.013158 99:0 100:0 
-56 1:0 2:0.012987 3:0 4:0.012987 5:0 6:0 7:0 8:0.012987 9:0 10:0.012987 11:0 12:0.025974 13:0.012987 14:0.012987 15:0 16:0 17:0.012987 18:0 19:0 20:0.038961 21:0.038961 22:0 23:0 24:0 25:0.025974 26:0.012987 27:0 28:0.012987 29:0.025974 30:0.012987 31:0.012987 32:0 33:0.012987 34:0 35:0.012987 36:0 37:0.012987 38:0.025974 39:0.012987 40:0 41:0.025974 42:0.012987 43:0.012987 44:0.025974 45:0.012987 46:0 47:0 48:0 49:0 50:0 51:0 52:0.025974 53:0.038961 54:0.025974 55:0 56:0 57:0.025974 58:0.012987 59:0 60:0 61:0.025974 62:0 63:0 64:0.025974 65:0.012987 66:0 67:0.012987 68:0 69:0.012987 70:0 71:0.038961 72:0.012987 73:0.012987 74:0.012987 75:0.012987 76:0.038961 77:0 78:0 79:0.012987 80:0.012987 81:0 82:0 83:0.012987 84:0 85:0 86:0 87:0.038961 88:0.012987 89:0 90:0 91:0.025974 92:0.012987 93:0 94:0 95:0.038961 96:0 97:0 98:0 99:0.012987 100:0 
-41.83634760649331 1:0.020202 2:0.020202 3:0 4:0 5:0 6:0 7:0.010101 8:0 9:0 10:0.010101 11:0 12:0.020202 13:0 14:0.010101 15:0.010101 16:0.010101 17:0 18:0.010101 19:0.020202 20:0.020202 21:0.010101 22:0.020202 23:0.010101 24:0.010101 25:0 26:0.010101 27:0.010101 28:0.020202 29:0 30:0 31:0.020202 32:0.020202 33:0.040404 34:0 35:0.010101 36:0 37:0.020202 38:0.010101 39:0 40:0 41:0 42:0 43:0.010101 44:0.020202 45:0.030303 46:0 47:0 48:0.010101 49:0.030303 50:0.020202 51:0.020202 52:0.020202 53:0.030303 54:0.010101 55:0 56:0.010101 57:0.010101 58:0.040404 59:0.010101 60:0.020202 61:0.010101 62:0.010101 63:0 64:0.020202 65:0.010101 66:0 67:0 68:0 69:0 70:0.050505 71:0.010101 72:0.010101 73:0.010101 74:0 75:0.020202 76:0 77:0.010101 78:0.010101 79:0 80:0 81:0.030303 82:0.010101 83:0 84:0.010101 85:0 86:0.010101 87:0.010101 88:0 89:0.010101 90:0 91:0.010101 92:0 93:0 94:0.010101 95:0.010101 96:0 97:0.010101 98:0.020202 99:0 100:0.020202 
-22.13832316890456 1:0 2:0 3:0 4:0 5:0.018692 6:0 7:0.009346 8:0.009346 9:0 10:0 11:0.018692 12:0.009346 13:0 14:0 15:0.009346 16:0 17:0 18:0.009346 19:0.018692 20:0 21:0.009346 22:0.018692 23:0.009346 24:0.009346 25:0.028037 26:0.009346 27:0.028037 28:0 29:0.018692 30:0.009346 31:0.009346 32:0.009346 33:0.009346 34:0.009346 35:0 36:0 37:0.018692 38:0 39:0.028037 40:0.009346 41:0.028037 42:0 43:0 44:0.018692 45:0 46:0.009346 47:0 48:0.009346 49:0.009346 50:0 51:0.009346 52:0.037383 53:0.009346 54:0.018692 55:0.028037 56:0 57:0.018692 58:0.018692 59:0 60:0.009346 61:0.065421 62:0 63:0.009346 64:0 65:0 66:0 67:0 68:0 69:0.018692 70:0.009346 71:0.009346 72:0.037383 73:0.018692 74:0.009346 75:0.009346 76:0.009346 77:0.018692 78:0.018692 79:0.009346 80:0.009346 81:0.009346 82:0 83:0.018692 84:0.009346 85:0 86:0 87:0.065421 88:0.009346 89:0.009346 90:0.009346 91:0.009346 92:0.018692 93:0.009346 94:0 95:0.009346 96:0 97:0 98:0 99:0 100:0.009346 
-29.94253082936277 1:0.032258 2:0.016129 3:0.016129 4:0 5:0.016129 6:0 7:0.032258 8:0 9:0 10:0.016129 11:0.016129 12:0 13:0.032258 14:0 15:0 16:0 17:0.016129 18:0 19:0.016129 20:0.032258 21:0 22:0 23:0.016129 24:0.016129 25:0 26:0 27:0 28:0 29:0.032258 30:0 31:0 32:0.016129 33:0.016129 34:0 35:0 36:0.016129 37:0 38:0.016129 39:0 40:0 41:0.016129 42:0.016129 43:0 44:0 45:0.016129 46:0 47:0.016129 48:0 49:0.032258 50:0.016129 51:0.016129 52:0 53:0.096774 54:0 55:0 56:0 57:0 58:0.016129 59:0 60:0.016129 61:0.016129 62:0 63:0 64:0.016129 65:0 66:0 67:0 68:0.016129 69:0 70:0 71:0 72:0.016129 73:0 74:0 75:0 76:0.016129 77:0 78:0.016129 79:0.016129 80:0 81:0 82:0 83:0.016129 84:0 85:0.016129 86:0 87:0.032258 88:0.016129 89:0.048387 90:0.032258 91:0 92:0.032258 93:0 94:0.032258 95:0.016129 96:0 97:0 98:0.016129 99:0 100:0 
-8.097421599282066 1:0.011628 2:0 3:0.011628 4:0.023256 5:0.011628 6:0 7:0 8:0.011628 9:0.011628 10:0 11:0 12:0 13:0 14:0.011628 15:0.011628 16:0 17:0.011628 18:0 19:0 20:0.011628 21:0 22:0 23:0 24:0.011628 25:0 26:0.011628 27:0 28:0.023256 29:0 30:0.023256 31:0.011628 32:0.034884 33:0 34:0 35:0 36:0.011628 37:0.011628 38:0 39:0 40:0.023256 41:0.011628 42:0 43:0 44:0 45:0 46:0.011628 47:0.023256 48:0.011628 49:0.023256 50:0.011628 51:0.023256 52:0 53:0 54:0.023256 55:0 56:0.011628 57:0.034884 58:0.023256 59:0.023256 60:0 61:0 62:0.023256 63:0.023256 64:0.011628 65:0.011628 66:0.034884 67:0.011628 68:0.011628 69:0 70:0.023256 71:0.023256 72:0 73:0 74:0.011628 75:0.011628 76:0 77:0 78:0.023256 79:0.011628 80:0.011628 81:0 82:0 83:0 84:0 85:0.034884 86:0.023256 87:0.069767 88:0.011628 89:0.011628 90:0.034884 91:0 92:0 93:0.023256 94:0 95:0 96:0.011628 97:0 98:0.011628 99:0 100:0 
-56 1:0.018519 2:0.018519 3:0 4:0 5:0.018519 6:0.018519 7:0 8:0.009259 9:0 10:0 11:0 12:0 13:0 14:0.018519 15:0.009259 16:0 17:0 18:0.027778 19:0 20:0.009259 21:0.018519 22:0.009259 23:0 24:0 25:0.018519 26:0 27:0.018519 28:0.009259 29:0.018519 30:0.009259 31:0 32:0.018519 33:0.018519 34:0.018519 35:0 36:0 37:0.027778 38:0 39:0.009259 40:0 41:0.009259 42:0 43:0.009259 44:0 45:0.009259 46:0.037037 47:0 48:0.009259 49:0.009259 50:0 51:0 52:0.018519 53:0 54:0.009259 55:0 56:0 57:0 58:0.018519 59:0.037037 60:0 61:0.037037 62:0.027778 63:0 64:0.018519 65:0 66:0 67:0 68:0.027778 69:0.009259 70:0 71:0.009259 72:0.009259 73:0.009259 74:0 75:0.009259 76:0 77:0 78:0.018519 79:0.009259 80:0 81:0.018519 82:0.009259 83:0.009259 84:0 85:0.027778 86:0.027778 87:0.064815 88:0 89:0 90:0.027778 91:0 92:0.037037 93:0 94:0.009259 95:0 96:0.009259 97:0.018519 98:0.009259 99:0.018519 100:0.018519 
-41.34603509451458 1:0.009259 2:0 3:0 4:0.046296 5:0.018519 6:0 7:0.018519 8:0.009259 9:0.018519 10:0.009259 11:0.018519 12:0.009259 13:0 14:0.009259 15:0 16:0 17:0.009259 18:0.009259 19:0.027778 20:0.018519 21:0.009259 22:0.009259 23:0.009259 24:0 25:0.009259 26:0 27:0.018519 28:0.009259 29:0 30:0.027778 31:0.027778 32:0 33:0 34:0.018519 35:0 36:0 37:0 38:0.009259 39:0.018519 40:0 41:0 42:0 43:0.009259 44:0 45:0 46:0.009259 47:0 48:0 49:0 50:0.009259 51:0.037037 52:0.018519 53:0.009259 54:0.009259 55:0 56:0 57:0 58:0.009259 59:0.037037 60:0 61:0.037037 62:0.018519 63:0.027778 64:0 65:0 66:0.018519 67:0.037037 68:0.027778 69:0.009259 70:0 71:0 72:0.009259 73:0 74:0.009259 75:0.037037 76:0.027778 77:0.009259 78:0 79:0.009259 80:0.027778 81:0.027778 82:0.009259 83:0.027778 84:0 85:0.009259 86:0.009259 87:0 88:0 89:0 90:0 91:0.009259 92:0.018519 93:0 94:0.009259 95:0 96:0 97:0.009259 98:0 99:0.009259 100:0.009259 
-43.63882227088872 1:0.029851 2:0 3:0.014925 4:0.029851 5:0 6:0 7:0 8:0.059701 9:0.014925 10:0.029851 11:0.014925 12:0 13:0.014925 14:0.014925 15:0 16:0.044776 17:0.029851 18:0 19:0.044776 20:0.014925 21:0.014925 22:0.014925 23:0.029851 24:0.014925 25:0.014925 26:0.044776 27:0 28:0.014925 29:0 30:0.014925 31:0 32:0 33:0 34:0.014925 35:0 36:0 37:0.014925 38:0 39:0 40:0.014925 41:0.014925 42:0 43:0 44:0 45:0.014925 46:0.014925 47:0.014925 48:0 49:0 50:0 51:0.044776 52:0 53:0 54:0 55:0 56:0 57:0.014925 58:0.014925 59:0 60:0.014925 61:0 62:0 63:0.029851 64:0.014925 65:0 66:0 67:0 68:0.014925 69:0.014925 70:0.014925 71:0 72:0 73:0 74:0 75:0 76:0.014925 77:0.014925 78:0 79:0 80:0.014925 81:0.014925 82:0 83:0 84:0.029851 85:0.029851 86:0 87:0 88:0 89:0 90:0 91:0 92:0 93:0 94:0 95:0.014925 96:0.029851 97:0 98:0 99:0 100:0.029851 
-3.698763637847306 1:0.022727 2:0.056818 3:0.011364 4:0.022727 5:0 6:0.022727 7:0 8:0.022727 9:0.011364 10:0 11:0 12:0 13:0 14:0 15:0 16:0 17:0 18:0 19:0.022727 20:0.011364 21:0.034091 22:0 23:0.011364 24:0 25:0 26:0.011364 27:0 28:0.022727 29:0.011364 30:0 31:0 32:0 33:0.011364 34:0.034091 35:0 36:0.022727 37:0 38:0 39:0.011364 40:0.011364 41:0.022727 42:0 43:0.022727 44:0 45:0 46:0 47:0.011364 48:0 49:0 50:0.022727 51:0 52:0 53:0.011364 54:0 55:0 56:0 57:0.011364 58:0 59:0.034091 60:0 61:0.022727 62:0.011364 63:0.022727 64:0.022727 65:0.011364 66:0 67:0.022727 68:0.011364 69:0.011364 70:0 71:0 72:0 73:0 74:0.011364 75:0 76:0.022727 77:0.022727 78:0 79:0.045455 80:0.011364 81:0.022727 82:0 83:0.034091 84:0 85:0 86:0.011364 87:0 88:0 89:0.022727 90:0.011364 91:0 92:0.022727 93:0.034091 94:0.022727 95:0.011364 96:0.011364 97:0.011364 98:0.011364 99:0 100:0 
-5.990827765673005 1:0.021978 2:0.032967 3:0 4:0.043956 5:0.032967 6:0.021978 7:0 8:0.010989 9:0.010989 10:0.010989 11:0 12:0 13:0 14:0 15:0.010989 16:0 17:0.010989 18:0 19:0 20:0 21:0.010989 22:0 23:0 24:0 25:0.010989 26:0 27:0.010989 28:0.021978 29:0 30:0.032967 31:0 32:0 33:0.021978 34:0 35:0 36:0 37:0.010989 38:0.010989 39:0.010989 40:0.010989 41:0.043956 42:0.021978 43:0 44:0 45:0.010989 46:0 47:0.010989 48:0.010989 49:0.010989 50:0 51:0.010989 52:0.010989 53:0.010989 54:0 55:0.010989 56:0 57:0.010989 58:0.010989 59:0.021978 60:0 61:0.032967 62:0 63:0.032967 64:0.010989 65:0 66:0.021978 67:0 68:0 69:0 70:0.010989 71:0 72:0 73:0 74:0.010989 75:0 76:0.021978 77:0.010989 78:0.010989 79:0.021978 80:0.043956 81:0 82:0 83:0.021978 84:0 85:0.010989 86:0.010989 87:0.010989 88:0.010989 89:0 90:0.032967 91:0 92:0.043956 93:0.010989 94:0.010989 95:0.010989 96:0 97:0.010989 98:0 99:0.010989 100:0.010989 
-48.8802841517684 1:0 2:0 3:0.022222 4:0.022222 5:0.011111 6:0.033333 7:0.011111 8:0.022222 9:0 10:0.011111 11:0.011111 12:0.033333 13:0 14:0 15:0 16:0 17:0 18:0.011111 19:0.033333 20:0.055556 21:0.022222 22:0.022222 23:0 24:0.011111 25:0.022222 26:0.022222 27:0 28:0 29:0 30:0.022222 31:0 32:0.011111 33:0 34:0 35:0.011111 36:0 37:0 38:0.033333 39:0.044444 40:0.011111 41:0.011111 42:0 43:0 44:0 45:0 46:0 47:0 48:0 49:0 50:0 51:0 52:0.011111 53:0.044444 54:0.011111 55:0.011111 56:0 57:0 58:0 59:0 60:0.011111 61:0.033333 62:0 63:0.033333 64:0 65:0 66:0 67:0 68:0 69:0 70:0.011111 71:0.033333 72:0.011111 73:0.022222 74:0.011111 75:0.011111 76:0.022222 77:0 78:0.011111 79:0 80:0.011111 81:0.022222 82:0 83:0.011111 84:0 85:0 86:0.022222 87:0.011111 88:0 89:0.011111 90:0 91:0.011111 92:0 93:0 94:0 95:0 96:0 97:0 98:0.055556 99:0.033333 100:0 
-29.71963258557302 1:0 2:0.011236 3:0 4:0.011236 5:0.011236 6:0.022472 7:0.022472 8:0 9:0 10:0.011236 11:0.011236 12:0.011236 13:0.011236 14:0 15:0 16:0 17:0.022472 18:0 19:0 20:0.022472 21:0 22:0.044944 23:0 24:0.011236 25:0.011236 26:0.011236 27:0 28:0 29:0.011236 30:0.011236 31:0.011236 32:0 33:0 34:0.05618 35:0 36:0.011236 37:0 38:0 39:0 40:0 41:0.022472 42:0.033708 43:0.022472 44:0.011236 45:0 46:0.05618 47:0.011236 48:0 49:0 50:0 51:0.011236 52:0.022472 53:0.011236 54:0.022472 55:0.022472 56:0 57:0.033708 58:0 59:0.011236 60:0.022472 61:0.022472 62:0.022472 63:0 64:0.022472 65:0.022472 66:0.011236 67:0.022472 68:0 69:0.011236 70:0 71:0.011236 72:0 73:0.011236 74:0.011236 75:0 76:0 77:0 78:0.033708 79:0 80:0 81:0.022472 82:0.011236 83:0.022472 84:0 85:0 86:0 87:0 88:0 89:0 90:0.011236 91:0 92:0.011236 93:0 94:0.011236 95:0 96:0.033708 97:0 98:0 99:0.011236 100:0 
-56 1:0.020408 2:0.030612 3:0 4:0.020408 5:0.030612 6:0 7:0.010204 8:0.020408 9:0 10:0.010204 11:0.010204 12:0.010204 13:0 14:0.010204 15:0 16:0 17:0.010204 18:0 19:0 20:0 21:0 22:0.010204 23:0.020408 24:0.05102 25:0.061224 26:0.010204 27:0 28:0 29:0.010204 30:0 31:0.010204 32:0 33:0.040816 34:0.020408 35:0.020408 36:0 37:0 38:0 39:0 40:0 41:0 42:0 43:0 44:0.030612 45:0 46:0.010204 47:0 48:0 49:0.010204 50:0 51:0 52:0.010204 53:0.020408 54:0.030612 55:0.010204 56:0.010204 57:0.010204 58:0 59:0 60:0 61:0.030612 62:0.020408 63:0 64:0.010204 65:0.010204 66:0.010204 67:0 68:0 69:0 70:0.020408 71:0 72:0 73:0 74:0 75:0.030612 76:0.010204 77:0.010204 78:0.010204 79:0.010204 80:0.010204 81:0.020408 82:0 83:0.010204 84:0 85:0 86:0 87:0.010204 88:0.020408 89:0 90:0.030612 91:0 92:0 93:0.010204 94:0 95:0 96:0.020408 97:0.020408 98:0.020408 99:0.05102 100:0.020408 
-56 1:0 2:0.020833 3:0 4:0.041667 5:0.020833 6:0.020833 7:0.020833 8:0.020833 9:0.010417 10:0 11:0 12:0 13:0.010417 14:0.010417 15:0 16:0 17:0.010417 18:0.010417 19:0 20:0 21:0 22:0 23:0.010417 24:0.010417 25:0 26:0.03125 27:0.010417 28:0.020833 29:0 30:0.010417 31:0 32:0.010417 33:0 34:0 35:0 36:0 37:0 38:0 39:0 40:0 41:0.041667 42:0 43:0 44:0 45:0.010417 46:0 47:0 48:0.03125 49:0.010417 50:0.03125 51:0.020833 52:0 53:0.010417 54:0.03125 55:0 56:0 57:0 58:0.020833 59:0.020833 60:0.020833 61:0.03125 62:0 63:0 64:0 65:0.010417 66:0.010417 67:0.010417 68:0.010417 69:0.010417 70:0.010417 71:0.010417 72:0.010417 73:0 74:0 75:0.020833 76:0.010417 77:0.010417 78:0.010417 79:0.010417 80:0.010417 81:0 82:0.010417 83:0.041667 84:0.010417 85:0 86:0.03125 87:0.010417 88:0 89:0.020833 90:0 91:0 92:0.041667 93:0.03125 94:0.03125 95:0 96:0 97:0.03125 98:0 99:0 100:0 
-56 1:0 2:0.015873 3:0 4:0.015873 5:0 6:0.015873 7:0 8:0 9:0 10:0 11:0.015873 12:0.031746 13:0 14:0 15:0.015873 16:0 17:0 18:0 19:0 20:0 21:0.015873 22:0 23:0 24:0 25:0 26:0.015873 27:0 28:0.015873 29:0 30:0.015873 31:0 32:0 33:0.031746 34:0 35:0 36:0 37:0 38:0.015873 39:0.047619 40:0.015873 41:0.015873 42:0 43:0.015873 44:0.015873 45:0 46:0.015873 47:0 48:0 49:0 50:0 51:0 52:0 53:0.079365 54:0.031746 55:0 56:0.031746 57:0 58:0 59:0.015873 60:0 61:0.111111 62:0 63:0.015873 64:0 65:0 66:0 67:0.015873 68:0 69:0 70:0.031746 71:0.015873 72:0.015873 73:0.031746 74:0 75:0 76:0 77:0 78:0 79:0.015873 80:0.015873 81:0.047619 82:0.031746 83:0.015873 84:0 85:0 86:0.015873 87:0.015873 88:0 89:0 90:0 91:0.015873 92:0.015873 93:0.015873 94:0 95:0.015873 96:0 97:0 98:0.015873 99:0.015873 100:0 
-43.09824089697082 1:0.028986 2:0 3:0 4:0 5:0 6:0.043478 7:0.028986 8:0.014493 9:0.014493 10:0.028986 11:0 12:0.014493 13:0 14:0.014493 15:0.014493 16:0 17:0 18:0.014493 19:0 20:0.028986 21:0.072464 22:0 23:0 24:0 25:0 26:0 27:0.028986 28:0.014493 29:0 30:0.014493 31:0 32:0.014493 33:0.014493 34:0 35:0 36:0 37:0 38:0 39:0.028986 40:0.028986 41:0.028986 42:0 43:0 44:0 45:0 46:0 47:0 48:0.014493 49:0 50:0 51:0 52:0 53:0.057971 54:0.014493 55:0 56:0 57:0.014493 58:0 59:0.057971 60:0 61:0.028986 62:0 63:0.014493 64:0 65:0 66:0 67:0 68:0.014493 69:0 70:0 71:0.014493 72:0 73:0.014493 74:0.014493 75:0.014493 76:0 77:0 78:0.014493 79:0 80:0 81:0 82:0 83:0.057971 84:0.028986 85:0 86:0 87:0 88:0.014493 89:0 90:0 91:0 92:0 93:0.043478 94:0 95:0 96:0 97:0.014493 98:0 99:0.028986 100:0.028986 
-16.8446243052225 1:0 2:0.016393 3:0.032787 4:0 5:0.04918 6:0.032787 7:0 8:0 9:0 10:0.016393 11:0 12:0 13:0 14:0.016393 15:0.032787 16:0.016393 17:0 18:0 19:0 20:0.032787 21:0 22:0 23:0.016393 24:0 25:0.016393 26:0 27:0.016393 28:0.016393 29:0 30:0 31:0 32:0 33:0 34:0.016393 35:0.016393 36:0.032787 37:0.016393 38:0 39:0 40:0.016393 41:0 42:0 43:0 44:0 45:0.016393 46:0.032787 47:0 48:0 49:0.032787 50:0 51:0 52:0.032787 53:0.016393 54:0 55:0 56:0 57:0.016393 58:0.065574 59:0.032787 60:0 61:0 62:0 63:0 64:0.016393 65:0 66:0.016393 67:0 68:0 69:0.016393 70:0.016393 71:0.032787 72:0 73:0.016393 74:0 75:0 76:0.016393 77:0 78:0 79:0 80:0 81:0.032787 82:0 83:0.032787 84:0 85:0 86:0.016393 87:0 88:0.016393 89:0 90:0.016393 91:0.016393 92:0 93:0 94:0 95:0 96:0 97:0.032787 98:0 99:0.016393 100:0.032787 
-8.314540891606423 1:0.009434 2:0.009434 3:0.018868 4:0.018868 5:0 6:0.028302 7:0.018868 8:0.028302 9:0 10:0 11:0 12:0.009434 13:0.009434 14:0.009434 15:0.009434 16:0 17:0 18:0.037736 19:0.009434 20:0.009434 21:0.009434 22:0 23:0.009434 24:0 25:0.009434 26:0.018868 27:0 28:0.037736 29:0 30:0 31:0 32:0.009434 33:0.009434 34:0.009434 35:0.009434 36:0 37:0 38:0 39:0 40:0.028302 41:0.009434 42:0.009434 43:0 44:0 45:0.009434 46:0.018868 47:0.037736 48:0 49:0.018868 50:0.009434 51:0.037736 52:0.009434 53:0.009434 54:0 55:0 56:0 57:0.009434 58:0 59:0.028302 60:0.009434 61:0.009434 62:0.009434 63:0 64:0.018868 65:0.009434 66:0 67:0 68:0.056604 69:0.009434 70:0.009434 71:0.018868 72:0 73:0.009434 74:0.009434 75:0.009434 76:0.018868 77:0.009434 78:0 79:0 80:0 81:0 82:0.028302 83:0.037736 84:0.009434 85:0 86:0 87:0.037736 88:0 89:0.009434 90:0.009434 91:0.009434 92:0.009434 93:0.009434 94:0.009434 95:0 96:0.009434 97:0.009434 98:0 99:0 100:0.018868 
-19.44532543914323 1:0 2:0 3:0.013889 4:0 5:0 6:0 7:0 8:0.013889 9:0 10:0.013889 11:0.013889 12:0.013889 13:0 14:0 15:0 16:0 17:0 18:0.013889 19:0 20:0.027778 21:0.027778 22:0.027778 23:0.055556 24:0.013889 25:0 26:0 27:0 28:0.055556 29:0.013889 30:0.013889 31:0 32:0 33:0.013889 34:0 35:0.013889 36:0 37:0 38:0.013889 39:0.027778 40:0 41:0 42:0 43:0 44:0 45:0 46:0.013889 47:0 48:0.027778 49:0.013889 50:0 51:0.013889 52:0.013889 53:0.027778 54:0.013889 55:0.027778 56:0 57:0.013889 58:0.013889 59:0 60:0.013889 61:0.055556 62:0 63:0.027778 64:0 65:0 66:0 67:0 68:0 69:0.013889 70:0.013889 71:0 72:0 73:0.013889 74:0.013889 75:0 76:0 77:0 78:0.055556 79:0 80:0.013889 81:0.027778 82:0 83:0.041667 84:0.013889 85:0.013889 86:0 87:0.013889 88:0 89:0 90:0 91:0 92:0.013889 93:0.013889 94:0.027778 95:0 96:0.013889 97:0 98:0.013889 99:0 100:0.013889 
-54.2848380439001 1:0 2:0.012195 3:0 4:0.012195 5:0 6:0.012195 7:0.012195 8:0.012195 9:0.012195 10:0.02439 11:0 12:0 13:0.02439 14:0.012195 15:0.02439 16:0 17:0 18:0.012195 19:0.02439 20:0.036585 21:0 22:0 23:0 24:0 25:0.012195 26:0.02439 27:0 28:0.012195 29:0.012195 30:0 31:0 32:0 33:0 34:0.012195 35:0 36:0 37:0.02439 38:0 39:0.02439 40:0.012195 41:0.012195 42:0 43:0 44:0 45:0 46:0 47:0.02439 48:0.036585 49:0.02439 50:0.04878 51:0.012195 52:0 53:0 54:0 55:0 56:0.012195 57:0 58:0 59:0 60:0.02439 61:0.036585 62:0.012195 63:0.02439 64:0.012195 65:0.012195 66:0 67:0 68:0 69:0.012195 70:0.036585 71:0 72:0.02439 73:0 74:0 75:0 76:0.012195 77:0.012195 78:0.012195 79:0 80:0.02439 81:0 82:0 83:0.02439 84:0.012195 85:0 86:0 87:0 88:0.02439 89:0 90:0 91:0.012195 92:0 93:0.02439 94:0.012195 95:0.012195 96:0.02439 97:0.012195 98:0 99:0.036585 100:0.012195 
-35.78442994743969 1:0 2:0 3:0 4:0.021053 5:0 6:0 7:0.021053 8:0 9:0 10:0 11:0.042105 12:0.031579 13:0 14:0 15:0.010526 16:0.021053 17:0 18:0.010526 19:0 20:0.031579 21:0 22:0 23:0.010526 24:0 25:0.010526 26:0 27:0.010526 28:0.010526 29:0 30:0 31:0.010526 32:0 33:0.010526 34:0.031579 35:0.021053 36:0 37:0.010526 38:0 39:0 40:0.010526 41:0 42:0.010526 43:0.021053 44:0.010526 45:0.010526 46:0.021053 47:0 48:0 49:0 50:0 51:0.010526 52:0.021053 53:0.021053 54:0.010526 55:0.010526 56:0.021053 57:0.021053 58:0 59:0.021053 60:0.021053 61:0.042105 62:0.010526 63:0 64:0 65:0 66:0 67:0 68:0 69:0 70:0.042105 71:0.010526 72:0.042105 73:0.031579 74:0.010526 75:0 76:0.021053 77:0.010526 78:0.021053 79:0.010526 80:0.031579 81:0 82:0 83:0.010526 84:0 85:0.010526 86:0.031579 87:0.010526 88:0 89:0 90:0.010526 91:0 92:0 93:0.010526 94:0.010526 95:0.010526 96:0.021053 97:0 98:0.021053 99:0.010526 100:0 
-56 1:0.012195 2:0.04878 3:0.02439 4:0.012195 5:0 6:0.012195 7:0 8:0.02439 9:0 10:0.012195 11:0 12:0.036585 13:0 14:0.04878 15:0.02439 16:0.012195 17:0 18:0 19:0 20:0 21:0.04878 22:0.012195 23:0 24:0 25:0 26:0 27:0 28:0 29:0.012195 30:0 31:0 32:0 33:0.02439 34:0.02439 35:0 36:0.012195 37:0 38:0 39:0.012195 40:0 41:0 42:0 43:0 44:0.012195 45:0 46:0 47:0.012195 48:0 49:0 50:0 51:0 52:0.02439 53:0 54:0 55:0 56:0.012195 57:0 58:0 59:0.012195 60:0.012195 61:0.134146 62:0.012195 63:0 64:0.012195 65:0.02439 66:0.012195 67:0.012195 68:0 69:0 70:0.02439 71:0.012195 72:0 73:0 74:0 75:0.04878 76:0 77:0 78:0.012195 79:0 80:0 81:0.036585 82:0 83:0.012195 84:0.012195 85:0 86:0 87:0.036585 88:0 89:0.02439 90:0 91:0.02439 92:0 93:0.012195 94:0 95:0 96:0.012195 97:0 98:0.012195 99:0 100:0.012195 
-56 1:0.014493 2:0.014493 3:0.014493 4:0 5:0.014493 6:0.014493 7:0.028986 8:0 9:0 10:0 11:0.014493 12:0.014493 13:0 14:0 15:0 16:0.028986 17:0 18:0 19:0 20:0 21:0.014493 22:0 23:0.028986 24:0 25:0.028986 26:0 27:0.014493 28:0.028986 29:0.028986 30:0 31:0 32:0 33:0.028986 34:0.014493 35:0.014493 36:0 37:0 38:0 39:0 40:0.028986 41:0 42:0 43:0.014493 44:0 45:0.014493 46:0 47:0.043478 48:0 49:0.028986 50:0.014493 51:0 52:0 53:0.028986 54:0.014493 55:0.014493 56:0 57:0 58:0.014493 59:0.014493 60:0.028986 61:0.028986 62:0.014493 63:0.014493 64:0.014493 65:0.014493 66:0.057971 67:0 68:0 69:0.014493 70:0 71:0 72:0 73:0 74:0 75:0.014493 76:0.014493 77:0.014493 78:0.014493 79:0.014493 80:0 81:0.014493 82:0.014493 83:0 84:0 85:0.014493 86:0.028986 87:0 88:0 89:0.028986 90:0.014493 91:0 92:0 93:0 94:0 95:0 96:0 97:0.028986 98:0 99:0 100:0 
-39.07015661939156 1:0.012987 2:0.025974 3:0 4:0 5:0.038961 6:0.012987 7:0 8:0.012987 9:0.012987 10:0.012987 11:0 12:0 13:0.012987 14:0.012987 15:0.012987 16:0 17:0.025974 18:0 19:0.025974 20:0 21:0 22:0 23:0.012987 24:0 25:0.012987 26:0 27:0.025974 28:0 29:0.012987 30:0 31:0 32:0.012987 33:0.051948 34:0 35:0.012987 36:0 37:0 38:0 39:0 40:0 41:0.038961 42:0 43:0.025974 44:0.012987 45:0.051948 46:0.012987 47:0.012987 48:0 49:0.012987 50:0 51:0.012987 52:0 53:0 54:0.012987 55:0 56:0.012987 57:0 58:0.025974 59:0.025974 60:0.012987 61:0 62:0.012987 63:0 64:0.025974 65:0.025974 66:0.012987 67:0.012987 68:0 69:0.038961 70:0 71:0.025974 72:0 73:0 74:0 75:0 76:0 77:0 78:0 79:0.012987 80:0.012987 81:0 82:0 83:0.012987 84:0.025974 85:0 86:0 87:0.012987 88:0.025974 89:0 90:0.012987 91:0 92:0 93:0 94:0.012987 95:0 96:0.012987 97:0.051948 98:0 99:0 100:0.012987 
-8.69907225711872 1:0.02439 2:0 3:0 4:0.036585 5:0.036585 6:0 7:0 8:0 9:0.012195 10:0.036585 11:0.02439 12:0 13:0 14:0 15:0.012195 16:0 17:0 18:0 19:0 20:0.036585 21:0.036585 22:0.012195 23:0 24:0 25:0 26:0 27:0.012195 28:0.012195 29:0 30:0.012195 31:0 32:0 33:0.012195 34:0 35:0 36:0 37:0 38:0.012195 39:0.036585 40:0 41:0.02439 42:0.012195 43:0 44:0.012195 45:0 46:0 47:0 48:0.02439 49:0.012195 50:0 51:0.012195 52:0 53:0 54:0.02439 55:0.02439 56:0 57:0.012195 58:0.012195 59:0.02439 60:0.012195 61:0.04878 62:0.02439 63:0.012195 64:0 65:0.02439 66:0 67:0 68:0 69:0 70:0 71:0.036585 72:0.012195 73:0.012195 74:0 75:0 76:0 77:0 78:0.012195 79:0.012195 80:0.02439 81:0 82:0 83:0.02439 84:0.02439 85:0 86:0 87:0.012195 88:0.012195 89:0.012195 90:0 91:0 92:0.02439 93:0.02439 94:0 95:0.02439 96:0 97:0.02439 98:0 99:0.012195 100:0.012195 
-56 1:0.010417 2:0 3:0.010417 4:0 5:0.010417 6:0 7:0 8:0.010417 9:0.03125 10:0.010417 11:0.010417 12:0 13:0.020833 14:0.020833 15:0.010417 16:0 17:0 18:0 19:0.010417 20:0.020833 21:0.010417 22:0 23:0 24:0 25:0.052083 26:0.020833 27:0 28:0.020833 29:0 30:0.010417 31:0 32:0.010417 33:0.010417 34:0.010417 35:0 36:0.020833 37:0.010417 38:0.010417 39:0 40:0.020833 41:0.010417 42:0 43:0.010417 44:0 45:0 46:0 47:0.010417 48:0 49:0.010417 50:0.010417 51:0.03125 52:0 53:0 54:0.010417 55:0 56:0 57:0 58:0 59:0 60:0.010417 61:0 62:0.010417 63:0.010417 64:0.010417 65:0.010417 66:0 67:0.010417 68:0.03125 69:0 70:0.010417 71:0 72:0 73:0.010417 74:0.010417 75:0.010417 76:0 77:0.010417 78:0.0625 79:0.020833 80:0.010417 81:0 82:0 83:0 84:0.020833 85:0.020833 86:0.010417 87:0.010417 88:0.020833 89:0.020833 90:0.010417 91:0 92:0.041667 93:0.041667 94:0.03125 95:0 96:0.03125 97:0.010417 98:0 99:0 100:0.010417 
