svm_type c_svc
kernel_type linear
nr_class 2
total_sv 19
rho -0.152975
label 0 3
nr_sv 12 7
SV
15.6816233379301 1:0.015873 2:0.005291 3:0 4:0 5:0.010582 6:0.021164 7:0.015873 8:0.010582 9:0.026455 10:0.010582 11:0.005291 12:0 13:0 14:0.005291 15:0.037037 16:0 17:0.005291 18:0.005291 19:0.005291 20:0 21:0.042328 22:0.010582 23:0.005291 24:0.026455 25:0.031746 26:0.005291 27:0.005291 28:0.015873 29:0.010582 30:0.010582 31:0 32:0.005291 33:0.037037 34:0.005291 35:0.021164 36:0.005291 37:0 38:0 39:0.010582 40:0.015873 41:0.010582 42:0.010582 43:0.010582 44:0.005291 45:0.005291 46:0 47:0.015873 48:0.005291 49:0.005291 50:0.010582 51:0 52:0 53:0.031746 54:0 55:0 56:0 57:0.015873 58:0 59:0.010582 60:0.010582 61:0.015873 62:0.005291 63:0 64:0.021164 65:0.010582 66:0 67:0.005291 68:0.015873 69:0 70:0.010582 71:0.010582 72:0 73:0 74:0 75:0.021164 76:0.005291 77:0.015873 78:0.005291 79:0.015873 80:0 81:0 82:0.026455 83:0.021164 84:0.010582 85:0.010582 86:0.010582 87:0.021164 88:0.005291 89:0.005291 90:0 91:0.005291 92:0.010582 93:0.031746 94:0.026455 95:0.005291 96:0.005291 97:0.010582 98:0 99:0.015873 100:0.026455 
27.29726221072565 1:0 2:0 3:0 4:0 5:0 6:0.061947 7:0.00885 8:0.00885 9:0.017699 10:0.00885 11:0.00885 12:0.00885 13:0.017699 14:0.017699 15:0.00885 16:0 17:0 18:0.00885 19:0.026549 20:0 21:0 22:0.017699 23:0.00885 24:0 25:0.053097 26:0 27:0 28:0 29:0.017699 30:0.00885 31:0.00885 32:0.017699 33:0.044248 34:0 35:0.00885 36:0 37:0.017699 38:0 39:0 40:0 41:0 42:0 43:0 44:0 45:0 46:0.00885 47:0 48:0 49:0 50:0 51:0 52:0 53:0.017699 54:0.00885 55:0.017699 56:0 57:0.017699 58:0 59:0.00885 60:0 61:0.053097 62:0 63:0 64:0.017699 65:0.00885 66:0.017699 67:0 68:0.044248 69:0.00885 70:0.00885 71:0.00885 72:0 73:0 74:0 75:0 76:0.00885 77:0.017699 78:0.017699 79:0 80:0 81:0.017699 82:0.026549 83:0.00885 84:0.017699 85:0.00885 86:0.017699 87:0.061947 88:0 89:0 90:0.00885 91:0 92:0.00885 93:0.00885 94:0.044248 95:0.00885 96:0.017699 97:0.00885 98:0 99:0.00885 100:0.026549 
56 1:0.017316 2:0 3:0 4:0.017316 5:0 6:0.017316 7:0.012987 8:0 9:0.008658 10:0 11:0.004329 12:0 13:0.004329 14:0.012987 15:0 16:0.004329 17:0.004329 18:0 19:0.004329 20:0.030303 21:0.025974 22:0.012987 23:0.004329 24:0.012987 25:0.021645 26:0.004329 27:0 28:0 29:0 30:0 31:0.004329 32:0.008658 33:0.012987 34:0 35:0.008658 36:0.017316 37:0.025974 38:0.030303 39:0 40:0.012987 41:0.012987 42:0 43:0 44:0.017316 45:0.008658 46:0.025974 47:0.012987 48:0 49:0.004329 50:0.004329 51:0.051948 52:0.012987 53:0.047619 54:0.012987 55:0 56:0.004329 57:0.004329 58:0.017316 59:0.021645 60:0.012987 61:0.012987 62:0.017316 63:0.012987 64:0.012987 65:0.004329 66:0.004329 67:0.008658 68:0.025974 69:0.021645 70:0.004329 71:0.034632 72:0.008658 73:0.004329 74:0.008658 75:0.008658 76:0.012987 77:0.012987 78:0.012987 79:0.008658 80:0.004329 81:0 82:0.008658 83:0.004329 84:0.008658 85:0.012987 86:0.004329 87:0.021645 88:0.017316 89:0.008658 90:0.008658 91:0.008658 92:0 93:0.004329 94:0.008658 95:0.004329 96:0.004329 97:0.008658 98:0.004329 99:0.004329 100:0 
20.20700660416734 1:0.035928 2:0.017964 3:0 4:0.041916 5:0.011976 6:0.017964 7:0.02994 8:0.011976 9:0.011976 10:0.017964 11:0 12:0.011976 13:0 14:0.005988 15:0.005988 16:0 17:0 18:0.005988 19:0.011976 20:0.023952 21:0 22:0.005988 23:0.011976 24:0.005988 25:0.011976 26:0.005988 27:0.005988 28:0 29:0.011976 30:0 31:0.005988 32:0.005988 33:0.035928 34:0.017964 35:0.017964 36:0.005988 37:0.005988 38:0.017964 39:0 40:0.005988 41:0.005988 42:0.005988 43:0.005988 44:0.017964 45:0.005988 46:0.005988 47:0.011976 48:0.005988 49:0 50:0 51:0.017964 52:0.011976 53:0.017964 54:0.005988 55:0 56:0 57:0.011976 58:0.011976 59:0 60:0.005988 61:0.023952 62:0 63:0.041916 64:0.005988 65:0 66:0.005988 67:0 68:0.023952 69:0 70:0.011976 71:0.017964 72:0 73:0 74:0 75:0.011976 76:0.017964 77:0.005988 78:0.02994 79:0.011976 80:0 81:0 82:0.005988 83:0.005988 84:0.023952 85:0.011976 86:0.005988 87:0.023952 88:0 89:0.005988 90:0.005988 91:0.005988 92:0 93:0.035928 94:0.005988 95:0.011976 96:0.005988 97:0.011976 98:0.011976 99:0 100:0.017964 
41.06400902789599 1:0.013605 2:0.047619 3:0.020408 4:0.020408 5:0.020408 6:0.013605 7:0.034014 8:0.020408 9:0.006803 10:0 11:0 12:0.006803 13:0.013605 14:0.006803 15:0.006803 16:0 17:0 18:0 19:0 20:0.020408 21:0 22:0.013605 23:0 24:0.013605 25:0.027211 26:0 27:0.013605 28:0.006803 29:0.013605 30:0 31:0 32:0 33:0.006803 34:0 35:0 36:0.013605 37:0.027211 38:0.027211 39:0.006803 40:0 41:0.006803 42:0 43:0.006803 44:0 45:0 46:0.006803 47:0 48:0.013605 49:0 50:0 51:0.054422 52:0 53:0.020408 54:0.020408 55:0 56:0.006803 57:0.006803 58:0.054422 59:0.020408 60:0 61:0.013605 62:0.006803 63:0.034014 64:0.006803 65:0 66:0.006803 67:0 68:0.047619 69:0.006803 70:0.006803 71:0.020408 72:0 73:0.006803 74:0 75:0 76:0.027211 77:0 78:0.006803 79:0.006803 80:0 81:0.006803 82:0.006803 83:0.006803 84:0.020408 85:0 86:0.006803 87:0.006803 88:0.006803 89:0.006803 90:0 91:0.006803 92:0.040816 93:0 94:0.006803 95:0 96:0.013605 97:0.013605 98:0 99:0 100:0.013605 
56 1:0.009434 2:0 3:0.009434 4:0 5:0.009434 6:0.037736 7:0.028302 8:0.009434 9:0.04717 10:0.009434 11:0.009434 12:0 13:0.009434 14:0.009434 15:0.009434 16:0.009434 17:0 18:0 19:0 20:0.028302 21:0 22:0.009434 23:0 24:0 25:0.018868 26:0.009434 27:0 28:0.009434 29:0.009434 30:0.009434 31:0 32:0 33:0.075472 34:0 35:0.009434 36:0 37:0.009434 38:0.018868 39:0 40:0.009434 41:0.018868 42:0.009434 43:0 44:0 45:0.009434 46:0.009434 47:0.028302 48:0.018868 49:0.009434 50:0.009434 51:0 52:0 53:0 54:0 55:0.028302 56:0 57:0.018868 58:0 59:0 60:0.009434 61:0.056604 62:0 63:0.009434 64:0.009434 65:0 66:0 67:0.018868 68:0.018868 69:0 70:0 71:0 72:0.009434 73:0 74:0 75:0.018868 76:0.018868 77:0.018868 78:0.009434 79:0.018868 80:0 81:0 82:0.037736 83:0.009434 84:0 85:0.018868 86:0.009434 87:0.018868 88:0 89:0.009434 90:0.009434 91:0 92:0 93:0.009434 94:0.009434 95:0 96:0.018868 97:0.009434 98:0 99:0.028302 100:0.009434 
20.73418541232788 1:0.014925 2:0 3:0 4:0 5:0 6:0.044776 7:0 8:0.014925 9:0 10:0 11:0.014925 12:0 13:0.014925 14:0.029851 15:0.014925 16:0 17:0 18:0 19:0 20:0 21:0.044776 22:0 23:0 24:0 25:0.044776 26:0 27:0 28:0 29:0.074627 30:0 31:0 32:0.014925 33:0.059701 34:0 35:0 36:0 37:0.029851 38:0 39:0 40:0.014925 41:0 42:0 43:0 44:0 45:0 46:0 47:0.044776 48:0 49:0 50:0 51:0 52:0 53:0.014925 54:0.029851 55:0.014925 56:0 57:0 58:0.014925 59:0 60:0 61:0 62:0 63:0.014925 64:0.014925 65:0 66:0.014925 67:0 68:0 69:0.029851 70:0 71:0 72:0 73:0 74:0 75:0.014925 76:0.014925 77:0 78:0 79:0 80:0.014925 81:0 82:0.059701 83:0.029851 84:0.014925 85:0.029851 86:0.014925 87:0.044776 88:0 89:0.044776 90:0 91:0 92:0 93:0.014925 94:0.014925 95:0.014925 96:0 97:0 98:0 99:0.014925 100:0.029851 
13.05100862400434 1:0.00885 2:0.00885 3:0 4:0 5:0.017699 6:0.026549 7:0.026549 8:0.00885 9:0.017699 10:0.017699 11:0 12:0 13:0.017699 14:0.00885 15:0.00885 16:0 17:0 18:0.00885 19:0 20:0.00885 21:0.044248 22:0.026549 23:0 24:0.00885 25:0.061947 26:0.00885 27:0 28:0 29:0.00885 30:0 31:0.00885 32:0 33:0.061947 34:0 35:0 36:0.00885 37:0.035398 38:0 39:0.00885 40:0 41:0 42:0 43:0 44:0 45:0 46:0.00885 47:0.017699 48:0.026549 49:0 50:0.026549 51:0.00885 52:0 53:0.017699 54:0 55:0.00885 56:0 57:0.00885 58:0.017699 59:0.017699 60:0 61:0.017699 62:0 63:0 64:0.00885 65:0 66:0 67:0 68:0.017699 69:0 70:0 71:0.00885 72:0 73:0 74:0.00885 75:0.026549 76:0.017699 77:0.017699 78:0.00885 79:0 80:0 81:0 82:0.035398 83:0.017699 84:0.00885 85:0.00885 86:0 87:0.070796 88:0.00885 89:0.017699 90:0 91:0 92:0.00885 93:0.035398 94:0 95:0 96:0 97:0 98:0 99:0.00885 100:0.017699 
55.57023640489546 1:0.01005 2:0 3:0 4:0 5:0.005025 6:0.025126 7:0.025126 8:0.01005 9:0.040201 10:0.030151 11:0 12:0 13:0 14:0.005025 15:0.030151 16:0 17:0.01005 18:0.01005 19:0.005025 20:0.020101 21:0.050251 22:0.01005 23:0 24:0.015075 25:0.020101 26:0.005025 27:0 28:0.020101 29:0.01005 30:0.005025 31:0 32:0 33:0.030151 34:0.01005 35:0.01005 36:0.005025 37:0.005025 38:0 39:0.01005 40:0.015075 41:0.015075 42:0.005025 43:0.015075 44:0 45:0.005025 46:0.01005 47:0.020101 48:0.005025 49:0.005025 50:0.015075 51:0 52:0 53:0.020101 54:0 55:0 56:0 57:0 58:0.005025 59:0.01005 60:0.005025 61:0.020101 62:0.005025 63:0 64:0.015075 65:0.015075 66:0.005025 67:0 68:0.020101 69:0 70:0.020101 71:0.015075 72:0 73:0 74:0 75:0.01005 76:0.01005 77:0.015075 78:0 79:0.020101 80:0 81:0.005025 82:0.030151 83:0.015075 84:0.020101 85:0.005025 86:0.015075 87:0.045226 88:0.005025 89:0.005025 90:0.005025 91:0 92:0.01005 93:0.020101 94:0.035176 95:0 96:0 97:0.015075 98:0 99:0.01005 100:0.005025 
1.830837042589074 1:0.043011 2:0 3:0 4:0.010753 5:0.010753 6:0.043011 7:0.010753 8:0.010753 9:0.010753 10:0.010753 11:0 12:0 13:0.010753 14:0 15:0.010753 16:0 17:0.010753 18:0.010753 19:0 20:0.043011 21:0.053763 22:0.010753 23:0 24:0.010753 25:0.032258 26:0 27:0.032258 28:0.021505 29:0.021505 30:0 31:0 32:0 33:0.021505 34:0.010753 35:0.010753 36:0 37:0 38:0.010753 39:0 40:0.010753 41:0.010753 42:0 43:0.032258 44:0 45:0 46:0 47:0.032258 48:0.010753 49:0 50:0.010753 51:0 52:0 53:0.021505 54:0 55:0 56:0 57:0.010753 58:0.021505 59:0.010753 60:0 61:0.010753 62:0.010753 63:0 64:0.010753 65:0 66:0 67:0 68:0 69:0 70:0.010753 71:0 72:0 73:0 74:0 75:0 76:0.032258 77:0 78:0.010753 79:0.021505 80:0 81:0 82:0.064516 83:0.010753 84:0 85:0.010753 86:0 87:0 88:0.010753 89:0 90:0 91:0 92:0.010753 93:0.010753 94:0.021505 95:0 96:0 97:0.010753 98:0.032258 99:0.032258 100:0.032258 
7.333049675951175 1:0.006667 2:0 3:0 4:0.006667 5:0 6:0.026667 7:0.073333 8:0.006667 9:0 10:0 11:0.006667 12:0.006667 13:0 14:0 15:0.006667 16:0.013333 17:0 18:0 19:0.006667 20:0 21:0 22:0.006667 23:0 24:0.046667 25:0.053333 26:0.02 27:0 28:0 29:0.02 30:0 31:0 32:0.006667 33:0.046667 34:0.006667 35:0.02 36:0.006667 37:0.02 38:0 39:0 40:0.013333 41:0 42:0 43:0 44:0 45:0 46:0.006667 47:0.006667 48:0.02 49:0 50:0.02 51:0.006667 52:0.006667 53:0.06 54:0 55:0.013333 56:0 57:0.006667 58:0 59:0.02 60:0 61:0.086667 62:0 63:0.013333 64:0.006667 65:0.006667 66:0.006667 67:0 68:0.02 69:0.006667 70:0 71:0.006667 72:0.006667 73:0.006667 74:0 75:0.006667 76:0.006667 77:0.006667 78:0.013333 79:0 80:0 81:0 82:0.006667 83:0.006667 84:0.006667 85:0 86:0.02 87:0.053333 88:0.006667 89:0.013333 90:0.006667 91:0 92:0.026667 93:0.02 94:0 95:0.033333 96:0.006667 97:0 98:0 99:0 100:0 
56 1:0 2:0.04878 3:0.01626 4:0.03252 5:0.02439 6:0.03252 7:0.01626 8:0 9:0.00813 10:0.01626 11:0 12:0 13:0.00813 14:0.00813 15:0.03252 16:0 17:0.01626 18:0 19:0 20:0.00813 21:0 22:0.00813 23:0.00813 24:0.00813 25:0 26:0 27:0 28:0.03252 29:0.03252 30:0 31:0.00813 32:0.02439 33:0.02439 34:0.00813 35:0 36:0 37:0.01626 38:0.02439 39:0 40:0 41:0 42:0.00813 43:0 44:0.00813 45:0.00813 46:0.00813 47:0 48:0 49:0.01626 50:0 51:0 52:0 53:0.00813 54:0.00813 55:0 56:0 57:0.00813 58:0.02439 59:0.02439 60:0.00813 61:0.00813 62:0 63:0.02439 64:0.01626 65:0.01626 66:0.03252 67:0.00813 68:0.01626 69:0.00813 70:0 71:0.04065 72:0 73:0 74:0 75:0 76:0.02439 77:0 78:0 79:0.00813 80:0.01626 81:0.01626 82:0 83:0 84:0.01626 85:0.00813 86:0.00813 87:0.01626 88:0 89:0.00813 90:0.00813 91:0 92:0 93:0.00813 94:0.02439 95:0.01626 96:0.01626 97:0 98:0 99:0.01626 100:0.02439 
-56 1:0 2:0.019608 3:0.009804 4:0 5:0 6:0.04902 7:0 8:0 9:0.04902 10:0.009804 11:0 12:0 13:0.009804 14:0.019608 15:0 16:0 17:0.009804 18:0 19:0.009804 20:0 21:0.029412 22:0 23:0 24:0 25:0 26:0 27:0.019608 28:0.019608 29:0.019608 30:0.019608 31:0 32:0 33:0.039216 34:0.009804 35:0.009804 36:0.019608 37:0.029412 38:0 39:0.009804 40:0.019608 41:0.029412 42:0.009804 43:0 44:0.019608 45:0 46:0.009804 47:0.009804 48:0.019608 49:0 50:0 51:0 52:0 53:0 54:0.009804 55:0 56:0 57:0.019608 58:0 59:0.04902 60:0 61:0.009804 62:0.009804 63:0 64:0 65:0 66:0.029412 67:0.009804 68:0 69:0 70:0.009804 71:0.009804 72:0.009804 73:0 74:0 75:0 76:0.009804 77:0.009804 78:0.019608 79:0 80:0 81:0.009804 82:0.009804 83:0.029412 84:0 85:0.039216 86:0 87:0.04902 88:0 89:0.019608 90:0.04902 91:0.029412 92:0 93:0 94:0.009804 95:0 96:0 97:0.009804 98:0 99:0.009804 100:0 
-56 1:0.003311 2:0.006623 3:0.033113 4:0.006623 5:0.033113 6:0.006623 7:0.016556 8:0.006623 9:0 10:0.003311 11:0.003311 12:0 13:0.003311 14:0 15:0.009934 16:0 17:0.056291 18:0.003311 19:0.003311 20:0.019868 21:0.003311 22:0 23:0.013245 24:0.009934 25:0.006623 26:0.003311 27:0.029801 28:0.016556 29:0.006623 30:0.016556 31:0.013245 32:0.006623 33:0.009934 34:0 35:0.013245 36:0.009934 37:0 38:0.006623 39:0.009934 40:0.006623 41:0.023179 42:0.003311 43:0.003311 44:0.02649 45:0.019868 46:0 47:0.009934 48:0.02649 49:0.023179 50:0.006623 51:0.039735 52:0.023179 53:0 54:0.036424 55:0 56:0.006623 57:0.003311 58:0 59:0.006623 60:0 61:0.009934 62:0 63:0.006623 64:0.006623 65:0.009934 66:0.006623 67:0.009934 68:0.006623 69:0.003311 70:0.003311 71:0.003311 72:0.006623 73:0.003311 74:0.009934 75:0.009934 76:0.006623 77:0 78:0.006623 79:0.003311 80:0.023179 81:0 82:0 83:0.003311 84:0.009934 85:0 86:0.009934 87:0.016556 88:0.003311 89:0.003311 90:0.003311 91:0.003311 92:0.066225 93:0.003311 94:0.016556 95:0.003311 96:0.019868 97:0.016556 98:0.029801 99:0 100:0 
-34.76921834048702 1:0.005181 2:0 3:0 4:0.005181 5:0.005181 6:0.103627 7:0.005181 8:0.005181 9:0.025907 10:0.005181 11:0.005181 12:0.010363 13:0 14:0.005181 15:0 16:0 17:0 18:0.005181 19:0.010363 20:0 21:0.025907 22:0 23:0.005181 24:0 25:0.025907 26:0.031088 27:0 28:0.020725 29:0.015544 30:0 31:0.015544 32:0.005181 33:0.025907 34:0.005181 35:0 36:0.005181 37:0.020725 38:0.010363 39:0.005181 40:0.005181 41:0.005181 42:0.010363 43:0 44:0.005181 45:0 46:0 47:0.010363 48:0.010363 49:0.010363 50:0.010363 51:0.005181 52:0.005181 53:0 54:0.010363 55:0.005181 56:0 57:0.010363 58:0 59:0.119171 60:0.015544 61:0 62:0.005181 63:0 64:0.010363 65:0.005181 66:0.015544 67:0 68:0.005181 69:0 70:0.005181 71:0.005181 72:0 73:0.005181 74:0.005181 75:0.015544 76:0 77:0.046632 78:0.010363 79:0.020725 80:0.005181 81:0.005181 82:0.015544 83:0.041451 84:0.005181 85:0.010363 86:0.005181 87:0.015544 88:0 89:0.005181 90:0 91:0.015544 92:0 93:0.005181 94:0.020725 95:0.005181 96:0.010363 97:0.005181 98:0 99:0.020725 100:0 
-56 1:0 2:0 3:0 4:0 5:0.013333 6:0.053333 7:0.04 8:0 9:0.066667 10:0 11:0 12:0.013333 13:0.026667 14:0.013333 15:0.013333 16:0 17:0 18:0 19:0.013333 20:0.04 21:0 22:0.013333 23:0 24:0 25:0.013333 26:0.04 27:0.013333 28:0 29:0 30:0 31:0 32:0 33:0.066667 34:0 35:0.013333 36:0 37:0 38:0.013333 39:0 40:0 41:0.013333 42:0.026667 43:0.026667 44:0 45:0 46:0.026667 47:0.013333 48:0 49:0 50:0.026667 51:0 52:0 53:0.013333 54:0.013333 55:0.013333 56:0 57:0 58:0 59:0.026667 60:0 61:0 62:0 63:0 64:0 65:0 66:0 67:0 68:0.013333 69:0.013333 70:0 71:0.04 72:0 73:0 74:0.013333 75:0.013333 76:0 77:0 78:0 79:0.013333 80:0.026667 81:0 82:0.013333 83:0.026667 84:0.013333 85:0.013333 86:0 87:0.08 88:0 89:0.013333 90:0.013333 91:0 92:0 93:0 94:0 95:0 96:0 97:0 98:0 99:0.013333 100:0.013333 
-56 1:0.008264 2:0.024793 3:0 4:0.016529 5:0 6:0 7:0.008264 8:0.008264 9:0 10:0 11:0.008264 12:0 13:0 14:0.082645 15:0.016529 16:0.008264 17:0.033058 18:0 19:0.008264 20:0.008264 21:0 22:0 23:0 24:0.024793 25:0.057851 26:0.008264 27:0.008264 28:0.008264 29:0.041322 30:0.008264 31:0.016529 32:0.008264 33:0.033058 34:0 35:0 36:0 37:0.008264 38:0.008264 39:0.008264 40:0.016529 41:0.008264 42:0 43:0.016529 44:0 45:0.008264 46:0 47:0.016529 48:0.016529 49:0 50:0 51:0.024793 52:0.016529 53:0.016529 54:0.016529 55:0.008264 56:0.008264 57:0.041322 58:0.016529 59:0.024793 60:0 61:0.024793 62:0.016529 63:0.008264 64:0 65:0 66:0 67:0 68:0.016529 69:0.008264 70:0.016529 71:0.008264 72:0 73:0 74:0 75:0.008264 76:0 77:0 78:0.008264 79:0.016529 80:0 81:0 82:0 83:0.008264 84:0.008264 85:0.033058 86:0.008264 87:0.016529 88:0 89:0 90:0.008264 91:0.008264 92:0.008264 93:0 94:0.008264 95:0.008264 96:0.016529 97:0 98:0 99:0 100:0.008264 
-56 1:0 2:0.013158 3:0 4:0.026316 5:0 6:0.026316 7:0 8:0.026316 9:0.013158 10:0.013158 11:0.013158 12:0.013158 13:0 14:0 15:0 16:0 17:0 18:0 19:0.013158 20:0.026316 21:0 22:0 23:0.013158 24:0 25:0.026316 26:0.039474 27:0 28:0 29:0.013158 30:0 31:0.013158 32:0.013158 33:0 34:0.013158 35:0.026316 36:0 37:0 38:0.013158 39:0.013158 40:0 41:0.013158 42:0.013158 43:0 44:0 45:0 46:0.026316 47:0 48:0 49:0 50:0.013158 51:0.026316 52:0 53:0.013158 54:0 55:0 56:0.013158 57:0 58:0.026316 59:0.026316 60:0.026316 61:0.052632 62:0 63:0.013158 64:0.013158 65:0 66:0 67:0 68:0 69:0.013158 70:0.013158 71:0.026316 72:0.026316 73:0.013158 74:0 75:0.039474 76:0 77:0 78:0.013158 79:0.013158 80:0.013158 81:0.026316 82:0.013158 83:0 84:0.013158 85:0 86:0.013158 87:0.013158 88:0 89:0.013158 90:0.013158 91:0.013158 92:0.013158 93:0.013158 94:0 95:0 96:0.013158 97:0 98:0.026316 99:0 100:0 
-56 1:0.020979 2:0.020979 3:0 4:0 5:0 6:0.027972 7:0.027972 8:0.006993 9:0 10:0.006993 11:0 12:0 13:0.006993 14:0.020979 15:0.020979 16:0 17:0.013986 18:0.006993 19:0.013986 20:0.027972 21:0 22:0 23:0.020979 24:0 25:0.027972 26:0.013986 27:0.020979 28:0 29:0.013986 30:0.013986 31:0.006993 32:0 33:0.027972 34:0 35:0 36:0.006993 37:0 38:0 39:0.006993 40:0.006993 41:0.027972 42:0.013986 43:0 44:0 45:0 46:0.006993 47:0.006993 48:0.013986 49:0.020979 50:0 51:0 52:0.013986 53:0 54:0 55:0.006993 56:0.013986 57:0.013986 58:0.013986 59:0.020979 60:0.006993 61:0.013986 62:0 63:0.013986 64:0.006993 65:0 66:0 67:0 68:0.013986 69:0.006993 70:0.013986 71:0.020979 72:0 73:0 74:0.013986 75:0 76:0.020979 77:0 78:0.006993 79:0.027972 80:0 81:0 82:0.006993 83:0.034965 84:0.006993 85:0.020979 86:0 87:0.041958 88:0.020979 89:0.048951 90:0.006993 91:0.013986 92:0.020979 93:0 94:0.006993 95:0 96:0 97:0.006993 98:0.013986 99:0.013986 100:0 
