svm_type c_svc
kernel_type linear
nr_class 2
total_sv 23
rho -0.649973
label 1 3
nr_sv 16 7
SV
2.946106119988505 1:0 2:0 3:0 4:0.027397 5:0 6:0.013699 7:0 8:0 9:0 10:0.013699 11:0.041096 12:0 13:0.027397 14:0 15:0 16:0 17:0 18:0.027397 19:0 20:0 21:0 22:0 23:0 24:0.013699 25:0 26:0 27:0 28:0 29:0.027397 30:0 31:0 32:0 33:0.09589 34:0.027397 35:0.013699 36:0 37:0.013699 38:0.013699 39:0 40:0 41:0 42:0.013699 43:0.013699 44:0.013699 45:0.013699 46:0.013699 47:0 48:0 49:0.013699 50:0 51:0 52:0.013699 53:0 54:0.013699 55:0.013699 56:0.013699 57:0 58:0 59:0 60:0.013699 61:0.041096 62:0 63:0.027397 64:0 65:0 66:0 67:0.027397 68:0.027397 69:0.027397 70:0 71:0.013699 72:0.041096 73:0 74:0.013699 75:0.013699 76:0.027397 77:0 78:0.013699 79:0 80:0.013699 81:0.041096 82:0.027397 83:0 84:0.013699 85:0.013699 86:0 87:0.027397 88:0 89:0 90:0.013699 91:0 92:0 93:0 94:0.027397 95:0 96:0 97:0.013699 98:0 99:0.027397 100:0 
27.8293864529996 1:0.013699 2:0.027397 3:0 4:0.013699 5:0 6:0 7:0 8:0 9:0.013699 10:0 11:0 12:0 13:0 14:0 15:0 16:0.013699 17:0.013699 18:0 19:0 20:0 21:0.013699 22:0 23:0 24:0 25:0.09589 26:0.013699 27:0.041096 28:0.013699 29:0 30:0 31:0.027397 32:0 33:0.041096 34:0 35:0 36:0 37:0.027397 38:0.013699 39:0 40:0 41:0 42:0.013699 43:0.068493 44:0 45:0 46:0 47:0.013699 48:0 49:0.041096 50:0 51:0.013699 52:0 53:0 54:0 55:0 56:0 57:0.013699 58:0.041096 59:0 60:0 61:0 62:0.013699 63:0.027397 64:0.013699 65:0.013699 66:0.013699 67:0.041096 68:0 69:0.013699 70:0 71:0.027397 72:0 73:0 74:0 75:0 76:0.013699 77:0.013699 78:0.041096 79:0.013699 80:0 81:0 82:0 83:0 84:0 85:0 86:0.013699 87:0 88:0.013699 89:0 90:0.013699 91:0.041096 92:0.013699 93:0.013699 94:0.013699 95:0 96:0 97:0.027397 98:0.013699 99:0 100:0 
9.607531595170439 1:0.011494 2:0.011494 3:0.011494 4:0.034483 5:0 6:0 7:0.011494 8:0.011494 9:0.022989 10:0 11:0 12:0.011494 13:0 14:0 15:0 16:0 17:0 18:0 19:0 20:0 21:0.045977 22:0.011494 23:0 24:0.011494 25:0.045977 26:0 27:0 28:0 29:0.011494 30:0 31:0 32:0 33:0.034483 34:0.011494 35:0.011494 36:0 37:0.011494 38:0.011494 39:0 40:0.011494 41:0.011494 42:0 43:0 44:0 45:0.022989 46:0.045977 47:0 48:0.011494 49:0 50:0 51:0.011494 52:0.034483 53:0.022989 54:0.034483 55:0 56:0.022989 57:0.011494 58:0.011494 59:0 60:0.022989 61:0.034483 62:0.011494 63:0.034483 64:0 65:0 66:0 67:0 68:0.011494 69:0 70:0 71:0.022989 72:0.011494 73:0.034483 74:0 75:0 76:0 77:0 78:0.034483 79:0.022989 80:0 81:0.022989 82:0 83:0 84:0.022989 85:0.011494 86:0 87:0.011494 88:0 89:0.011494 90:0.011494 91:0.011494 92:0 93:0 94:0.011494 95:0 96:0 97:0.011494 98:0.011494 99:0.011494 100:0.022989 
19.00216090911339 1:0.018182 2:0.009091 3:0 4:0.009091 5:0 6:0.018182 7:0.018182 8:0.018182 9:0.018182 10:0.009091 11:0.009091 12:0.018182 13:0 14:0.018182 15:0.036364 16:0 17:0 18:0 19:0 20:0 21:0.009091 22:0.009091 23:0.009091 24:0 25:0.009091 26:0 27:0.009091 28:0.018182 29:0.009091 30:0.009091 31:0.009091 32:0 33:0.018182 34:0.018182 35:0 36:0.009091 37:0 38:0 39:0.009091 40:0.009091 41:0 42:0 43:0.009091 44:0 45:0 46:0.009091 47:0.018182 48:0.009091 49:0 50:0.009091 51:0.009091 52:0 53:0.018182 54:0.018182 55:0.009091 56:0.018182 57:0.009091 58:0.009091 59:0.018182 60:0.009091 61:0.018182 62:0.018182 63:0.036364 64:0.018182 65:0 66:0 67:0 68:0.027273 69:0 70:0 71:0 72:0 73:0.036364 74:0 75:0.018182 76:0.018182 77:0.009091 78:0.027273 79:0.009091 80:0.009091 81:0.027273 82:0.009091 83:0.018182 84:0.009091 85:0.018182 86:0 87:0.018182 88:0 89:0 90:0.009091 91:0 92:0.018182 93:0.009091 94:0 95:0.018182 96:0 97:0 98:0.027273 99:0.027273 100:0.018182 
25.46621346131499 1:0.009009 2:0 3:0 4:0 5:0.009009 6:0.018018 7:0.009009 8:0.027027 9:0 10:0.009009 11:0 12:0.009009 13:0 14:0.009009 15:0.009009 16:0 17:0.009009 18:0.009009 19:0 20:0.018018 21:0.009009 22:0 23:0 24:0.009009 25:0.009009 26:0 27:0.009009 28:0.027027 29:0 30:0 31:0.027027 32:0 33:0.027027 34:0 35:0.027027 36:0 37:0 38:0.018018 39:0.009009 40:0 41:0 42:0 43:0.036036 44:0 45:0 46:0 47:0.009009 48:0.018018 49:0 50:0 51:0.009009 52:0.036036 53:0 54:0.009009 55:0 56:0.018018 57:0 58:0.009009 59:0.018018 60:0.036036 61:0.027027 62:0.018018 63:0 64:0.018018 65:0.009009 66:0.027027 67:0 68:0.018018 69:0 70:0 71:0.018018 72:0 73:0.018018 74:0.009009 75:0.036036 76:0 77:0.009009 78:0 79:0.036036 80:0.009009 81:0.045045 82:0 83:0.009009 84:0 85:0.009009 86:0 87:0.027027 88:0 89:0.009009 90:0 91:0 92:0.009009 93:0.009009 94:0 95:0.027027 96:0.018018 97:0.009009 98:0.018018 99:0.009009 100:0.036036 
1.676363476647796 1:0 2:0 3:0 4:0 5:0.022222 6:0.022222 7:0 8:0 9:0 10:0.022222 11:0 12:0 13:0 14:0.022222 15:0 16:0 17:0.022222 18:0 19:0 20:0 21:0 22:0 23:0 24:0.022222 25:0.111111 26:0 27:0.022222 28:0 29:0 30:0.022222 31:0 32:0.022222 33:0 34:0 35:0 36:0 37:0 38:0 39:0 40:0.022222 41:0 42:0.022222 43:0.022222 44:0.022222 45:0 46:0.022222 47:0 48:0 49:0 50:0 51:0 52:0 53:0.022222 54:0.022222 55:0 56:0 57:0.022222 58:0 59:0.022222 60:0.044444 61:0.155556 62:0 63:0.022222 64:0 65:0 66:0 67:0 68:0 69:0 70:0 71:0 72:0.044444 73:0 74:0 75:0 76:0 77:0 78:0 79:0 80:0 81:0.022222 82:0 83:0 84:0.022222 85:0.022222 86:0 87:0.022222 88:0 89:0 90:0 91:0 92:0 93:0.044444 94:0 95:0.022222 96:0 97:0.022222 98:0 99:0.022222 100:0.022222 
13.59936298187096 1:0.026667 2:0 3:0 4:0.04 5:0 6:0.013333 7:0.026667 8:0.026667 9:0 10:0 11:0.013333 12:0.013333 13:0 14:0.013333 15:0 16:0 17:0.026667 18:0.013333 19:0.013333 20:0.013333 21:0.013333 22:0.013333 23:0 24:0 25:0.026667 26:0 27:0.026667 28:0 29:0 30:0 31:0 32:0 33:0.04 34:0 35:0.013333 36:0 37:0.053333 38:0.013333 39:0 40:0.013333 41:0 42:0 43:0 44:0.013333 45:0.013333 46:0.026667 47:0 48:0 49:0 50:0 51:0.013333 52:0.013333 53:0.026667 54:0 55:0 56:0.013333 57:0 58:0.013333 59:0 60:0 61:0.026667 62:0 63:0.013333 64:0 65:0.013333 66:0 67:0.013333 68:0.026667 69:0.013333 70:0.013333 71:0.013333 72:0.04 73:0 74:0.013333 75:0 76:0.013333 77:0 78:0.026667 79:0.013333 80:0 81:0.013333 82:0 83:0 84:0 85:0.013333 86:0 87:0.013333 88:0 89:0 90:0.026667 91:0.013333 92:0 93:0.013333 94:0 95:0.013333 96:0.013333 97:0.04 98:0 99:0.013333 100:0 
51.73147345872283 1:0 2:0 3:0.027027 4:0.040541 5:0 6:0.013514 7:0.013514 8:0.013514 9:0 10:0 11:0 12:0 13:0.013514 14:0.027027 15:0.013514 16:0 17:0.013514 18:0 19:0 20:0 21:0 22:0 23:0 24:0 25:0.027027 26:0.013514 27:0 28:0 29:0.013514 30:0 31:0.027027 32:0.013514 33:0 34:0 35:0 36:0.013514 37:0.013514 38:0.013514 39:0 40:0.013514 41:0 42:0 43:0 44:0.013514 45:0 46:0.027027 47:0 48:0.013514 49:0.040541 50:0 51:0 52:0 53:0.027027 54:0.040541 55:0.013514 56:0.013514 57:0 58:0 59:0.013514 60:0.013514 61:0.013514 62:0 63:0.013514 64:0.027027 65:0 66:0.013514 67:0 68:0.013514 69:0 70:0.013514 71:0.013514 72:0 73:0 74:0.013514 75:0.054054 76:0.013514 77:0.013514 78:0 79:0.013514 80:0.027027 81:0 82:0.013514 83:0.013514 84:0.013514 85:0.013514 86:0.013514 87:0.040541 88:0.027027 89:0 90:0.040541 91:0 92:0 93:0 94:0 95:0.013514 96:0 97:0.013514 98:0.013514 99:0 100:0 
55.57565151874555 1:0 2:0.040323 3:0 4:0.016129 5:0 6:0.008065 7:0 8:0.008065 9:0 10:0.008065 11:0 12:0.008065 13:0.008065 14:0.008065 15:0.008065 16:0 17:0.008065 18:0.016129 19:0.008065 20:0 21:0.016129 22:0.008065 23:0.024194 24:0.024194 25:0 26:0.08871 27:0.008065 28:0 29:0.008065 30:0.008065 31:0.008065 32:0 33:0.056452 34:0 35:0.008065 36:0.008065 37:0.016129 38:0 39:0.008065 40:0 41:0.024194 42:0 43:0.016129 44:0.016129 45:0 46:0 47:0 48:0.016129 49:0 50:0.024194 51:0 52:0 53:0.008065 54:0 55:0 56:0 57:0.008065 58:0.040323 59:0.008065 60:0 61:0.008065 62:0.024194 63:0.016129 64:0 65:0.016129 66:0.024194 67:0.008065 68:0.016129 69:0 70:0 71:0.008065 72:0.016129 73:0 74:0 75:0.016129 76:0.008065 77:0 78:0.008065 79:0.008065 80:0.016129 81:0.008065 82:0.008065 83:0 84:0.008065 85:0.008065 86:0 87:0.024194 88:0.016129 89:0.024194 90:0.016129 91:0 92:0 93:0.008065 94:0 95:0.008065 96:0.032258 97:0 98:0.016129 99:0.024194 100:0.008065 
37.60671762175688 1:0.030303 2:0.045455 3:0.015152 4:0 5:0 6:0.075758 7:0.030303 8:0.030303 9:0 10:0.045455 11:0 12:0.030303 13:0 14:0.015152 15:0.015152 16:0 17:0 18:0.015152 19:0 20:0 21:0 22:0 23:0 24:0 25:0 26:0 27:0.015152 28:0.015152 29:0.015152 30:0 31:0 32:0 33:0.015152 34:0 35:0 36:0.015152 37:0.015152 38:0.015152 39:0 40:0 41:0 42:0 43:0.015152 44:0.015152 45:0 46:0 47:0 48:0 49:0 50:0 51:0 52:0 53:0.015152 54:0.045455 55:0 56:0 57:0 58:0.015152 59:0.060606 60:0.015152 61:0.075758 62:0 63:0 64:0.015152 65:0 66:0 67:0 68:0.030303 69:0 70:0 71:0 72:0 73:0.030303 74:0 75:0 76:0 77:0 78:0 79:0.015152 80:0.015152 81:0.030303 82:0 83:0.030303 84:0 85:0.015152 86:0 87:0 88:0.015152 89:0.015152 90:0.015152 91:0 92:0 93:0 94:0 95:0.015152 96:0 97:0.015152 98:0.015152 99:0 100:0.015152 
32.00959341492106 1:0.018519 2:0.018519 3:0 4:0.018519 5:0 6:0.018519 7:0.037037 8:0 9:0 10:0.018519 11:0 12:0 13:0.018519 14:0.018519 15:0.018519 16:0 17:0.018519 18:0 19:0 20:0 21:0 22:0 23:0 24:0 25:0 26:0 27:0.037037 28:0.018519 29:0 30:0 31:0.018519 32:0 33:0 34:0 35:0.018519 36:0.018519 37:0 38:0.018519 39:0.018519 40:0 41:0.037037 42:0 43:0.018519 44:0.018519 45:0 46:0 47:0.037037 48:0 49:0 50:0 51:0.018519 52:0 53:0.018519 54:0.018519 55:0 56:0.037037 57:0.018519 58:0 59:0.018519 60:0 61:0.074074 62:0 63:0 64:0 65:0 66:0 67:0 68:0 69:0 70:0 71:0.037037 72:0.018519 73:0.018519 74:0 75:0 76:0.018519 77:0 78:0.037037 79:0 80:0 81:0.018519 82:0 83:0 84:0.018519 85:0 86:0 87:0.037037 88:0.018519 89:0.018519 90:0 91:0.018519 92:0 93:0.037037 94:0.037037 95:0 96:0 97:0 98:0 99:0 100:0 
29.61092488938833 1:0.037037 2:0 3:0 4:0.018519 5:0.018519 6:0.018519 7:0.018519 8:0.018519 9:0 10:0.018519 11:0 12:0 13:0 14:0.018519 15:0.018519 16:0 17:0 18:0.037037 19:0 20:0.018519 21:0 22:0.018519 23:0 24:0.037037 25:0 26:0 27:0 28:0.037037 29:0 30:0 31:0 32:0 33:0.037037 34:0.037037 35:0 36:0 37:0 38:0 39:0.018519 40:0.037037 41:0 42:0 43:0 44:0 45:0 46:0 47:0.018519 48:0 49:0 50:0 51:0 52:0 53:0.074074 54:0 55:0 56:0 57:0.018519 58:0.018519 59:0.018519 60:0 61:0.018519 62:0 63:0.018519 64:0 65:0 66:0 67:0 68:0 69:0 70:0 71:0.037037 72:0 73:0.018519 74:0.018519 75:0 76:0.018519 77:0 78:0.018519 79:0.018519 80:0.037037 81:0 82:0 83:0.018519 84:0.018519 85:0 86:0 87:0.074074 88:0 89:0 90:0 91:0 92:0.018519 93:0 94:0 95:0 96:0 97:0 98:0.037037 99:0 100:0.018519 
29.65763892996328 1:0.017699 2:0 3:0 4:0 5:0.00885 6:0.00885 7:0 8:0 9:0.00885 10:0.044248 11:0 12:0 13:0.00885 14:0.00885 15:0.035398 16:0.00885 17:0.00885 18:0 19:0 20:0.00885 21:0.017699 22:0.00885 23:0.00885 24:0 25:0.00885 26:0 27:0 28:0 29:0.026549 30:0 31:0 32:0.044248 33:0.026549 34:0 35:0 36:0.017699 37:0.00885 38:0.00885 39:0 40:0.017699 41:0.00885 42:0.00885 43:0.017699 44:0 45:0.00885 46:0.017699 47:0 48:0.017699 49:0.026549 50:0.017699 51:0 52:0 53:0.00885 54:0 55:0 56:0 57:0.00885 58:0.017699 59:0 60:0 61:0.00885 62:0.00885 63:0 64:0.017699 65:0.035398 66:0.026549 67:0 68:0 69:0 70:0.026549 71:0.00885 72:0 73:0 74:0 75:0.026549 76:0.017699 77:0.00885 78:0.00885 79:0.00885 80:0.00885 81:0 82:0.00885 83:0 84:0.017699 85:0.00885 86:0.00885 87:0.044248 88:0 89:0.017699 90:0.026549 91:0 92:0 93:0.026549 94:0.061947 95:0 96:0 97:0.00885 98:0 99:0.035398 100:0 
23.80738035568598 1:0 2:0.010526 3:0 4:0.010526 5:0.010526 6:0 7:0 8:0.010526 9:0 10:0 11:0.010526 12:0.010526 13:0.021053 14:0.031579 15:0 16:0.021053 17:0.010526 18:0.010526 19:0.010526 20:0.021053 21:0.010526 22:0.010526 23:0.010526 24:0 25:0 26:0.031579 27:0 28:0.010526 29:0.021053 30:0.010526 31:0 32:0.021053 33:0 34:0.010526 35:0.010526 36:0.031579 37:0.021053 38:0.010526 39:0 40:0.021053 41:0.021053 42:0.010526 43:0.010526 44:0 45:0 46:0 47:0.010526 48:0 49:0.010526 50:0 51:0 52:0 53:0 54:0.010526 55:0 56:0.010526 57:0.010526 58:0.021053 59:0 60:0.021053 61:0.031579 62:0.010526 63:0.010526 64:0.031579 65:0.021053 66:0 67:0.010526 68:0 69:0.031579 70:0 71:0.010526 72:0.021053 73:0.031579 74:0.010526 75:0.010526 76:0 77:0 78:0.010526 79:0 80:0 81:0.021053 82:0 83:0 84:0 85:0 86:0.010526 87:0.021053 88:0.031579 89:0.021053 90:0.021053 91:0 92:0.042105 93:0 94:0 95:0.010526 96:0.010526 97:0.010526 98:0 99:0 100:0 
0.4922627978360115 1:0.01 2:0 3:0.01 4:0.03 5:0 6:0.01 7:0.01 8:0.01 9:0.01 10:0.01 11:0.01 12:0 13:0.01 14:0.01 15:0.01 16:0 17:0.01 18:0.01 19:0 20:0.01 21:0.01 22:0.02 23:0 24:0.03 25:0.04 26:0.02 27:0 28:0 29:0 30:0 31:0 32:0 33:0.01 34:0 35:0.02 36:0 37:0.01 38:0.04 39:0 40:0.02 41:0.01 42:0.01 43:0.02 44:0.03 45:0 46:0.02 47:0.01 48:0 49:0.02 50:0 51:0 52:0 53:0.04 54:0.01 55:0 56:0 57:0.01 58:0.02 59:0 60:0.01 61:0.01 62:0 63:0.02 64:0 65:0.01 66:0 67:0.01 68:0.01 69:0.03 70:0.02 71:0.04 72:0.01 73:0 74:0.01 75:0 76:0 77:0.02 78:0.01 79:0.02 80:0 81:0.02 82:0 83:0 84:0.01 85:0 86:0.01 87:0 88:0 89:0.03 90:0.01 91:0.01 92:0 93:0 94:0 95:0 96:0.03 97:0.03 98:0 99:0 100:0.03 
1.231417275478586 1:0.026316 2:0 3:0 4:0 5:0.013158 6:0.013158 7:0.026316 8:0.026316 9:0 10:0.013158 11:0 12:0 13:0.013158 14:0 15:0 16:0 17:0 18:0 19:0 20:0.052632 21:0.013158 22:0 23:0.013158 24:0 25:0 26:0 27:0 28:0.026316 29:0 30:0 31:0.052632 32:0 33:0 34:0 35:0.039474 36:0 37:0 38:0.013158 39:0 40:0 41:0 42:0 43:0 44:0 45:0 46:0 47:0.013158 48:0.026316 49:0.013158 50:0 51:0 52:0.013158 53:0.026316 54:0.013158 55:0.013158 56:0.013158 57:0 58:0.013158 59:0.013158 60:0.013158 61:0.013158 62:0.013158 63:0.013158 64:0.013158 65:0.013158 66:0.013158 67:0 68:0 69:0.013158 70:0.013158 71:0.026316 72:0 73:0.026316 74:0 75:0.013158 76:0 77:0.013158 78:0 79:0.039474 80:0.013158 81:0.026316 82:0 83:0 84:0.026316 85:0.013158 86:0 87:0.013158 88:0.013158 89:0 90:0 91:0 92:0.013158 93:0.039474 94:0 95:0 96:0 97:0.013158 98:0.026316 99:0.065789 100:0 
-56 1:0 2:0.019608 3:0.009804 4:0 5:0 6:0.04902 7:0 8:0 9:0.04902 10:0.009804 11:0 12:0 13:0.009804 14:0.019608 15:0 16:0 17:0.009804 18:0 19:0.009804 20:0 21:0.029412 22:0 23:0 24:0 25:0 26:0 27:0.019608 28:0.019608 29:0.019608 30:0.019608 31:0 32:0 33:0.039216 34:0.009804 35:0.009804 36:0.019608 37:0.029412 38:0 39:0.009804 40:0.019608 41:0.029412 42:0.009804 43:0 44:0.019608 45:0 46:0.009804 47:0.009804 48:0.019608 49:0 50:0 51:0 52:0 53:0 54:0.009804 55:0 56:0 57:0.019608 58:0 59:0.04902 60:0 61:0.009804 62:0.009804 63:0 64:0 65:0 66:0.029412 67:0.009804 68:0 69:0 70:0.009804 71:0.009804 72:0.009804 73:0 74:0 75:0 76:0.009804 77:0.009804 78:0.019608 79:0 80:0 81:0.009804 82:0.009804 83:0.029412 84:0 85:0.039216 86:0 87:0.04902 88:0 89:0.019608 90:0.04902 91:0.029412 92:0 93:0 94:0.009804 95:0 96:0 97:0.009804 98:0 99:0.009804 100:0 
-56 1:0.003311 2:0.006623 3:0.033113 4:0.006623 5:0.033113 6:0.006623 7:0.016556 8:0.006623 9:0 10:0.003311 11:0.003311 12:0 13:0.003311 14:0 15:0.009934 16:0 17:0.056291 18:0.003311 19:0.003311 20:0.019868 21:0.003311 22:0 23:0.013245 24:0.009934 25:0.006623 26:0.003311 27:0.029801 28:0.016556 29:0.006623 30:0.016556 31:0.013245 32:0.006623 33:0.009934 34:0 35:0.013245 36:0.009934 37:0 38:0.006623 39:0.009934 40:0.006623 41:0.023179 42:0.003311 43:0.003311 44:0.02649 45:0.019868 46:0 47:0.009934 48:0.02649 49:0.023179 50:0.006623 51:0.039735 52:0.023179 53:0 54:0.036424 55:0 56:0.006623 57:0.003311 58:0 59:0.006623 60:0 61:0.009934 62:0 63:0.006623 64:0.006623 65:0.009934 66:0.006623 67:0.009934 68:0.006623 69:0.003311 70:0.003311 71:0.003311 72:0.006623 73:0.003311 74:0.009934 75:0.009934 76:0.006623 77:0 78:0.006623 79:0.003311 80:0.023179 81:0 82:0 83:0.003311 84:0.009934 85:0 86:0.009934 87:0.016556 88:0.003311 89:0.003311 90:0.003311 91:0.003311 92:0.066225 93:0.003311 94:0.016556 95:0.003311 96:0.019868 97:0.016556 98:0.029801 99:0 100:0 
-25.85018525960419 1:0.005181 2:0 3:0 4:0.005181 5:0.005181 6:0.103627 7:0.005181 8:0.005181 9:0.025907 10:0.005181 11:0.005181 12:0.010363 13:0 14:0.005181 15:0 16:0 17:0 18:0.005181 19:0.010363 20:0 21:0.025907 22:0 23:0.005181 24:0 25:0.025907 26:0.031088 27:0 28:0.020725 29:0.015544 30:0 31:0.015544 32:0.005181 33:0.025907 34:0.005181 35:0 36:0.005181 37:0.020725 38:0.010363 39:0.005181 40:0.005181 41:0.005181 42:0.010363 43:0 44:0.005181 45:0 46:0 47:0.010363 48:0.010363 49:0.010363 50:0.010363 51:0.005181 52:0.005181 53:0 54:0.010363 55:0.005181 56:0 57:0.010363 58:0 59:0.119171 60:0.015544 61:0 62:0.005181 63:0 64:0.010363 65:0.005181 66:0.015544 67:0 68:0.005181 69:0 70:0.005181 71:0.005181 72:0 73:0.005181 74:0.005181 75:0.015544 76:0 77:0.046632 78:0.010363 79:0.020725 80:0.005181 81:0.005181 82:0.015544 83:0.041451 84:0.005181 85:0.010363 86:0.005181 87:0.015544 88:0 89:0.005181 90:0 91:0.015544 92:0 93:0.005181 94:0.020725 95:0.005181 96:0.010363 97:0.005181 98:0 99:0.020725 100:0 
-56 1:0 2:0 3:0 4:0 5:0.013333 6:0.053333 7:0.04 8:0 9:0.066667 10:0 11:0 12:0.013333 13:0.026667 14:0.013333 15:0.013333 16:0 17:0 18:0 19:0.013333 20:0.04 21:0 22:0.013333 23:0 24:0 25:0.013333 26:0.04 27:0.013333 28:0 29:0 30:0 31:0 32:0 33:0.066667 34:0 35:0.013333 36:0 37:0 38:0.013333 39:0 40:0 41:0.013333 42:0.026667 43:0.026667 44:0 45:0 46:0.026667 47:0.013333 48:0 49:0 50:0.026667 51:0 52:0 53:0.013333 54:0.013333 55:0.013333 56:0 57:0 58:0 59:0.026667 60:0 61:0 62:0 63:0 64:0 65:0 66:0 67:0 68:0.013333 69:0.013333 70:0 71:0.04 72:0 73:0 74:0.013333 75:0.013333 76:0 77:0 78:0 79:0.013333 80:0.026667 81:0 82:0.013333 83:0.026667 84:0.013333 85:0.013333 86:0 87:0.08 88:0 89:0.013333 90:0.013333 91:0 92:0 93:0 94:0 95:0 96:0 97:0 98:0 99:0.013333 100:0.013333 
-56 1:0.008264 2:0.024793 3:0 4:0.016529 5:0 6:0 7:0.008264 8:0.008264 9:0 10:0 11:0.008264 12:0 13:0 14:0.082645 15:0.016529 16:0.008264 17:0.033058 18:0 19:0.008264 20:0.008264 21:0 22:0 23:0 24:0.024793 25:0.057851 26:0.008264 27:0.008264 28:0.008264 29:0.041322 30:0.008264 31:0.016529 32:0.008264 33:0.033058 34:0 35:0 36:0 37:0.008264 38:0.008264 39:0.008264 40:0.016529 41:0.008264 42:0 43:0.016529 44:0 45:0.008264 46:0 47:0.016529 48:0.016529 49:0 50:0 51:0.024793 52:0.016529 53:0.016529 54:0.016529 55:0.008264 56:0.008264 57:0.041322 58:0.016529 59:0.024793 60:0 61:0.024793 62:0.016529 63:0.008264 64:0 65:0 66:0 67:0 68:0.016529 69:0.008264 70:0.016529 71:0.008264 72:0 73:0 74:0 75:0.008264 76:0 77:0 78:0.008264 79:0.016529 80:0 81:0 82:0 83:0.008264 84:0.008264 85:0.033058 86:0.008264 87:0.016529 88:0 89:0 90:0.008264 91:0.008264 92:0.008264 93:0 94:0.008264 95:0.008264 96:0.016529 97:0 98:0 99:0 100:0.008264 
-56 1:0 2:0.013158 3:0 4:0.026316 5:0 6:0.026316 7:0 8:0.026316 9:0.013158 10:0.013158 11:0.013158 12:0.013158 13:0 14:0 15:0 16:0 17:0 18:0 19:0.013158 20:0.026316 21:0 22:0 23:0.013158 24:0 25:0.026316 26:0.039474 27:0 28:0 29:0.013158 30:0 31:0.013158 32:0.013158 33:0 34:0.013158 35:0.026316 36:0 37:0 38:0.013158 39:0.013158 40:0 41:0.013158 42:0.013158 43:0 44:0 45:0 46:0.026316 47:0 48:0 49:0 50:0.013158 51:0.026316 52:0 53:0.013158 54:0 55:0 56:0.013158 57:0 58:0.026316 59:0.026316 60:0.026316 61:0.052632 62:0 63:0.013158 64:0.013158 65:0 66:0 67:0 68:0 69:0.013158 70:0.013158 71:0.026316 72:0.026316 73:0.013158 74:0 75:0.039474 76:0 77:0 78:0.013158 79:0.013158 80:0.013158 81:0.026316 82:0.013158 83:0 84:0.013158 85:0 86:0.013158 87:0.013158 88:0 89:0.013158 90:0.013158 91:0.013158 92:0.013158 93:0.013158 94:0 95:0 96:0.013158 97:0 98:0.026316 99:0 100:0 
-56 1:0.020979 2:0.020979 3:0 4:0 5:0 6:0.027972 7:0.027972 8:0.006993 9:0 10:0.006993 11:0 12:0 13:0.006993 14:0.020979 15:0.020979 16:0 17:0.013986 18:0.006993 19:0.013986 20:0.027972 21:0 22:0 23:0.020979 24:0 25:0.027972 26:0.013986 27:0.020979 28:0 29:0.013986 30:0.013986 31:0.006993 32:0 33:0.027972 34:0 35:0 36:0.006993 37:0 38:0 39:0.006993 40:0.006993 41:0.027972 42:0.013986 43:0 44:0 45:0 46:0.006993 47:0.006993 48:0.013986 49:0.020979 50:0 51:0 52:0.013986 53:0 54:0 55:0.006993 56:0.013986 57:0.013986 58:0.013986 59:0.020979 60:0.006993 61:0.013986 62:0 63:0.013986 64:0.006993 65:0 66:0 67:0 68:0.013986 69:0.006993 70:0.013986 71:0.020979 72:0 73:0 74:0.013986 75:0 76:0.020979 77:0 78:0.006993 79:0.027972 80:0 81:0 82:0.006993 83:0.034965 84:0.006993 85:0.020979 86:0 87:0.041958 88:0.020979 89:0.048951 90:0.006993 91:0.013986 92:0.020979 93:0 94:0.006993 95:0 96:0 97:0.006993 98:0.013986 99:0.013986 100:0 
