svm_type c_svc
kernel_type linear
nr_class 2
total_sv 30
rho 0.762022
label 0 1
nr_sv 12 18
SV
56 1:0.015873 2:0.005291 3:0 4:0 5:0.010582 6:0.021164 7:0.015873 8:0.010582 9:0.026455 10:0.010582 11:0.005291 12:0 13:0 14:0.005291 15:0.037037 16:0 17:0.005291 18:0.005291 19:0.005291 20:0 21:0.042328 22:0.010582 23:0.005291 24:0.026455 25:0.031746 26:0.005291 27:0.005291 28:0.015873 29:0.010582 30:0.010582 31:0 32:0.005291 33:0.037037 34:0.005291 35:0.021164 36:0.005291 37:0 38:0 39:0.010582 40:0.015873 41:0.010582 42:0.010582 43:0.010582 44:0.005291 45:0.005291 46:0 47:0.015873 48:0.005291 49:0.005291 50:0.010582 51:0 52:0 53:0.031746 54:0 55:0 56:0 57:0.015873 58:0 59:0.010582 60:0.010582 61:0.015873 62:0.005291 63:0 64:0.021164 65:0.010582 66:0 67:0.005291 68:0.015873 69:0 70:0.010582 71:0.010582 72:0 73:0 74:0 75:0.021164 76:0.005291 77:0.015873 78:0.005291 79:0.015873 80:0 81:0 82:0.026455 83:0.021164 84:0.010582 85:0.010582 86:0.010582 87:0.021164 88:0.005291 89:0.005291 90:0 91:0.005291 92:0.010582 93:0.031746 94:0.026455 95:0.005291 96:0.005291 97:0.010582 98:0 99:0.015873 100:0.026455 
56 1:0 2:0 3:0 4:0 5:0 6:0.061947 7:0.00885 8:0.00885 9:0.017699 10:0.00885 11:0.00885 12:0.00885 13:0.017699 14:0.017699 15:0.00885 16:0 17:0 18:0.00885 19:0.026549 20:0 21:0 22:0.017699 23:0.00885 24:0 25:0.053097 26:0 27:0 28:0 29:0.017699 30:0.00885 31:0.00885 32:0.017699 33:0.044248 34:0 35:0.00885 36:0 37:0.017699 38:0 39:0 40:0 41:0 42:0 43:0 44:0 45:0 46:0.00885 47:0 48:0 49:0 50:0 51:0 52:0 53:0.017699 54:0.00885 55:0.017699 56:0 57:0.017699 58:0 59:0.00885 60:0 61:0.053097 62:0 63:0 64:0.017699 65:0.00885 66:0.017699 67:0 68:0.044248 69:0.00885 70:0.00885 71:0.00885 72:0 73:0 74:0 75:0 76:0.00885 77:0.017699 78:0.017699 79:0 80:0 81:0.017699 82:0.026549 83:0.00885 84:0.017699 85:0.00885 86:0.017699 87:0.061947 88:0 89:0 90:0.00885 91:0 92:0.00885 93:0.00885 94:0.044248 95:0.00885 96:0.017699 97:0.00885 98:0 99:0.00885 100:0.026549 
56 1:0.017316 2:0 3:0 4:0.017316 5:0 6:0.017316 7:0.012987 8:0 9:0.008658 10:0 11:0.004329 12:0 13:0.004329 14:0.012987 15:0 16:0.004329 17:0.004329 18:0 19:0.004329 20:0.030303 21:0.025974 22:0.012987 23:0.004329 24:0.012987 25:0.021645 26:0.004329 27:0 28:0 29:0 30:0 31:0.004329 32:0.008658 33:0.012987 34:0 35:0.008658 36:0.017316 37:0.025974 38:0.030303 39:0 40:0.012987 41:0.012987 42:0 43:0 44:0.017316 45:0.008658 46:0.025974 47:0.012987 48:0 49:0.004329 50:0.004329 51:0.051948 52:0.012987 53:0.047619 54:0.012987 55:0 56:0.004329 57:0.004329 58:0.017316 59:0.021645 60:0.012987 61:0.012987 62:0.017316 63:0.012987 64:0.012987 65:0.004329 66:0.004329 67:0.008658 68:0.025974 69:0.021645 70:0.004329 71:0.034632 72:0.008658 73:0.004329 74:0.008658 75:0.008658 76:0.012987 77:0.012987 78:0.012987 79:0.008658 80:0.004329 81:0 82:0.008658 83:0.004329 84:0.008658 85:0.012987 86:0.004329 87:0.021645 88:0.017316 89:0.008658 90:0.008658 91:0.008658 92:0 93:0.004329 94:0.008658 95:0.004329 96:0.004329 97:0.008658 98:0.004329 99:0.004329 100:0 
56 1:0.035928 2:0.017964 3:0 4:0.041916 5:0.011976 6:0.017964 7:0.02994 8:0.011976 9:0.011976 10:0.017964 11:0 12:0.011976 13:0 14:0.005988 15:0.005988 16:0 17:0 18:0.005988 19:0.011976 20:0.023952 21:0 22:0.005988 23:0.011976 24:0.005988 25:0.011976 26:0.005988 27:0.005988 28:0 29:0.011976 30:0 31:0.005988 32:0.005988 33:0.035928 34:0.017964 35:0.017964 36:0.005988 37:0.005988 38:0.017964 39:0 40:0.005988 41:0.005988 42:0.005988 43:0.005988 44:0.017964 45:0.005988 46:0.005988 47:0.011976 48:0.005988 49:0 50:0 51:0.017964 52:0.011976 53:0.017964 54:0.005988 55:0 56:0 57:0.011976 58:0.011976 59:0 60:0.005988 61:0.023952 62:0 63:0.041916 64:0.005988 65:0 66:0.005988 67:0 68:0.023952 69:0 70:0.011976 71:0.017964 72:0 73:0 74:0 75:0.011976 76:0.017964 77:0.005988 78:0.02994 79:0.011976 80:0 81:0 82:0.005988 83:0.005988 84:0.023952 85:0.011976 86:0.005988 87:0.023952 88:0 89:0.005988 90:0.005988 91:0.005988 92:0 93:0.035928 94:0.005988 95:0.011976 96:0.005988 97:0.011976 98:0.011976 99:0 100:0.017964 
56 1:0.013605 2:0.047619 3:0.020408 4:0.020408 5:0.020408 6:0.013605 7:0.034014 8:0.020408 9:0.006803 10:0 11:0 12:0.006803 13:0.013605 14:0.006803 15:0.006803 16:0 17:0 18:0 19:0 20:0.020408 21:0 22:0.013605 23:0 24:0.013605 25:0.027211 26:0 27:0.013605 28:0.006803 29:0.013605 30:0 31:0 32:0 33:0.006803 34:0 35:0 36:0.013605 37:0.027211 38:0.027211 39:0.006803 40:0 41:0.006803 42:0 43:0.006803 44:0 45:0 46:0.006803 47:0 48:0.013605 49:0 50:0 51:0.054422 52:0 53:0.020408 54:0.020408 55:0 56:0.006803 57:0.006803 58:0.054422 59:0.020408 60:0 61:0.013605 62:0.006803 63:0.034014 64:0.006803 65:0 66:0.006803 67:0 68:0.047619 69:0.006803 70:0.006803 71:0.020408 72:0 73:0.006803 74:0 75:0 76:0.027211 77:0 78:0.006803 79:0.006803 80:0 81:0.006803 82:0.006803 83:0.006803 84:0.020408 85:0 86:0.006803 87:0.006803 88:0.006803 89:0.006803 90:0 91:0.006803 92:0.040816 93:0 94:0.006803 95:0 96:0.013605 97:0.013605 98:0 99:0 100:0.013605 
56 1:0.009434 2:0 3:0.009434 4:0 5:0.009434 6:0.037736 7:0.028302 8:0.009434 9:0.04717 10:0.009434 11:0.009434 12:0 13:0.009434 14:0.009434 15:0.009434 16:0.009434 17:0 18:0 19:0 20:0.028302 21:0 22:0.009434 23:0 24:0 25:0.018868 26:0.009434 27:0 28:0.009434 29:0.009434 30:0.009434 31:0 32:0 33:0.075472 34:0 35:0.009434 36:0 37:0.009434 38:0.018868 39:0 40:0.009434 41:0.018868 42:0.009434 43:0 44:0 45:0.009434 46:0.009434 47:0.028302 48:0.018868 49:0.009434 50:0.009434 51:0 52:0 53:0 54:0 55:0.028302 56:0 57:0.018868 58:0 59:0 60:0.009434 61:0.056604 62:0 63:0.009434 64:0.009434 65:0 66:0 67:0.018868 68:0.018868 69:0 70:0 71:0 72:0.009434 73:0 74:0 75:0.018868 76:0.018868 77:0.018868 78:0.009434 79:0.018868 80:0 81:0 82:0.037736 83:0.009434 84:0 85:0.018868 86:0.009434 87:0.018868 88:0 89:0.009434 90:0.009434 91:0 92:0 93:0.009434 94:0.009434 95:0 96:0.018868 97:0.009434 98:0 99:0.028302 100:0.009434 
5.063173904837551 1:0.014925 2:0 3:0 4:0 5:0 6:0.044776 7:0 8:0.014925 9:0 10:0 11:0.014925 12:0 13:0.014925 14:0.029851 15:0.014925 16:0 17:0 18:0 19:0 20:0 21:0.044776 22:0 23:0 24:0 25:0.044776 26:0 27:0 28:0 29:0.074627 30:0 31:0 32:0.014925 33:0.059701 34:0 35:0 36:0 37:0.029851 38:0 39:0 40:0.014925 41:0 42:0 43:0 44:0 45:0 46:0 47:0.044776 48:0 49:0 50:0 51:0 52:0 53:0.014925 54:0.029851 55:0.014925 56:0 57:0 58:0.014925 59:0 60:0 61:0 62:0 63:0.014925 64:0.014925 65:0 66:0.014925 67:0 68:0 69:0.029851 70:0 71:0 72:0 73:0 74:0 75:0.014925 76:0.014925 77:0 78:0 79:0 80:0.014925 81:0 82:0.059701 83:0.029851 84:0.014925 85:0.029851 86:0.014925 87:0.044776 88:0 89:0.044776 90:0 91:0 92:0 93:0.014925 94:0.014925 95:0.014925 96:0 97:0 98:0 99:0.014925 100:0.029851 
4.913392305326132 1:0.00885 2:0.00885 3:0 4:0 5:0.017699 6:0.026549 7:0.026549 8:0.00885 9:0.017699 10:0.017699 11:0 12:0 13:0.017699 14:0.00885 15:0.00885 16:0 17:0 18:0.00885 19:0 20:0.00885 21:0.044248 22:0.026549 23:0 24:0.00885 25:0.061947 26:0.00885 27:0 28:0 29:0.00885 30:0 31:0.00885 32:0 33:0.061947 34:0 35:0 36:0.00885 37:0.035398 38:0 39:0.00885 40:0 41:0 42:0 43:0 44:0 45:0 46:0.00885 47:0.017699 48:0.026549 49:0 50:0.026549 51:0.00885 52:0 53:0.017699 54:0 55:0.00885 56:0 57:0.00885 58:0.017699 59:0.017699 60:0 61:0.017699 62:0 63:0 64:0.00885 65:0 66:0 67:0 68:0.017699 69:0 70:0 71:0.00885 72:0 73:0 74:0.00885 75:0.026549 76:0.017699 77:0.017699 78:0.00885 79:0 80:0 81:0 82:0.035398 83:0.017699 84:0.00885 85:0.00885 86:0 87:0.070796 88:0.00885 89:0.017699 90:0 91:0 92:0.00885 93:0.035398 94:0 95:0 96:0 97:0 98:0 99:0.00885 100:0.017699 
56 1:0.01005 2:0 3:0 4:0 5:0.005025 6:0.025126 7:0.025126 8:0.01005 9:0.040201 10:0.030151 11:0 12:0 13:0 14:0.005025 15:0.030151 16:0 17:0.01005 18:0.01005 19:0.005025 20:0.020101 21:0.050251 22:0.01005 23:0 24:0.015075 25:0.020101 26:0.005025 27:0 28:0.020101 29:0.01005 30:0.005025 31:0 32:0 33:0.030151 34:0.01005 35:0.01005 36:0.005025 37:0.005025 38:0 39:0.01005 40:0.015075 41:0.015075 42:0.005025 43:0.015075 44:0 45:0.005025 46:0.01005 47:0.020101 48:0.005025 49:0.005025 50:0.015075 51:0 52:0 53:0.020101 54:0 55:0 56:0 57:0 58:0.005025 59:0.01005 60:0.005025 61:0.020101 62:0.005025 63:0 64:0.015075 65:0.015075 66:0.005025 67:0 68:0.020101 69:0 70:0.020101 71:0.015075 72:0 73:0 74:0 75:0.01005 76:0.01005 77:0.015075 78:0 79:0.020101 80:0 81:0.005025 82:0.030151 83:0.015075 84:0.020101 85:0.005025 86:0.015075 87:0.045226 88:0.005025 89:0.005025 90:0.005025 91:0 92:0.01005 93:0.020101 94:0.035176 95:0 96:0 97:0.015075 98:0 99:0.01005 100:0.005025 
56 1:0.043011 2:0 3:0 4:0.010753 5:0.010753 6:0.043011 7:0.010753 8:0.010753 9:0.010753 10:0.010753 11:0 12:0 13:0.010753 14:0 15:0.010753 16:0 17:0.010753 18:0.010753 19:0 20:0.043011 21:0.053763 22:0.010753 23:0 24:0.010753 25:0.032258 26:0 27:0.032258 28:0.021505 29:0.021505 30:0 31:0 32:0 33:0.021505 34:0.010753 35:0.010753 36:0 37:0 38:0.010753 39:0 40:0.010753 41:0.010753 42:0 43:0.032258 44:0 45:0 46:0 47:0.032258 48:0.010753 49:0 50:0.010753 51:0 52:0 53:0.021505 54:0 55:0 56:0 57:0.010753 58:0.021505 59:0.010753 60:0 61:0.010753 62:0.010753 63:0 64:0.010753 65:0 66:0 67:0 68:0 69:0 70:0.010753 71:0 72:0 73:0 74:0 75:0 76:0.032258 77:0 78:0.010753 79:0.021505 80:0 81:0 82:0.064516 83:0.010753 84:0 85:0.010753 86:0 87:0 88:0.010753 89:0 90:0 91:0 92:0.010753 93:0.010753 94:0.021505 95:0 96:0 97:0.010753 98:0.032258 99:0.032258 100:0.032258 
56 1:0.006667 2:0 3:0 4:0.006667 5:0 6:0.026667 7:0.073333 8:0.006667 9:0 10:0 11:0.006667 12:0.006667 13:0 14:0 15:0.006667 16:0.013333 17:0 18:0 19:0.006667 20:0 21:0 22:0.006667 23:0 24:0.046667 25:0.053333 26:0.02 27:0 28:0 29:0.02 30:0 31:0 32:0.006667 33:0.046667 34:0.006667 35:0.02 36:0.006667 37:0.02 38:0 39:0 40:0.013333 41:0 42:0 43:0 44:0 45:0 46:0.006667 47:0.006667 48:0.02 49:0 50:0.02 51:0.006667 52:0.006667 53:0.06 54:0 55:0.013333 56:0 57:0.006667 58:0 59:0.02 60:0 61:0.086667 62:0 63:0.013333 64:0.006667 65:0.006667 66:0.006667 67:0 68:0.02 69:0.006667 70:0 71:0.006667 72:0.006667 73:0.006667 74:0 75:0.006667 76:0.006667 77:0.006667 78:0.013333 79:0 80:0 81:0 82:0.006667 83:0.006667 84:0.006667 85:0 86:0.02 87:0.053333 88:0.006667 89:0.013333 90:0.006667 91:0 92:0.026667 93:0.02 94:0 95:0.033333 96:0.006667 97:0 98:0 99:0 100:0 
56 1:0 2:0.04878 3:0.01626 4:0.03252 5:0.02439 6:0.03252 7:0.01626 8:0 9:0.00813 10:0.01626 11:0 12:0 13:0.00813 14:0.00813 15:0.03252 16:0 17:0.01626 18:0 19:0 20:0.00813 21:0 22:0.00813 23:0.00813 24:0.00813 25:0 26:0 27:0 28:0.03252 29:0.03252 30:0 31:0.00813 32:0.02439 33:0.02439 34:0.00813 35:0 36:0 37:0.01626 38:0.02439 39:0 40:0 41:0 42:0.00813 43:0 44:0.00813 45:0.00813 46:0.00813 47:0 48:0 49:0.01626 50:0 51:0 52:0 53:0.00813 54:0.00813 55:0 56:0 57:0.00813 58:0.02439 59:0.02439 60:0.00813 61:0.00813 62:0 63:0.02439 64:0.01626 65:0.01626 66:0.03252 67:0.00813 68:0.01626 69:0.00813 70:0 71:0.04065 72:0 73:0 74:0 75:0 76:0.02439 77:0 78:0 79:0.00813 80:0.01626 81:0.01626 82:0 83:0 84:0.01626 85:0.00813 86:0.00813 87:0.01626 88:0 89:0.00813 90:0.00813 91:0 92:0 93:0.00813 94:0.02439 95:0.01626 96:0.01626 97:0 98:0 99:0.01626 100:0.02439 
-38.16769803554404 1:0.00885 2:0.00885 3:0.00885 4:0.044248 5:0 6:0.00885 7:0.00885 8:0 9:0.026549 10:0.00885 11:0 12:0 13:0.00885 14:0.00885 15:0.00885 16:0 17:0.00885 18:0.017699 19:0 20:0.00885 21:0.00885 22:0.017699 23:0.00885 24:0.026549 25:0.044248 26:0.017699 27:0 28:0.00885 29:0.00885 30:0 31:0 32:0 33:0.00885 34:0 35:0 36:0 37:0.017699 38:0.035398 39:0 40:0.00885 41:0 42:0 43:0.00885 44:0.017699 45:0.017699 46:0.017699 47:0.00885 48:0.00885 49:0.026549 50:0 51:0 52:0 53:0.035398 54:0.017699 55:0 56:0.00885 57:0 58:0.00885 59:0 60:0.017699 61:0.00885 62:0 63:0.017699 64:0.00885 65:0.017699 66:0 67:0.00885 68:0 69:0.026549 70:0.026549 71:0.026549 72:0.017699 73:0.00885 74:0.00885 75:0 76:0.00885 77:0.00885 78:0.026549 79:0.00885 80:0 81:0.00885 82:0.017699 83:0 84:0.00885 85:0 86:0.00885 87:0.00885 88:0 89:0.026549 90:0.00885 91:0 92:0 93:0 94:0 95:0 96:0.00885 97:0.061947 98:0 99:0 100:0.017699 
-36.66785874698167 1:0 2:0 3:0 4:0.027397 5:0 6:0.013699 7:0 8:0 9:0 10:0.013699 11:0.041096 12:0 13:0.027397 14:0 15:0 16:0 17:0 18:0.027397 19:0 20:0 21:0 22:0 23:0 24:0.013699 25:0 26:0 27:0 28:0 29:0.027397 30:0 31:0 32:0 33:0.09589 34:0.027397 35:0.013699 36:0 37:0.013699 38:0.013699 39:0 40:0 41:0 42:0.013699 43:0.013699 44:0.013699 45:0.013699 46:0.013699 47:0 48:0 49:0.013699 50:0 51:0 52:0.013699 53:0 54:0.013699 55:0.013699 56:0.013699 57:0 58:0 59:0 60:0.013699 61:0.041096 62:0 63:0.027397 64:0 65:0 66:0 67:0.027397 68:0.027397 69:0.027397 70:0 71:0.013699 72:0.041096 73:0 74:0.013699 75:0.013699 76:0.027397 77:0 78:0.013699 79:0 80:0.013699 81:0.041096 82:0.027397 83:0 84:0.013699 85:0.013699 86:0 87:0.027397 88:0 89:0 90:0.013699 91:0 92:0 93:0 94:0.027397 95:0 96:0 97:0.013699 98:0 99:0.027397 100:0 
-25.30808836337135 1:0.013699 2:0.027397 3:0 4:0.013699 5:0 6:0 7:0 8:0 9:0.013699 10:0 11:0 12:0 13:0 14:0 15:0 16:0.013699 17:0.013699 18:0 19:0 20:0 21:0.013699 22:0 23:0 24:0 25:0.09589 26:0.013699 27:0.041096 28:0.013699 29:0 30:0 31:0.027397 32:0 33:0.041096 34:0 35:0 36:0 37:0.027397 38:0.013699 39:0 40:0 41:0 42:0.013699 43:0.068493 44:0 45:0 46:0 47:0.013699 48:0 49:0.041096 50:0 51:0.013699 52:0 53:0 54:0 55:0 56:0 57:0.013699 58:0.041096 59:0 60:0 61:0 62:0.013699 63:0.027397 64:0.013699 65:0.013699 66:0.013699 67:0.041096 68:0 69:0.013699 70:0 71:0.027397 72:0 73:0 74:0 75:0 76:0.013699 77:0.013699 78:0.041096 79:0.013699 80:0 81:0 82:0 83:0 84:0 85:0 86:0.013699 87:0 88:0.013699 89:0 90:0.013699 91:0.041096 92:0.013699 93:0.013699 94:0.013699 95:0 96:0 97:0.027397 98:0.013699 99:0 100:0 
-20.58729825508586 1:0.011494 2:0.011494 3:0.011494 4:0.034483 5:0 6:0 7:0.011494 8:0.011494 9:0.022989 10:0 11:0 12:0.011494 13:0 14:0 15:0 16:0 17:0 18:0 19:0 20:0 21:0.045977 22:0.011494 23:0 24:0.011494 25:0.045977 26:0 27:0 28:0 29:0.011494 30:0 31:0 32:0 33:0.034483 34:0.011494 35:0.011494 36:0 37:0.011494 38:0.011494 39:0 40:0.011494 41:0.011494 42:0 43:0 44:0 45:0.022989 46:0.045977 47:0 48:0.011494 49:0 50:0 51:0.011494 52:0.034483 53:0.022989 54:0.034483 55:0 56:0.022989 57:0.011494 58:0.011494 59:0 60:0.022989 61:0.034483 62:0.011494 63:0.034483 64:0 65:0 66:0 67:0 68:0.011494 69:0 70:0 71:0.022989 72:0.011494 73:0.034483 74:0 75:0 76:0 77:0 78:0.034483 79:0.022989 80:0 81:0.022989 82:0 83:0 84:0.022989 85:0.011494 86:0 87:0.011494 88:0 89:0.011494 90:0.011494 91:0.011494 92:0 93:0 94:0.011494 95:0 96:0 97:0.011494 98:0.011494 99:0.011494 100:0.022989 
-49.75579011980156 1:0.018182 2:0.009091 3:0 4:0.009091 5:0 6:0.018182 7:0.018182 8:0.018182 9:0.018182 10:0.009091 11:0.009091 12:0.018182 13:0 14:0.018182 15:0.036364 16:0 17:0 18:0 19:0 20:0 21:0.009091 22:0.009091 23:0.009091 24:0 25:0.009091 26:0 27:0.009091 28:0.018182 29:0.009091 30:0.009091 31:0.009091 32:0 33:0.018182 34:0.018182 35:0 36:0.009091 37:0 38:0 39:0.009091 40:0.009091 41:0 42:0 43:0.009091 44:0 45:0 46:0.009091 47:0.018182 48:0.009091 49:0 50:0.009091 51:0.009091 52:0 53:0.018182 54:0.018182 55:0.009091 56:0.018182 57:0.009091 58:0.009091 59:0.018182 60:0.009091 61:0.018182 62:0.018182 63:0.036364 64:0.018182 65:0 66:0 67:0 68:0.027273 69:0 70:0 71:0 72:0 73:0.036364 74:0 75:0.018182 76:0.018182 77:0.009091 78:0.027273 79:0.009091 80:0.009091 81:0.027273 82:0.009091 83:0.018182 84:0.009091 85:0.018182 86:0 87:0.018182 88:0 89:0 90:0.009091 91:0 92:0.018182 93:0.009091 94:0 95:0.018182 96:0 97:0 98:0.027273 99:0.027273 100:0.018182 
-2.089228994998984 1:0.009009 2:0 3:0 4:0 5:0.009009 6:0.018018 7:0.009009 8:0.027027 9:0 10:0.009009 11:0 12:0.009009 13:0 14:0.009009 15:0.009009 16:0 17:0.009009 18:0.009009 19:0 20:0.018018 21:0.009009 22:0 23:0 24:0.009009 25:0.009009 26:0 27:0.009009 28:0.027027 29:0 30:0 31:0.027027 32:0 33:0.027027 34:0 35:0.027027 36:0 37:0 38:0.018018 39:0.009009 40:0 41:0 42:0 43:0.036036 44:0 45:0 46:0 47:0.009009 48:0.018018 49:0 50:0 51:0.009009 52:0.036036 53:0 54:0.009009 55:0 56:0.018018 57:0 58:0.009009 59:0.018018 60:0.036036 61:0.027027 62:0.018018 63:0 64:0.018018 65:0.009009 66:0.027027 67:0 68:0.018018 69:0 70:0 71:0.018018 72:0 73:0.018018 74:0.009009 75:0.036036 76:0 77:0.009009 78:0 79:0.036036 80:0.009009 81:0.045045 82:0 83:0.009009 84:0 85:0.009009 86:0 87:0.027027 88:0 89:0.009009 90:0 91:0 92:0.009009 93:0.009009 94:0 95:0.027027 96:0.018018 97:0.009009 98:0.018018 99:0.009009 100:0.036036 
-19.16224000299976 1:0 2:0 3:0 4:0 5:0.022222 6:0.022222 7:0 8:0 9:0 10:0.022222 11:0 12:0 13:0 14:0.022222 15:0 16:0 17:0.022222 18:0 19:0 20:0 21:0 22:0 23:0 24:0.022222 25:0.111111 26:0 27:0.022222 28:0 29:0 30:0.022222 31:0 32:0.022222 33:0 34:0 35:0 36:0 37:0 38:0 39:0 40:0.022222 41:0 42:0.022222 43:0.022222 44:0.022222 45:0 46:0.022222 47:0 48:0 49:0 50:0 51:0 52:0 53:0.022222 54:0.022222 55:0 56:0 57:0.022222 58:0 59:0.022222 60:0.044444 61:0.155556 62:0 63:0.022222 64:0 65:0 66:0 67:0 68:0 69:0 70:0 71:0 72:0.044444 73:0 74:0 75:0 76:0 77:0 78:0 79:0 80:0 81:0.022222 82:0 83:0 84:0.022222 85:0.022222 86:0 87:0.022222 88:0 89:0 90:0 91:0 92:0 93:0.044444 94:0 95:0.022222 96:0 97:0.022222 98:0 99:0.022222 100:0.022222 
-33.41102598261415 1:0.044643 2:0.008929 3:0.017857 4:0 5:0.008929 6:0 7:0.008929 8:0 9:0 10:0.017857 11:0.017857 12:0 13:0.026786 14:0.008929 15:0.017857 16:0 17:0.008929 18:0 19:0 20:0.026786 21:0 22:0.008929 23:0.008929 24:0 25:0 26:0 27:0 28:0.008929 29:0.008929 30:0.008929 31:0 32:0.008929 33:0.008929 34:0.008929 35:0.008929 36:0.017857 37:0.008929 38:0 39:0.008929 40:0.017857 41:0 42:0.008929 43:0.008929 44:0.017857 45:0 46:0.026786 47:0.008929 48:0.017857 49:0 50:0.008929 51:0.017857 52:0.008929 53:0.044643 54:0.008929 55:0.017857 56:0.017857 57:0 58:0 59:0.008929 60:0.008929 61:0.026786 62:0.044643 63:0.026786 64:0.017857 65:0 66:0 67:0.008929 68:0.035714 69:0.008929 70:0.008929 71:0 72:0.008929 73:0.008929 74:0 75:0.026786 76:0 77:0 78:0.017857 79:0.017857 80:0.008929 81:0.008929 82:0 83:0.008929 84:0.008929 85:0.008929 86:0 87:0.017857 88:0.008929 89:0 90:0 91:0 92:0.017857 93:0.017857 94:0.017857 95:0 96:0.035714 97:0 98:0 99:0 100:0 
-56 1:0.017241 2:0.017241 3:0 4:0 5:0 6:0.017241 7:0.051724 8:0.017241 9:0 10:0 11:0 12:0 13:0 14:0 15:0.051724 16:0 17:0 18:0 19:0 20:0.034483 21:0 22:0.017241 23:0 24:0 25:0.034483 26:0 27:0.017241 28:0.017241 29:0 30:0 31:0 32:0.034483 33:0.034483 34:0 35:0 36:0.017241 37:0.034483 38:0 39:0.017241 40:0 41:0 42:0.017241 43:0.017241 44:0 45:0 46:0 47:0 48:0 49:0 50:0.017241 51:0 52:0 53:0 54:0.017241 55:0 56:0 57:0 58:0.017241 59:0 60:0 61:0.034483 62:0 63:0.017241 64:0 65:0.017241 66:0 67:0 68:0.034483 69:0 70:0 71:0 72:0 73:0.017241 74:0 75:0.034483 76:0.051724 77:0.017241 78:0.034483 79:0.034483 80:0 81:0 82:0 83:0 84:0.051724 85:0.017241 86:0.017241 87:0.034483 88:0 89:0 90:0 91:0.017241 92:0 93:0.034483 94:0 95:0 96:0 97:0 98:0 99:0 100:0.017241 
-21.81282570886257 1:0.026667 2:0 3:0 4:0.04 5:0 6:0.013333 7:0.026667 8:0.026667 9:0 10:0 11:0.013333 12:0.013333 13:0 14:0.013333 15:0 16:0 17:0.026667 18:0.013333 19:0.013333 20:0.013333 21:0.013333 22:0.013333 23:0 24:0 25:0.026667 26:0 27:0.026667 28:0 29:0 30:0 31:0 32:0 33:0.04 34:0 35:0.013333 36:0 37:0.053333 38:0.013333 39:0 40:0.013333 41:0 42:0 43:0 44:0.013333 45:0.013333 46:0.026667 47:0 48:0 49:0 50:0 51:0.013333 52:0.013333 53:0.026667 54:0 55:0 56:0.013333 57:0 58:0.013333 59:0 60:0 61:0.026667 62:0 63:0.013333 64:0 65:0.013333 66:0 67:0.013333 68:0.026667 69:0.013333 70:0.013333 71:0.013333 72:0.04 73:0 74:0.013333 75:0 76:0.013333 77:0 78:0.026667 79:0.013333 80:0 81:0.013333 82:0 83:0 84:0 85:0.013333 86:0 87:0.013333 88:0 89:0 90:0.026667 91:0.013333 92:0 93:0.013333 94:0 95:0.013333 96:0.013333 97:0.04 98:0 99:0.013333 100:0 
-34.1383980151964 1:0 2:0.040323 3:0 4:0.016129 5:0 6:0.008065 7:0 8:0.008065 9:0 10:0.008065 11:0 12:0.008065 13:0.008065 14:0.008065 15:0.008065 16:0 17:0.008065 18:0.016129 19:0.008065 20:0 21:0.016129 22:0.008065 23:0.024194 24:0.024194 25:0 26:0.08871 27:0.008065 28:0 29:0.008065 30:0.008065 31:0.008065 32:0 33:0.056452 34:0 35:0.008065 36:0.008065 37:0.016129 38:0 39:0.008065 40:0 41:0.024194 42:0 43:0.016129 44:0.016129 45:0 46:0 47:0 48:0.016129 49:0 50:0.024194 51:0 52:0 53:0.008065 54:0 55:0 56:0 57:0.008065 58:0.040323 59:0.008065 60:0 61:0.008065 62:0.024194 63:0.016129 64:0 65:0.016129 66:0.024194 67:0.008065 68:0.016129 69:0 70:0 71:0.008065 72:0.016129 73:0 74:0 75:0.016129 76:0.008065 77:0 78:0.008065 79:0.008065 80:0.016129 81:0.008065 82:0.008065 83:0 84:0.008065 85:0.008065 86:0 87:0.024194 88:0.016129 89:0.024194 90:0.016129 91:0 92:0 93:0.008065 94:0 95:0.008065 96:0.032258 97:0 98:0.016129 99:0.024194 100:0.008065 
-47.80305766382855 1:0.030303 2:0.045455 3:0.015152 4:0 5:0 6:0.075758 7:0.030303 8:0.030303 9:0 10:0.045455 11:0 12:0.030303 13:0 14:0.015152 15:0.015152 16:0 17:0 18:0.015152 19:0 20:0 21:0 22:0 23:0 24:0 25:0 26:0 27:0.015152 28:0.015152 29:0.015152 30:0 31:0 32:0 33:0.015152 34:0 35:0 36:0.015152 37:0.015152 38:0.015152 39:0 40:0 41:0 42:0 43:0.015152 44:0.015152 45:0 46:0 47:0 48:0 49:0 50:0 51:0 52:0 53:0.015152 54:0.045455 55:0 56:0 57:0 58:0.015152 59:0.060606 60:0.015152 61:0.075758 62:0 63:0 64:0.015152 65:0 66:0 67:0 68:0.030303 69:0 70:0 71:0 72:0 73:0.030303 74:0 75:0 76:0 77:0 78:0 79:0.015152 80:0.015152 81:0.030303 82:0 83:0.030303 84:0 85:0.015152 86:0 87:0 88:0.015152 89:0.015152 90:0.015152 91:0 92:0 93:0 94:0 95:0.015152 96:0 97:0.015152 98:0.015152 99:0 100:0.015152 
-17.00251681547796 1:0.018519 2:0.018519 3:0 4:0.018519 5:0 6:0.018519 7:0.037037 8:0 9:0 10:0.018519 11:0 12:0 13:0.018519 14:0.018519 15:0.018519 16:0 17:0.018519 18:0 19:0 20:0 21:0 22:0 23:0 24:0 25:0 26:0 27:0.037037 28:0.018519 29:0 30:0 31:0.018519 32:0 33:0 34:0 35:0.018519 36:0.018519 37:0 38:0.018519 39:0.018519 40:0 41:0.037037 42:0 43:0.018519 44:0.018519 45:0 46:0 47:0.037037 48:0 49:0 50:0 51:0.018519 52:0 53:0.018519 54:0.018519 55:0 56:0.037037 57:0.018519 58:0 59:0.018519 60:0 61:0.074074 62:0 63:0 64:0 65:0 66:0 67:0 68:0 69:0 70:0 71:0.037037 72:0.018519 73:0.018519 74:0 75:0 76:0.018519 77:0 78:0.037037 79:0 80:0 81:0.018519 82:0 83:0 84:0.018519 85:0 86:0 87:0.037037 88:0.018519 89:0.018519 90:0 91:0.018519 92:0 93:0.037037 94:0.037037 95:0 96:0 97:0 98:0 99:0 100:0 
-56 1:0.037037 2:0 3:0 4:0.018519 5:0.018519 6:0.018519 7:0.018519 8:0.018519 9:0 10:0.018519 11:0 12:0 13:0 14:0.018519 15:0.018519 16:0 17:0 18:0.037037 19:0 20:0.018519 21:0 22:0.018519 23:0 24:0.037037 25:0 26:0 27:0 28:0.037037 29:0 30:0 31:0 32:0 33:0.037037 34:0.037037 35:0 36:0 37:0 38:0 39:0.018519 40:0.037037 41:0 42:0 43:0 44:0 45:0 46:0 47:0.018519 48:0 49:0 50:0 51:0 52:0 53:0.074074 54:0 55:0 56:0 57:0.018519 58:0.018519 59:0.018519 60:0 61:0.018519 62:0 63:0.018519 64:0 65:0 66:0 67:0 68:0 69:0 70:0 71:0.037037 72:0 73:0.018519 74:0.018519 75:0 76:0.018519 77:0 78:0.018519 79:0.018519 80:0.037037 81:0 82:0 83:0.018519 84:0.018519 85:0 86:0 87:0.074074 88:0 89:0 90:0 91:0 92:0.018519 93:0 94:0 95:0 96:0 97:0 98:0.037037 99:0 100:0.018519 
-56 1:0.017699 2:0 3:0 4:0 5:0.00885 6:0.00885 7:0 8:0 9:0.00885 10:0.044248 11:0 12:0 13:0.00885 14:0.00885 15:0.035398 16:0.00885 17:0.00885 18:0 19:0 20:0.00885 21:0.017699 22:0.00885 23:0.00885 24:0 25:0.00885 26:0 27:0 28:0 29:0.026549 30:0 31:0 32:0.044248 33:0.026549 34:0 35:0 36:0.017699 37:0.00885 38:0.00885 39:0 40:0.017699 41:0.00885 42:0.00885 43:0.017699 44:0 45:0.00885 46:0.017699 47:0 48:0.017699 49:0.026549 50:0.017699 51:0 52:0 53:0.00885 54:0 55:0 56:0 57:0.00885 58:0.017699 59:0 60:0 61:0.00885 62:0.00885 63:0 64:0.017699 65:0.035398 66:0.026549 67:0 68:0 69:0 70:0.026549 71:0.00885 72:0 73:0 74:0 75:0.026549 76:0.017699 77:0.00885 78:0.00885 79:0.00885 80:0.00885 81:0 82:0.00885 83:0 84:0.017699 85:0.00885 86:0.00885 87:0.044248 88:0 89:0.017699 90:0.026549 91:0 92:0 93:0.026549 94:0.061947 95:0 96:0 97:0.00885 98:0 99:0.035398 100:0 
-0.2072275704750372 1:0 2:0 3:0.035088 4:0.035088 5:0.017544 6:0 7:0 8:0 9:0 10:0.017544 11:0 12:0.035088 13:0 14:0 15:0 16:0 17:0.017544 18:0.017544 19:0.017544 20:0.017544 21:0.070175 22:0 23:0 24:0 25:0 26:0 27:0 28:0.017544 29:0 30:0 31:0 32:0.017544 33:0 34:0 35:0.017544 36:0.035088 37:0 38:0.052632 39:0 40:0 41:0 42:0.017544 43:0 44:0 45:0 46:0 47:0 48:0.017544 49:0.017544 50:0 51:0 52:0 53:0.017544 54:0.017544 55:0.017544 56:0 57:0.035088 58:0 59:0.017544 60:0 61:0.052632 62:0 63:0.035088 64:0 65:0 66:0 67:0.017544 68:0 69:0.052632 70:0 71:0.017544 72:0 73:0.017544 74:0 75:0 76:0.017544 77:0 78:0.017544 79:0 80:0 81:0.035088 82:0 83:0 84:0 85:0 86:0 87:0.017544 88:0 89:0.052632 90:0 91:0.017544 92:0 93:0.017544 94:0 95:0.017544 96:0 97:0 98:0 99:0.035088 100:0 
-38.22057225868534 1:0.01 2:0 3:0.01 4:0.03 5:0 6:0.01 7:0.01 8:0.01 9:0.01 10:0.01 11:0.01 12:0 13:0.01 14:0.01 15:0.01 16:0 17:0.01 18:0.01 19:0 20:0.01 21:0.01 22:0.02 23:0 24:0.03 25:0.04 26:0.02 27:0 28:0 29:0 30:0 31:0 32:0 33:0.01 34:0 35:0.02 36:0 37:0.01 38:0.04 39:0 40:0.02 41:0.01 42:0.01 43:0.02 44:0.03 45:0 46:0.02 47:0.01 48:0 49:0.02 50:0 51:0 52:0 53:0.04 54:0.01 55:0 56:0 57:0.01 58:0.02 59:0 60:0.01 61:0.01 62:0 63:0.02 64:0 65:0.01 66:0 67:0.01 68:0.01 69:0.03 70:0.02 71:0.04 72:0.01 73:0 74:0.01 75:0 76:0 77:0.02 78:0.01 79:0.02 80:0 81:0.02 82:0 83:0 84:0.01 85:0 86:0.01 87:0 88:0 89:0.03 90:0.01 91:0.01 92:0 93:0 94:0 95:0 96:0.03 97:0.03 98:0 99:0 100:0.03 
-17.64273967624049 1:0.026316 2:0 3:0 4:0 5:0.013158 6:0.013158 7:0.026316 8:0.026316 9:0 10:0.013158 11:0 12:0 13:0.013158 14:0 15:0 16:0 17:0 18:0 19:0 20:0.052632 21:0.013158 22:0 23:0.013158 24:0 25:0 26:0 27:0 28:0.026316 29:0 30:0 31:0.052632 32:0 33:0 34:0 35:0.039474 36:0 37:0 38:0.013158 39:0 40:0 41:0 42:0 43:0 44:0 45:0 46:0 47:0.013158 48:0.026316 49:0.013158 50:0 51:0 52:0.013158 53:0.026316 54:0.013158 55:0.013158 56:0.013158 57:0 58:0.013158 59:0.013158 60:0.013158 61:0.013158 62:0.013158 63:0.013158 64:0.013158 65:0.013158 66:0.013158 67:0 68:0 69:0.013158 70:0.013158 71:0.026316 72:0 73:0.026316 74:0 75:0.013158 76:0 77:0.013158 78:0 79:0.039474 80:0.013158 81:0.026316 82:0 83:0 84:0.026316 85:0.013158 86:0 87:0.013158 88:0.013158 89:0 90:0 91:0 92:0.013158 93:0.039474 94:0 95:0 96:0 97:0.013158 98:0.026316 99:0.065789 100:0 
