svm_type c_svc
kernel_type linear
nr_class 2
total_sv 81
rho 0.442512
label 1 2
nr_sv 40 41
SV
56 1:0.006211 2:0.024845 3:0.024845 4:0.012422 5:0.018634 6:0.006211 7:0.012422 8:0.006211 9:0 10:0.012422 11:0.012422 12:0 13:0 14:0.024845 15:0 16:0 17:0.012422 18:0.012422 19:0.018634 20:0.006211 21:0.012422 22:0.012422 23:0.012422 24:0.006211 25:0.024845 26:0.012422 27:0.012422 28:0.006211 29:0 30:0.018634 31:0.012422 32:0 33:0.012422 34:0 35:0.006211 36:0.018634 37:0 38:0.018634 39:0.012422 40:0.006211 41:0.012422 42:0.012422 43:0.006211 44:0.018634 45:0.012422 46:0 47:0 48:0 49:0.018634 50:0 51:0 52:0 53:0.024845 54:0.012422 55:0.018634 56:0.006211 57:0.006211 58:0.012422 59:0.012422 60:0.018634 61:0.012422 62:0 63:0.012422 64:0.012422 65:0 66:0.012422 67:0.024845 68:0.006211 69:0 70:0.018634 71:0.006211 72:0.006211 73:0.006211 74:0 75:0 76:0.006211 77:0 78:0.031056 79:0.018634 80:0.012422 81:0.012422 82:0.006211 83:0.006211 84:0 85:0.012422 86:0.018634 87:0.012422 88:0.006211 89:0 90:0.018634 91:0 92:0.024845 93:0.006211 94:0.024845 95:0.012422 96:0.006211 97:0.006211 98:0.024845 99:0.006211 100:0 
56 1:0.011673 2:0 3:0.003891 4:0.011673 5:0.011673 6:0.011673 7:0.007782 8:0.003891 9:0.015564 10:0.003891 11:0.007782 12:0 13:0.003891 14:0.011673 15:0.011673 16:0.007782 17:0.023346 18:0.007782 19:0 20:0.007782 21:0.007782 22:0.023346 23:0.003891 24:0 25:0.003891 26:0.019455 27:0.003891 28:0.027237 29:0.003891 30:0.011673 31:0.015564 32:0.011673 33:0.011673 34:0 35:0 36:0.011673 37:0.011673 38:0 39:0.023346 40:0.003891 41:0.003891 42:0.003891 43:0.003891 44:0.019455 45:0.003891 46:0.015564 47:0 48:0.007782 49:0.011673 50:0.027237 51:0.003891 52:0.023346 53:0.003891 54:0.003891 55:0.003891 56:0.003891 57:0.003891 58:0.011673 59:0 60:0.007782 61:0.023346 62:0.015564 63:0.007782 64:0.003891 65:0.011673 66:0.027237 67:0.015564 68:0.019455 69:0 70:0 71:0 72:0.011673 73:0.027237 74:0 75:0.015564 76:0.003891 77:0.015564 78:0.007782 79:0.031128 80:0.011673 81:0.027237 82:0.011673 83:0 84:0 85:0 86:0.023346 87:0.015564 88:0 89:0.023346 90:0.015564 91:0.003891 92:0.023346 93:0.003891 94:0.015564 95:0 96:0.015564 97:0 98:0.031128 99:0.015564 100:0.003891 
56 1:0.017699 2:0 3:0 4:0 5:0 6:0 7:0.00885 8:0 9:0 10:0.035398 11:0.017699 12:0.00885 13:0.00885 14:0.00885 15:0.00885 16:0.00885 17:0 18:0.00885 19:0.00885 20:0 21:0.026549 22:0.026549 23:0 24:0.026549 25:0.00885 26:0 27:0.017699 28:0.00885 29:0 30:0 31:0 32:0 33:0.00885 34:0.00885 35:0.026549 36:0 37:0.00885 38:0 39:0.026549 40:0 41:0 42:0 43:0 44:0.00885 45:0 46:0.00885 47:0 48:0.017699 49:0.026549 50:0.017699 51:0.026549 52:0.00885 53:0.00885 54:0 55:0.00885 56:0 57:0.00885 58:0 59:0.00885 60:0.026549 61:0 62:0.00885 63:0.017699 64:0.00885 65:0 66:0 67:0 68:0.017699 69:0.00885 70:0.017699 71:0.00885 72:0.00885 73:0.053097 74:0.026549 75:0 76:0.00885 77:0.017699 78:0 79:0.035398 80:0 81:0.017699 82:0.00885 83:0.017699 84:0 85:0.026549 86:0 87:0 88:0.044248 89:0.00885 90:0.035398 91:0.00885 92:0.00885 93:0 94:0 95:0.00885 96:0.017699 97:0.00885 98:0 99:0.026549 100:0.00885 
56 1:0.013699 2:0.013699 3:0 4:0 5:0 6:0 7:0.041096 8:0.013699 9:0.013699 10:0 11:0 12:0 13:0.013699 14:0.041096 15:0 16:0 17:0.013699 18:0 19:0.027397 20:0 21:0 22:0.013699 23:0 24:0 25:0 26:0 27:0.041096 28:0 29:0 30:0.013699 31:0 32:0.027397 33:0.027397 34:0 35:0 36:0.027397 37:0 38:0.013699 39:0.013699 40:0.027397 41:0.013699 42:0 43:0 44:0 45:0.013699 46:0 47:0.013699 48:0 49:0.013699 50:0 51:0.027397 52:0 53:0.013699 54:0 55:0 56:0.027397 57:0 58:0 59:0 60:0.027397 61:0.013699 62:0.013699 63:0 64:0 65:0 66:0.013699 67:0 68:0 69:0 70:0.027397 71:0 72:0.027397 73:0.041096 74:0 75:0 76:0 77:0.027397 78:0.041096 79:0.013699 80:0 81:0 82:0 83:0.013699 84:0 85:0.027397 86:0.027397 87:0 88:0 89:0 90:0 91:0.013699 92:0.068493 93:0.027397 94:0.013699 95:0 96:0 97:0.013699 98:0 99:0.013699 100:0.013699 
14.84053383186492 1:0 2:0.013699 3:0 4:0.027397 5:0 6:0 7:0 8:0.027397 9:0 10:0.09589 11:0.054795 12:0 13:0 14:0 15:0 16:0 17:0.013699 18:0.013699 19:0.013699 20:0.013699 21:0 22:0 23:0 24:0 25:0.013699 26:0.013699 27:0 28:0 29:0.013699 30:0.013699 31:0 32:0 33:0.027397 34:0 35:0.027397 36:0 37:0.013699 38:0 39:0.041096 40:0 41:0.041096 42:0 43:0.013699 44:0.027397 45:0.013699 46:0.013699 47:0 48:0 49:0 50:0 51:0 52:0 53:0.013699 54:0 55:0.013699 56:0.041096 57:0 58:0.013699 59:0 60:0.027397 61:0.013699 62:0 63:0 64:0 65:0 66:0 67:0 68:0 69:0 70:0 71:0 72:0.013699 73:0.041096 74:0 75:0 76:0.013699 77:0.013699 78:0 79:0.013699 80:0 81:0.041096 82:0 83:0 84:0 85:0 86:0.054795 87:0 88:0 89:0.027397 90:0.013699 91:0.013699 92:0.027397 93:0 94:0 95:0 96:0.027397 97:0 98:0 99:0 100:0.027397 
56 1:0 2:0.009091 3:0.018182 4:0.009091 5:0.018182 6:0 7:0 8:0 9:0.009091 10:0.009091 11:0 12:0.009091 13:0.009091 14:0.018182 15:0.009091 16:0.009091 17:0.018182 18:0.018182 19:0.027273 20:0 21:0 22:0 23:0.009091 24:0 25:0.018182 26:0 27:0.027273 28:0 29:0.018182 30:0.018182 31:0.018182 32:0.027273 33:0.009091 34:0 35:0.009091 36:0.009091 37:0.018182 38:0.018182 39:0 40:0.009091 41:0.009091 42:0.018182 43:0.009091 44:0.018182 45:0 46:0 47:0.036364 48:0.018182 49:0 50:0 51:0 52:0.018182 53:0.009091 54:0 55:0.018182 56:0 57:0.036364 58:0.018182 59:0.009091 60:0 61:0.009091 62:0.009091 63:0.009091 64:0 65:0 66:0.018182 67:0 68:0.009091 69:0 70:0.018182 71:0.009091 72:0.018182 73:0.036364 74:0 75:0.027273 76:0.009091 77:0.018182 78:0.018182 79:0.009091 80:0 81:0.009091 82:0 83:0 84:0 85:0.009091 86:0 87:0 88:0 89:0.009091 90:0 91:0 92:0.036364 93:0 94:0.027273 95:0.009091 96:0.018182 97:0.018182 98:0 99:0.009091 100:0.018182 
56 1:0 2:0 3:0.019231 4:0.019231 5:0.019231 6:0 7:0 8:0 9:0 10:0 11:0.019231 12:0.019231 13:0 14:0.009615 15:0 16:0.009615 17:0.009615 18:0.019231 19:0.019231 20:0 21:0.019231 22:0 23:0.028846 24:0.009615 25:0.028846 26:0.019231 27:0.009615 28:0 29:0.019231 30:0.009615 31:0.009615 32:0.019231 33:0.028846 34:0.009615 35:0.009615 36:0 37:0 38:0.009615 39:0 40:0.009615 41:0 42:0.009615 43:0.009615 44:0 45:0 46:0 47:0.009615 48:0 49:0.009615 50:0.009615 51:0 52:0 53:0 54:0.009615 55:0.019231 56:0.009615 57:0.009615 58:0.019231 59:0.009615 60:0.019231 61:0 62:0 63:0.009615 64:0.038462 65:0 66:0.019231 67:0.028846 68:0 69:0 70:0.009615 71:0 72:0.019231 73:0.009615 74:0 75:0.009615 76:0.048077 77:0.009615 78:0 79:0 80:0.009615 81:0 82:0 83:0.019231 84:0 85:0.028846 86:0.009615 87:0 88:0.009615 89:0.019231 90:0.019231 91:0.019231 92:0.028846 93:0.019231 94:0 95:0.019231 96:0 97:0.009615 98:0 99:0.028846 100:0.009615 
56 1:0 2:0 3:0 4:0 5:0.022222 6:0 7:0.022222 8:0 9:0 10:0.088889 11:0 12:0.022222 13:0.022222 14:0.133333 15:0 16:0 17:0 18:0 19:0.022222 20:0 21:0 22:0 23:0 24:0 25:0 26:0 27:0.022222 28:0 29:0.022222 30:0.022222 31:0 32:0 33:0 34:0 35:0 36:0 37:0 38:0.022222 39:0.022222 40:0 41:0 42:0 43:0.022222 44:0 45:0 46:0 47:0 48:0.022222 49:0 50:0.044444 51:0.022222 52:0 53:0 54:0 55:0 56:0.044444 57:0 58:0 59:0.022222 60:0 61:0 62:0.022222 63:0.022222 64:0.022222 65:0 66:0.022222 67:0.022222 68:0 69:0 70:0.022222 71:0 72:0 73:0.022222 74:0 75:0.022222 76:0 77:0 78:0 79:0 80:0 81:0.022222 82:0 83:0 84:0 85:0.044444 86:0 87:0 88:0.022222 89:0 90:0 91:0.044444 92:0 93:0 94:0.022222 95:0 96:0 97:0.022222 98:0 99:0.022222 100:0 
56 1:0 2:0 3:0.017241 4:0 5:0 6:0 7:0 8:0 9:0 10:0.034483 11:0.017241 12:0 13:0.017241 14:0.034483 15:0 16:0 17:0.017241 18:0 19:0.034483 20:0.017241 21:0 22:0 23:0.017241 24:0.034483 25:0.034483 26:0 27:0 28:0 29:0.034483 30:0 31:0 32:0.034483 33:0.017241 34:0 35:0.017241 36:0 37:0 38:0.017241 39:0.017241 40:0 41:0 42:0 43:0 44:0 45:0.017241 46:0 47:0.017241 48:0 49:0.034483 50:0 51:0.017241 52:0.017241 53:0 54:0 55:0 56:0 57:0.017241 58:0 59:0.051724 60:0 61:0 62:0 63:0 64:0.034483 65:0.017241 66:0.017241 67:0 68:0.034483 69:0.017241 70:0.017241 71:0 72:0.017241 73:0.017241 74:0 75:0.017241 76:0 77:0 78:0.034483 79:0 80:0 81:0.017241 82:0 83:0 84:0 85:0 86:0 87:0.017241 88:0 89:0 90:0 91:0.017241 92:0.034483 93:0 94:0.017241 95:0.034483 96:0 97:0.017241 98:0 99:0 100:0.034483 
56 1:0 2:0.013514 3:0.013514 4:0.013514 5:0.013514 6:0 7:0 8:0.027027 9:0 10:0.027027 11:0 12:0.013514 13:0.013514 14:0.013514 15:0 16:0.013514 17:0.040541 18:0 19:0.027027 20:0 21:0.013514 22:0 23:0.013514 24:0.013514 25:0 26:0.027027 27:0.027027 28:0.013514 29:0 30:0.027027 31:0 32:0.013514 33:0.040541 34:0 35:0.013514 36:0 37:0 38:0.013514 39:0 40:0.013514 41:0 42:0 43:0 44:0 45:0 46:0 47:0 48:0 49:0.027027 50:0 51:0.013514 52:0 53:0 54:0.013514 55:0 56:0.013514 57:0 58:0 59:0.013514 60:0.013514 61:0 62:0.013514 63:0.027027 64:0 65:0.027027 66:0.013514 67:0.027027 68:0 69:0 70:0.013514 71:0.013514 72:0.027027 73:0.040541 74:0 75:0.013514 76:0 77:0.013514 78:0 79:0.040541 80:0 81:0 82:0 83:0.013514 84:0 85:0.013514 86:0.013514 87:0.013514 88:0.013514 89:0.013514 90:0.013514 91:0 92:0.013514 93:0 94:0 95:0 96:0.013514 97:0.013514 98:0 99:0.027027 100:0.013514 
56 1:0.016129 2:0 3:0.008065 4:0 5:0.008065 6:0.024194 7:0 8:0.024194 9:0.008065 10:0 11:0.040323 12:0 13:0 14:0 15:0.008065 16:0 17:0.008065 18:0 19:0.024194 20:0 21:0.016129 22:0 23:0.008065 24:0 25:0.016129 26:0.008065 27:0.016129 28:0.016129 29:0 30:0.016129 31:0 32:0.008065 33:0 34:0.032258 35:0.032258 36:0 37:0.008065 38:0.008065 39:0.032258 40:0 41:0 42:0.008065 43:0.048387 44:0 45:0.008065 46:0.112903 47:0.008065 48:0.008065 49:0.008065 50:0.008065 51:0.032258 52:0.008065 53:0 54:0 55:0.008065 56:0.016129 57:0 58:0 59:0.008065 60:0 61:0.008065 62:0 63:0 64:0.008065 65:0.016129 66:0.008065 67:0.008065 68:0 69:0 70:0 71:0 72:0 73:0.008065 74:0.016129 75:0.008065 76:0.024194 77:0.008065 78:0.024194 79:0.016129 80:0 81:0.008065 82:0.008065 83:0 84:0 85:0 86:0.008065 87:0.008065 88:0.016129 89:0.016129 90:0.008065 91:0 92:0.056452 93:0.024194 94:0.008065 95:0 96:0 97:0.008065 98:0 99:0.008065 100:0 
56 1:0 2:0 3:0 4:0.018519 5:0 6:0.037037 7:0.018519 8:0 9:0 10:0 11:0 12:0.018519 13:0.037037 14:0.055556 15:0 16:0.018519 17:0 18:0.018519 19:0.037037 20:0 21:0 22:0 23:0 24:0 25:0 26:0 27:0.037037 28:0.018519 29:0 30:0 31:0.018519 32:0 33:0.018519 34:0.018519 35:0.018519 36:0 37:0 38:0.037037 39:0.018519 40:0 41:0 42:0 43:0 44:0.037037 45:0.037037 46:0 47:0 48:0 49:0.037037 50:0.018519 51:0 52:0 53:0.018519 54:0.037037 55:0 56:0.018519 57:0 58:0.018519 59:0 60:0 61:0 62:0 63:0.018519 64:0 65:0 66:0 67:0.018519 68:0.018519 69:0 70:0.018519 71:0 72:0.018519 73:0 74:0 75:0 76:0 77:0 78:0.018519 79:0 80:0 81:0.037037 82:0 83:0 84:0 85:0 86:0 87:0 88:0 89:0.018519 90:0.055556 91:0 92:0 93:0 94:0 95:0 96:0 97:0.037037 98:0.018519 99:0 100:0.055556 
56 1:0 2:0.035088 3:0 4:0.017544 5:0 6:0 7:0.017544 8:0.008772 9:0 10:0 11:0.008772 12:0.026316 13:0.008772 14:0.04386 15:0.04386 16:0 17:0.017544 18:0.008772 19:0.008772 20:0.008772 21:0.008772 22:0.008772 23:0.008772 24:0.008772 25:0.008772 26:0 27:0 28:0.026316 29:0.008772 30:0.017544 31:0.008772 32:0.008772 33:0 34:0.017544 35:0.008772 36:0.026316 37:0 38:0.008772 39:0 40:0.008772 41:0 42:0.008772 43:0.017544 44:0.008772 45:0 46:0.008772 47:0 48:0.008772 49:0.008772 50:0.008772 51:0 52:0.008772 53:0 54:0.008772 55:0.008772 56:0.017544 57:0.008772 58:0 59:0 60:0.035088 61:0 62:0.017544 63:0.008772 64:0 65:0 66:0.026316 67:0.026316 68:0.035088 69:0.017544 70:0 71:0.008772 72:0.026316 73:0.008772 74:0 75:0.008772 76:0 77:0.026316 78:0.008772 79:0.008772 80:0 81:0 82:0 83:0 84:0 85:0.017544 86:0 87:0 88:0.017544 89:0.008772 90:0.017544 91:0.008772 92:0.008772 93:0.017544 94:0.008772 95:0.052632 96:0 97:0 98:0 99:0 100:0.017544 
56 1:0 2:0 3:0.018692 4:0 5:0.018692 6:0 7:0 8:0 9:0 10:0.018692 11:0.009346 12:0 13:0.009346 14:0.056075 15:0.009346 16:0 17:0.018692 18:0.028037 19:0.028037 20:0 21:0 22:0.009346 23:0.009346 24:0 25:0.018692 26:0.028037 27:0.009346 28:0.009346 29:0.009346 30:0.009346 31:0.037383 32:0.065421 33:0.009346 34:0 35:0 36:0.009346 37:0 38:0.046729 39:0.009346 40:0 41:0.018692 42:0.009346 43:0.028037 44:0.018692 45:0 46:0 47:0.028037 48:0.009346 49:0 50:0 51:0 52:0 53:0.009346 54:0 55:0.028037 56:0 57:0.037383 58:0 59:0.009346 60:0 61:0.028037 62:0 63:0.009346 64:0 65:0 66:0.018692 67:0.009346 68:0.009346 69:0 70:0.018692 71:0 72:0 73:0 74:0 75:0.018692 76:0.009346 77:0.018692 78:0.037383 79:0 80:0 81:0.018692 82:0 83:0 84:0 85:0 86:0 87:0 88:0 89:0.009346 90:0 91:0 92:0.009346 93:0 94:0.018692 95:0 96:0.018692 97:0.018692 98:0.018692 99:0 100:0.018692 
49.13722055328634 1:0.011236 2:0.011236 3:0.011236 4:0.011236 5:0.011236 6:0.011236 7:0.022472 8:0.022472 9:0.011236 10:0.011236 11:0.022472 12:0.011236 13:0 14:0.033708 15:0.011236 16:0 17:0.033708 18:0 19:0.011236 20:0.011236 21:0 22:0 23:0 24:0 25:0.011236 26:0.022472 27:0.033708 28:0.011236 29:0.011236 30:0.011236 31:0.011236 32:0 33:0 34:0 35:0.022472 36:0.011236 37:0 38:0 39:0.011236 40:0 41:0.022472 42:0.011236 43:0.011236 44:0.022472 45:0.022472 46:0 47:0.011236 48:0 49:0.011236 50:0 51:0 52:0 53:0 54:0 55:0 56:0.011236 57:0.022472 58:0.022472 59:0 60:0 61:0.011236 62:0 63:0 64:0.022472 65:0.011236 66:0.022472 67:0.033708 68:0 69:0.011236 70:0 71:0.011236 72:0.022472 73:0.011236 74:0.011236 75:0 76:0.011236 77:0.078652 78:0.022472 79:0 80:0 81:0 82:0 83:0 84:0 85:0.011236 86:0.011236 87:0 88:0 89:0.011236 90:0 91:0 92:0.067416 93:0 94:0.011236 95:0 96:0 97:0 98:0 99:0.011236 100:0 
15.71468747709559 1:0 2:0 3:0.027027 4:0.040541 5:0 6:0 7:0 8:0 9:0 10:0.013514 11:0.013514 12:0 13:0.013514 14:0 15:0.013514 16:0 17:0.013514 18:0.027027 19:0 20:0.013514 21:0 22:0 23:0.013514 24:0 25:0.027027 26:0 27:0.027027 28:0 29:0.013514 30:0.040541 31:0.013514 32:0.013514 33:0.013514 34:0 35:0 36:0 37:0.013514 38:0.040541 39:0 40:0 41:0 42:0.027027 43:0 44:0 45:0 46:0 47:0 48:0.013514 49:0.013514 50:0.013514 51:0.013514 52:0.027027 53:0 54:0 55:0.027027 56:0.013514 57:0 58:0.013514 59:0.013514 60:0 61:0 62:0 63:0 64:0.013514 65:0.013514 66:0.027027 67:0 68:0 69:0.027027 70:0 71:0 72:0.013514 73:0 74:0.013514 75:0.013514 76:0.094595 77:0.013514 78:0.040541 79:0 80:0 81:0 82:0 83:0 84:0 85:0 86:0.013514 87:0 88:0 89:0.027027 90:0.027027 91:0 92:0.054054 93:0 94:0 95:0 96:0 97:0.013514 98:0.027027 99:0 100:0 
56 1:0 2:0.03125 3:0.015625 4:0 5:0.015625 6:0 7:0 8:0 9:0.015625 10:0.046875 11:0 12:0.03125 13:0 14:0.03125 15:0 16:0 17:0.015625 18:0.046875 19:0.015625 20:0 21:0 22:0 23:0 24:0.015625 25:0.03125 26:0.03125 27:0 28:0.03125 29:0.046875 30:0 31:0 32:0 33:0.015625 34:0.015625 35:0 36:0.015625 37:0 38:0.03125 39:0 40:0 41:0 42:0 43:0.015625 44:0 45:0 46:0 47:0 48:0.015625 49:0.046875 50:0.015625 51:0 52:0 53:0 54:0.03125 55:0.015625 56:0 57:0.015625 58:0 59:0.015625 60:0 61:0 62:0 63:0 64:0.015625 65:0.015625 66:0 67:0 68:0.015625 69:0.015625 70:0 71:0.015625 72:0 73:0 74:0 75:0.015625 76:0.015625 77:0.015625 78:0 79:0.015625 80:0 81:0.015625 82:0 83:0 84:0 85:0.015625 86:0.015625 87:0 88:0.03125 89:0 90:0.015625 91:0 92:0.03125 93:0 94:0 95:0.015625 96:0 97:0.046875 98:0 99:0 100:0 
43.39885390218567 1:0 2:0 3:0.014925 4:0.029851 5:0.014925 6:0 7:0 8:0 9:0 10:0.014925 11:0 12:0 13:0.014925 14:0 15:0 16:0 17:0.014925 18:0 19:0.029851 20:0 21:0.014925 22:0 23:0 24:0.014925 25:0.029851 26:0.014925 27:0 28:0.029851 29:0 30:0.014925 31:0 32:0 33:0.014925 34:0 35:0.014925 36:0 37:0 38:0 39:0 40:0 41:0 42:0.029851 43:0.014925 44:0 45:0 46:0 47:0 48:0 49:0 50:0.014925 51:0.044776 52:0 53:0.044776 54:0 55:0.029851 56:0.029851 57:0.014925 58:0 59:0.029851 60:0.014925 61:0 62:0 63:0.014925 64:0.014925 65:0 66:0 67:0.014925 68:0 69:0 70:0.029851 71:0 72:0.029851 73:0.044776 74:0 75:0 76:0 77:0.014925 78:0.014925 79:0.044776 80:0 81:0.029851 82:0.014925 83:0 84:0 85:0 86:0.014925 87:0 88:0.014925 89:0 90:0.014925 91:0 92:0.029851 93:0.029851 94:0 95:0.014925 96:0 97:0.014925 98:0 99:0.014925 100:0.029851 
54.0416033043841 1:0 2:0 3:0.009346 4:0 5:0 6:0 7:0.018692 8:0.009346 9:0.009346 10:0.009346 11:0.009346 12:0 13:0 14:0.074766 15:0.018692 16:0.009346 17:0.009346 18:0.009346 19:0.009346 20:0 21:0.009346 22:0 23:0 24:0.018692 25:0.018692 26:0.009346 27:0.009346 28:0.009346 29:0 30:0 31:0 32:0 33:0.056075 34:0 35:0.028037 36:0.018692 37:0 38:0.018692 39:0.018692 40:0.009346 41:0 42:0 43:0.037383 44:0 45:0.009346 46:0 47:0 48:0.009346 49:0.018692 50:0.018692 51:0.018692 52:0.009346 53:0 54:0.009346 55:0 56:0.037383 57:0.009346 58:0 59:0 60:0.009346 61:0.009346 62:0 63:0 64:0 65:0 66:0 67:0.037383 68:0 69:0 70:0.018692 71:0 72:0.028037 73:0.009346 74:0.009346 75:0 76:0 77:0.009346 78:0.037383 79:0.018692 80:0.009346 81:0 82:0.009346 83:0.009346 84:0 85:0.028037 86:0.009346 87:0 88:0.028037 89:0.009346 90:0.009346 91:0.009346 92:0.018692 93:0.018692 94:0.018692 95:0 96:0.018692 97:0 98:0 99:0.009346 100:0.009346 
56 1:0.009709 2:0.019417 3:0.019417 4:0 5:0.029126 6:0.009709 7:0.009709 8:0 9:0.009709 10:0.029126 11:0 12:0.009709 13:0.019417 14:0.038835 15:0.009709 16:0 17:0.019417 18:0.009709 19:0.009709 20:0.009709 21:0.009709 22:0 23:0.009709 24:0 25:0.009709 26:0 27:0.009709 28:0 29:0.038835 30:0.009709 31:0.009709 32:0.029126 33:0.009709 34:0 35:0.009709 36:0 37:0 38:0.019417 39:0 40:0.009709 41:0 42:0 43:0.038835 44:0 45:0 46:0 47:0.019417 48:0 49:0 50:0.019417 51:0 52:0.009709 53:0 54:0 55:0.029126 56:0 57:0.019417 58:0 59:0.009709 60:0.019417 61:0.009709 62:0.009709 63:0.009709 64:0.009709 65:0 66:0 67:0 68:0.019417 69:0.019417 70:0.019417 71:0 72:0.009709 73:0.009709 74:0.009709 75:0.019417 76:0.019417 77:0 78:0.019417 79:0.019417 80:0 81:0.009709 82:0 83:0 84:0 85:0.009709 86:0 87:0 88:0.009709 89:0 90:0.009709 91:0 92:0.019417 93:0.009709 94:0.009709 95:0.019417 96:0.019417 97:0.019417 98:0.029126 99:0 100:0.029126 
22.881814186296 1:0 2:0.008403 3:0.008403 4:0 5:0 6:0 7:0.016807 8:0.016807 9:0.008403 10:0 11:0.02521 12:0.008403 13:0.008403 14:0.016807 15:0 16:0 17:0 18:0.016807 19:0 20:0 21:0 22:0 23:0.02521 24:0 25:0.042017 26:0 27:0.016807 28:0 29:0.016807 30:0 31:0 32:0 33:0.016807 34:0.033613 35:0.02521 36:0.008403 37:0 38:0 39:0.016807 40:0 41:0.008403 42:0.02521 43:0.016807 44:0 45:0 46:0 47:0.008403 48:0.008403 49:0.008403 50:0 51:0.02521 52:0.02521 53:0 54:0 55:0.02521 56:0.042017 57:0.008403 58:0.02521 59:0 60:0.008403 61:0 62:0.016807 63:0.016807 64:0.02521 65:0 66:0.02521 67:0 68:0.02521 69:0 70:0 71:0.008403 72:0.016807 73:0.02521 74:0 75:0 76:0 77:0.042017 78:0.02521 79:0.016807 80:0.016807 81:0 82:0 83:0 84:0 85:0.008403 86:0 87:0 88:0.016807 89:0.02521 90:0.008403 91:0.016807 92:0.016807 93:0.016807 94:0.02521 95:0 96:0 97:0 98:0.02521 99:0.008403 100:0 
56 1:0 2:0 3:0.009804 4:0.009804 5:0 6:0 7:0.019608 8:0.019608 9:0.019608 10:0.029412 11:0.029412 12:0 13:0.009804 14:0.029412 15:0.019608 16:0 17:0.009804 18:0 19:0.009804 20:0 21:0 22:0 23:0 24:0.009804 25:0.009804 26:0 27:0.009804 28:0 29:0 30:0.009804 31:0 32:0.019608 33:0.019608 34:0 35:0.019608 36:0 37:0 38:0.009804 39:0.009804 40:0 41:0.009804 42:0.009804 43:0.029412 44:0 45:0 46:0 47:0 48:0.009804 49:0.039216 50:0 51:0.019608 52:0 53:0 54:0.009804 55:0.009804 56:0.04902 57:0.019608 58:0.039216 59:0 60:0.009804 61:0 62:0.019608 63:0.009804 64:0.019608 65:0 66:0.019608 67:0 68:0.009804 69:0 70:0.019608 71:0.009804 72:0.019608 73:0.029412 74:0 75:0 76:0 77:0.019608 78:0.009804 79:0.029412 80:0 81:0.009804 82:0 83:0.009804 84:0 85:0.039216 86:0.009804 87:0.009804 88:0.009804 89:0.009804 90:0 91:0.009804 92:0.029412 93:0.009804 94:0 95:0.019608 96:0 97:0.009804 98:0.009804 99:0.009804 100:0 
56 1:0 2:0.010101 3:0.010101 4:0 5:0.030303 6:0 7:0.020202 8:0.010101 9:0.010101 10:0 11:0 12:0 13:0.020202 14:0.060606 15:0 16:0 17:0 18:0.030303 19:0.020202 20:0.010101 21:0.030303 22:0 23:0.020202 24:0.020202 25:0.030303 26:0.010101 27:0 28:0.020202 29:0.010101 30:0.020202 31:0.010101 32:0.020202 33:0 34:0.030303 35:0 36:0.010101 37:0 38:0.010101 39:0.010101 40:0 41:0 42:0.010101 43:0 44:0.020202 45:0 46:0 47:0 48:0 49:0 50:0 51:0 52:0 53:0.010101 54:0.030303 55:0.010101 56:0 57:0.020202 58:0 59:0 60:0.010101 61:0 62:0.010101 63:0 64:0 65:0.010101 66:0.010101 67:0 68:0.010101 69:0.010101 70:0 71:0 72:0.010101 73:0.010101 74:0.010101 75:0 76:0.020202 77:0 78:0.030303 79:0.020202 80:0 81:0.010101 82:0 83:0.010101 84:0 85:0.030303 86:0.010101 87:0 88:0 89:0 90:0.030303 91:0.010101 92:0.020202 93:0.020202 94:0.010101 95:0.030303 96:0.020202 97:0.020202 98:0.010101 99:0 100:0.020202 
46.21731746442087 1:0 2:0.029703 3:0.009901 4:0 5:0.019802 6:0 7:0 8:0 9:0 10:0 11:0 12:0.09901 13:0.009901 14:0.039604 15:0.009901 16:0.019802 17:0.009901 18:0.009901 19:0.009901 20:0 21:0 22:0 23:0.039604 24:0 25:0.019802 26:0.009901 27:0 28:0.019802 29:0.019802 30:0.029703 31:0.019802 32:0.029703 33:0.009901 34:0.019802 35:0 36:0 37:0 38:0.019802 39:0 40:0 41:0 42:0 43:0.009901 44:0.009901 45:0 46:0.009901 47:0.009901 48:0 49:0 50:0 51:0.039604 52:0.019802 53:0 54:0.019802 55:0.029703 56:0.009901 57:0.019802 58:0 59:0.009901 60:0.009901 61:0 62:0 63:0.009901 64:0.009901 65:0 66:0.019802 67:0 68:0.009901 69:0 70:0.019802 71:0 72:0.009901 73:0 74:0 75:0.009901 76:0.049505 77:0 78:0.019802 79:0 80:0 81:0 82:0 83:0 84:0 85:0 86:0 87:0.009901 88:0.029703 89:0 90:0 91:0 92:0.009901 93:0 94:0.029703 95:0 96:0 97:0.019802 98:0 99:0.009901 100:0.029703 
56 1:0.009009 2:0.009009 3:0.009009 4:0 5:0.009009 6:0 7:0 8:0.009009 9:0.027027 10:0.018018 11:0.009009 12:0 13:0 14:0.099099 15:0 16:0 17:0.009009 18:0.018018 19:0 20:0 21:0 22:0.009009 23:0.018018 24:0 25:0.018018 26:0.009009 27:0 28:0 29:0.036036 30:0 31:0.018018 32:0 33:0 34:0 35:0.018018 36:0 37:0.009009 38:0.009009 39:0.009009 40:0 41:0.009009 42:0.009009 43:0 44:0.009009 45:0 46:0 47:0 48:0.009009 49:0 50:0 51:0 52:0.018018 53:0.018018 54:0.018018 55:0.018018 56:0 57:0 58:0.027027 59:0 60:0.018018 61:0.009009 62:0.018018 63:0.009009 64:0.009009 65:0.009009 66:0.027027 67:0.009009 68:0.009009 69:0 70:0.009009 71:0.009009 72:0 73:0 74:0 75:0.009009 76:0.018018 77:0 78:0.009009 79:0.018018 80:0.018018 81:0.009009 82:0.018018 83:0 84:0 85:0.009009 86:0.018018 87:0.009009 88:0.027027 89:0.027027 90:0.018018 91:0 92:0.009009 93:0.009009 94:0 95:0.045045 96:0.027027 97:0.018018 98:0.027027 99:0 100:0.009009 
56 1:0 2:0 3:0 4:0.010989 5:0.043956 6:0.010989 7:0 8:0 9:0.010989 10:0.032967 11:0.032967 12:0.010989 13:0.021978 14:0.032967 15:0 16:0.010989 17:0.043956 18:0.021978 19:0.010989 20:0.021978 21:0 22:0 23:0 24:0.010989 25:0.010989 26:0 27:0 28:0 29:0.010989 30:0.043956 31:0.010989 32:0.021978 33:0 34:0 35:0 36:0.021978 37:0 38:0.032967 39:0.032967 40:0 41:0.010989 42:0 43:0.021978 44:0.021978 45:0 46:0 47:0.010989 48:0.010989 49:0.010989 50:0.010989 51:0.021978 52:0 53:0.032967 54:0 55:0.010989 56:0.010989 57:0.010989 58:0 59:0 60:0.021978 61:0 62:0.010989 63:0.010989 64:0 65:0 66:0.032967 67:0 68:0 69:0.010989 70:0 71:0 72:0 73:0.010989 74:0 75:0 76:0.043956 77:0.010989 78:0.043956 79:0.010989 80:0 81:0 82:0 83:0 84:0 85:0.010989 86:0 87:0 88:0 89:0.010989 90:0.010989 91:0 92:0 93:0 94:0.010989 95:0 96:0 97:0.021978 98:0.021978 99:0 100:0 
56 1:0.009804 2:0.009804 3:0 4:0 5:0.009804 6:0.009804 7:0.009804 8:0.009804 9:0.019608 10:0.009804 11:0.009804 12:0 13:0 14:0.039216 15:0 16:0 17:0 18:0 19:0.019608 20:0.009804 21:0 22:0 23:0.009804 24:0 25:0.019608 26:0.009804 27:0.009804 28:0.019608 29:0.029412 30:0 31:0 32:0.009804 33:0.029412 34:0 35:0.019608 36:0 37:0.009804 38:0 39:0.019608 40:0.019608 41:0.009804 42:0.009804 43:0 44:0 45:0.019608 46:0 47:0.019608 48:0 49:0.009804 50:0 51:0 52:0 53:0.019608 54:0.009804 55:0 56:0.009804 57:0.009804 58:0.019608 59:0.009804 60:0 61:0.009804 62:0.009804 63:0 64:0.009804 65:0.009804 66:0.009804 67:0.029412 68:0 69:0 70:0.019608 71:0.019608 72:0.019608 73:0.019608 74:0 75:0 76:0.039216 77:0.019608 78:0.019608 79:0.029412 80:0 81:0 82:0.019608 83:0.019608 84:0.009804 85:0 86:0 87:0.019608 88:0.058824 89:0 90:0.009804 91:0.019608 92:0 93:0 94:0 95:0 96:0.019608 97:0.009804 98:0.019608 99:0 100:0.009804 
15.67320530550466 1:0.008333 2:0 3:0.033333 4:0.008333 5:0.016667 6:0 7:0.008333 8:0.008333 9:0 10:0.008333 11:0.008333 12:0.008333 13:0 14:0.041667 15:0.008333 16:0.041667 17:0.058333 18:0.008333 19:0 20:0 21:0 22:0 23:0.033333 24:0.016667 25:0.033333 26:0.008333 27:0 28:0.025 29:0 30:0 31:0.008333 32:0.008333 33:0.016667 34:0.016667 35:0 36:0.008333 37:0.008333 38:0 39:0 40:0.008333 41:0 42:0 43:0.016667 44:0 45:0 46:0 47:0.008333 48:0.008333 49:0.008333 50:0.008333 51:0 52:0.016667 53:0 54:0.008333 55:0.016667 56:0 57:0.008333 58:0.008333 59:0 60:0.008333 61:0.008333 62:0 63:0.025 64:0 65:0.008333 66:0.025 67:0.025 68:0 69:0 70:0.008333 71:0 72:0.033333 73:0.008333 74:0.016667 75:0 76:0.058333 77:0.008333 78:0 79:0.016667 80:0 81:0.008333 82:0.008333 83:0 84:0.008333 85:0 86:0.008333 87:0.016667 88:0 89:0.008333 90:0 91:0.016667 92:0.033333 93:0.008333 94:0 95:0.033333 96:0 97:0.008333 98:0.016667 99:0 100:0.008333 
56 1:0.018519 2:0 3:0.037037 4:0 5:0 6:0.009259 7:0.009259 8:0.009259 9:0.009259 10:0.009259 11:0.018519 12:0 13:0.009259 14:0.018519 15:0 16:0.009259 17:0.037037 18:0.009259 19:0.009259 20:0.027778 21:0.018519 22:0.009259 23:0.037037 24:0 25:0.018519 26:0.018519 27:0 28:0.009259 29:0.009259 30:0.046296 31:0.009259 32:0 33:0 34:0 35:0 36:0 37:0 38:0.009259 39:0.009259 40:0.009259 41:0 42:0.027778 43:0 44:0.018519 45:0.009259 46:0 47:0 48:0 49:0 50:0.009259 51:0 52:0.018519 53:0.009259 54:0.009259 55:0.009259 56:0 57:0.009259 58:0 59:0.018519 60:0 61:0.009259 62:0 63:0 64:0.009259 65:0.009259 66:0.055556 67:0.009259 68:0.009259 69:0 70:0.009259 71:0 72:0.018519 73:0.027778 74:0.018519 75:0.018519 76:0 77:0.018519 78:0.009259 79:0.009259 80:0 81:0 82:0.009259 83:0 84:0 85:0 86:0.009259 87:0 88:0 89:0 90:0 91:0.009259 92:0.027778 93:0 94:0.009259 95:0.009259 96:0.074074 97:0.018519 98:0 99:0.018519 100:0 
56 1:0 2:0 3:0 4:0 5:0.038462 6:0.009615 7:0 8:0.009615 9:0 10:0.057692 11:0 12:0.009615 13:0.009615 14:0.048077 15:0.019231 16:0 17:0.019231 18:0 19:0.019231 20:0 21:0 22:0 23:0.009615 24:0.019231 25:0.028846 26:0.009615 27:0 28:0.019231 29:0.019231 30:0 31:0 32:0 33:0 34:0 35:0 36:0.048077 37:0 38:0.009615 39:0 40:0 41:0 42:0 43:0.019231 44:0 45:0.009615 46:0 47:0.009615 48:0.009615 49:0.009615 50:0 51:0 52:0.009615 53:0 54:0.009615 55:0 56:0 57:0.019231 58:0.028846 59:0 60:0.009615 61:0 62:0.009615 63:0 64:0.009615 65:0 66:0.019231 67:0 68:0.009615 69:0.009615 70:0.009615 71:0.009615 72:0 73:0.019231 74:0.009615 75:0 76:0.038462 77:0 78:0.019231 79:0 80:0 81:0.009615 82:0 83:0 84:0.019231 85:0.009615 86:0 87:0.009615 88:0.057692 89:0.028846 90:0 91:0.019231 92:0.067308 93:0.019231 94:0.028846 95:0.009615 96:0 97:0.019231 98:0 99:0 100:0 
5.537918178709314 1:0.012346 2:0 3:0.024691 4:0 5:0.012346 6:0.012346 7:0.012346 8:0 9:0.012346 10:0.024691 11:0.012346 12:0 13:0 14:0 15:0 16:0 17:0.024691 18:0.024691 19:0.037037 20:0.037037 21:0 22:0 23:0.012346 24:0 25:0.049383 26:0 27:0 28:0 29:0.024691 30:0.049383 31:0 32:0.012346 33:0.012346 34:0.012346 35:0 36:0.024691 37:0.012346 38:0 39:0.012346 40:0.012346 41:0.012346 42:0.012346 43:0 44:0 45:0 46:0 47:0.012346 48:0.012346 49:0.024691 50:0 51:0 52:0 53:0 54:0 55:0.024691 56:0 57:0.012346 58:0.012346 59:0.037037 60:0 61:0 62:0 63:0 64:0.012346 65:0.049383 66:0.024691 67:0 68:0 69:0.012346 70:0.012346 71:0.024691 72:0 73:0 74:0 75:0.024691 76:0.012346 77:0 78:0.012346 79:0.012346 80:0 81:0 82:0 83:0.012346 84:0 85:0 86:0 87:0 88:0 89:0.024691 90:0.037037 91:0 92:0.012346 93:0.012346 94:0.012346 95:0.024691 96:0 97:0 98:0 99:0 100:0.024691 
56 1:0 2:0.017391 3:0.008696 4:0 5:0.017391 6:0 7:0.008696 8:0 9:0.008696 10:0 11:0 12:0 13:0 14:0.017391 15:0 16:0.026087 17:0.026087 18:0.026087 19:0.026087 20:0.026087 21:0 22:0.008696 23:0.008696 24:0 25:0.008696 26:0 27:0 28:0.008696 29:0.008696 30:0.026087 31:0.026087 32:0.008696 33:0.017391 34:0 35:0 36:0 37:0 38:0.017391 39:0.008696 40:0.017391 41:0 42:0.008696 43:0.026087 44:0.008696 45:0 46:0 47:0.008696 48:0.008696 49:0.008696 50:0 51:0 52:0.008696 53:0 54:0.008696 55:0.034783 56:0.008696 57:0 58:0 59:0 60:0 61:0.008696 62:0.026087 63:0.008696 64:0.008696 65:0.008696 66:0.026087 67:0.008696 68:0.008696 69:0.034783 70:0.008696 71:0 72:0 73:0.008696 74:0 75:0.052174 76:0.034783 77:0 78:0 79:0 80:0 81:0 82:0.043478 83:0 84:0 85:0.026087 86:0 87:0 88:0.034783 89:0 90:0.026087 91:0.017391 92:0.043478 93:0.017391 94:0 95:0 96:0.017391 97:0.017391 98:0 99:0 100:0.008696 
53.57926806729851 1:0 2:0.013889 3:0.013889 4:0.013889 5:0.027778 6:0.013889 7:0 8:0 9:0 10:0.027778 11:0 12:0.013889 13:0 14:0 15:0 16:0.041667 17:0.055556 18:0.027778 19:0.041667 20:0.041667 21:0 22:0 23:0.013889 24:0.013889 25:0.013889 26:0 27:0.013889 28:0 29:0.041667 30:0 31:0.013889 32:0 33:0 34:0 35:0 36:0 37:0 38:0.027778 39:0 40:0 41:0 42:0 43:0.027778 44:0 45:0.013889 46:0 47:0.027778 48:0 49:0 50:0 51:0.013889 52:0 53:0 54:0.041667 55:0.013889 56:0 57:0.013889 58:0 59:0 60:0 61:0.013889 62:0 63:0 64:0 65:0 66:0 67:0 68:0 69:0.013889 70:0.027778 71:0 72:0 73:0.013889 74:0.013889 75:0.013889 76:0.013889 77:0 78:0.055556 79:0.013889 80:0 81:0.013889 82:0 83:0 84:0 85:0.013889 86:0 87:0 88:0.041667 89:0 90:0.027778 91:0 92:0 93:0.027778 94:0 95:0 96:0.013889 97:0.027778 98:0 99:0 100:0.027778 
20.70823109508635 1:0 2:0 3:0.015152 4:0 5:0 6:0 7:0 8:0 9:0 10:0.030303 11:0.060606 12:0 13:0 14:0.045455 15:0 16:0 17:0 18:0 19:0 20:0 21:0 22:0 23:0 24:0 25:0 26:0.015152 27:0.015152 28:0.015152 29:0 30:0 31:0 32:0.015152 33:0.030303 34:0.015152 35:0.015152 36:0 37:0 38:0 39:0.030303 40:0 41:0 42:0 43:0.015152 44:0 45:0 46:0 47:0.015152 48:0 49:0.030303 50:0.030303 51:0.030303 52:0 53:0 54:0 55:0 56:0.075758 57:0.015152 58:0 59:0 60:0.045455 61:0 62:0.030303 63:0 64:0 65:0 66:0.030303 67:0.045455 68:0 69:0.015152 70:0.045455 71:0.015152 72:0 73:0.015152 74:0.015152 75:0 76:0.030303 77:0.015152 78:0.030303 79:0 80:0 81:0.015152 82:0 83:0.015152 84:0 85:0.030303 86:0.030303 87:0.015152 88:0 89:0 90:0 91:0.030303 92:0 93:0 94:0 95:0 96:0 97:0 98:0 99:0.015152 100:0 
24.68854237477796 1:0 2:0 3:0.008621 4:0.025862 5:0 6:0 7:0.008621 8:0 9:0.008621 10:0.008621 11:0.008621 12:0.008621 13:0.025862 14:0.043103 15:0 16:0.017241 17:0.034483 18:0.034483 19:0.008621 20:0.025862 21:0 22:0.008621 23:0.008621 24:0.008621 25:0.008621 26:0.008621 27:0.008621 28:0 29:0.008621 30:0.017241 31:0.017241 32:0.017241 33:0.008621 34:0.008621 35:0.025862 36:0.017241 37:0 38:0 39:0 40:0.008621 41:0.008621 42:0.008621 43:0.008621 44:0.008621 45:0 46:0 47:0 48:0 49:0 50:0 51:0 52:0.008621 53:0 54:0.008621 55:0.008621 56:0.008621 57:0 58:0.017241 59:0 60:0.008621 61:0.017241 62:0 63:0 64:0 65:0.008621 66:0.017241 67:0.008621 68:0 69:0.017241 70:0.008621 71:0 72:0.008621 73:0.034483 74:0.008621 75:0.008621 76:0 77:0.034483 78:0 79:0.025862 80:0 81:0.008621 82:0 83:0.008621 84:0.008621 85:0.034483 86:0.008621 87:0 88:0.017241 89:0.008621 90:0 91:0 92:0.043103 93:0.008621 94:0.008621 95:0.008621 96:0.034483 97:0 98:0.017241 99:0 100:0.043103 
22.21372330108561 1:0 2:0 3:0.012821 4:0.025641 5:0 6:0.012821 7:0 8:0.012821 9:0.012821 10:0 11:0.012821 12:0 13:0.012821 14:0.038462 15:0 16:0.012821 17:0.012821 18:0.038462 19:0.038462 20:0.012821 21:0 22:0.012821 23:0.051282 24:0 25:0.012821 26:0 27:0.012821 28:0 29:0.025641 30:0.025641 31:0.012821 32:0 33:0.012821 34:0 35:0 36:0 37:0 38:0.012821 39:0.012821 40:0 41:0 42:0 43:0.012821 44:0.025641 45:0 46:0 47:0 48:0.012821 49:0.012821 50:0.025641 51:0 52:0 53:0 54:0 55:0 56:0 57:0.025641 58:0 59:0 60:0 61:0 62:0 63:0 64:0 65:0.012821 66:0.025641 67:0 68:0.012821 69:0.038462 70:0 71:0 72:0.012821 73:0.012821 74:0.012821 75:0 76:0.064103 77:0.012821 78:0.038462 79:0.012821 80:0 81:0 82:0 83:0 84:0 85:0 86:0.012821 87:0 88:0 89:0.025641 90:0.012821 91:0 92:0.051282 93:0.012821 94:0 95:0 96:0.012821 97:0.038462 98:0 99:0.012821 100:0 
56 1:0 2:0 3:0 4:0 5:0 6:0.018519 7:0.037037 8:0 9:0 10:0 11:0 12:0 13:0.037037 14:0 15:0 16:0.018519 17:0.018519 18:0.037037 19:0 20:0 21:0 22:0 23:0 24:0.018519 25:0.018519 26:0 27:0.018519 28:0 29:0.074074 30:0.018519 31:0.037037 32:0 33:0.018519 34:0 35:0 36:0.018519 37:0 38:0.055556 39:0 40:0 41:0 42:0 43:0 44:0 45:0.018519 46:0 47:0.018519 48:0 49:0.018519 50:0.018519 51:0.018519 52:0.018519 53:0 54:0.018519 55:0 56:0 57:0.018519 58:0 59:0 60:0.018519 61:0 62:0 63:0 64:0 65:0.018519 66:0 67:0 68:0.055556 69:0.018519 70:0 71:0.018519 72:0 73:0 74:0.018519 75:0.018519 76:0.018519 77:0 78:0.018519 79:0.018519 80:0 81:0 82:0 83:0.018519 84:0 85:0.018519 86:0.018519 87:0 88:0 89:0 90:0 91:0 92:0.037037 93:0 94:0.018519 95:0 96:0 97:0.037037 98:0 99:0.018519 100:0.018519 
55.61135046261224 1:0 2:0 3:0 4:0.012987 5:0 6:0 7:0 8:0.012987 9:0 10:0 11:0.012987 12:0.064935 13:0.012987 14:0.116883 15:0.025974 16:0.025974 17:0.012987 18:0 19:0.012987 20:0.012987 21:0 22:0.012987 23:0.012987 24:0 25:0.012987 26:0.012987 27:0.025974 28:0 29:0 30:0 31:0 32:0 33:0.012987 34:0 35:0 36:0 37:0.012987 38:0.012987 39:0.012987 40:0.038961 41:0 42:0.012987 43:0.025974 44:0 45:0.012987 46:0 47:0.012987 48:0.012987 49:0.012987 50:0.012987 51:0 52:0 53:0 54:0.038961 55:0.012987 56:0 57:0.025974 58:0.012987 59:0 60:0 61:0 62:0 63:0.012987 64:0.012987 65:0 66:0 67:0.025974 68:0 69:0.012987 70:0.012987 71:0.012987 72:0 73:0.038961 74:0.012987 75:0.025974 76:0 77:0.012987 78:0 79:0 80:0 81:0 82:0 83:0 84:0 85:0.012987 86:0.025974 87:0 88:0.012987 89:0.012987 90:0.025974 91:0.025974 92:0 93:0 94:0 95:0 96:0 97:0 98:0 99:0 100:0.012987 
56 1:0 2:0.029412 3:0.029412 4:0 5:0.014706 6:0 7:0.044118 8:0.014706 9:0.029412 10:0 11:0 12:0 13:0.014706 14:0.044118 15:0 16:0 17:0.014706 18:0 19:0.014706 20:0 21:0.014706 22:0.014706 23:0.014706 24:0 25:0.029412 26:0 27:0.014706 28:0 29:0 30:0 31:0 32:0.014706 33:0.044118 34:0.014706 35:0 36:0.014706 37:0 38:0.014706 39:0.058824 40:0.014706 41:0 42:0 43:0 44:0 45:0.014706 46:0 47:0.014706 48:0 49:0 50:0 51:0.014706 52:0.044118 53:0 54:0 55:0 56:0.014706 57:0 58:0.014706 59:0 60:0.014706 61:0 62:0.029412 63:0 64:0 65:0.014706 66:0.014706 67:0 68:0 69:0 70:0 71:0 72:0.014706 73:0.029412 74:0 75:0 76:0 77:0.029412 78:0 79:0.014706 80:0.014706 81:0 82:0 83:0 84:0 85:0.014706 86:0.029412 87:0 88:0 89:0 90:0 91:0.014706 92:0.088235 93:0 94:0.014706 95:0 96:0 97:0.014706 98:0 99:0 100:0.014706 
56 1:0 2:0 3:0 4:0.02381 5:0.011905 6:0.011905 7:0.02381 8:0.011905 9:0 10:0.011905 11:0 12:0 13:0 14:0.035714 15:0 16:0 17:0 18:0.02381 19:0.011905 20:0 21:0.02381 22:0 23:0.011905 24:0.011905 25:0 26:0.02381 27:0.02381 28:0.02381 29:0.011905 30:0.011905 31:0 32:0.047619 33:0 34:0 35:0 36:0.011905 37:0 38:0 39:0.011905 40:0.02381 41:0 42:0 43:0.011905 44:0.02381 45:0 46:0.02381 47:0 48:0 49:0.011905 50:0.02381 51:0 52:0.011905 53:0.011905 54:0.011905 55:0 56:0 57:0 58:0.011905 59:0 60:0.011905 61:0 62:0 63:0.011905 64:0 65:0.011905 66:0.02381 67:0 68:0.011905 69:0 70:0.011905 71:0 72:0.011905 73:0.02381 74:0.02381 75:0 76:0 77:0 78:0 79:0.02381 80:0.011905 81:0.011905 82:0 83:0 84:0 85:0.011905 86:0.02381 87:0.02381 88:0 89:0.02381 90:0.011905 91:0 92:0 93:0.011905 94:0 95:0.02381 96:0.011905 97:0 98:0.071429 99:0.035714 100:0.011905 
-33.1043801112852 1:0 2:0.014493 3:0.014493 4:0 5:0.014493 6:0.014493 7:0 8:0 9:0.014493 10:0.028986 11:0.014493 12:0 13:0 14:0.014493 15:0 16:0 17:0 18:0 19:0 20:0.014493 21:0.014493 22:0 23:0.043478 24:0.014493 25:0.014493 26:0 27:0 28:0 29:0 30:0 31:0.014493 32:0.014493 33:0.014493 34:0.014493 35:0.014493 36:0.014493 37:0 38:0.014493 39:0.028986 40:0 41:0 42:0 43:0.014493 44:0 45:0.028986 46:0 47:0.014493 48:0.028986 49:0.057971 50:0 51:0.043478 52:0 53:0 54:0 55:0 56:0 57:0 58:0.028986 59:0.014493 60:0 61:0 62:0 63:0 64:0.014493 65:0 66:0.014493 67:0 68:0.028986 69:0 70:0 71:0.028986 72:0 73:0 74:0.014493 75:0.014493 76:0 77:0.014493 78:0.028986 79:0 80:0 81:0 82:0 83:0.014493 84:0 85:0.014493 86:0 87:0 88:0.014493 89:0.014493 90:0.028986 91:0.014493 92:0.043478 93:0 94:0 95:0 96:0.028986 97:0.028986 98:0 99:0.014493 100:0.028986 
-56 1:0.014085 2:0 3:0 4:0.028169 5:0.028169 6:0 7:0.014085 8:0.014085 9:0 10:0.014085 11:0 12:0.014085 13:0.014085 14:0.070423 15:0.014085 16:0.028169 17:0.028169 18:0 19:0.014085 20:0 21:0 22:0 23:0 24:0.014085 25:0.042254 26:0.014085 27:0 28:0.014085 29:0 30:0 31:0.028169 32:0.014085 33:0 34:0.014085 35:0.014085 36:0 37:0 38:0.028169 39:0 40:0 41:0 42:0 43:0 44:0 45:0 46:0.014085 47:0 48:0 49:0 50:0.014085 51:0 52:0 53:0 54:0.028169 55:0.014085 56:0.028169 57:0.014085 58:0.014085 59:0.014085 60:0.014085 61:0 62:0 63:0 64:0.014085 65:0.014085 66:0.014085 67:0 68:0.014085 69:0.014085 70:0.014085 71:0 72:0 73:0 74:0 75:0 76:0.028169 77:0.014085 78:0 79:0 80:0 81:0.014085 82:0 83:0 84:0 85:0.014085 86:0.028169 87:0 88:0.056338 89:0.014085 90:0 91:0.014085 92:0.028169 93:0 94:0 95:0.014085 96:0 97:0.042254 98:0 99:0 100:0.014085 
-56 1:0.021739 2:0 3:0 4:0.021739 5:0 6:0 7:0 8:0.043478 9:0 10:0 11:0.021739 12:0 13:0 14:0 15:0 16:0 17:0 18:0 19:0.021739 20:0 21:0 22:0 23:0.043478 24:0 25:0.021739 26:0.021739 27:0.086957 28:0 29:0.043478 30:0.021739 31:0 32:0.021739 33:0.021739 34:0 35:0 36:0 37:0 38:0 39:0.043478 40:0.021739 41:0 42:0 43:0 44:0.021739 45:0 46:0 47:0 48:0 49:0 50:0 51:0 52:0 53:0 54:0 55:0 56:0 57:0 58:0 59:0.021739 60:0.021739 61:0 62:0 63:0 64:0.043478 65:0 66:0.021739 67:0 68:0 69:0.021739 70:0 71:0.021739 72:0 73:0.021739 74:0 75:0 76:0 77:0 78:0.043478 79:0.021739 80:0 81:0.021739 82:0 83:0.021739 84:0 85:0 86:0.043478 87:0 88:0 89:0.021739 90:0.065217 91:0 92:0.021739 93:0 94:0 95:0.043478 96:0 97:0.021739 98:0 99:0 100:0 
-56 1:0 2:0 3:0.007874 4:0.007874 5:0.023622 6:0 7:0.007874 8:0.007874 9:0.007874 10:0 11:0.007874 12:0 13:0 14:0.015748 15:0 16:0.007874 17:0.007874 18:0.015748 19:0.015748 20:0 21:0 22:0.015748 23:0.007874 24:0.007874 25:0 26:0 27:0.007874 28:0.023622 29:0 30:0.007874 31:0.007874 32:0.015748 33:0.015748 34:0 35:0 36:0 37:0 38:0.023622 39:0.015748 40:0.015748 41:0.007874 42:0 43:0.023622 44:0.015748 45:0.023622 46:0.070866 47:0.023622 48:0.007874 49:0.007874 50:0 51:0.007874 52:0.007874 53:0 54:0 55:0.007874 56:0 57:0 58:0.007874 59:0.007874 60:0.007874 61:0.03937 62:0.007874 63:0.007874 64:0.007874 65:0.007874 66:0.023622 67:0.007874 68:0 69:0.015748 70:0.007874 71:0.007874 72:0.023622 73:0.015748 74:0.007874 75:0.007874 76:0 77:0.007874 78:0.007874 79:0.015748 80:0 81:0 82:0.007874 83:0.007874 84:0 85:0.007874 86:0.031496 87:0 88:0.015748 89:0.007874 90:0 91:0.015748 92:0.031496 93:0.015748 94:0 95:0 96:0.031496 97:0.015748 98:0.047244 99:0 100:0.015748 
-56 1:0 2:0 3:0 4:0 5:0.015152 6:0 7:0 8:0.030303 9:0.015152 10:0.045455 11:0.015152 12:0 13:0 14:0.015152 15:0 16:0.015152 17:0 18:0 19:0 20:0 21:0 22:0 23:0 24:0 25:0.030303 26:0.030303 27:0.015152 28:0 29:0.030303 30:0.015152 31:0.030303 32:0 33:0 34:0 35:0 36:0.015152 37:0 38:0.015152 39:0.015152 40:0.030303 41:0.015152 42:0 43:0 44:0.015152 45:0 46:0.015152 47:0 48:0.015152 49:0.075758 50:0.015152 51:0 52:0.015152 53:0 54:0 55:0 56:0.030303 57:0 58:0.015152 59:0 60:0 61:0.045455 62:0.015152 63:0 64:0 65:0 66:0.030303 67:0 68:0.015152 69:0.015152 70:0 71:0 72:0.015152 73:0.015152 74:0.015152 75:0.030303 76:0 77:0.015152 78:0.015152 79:0 80:0 81:0 82:0 83:0 84:0 85:0.045455 86:0 87:0 88:0 89:0.030303 90:0.015152 91:0 92:0 93:0.015152 94:0 95:0.030303 96:0.015152 97:0 98:0.015152 99:0.015152 100:0 
-22.8714731970027 1:0 2:0 3:0 4:0 5:0 6:0.033333 7:0 8:0 9:0.033333 10:0 11:0 12:0 13:0 14:0 15:0 16:0 17:0.066667 18:0 19:0.033333 20:0 21:0.033333 22:0 23:0 24:0 25:0 26:0 27:0.033333 28:0 29:0 30:0 31:0.033333 32:0.033333 33:0 34:0.033333 35:0 36:0 37:0 38:0 39:0 40:0.033333 41:0.033333 42:0 43:0 44:0.066667 45:0 46:0 47:0 48:0 49:0.033333 50:0 51:0.033333 52:0 53:0 54:0 55:0 56:0 57:0 58:0.033333 59:0 60:0 61:0 62:0 63:0 64:0.033333 65:0 66:0 67:0 68:0 69:0 70:0.066667 71:0.066667 72:0 73:0 74:0.033333 75:0 76:0 77:0 78:0.066667 79:0.033333 80:0 81:0 82:0 83:0 84:0 85:0 86:0 87:0 88:0 89:0.066667 90:0 91:0 92:0 93:0 94:0 95:0.033333 96:0 97:0 98:0 99:0.033333 100:0 
-31.97609978201768 1:0.010309 2:0.010309 3:0 4:0 5:0.020619 6:0 7:0.020619 8:0.020619 9:0.020619 10:0.010309 11:0.010309 12:0 13:0 14:0.020619 15:0 16:0.020619 17:0.010309 18:0.010309 19:0.030928 20:0.010309 21:0.020619 22:0.030928 23:0.010309 24:0 25:0.020619 26:0.010309 27:0 28:0 29:0 30:0.020619 31:0 32:0.010309 33:0 34:0.010309 35:0 36:0.020619 37:0 38:0.010309 39:0 40:0.020619 41:0.020619 42:0 43:0.020619 44:0.030928 45:0.010309 46:0 47:0 48:0.020619 49:0.010309 50:0 51:0.041237 52:0.020619 53:0 54:0.020619 55:0 56:0.020619 57:0.020619 58:0.020619 59:0 60:0.010309 61:0.010309 62:0 63:0 64:0.010309 65:0 66:0.030928 67:0 68:0 69:0.020619 70:0 71:0 72:0.030928 73:0.010309 74:0 75:0.010309 76:0 77:0.010309 78:0 79:0 80:0 81:0 82:0 83:0 84:0 85:0.020619 86:0 87:0.010309 88:0 89:0.010309 90:0.010309 91:0.010309 92:0.010309 93:0.030928 94:0.020619 95:0 96:0 97:0.020619 98:0.010309 99:0.020619 100:0.010309 
-56 1:0 2:0 3:0.020619 4:0.020619 5:0 6:0 7:0.010309 8:0 9:0 10:0 11:0.020619 12:0 13:0 14:0 15:0.010309 16:0 17:0.010309 18:0 19:0.010309 20:0.010309 21:0.020619 22:0 23:0.010309 24:0 25:0 26:0 27:0.010309 28:0.030928 29:0 30:0 31:0 32:0.010309 33:0.010309 34:0 35:0.010309 36:0 37:0 38:0.020619 39:0.010309 40:0.010309 41:0 42:0 43:0.020619 44:0 45:0 46:0.010309 47:0 48:0.010309 49:0.020619 50:0.010309 51:0 52:0.010309 53:0.030928 54:0.030928 55:0.010309 56:0.041237 57:0.020619 58:0.010309 59:0.010309 60:0.020619 61:0 62:0.010309 63:0.010309 64:0 65:0.010309 66:0.030928 67:0.010309 68:0.030928 69:0 70:0.030928 71:0 72:0 73:0.020619 74:0 75:0.010309 76:0.020619 77:0.020619 78:0 79:0.010309 80:0 81:0 82:0.030928 83:0 84:0 85:0.020619 86:0.010309 87:0 88:0 89:0 90:0 91:0.030928 92:0.020619 93:0 94:0.010309 95:0.061856 96:0.030928 97:0.030928 98:0.010309 99:0.010309 100:0 
-56 1:0 2:0.017857 3:0 4:0 5:0 6:0 7:0 8:0 9:0.017857 10:0.071429 11:0 12:0 13:0.017857 14:0.017857 15:0 16:0 17:0 18:0.035714 19:0.035714 20:0 21:0 22:0.017857 23:0.053571 24:0.017857 25:0 26:0 27:0.017857 28:0 29:0.035714 30:0.017857 31:0 32:0.017857 33:0 34:0.017857 35:0 36:0 37:0 38:0.071429 39:0 40:0 41:0.017857 42:0 43:0.053571 44:0 45:0 46:0 47:0 48:0.017857 49:0 50:0 51:0 52:0.017857 53:0 54:0 55:0.035714 56:0.017857 57:0 58:0 59:0 60:0 61:0 62:0 63:0 64:0 65:0 66:0 67:0 68:0 69:0 70:0.017857 71:0.035714 72:0 73:0 74:0 75:0.035714 76:0 77:0 78:0.017857 79:0.017857 80:0 81:0 82:0.017857 83:0.035714 84:0 85:0 86:0 87:0.017857 88:0 89:0 90:0.017857 91:0.017857 92:0 93:0.017857 94:0 95:0.017857 96:0 97:0.035714 98:0 99:0 100:0.053571 
-28.89958948040014 1:0.01087 2:0.01087 3:0.021739 4:0 5:0 6:0 7:0.01087 8:0.01087 9:0.01087 10:0.01087 11:0.01087 12:0.021739 13:0 14:0.021739 15:0.021739 16:0.01087 17:0 18:0 19:0.021739 20:0 21:0 22:0.021739 23:0.01087 24:0.01087 25:0 26:0 27:0.01087 28:0 29:0 30:0 31:0 32:0.01087 33:0.032609 34:0 35:0 36:0 37:0.043478 38:0.01087 39:0 40:0.01087 41:0.01087 42:0.021739 43:0 44:0 45:0 46:0.021739 47:0.021739 48:0 49:0 50:0.043478 51:0.01087 52:0.01087 53:0.01087 54:0.01087 55:0 56:0 57:0.021739 58:0 59:0.01087 60:0 61:0.01087 62:0.032609 63:0.01087 64:0.021739 65:0 66:0.01087 67:0.032609 68:0.01087 69:0.021739 70:0.01087 71:0 72:0 73:0 74:0 75:0 76:0.043478 77:0.032609 78:0.01087 79:0 80:0 81:0.01087 82:0.01087 83:0 84:0 85:0.076087 86:0 87:0 88:0 89:0.01087 90:0 91:0.043478 92:0.021739 93:0.01087 94:0 95:0 96:0 97:0 98:0 99:0.01087 100:0 
-39.07842960369558 1:0 2:0 3:0 4:0 5:0.04 6:0 7:0.02 8:0 9:0 10:0 11:0 12:0 13:0.06 14:0.08 15:0 16:0 17:0 18:0 19:0 20:0 21:0.02 22:0 23:0 24:0 25:0 26:0 27:0.04 28:0 29:0 30:0.02 31:0.02 32:0 33:0 34:0 35:0 36:0.04 37:0 38:0 39:0.02 40:0.02 41:0 42:0 43:0.02 44:0.04 45:0.02 46:0 47:0 48:0 49:0 50:0 51:0 52:0.02 53:0.02 54:0.02 55:0 56:0.04 57:0 58:0 59:0 60:0 61:0 62:0 63:0.06 64:0 65:0 66:0.02 67:0 68:0 69:0 70:0 71:0.02 72:0.02 73:0 74:0.02 75:0 76:0 77:0.04 78:0 79:0 80:0.02 81:0 82:0 83:0 84:0 85:0 86:0.02 87:0 88:0.06 89:0 90:0 91:0 92:0 93:0.02 94:0.02 95:0 96:0 97:0.06 98:0 99:0.02 100:0.04 
-56 1:0 2:0.0125 3:0 4:0 5:0 6:0 7:0 8:0 9:0.0125 10:0.05 11:0 12:0.0375 13:0 14:0.075 15:0.0125 16:0 17:0.0375 18:0 19:0.0125 20:0.025 21:0 22:0 23:0 24:0.0125 25:0 26:0.0125 27:0.025 28:0.0125 29:0 30:0.0125 31:0.0125 32:0 33:0 34:0 35:0 36:0 37:0 38:0.0125 39:0 40:0 41:0 42:0 43:0 44:0 45:0 46:0.0125 47:0.0125 48:0.0125 49:0 50:0.0375 51:0.0125 52:0 53:0.0125 54:0.0125 55:0 56:0.0375 57:0.0375 58:0 59:0.0125 60:0 61:0.025 62:0 63:0.0125 64:0.0125 65:0 66:0 67:0.0125 68:0 69:0.0125 70:0 71:0 72:0 73:0.0125 74:0.0125 75:0 76:0.025 77:0.025 78:0 79:0.0125 80:0 81:0 82:0 83:0 84:0 85:0.1125 86:0 87:0 88:0.0375 89:0 90:0 91:0.0375 92:0.025 93:0 94:0.0125 95:0.0125 96:0.0125 97:0 98:0 99:0 100:0.0125 
-56 1:0.012987 2:0.012987 3:0 4:0.025974 5:0.012987 6:0.012987 7:0 8:0 9:0.051948 10:0.064935 11:0.025974 12:0 13:0 14:0.025974 15:0.012987 16:0.012987 17:0 18:0.012987 19:0 20:0.012987 21:0.012987 22:0.012987 23:0 24:0 25:0 26:0.012987 27:0 28:0.025974 29:0 30:0.025974 31:0 32:0 33:0 34:0 35:0 36:0 37:0.012987 38:0.038961 39:0 40:0 41:0 42:0.012987 43:0 44:0 45:0.012987 46:0 47:0 48:0 49:0 50:0 51:0 52:0 53:0 54:0 55:0.012987 56:0 57:0.012987 58:0.012987 59:0 60:0.025974 61:0 62:0.025974 63:0 64:0.012987 65:0 66:0.012987 67:0.012987 68:0 69:0 70:0.012987 71:0 72:0 73:0.038961 74:0.012987 75:0 76:0 77:0 78:0.038961 79:0.051948 80:0.012987 81:0.012987 82:0.012987 83:0.025974 84:0.012987 85:0.012987 86:0.025974 87:0 88:0.012987 89:0 90:0 91:0.025974 92:0.012987 93:0 94:0 95:0 96:0.012987 97:0.025974 98:0.012987 99:0.025974 100:0 
-8.201904739772656 1:0 2:0.012346 3:0.024691 4:0 5:0 6:0 7:0 8:0.012346 9:0.012346 10:0.012346 11:0 12:0 13:0.061728 14:0.012346 15:0.012346 16:0 17:0.012346 18:0.012346 19:0.012346 20:0 21:0.024691 22:0 23:0 24:0 25:0 26:0.012346 27:0 28:0.012346 29:0.012346 30:0.012346 31:0.037037 32:0 33:0.012346 34:0.012346 35:0 36:0 37:0 38:0.037037 39:0.012346 40:0 41:0.024691 42:0 43:0.024691 44:0 45:0.012346 46:0.012346 47:0 48:0.012346 49:0 50:0.012346 51:0 52:0 53:0.012346 54:0.012346 55:0 56:0.012346 57:0 58:0 59:0.037037 60:0 61:0.012346 62:0 63:0 64:0.037037 65:0.024691 66:0 67:0 68:0.024691 69:0 70:0.012346 71:0.012346 72:0.012346 73:0.012346 74:0 75:0.012346 76:0.037037 77:0 78:0 79:0 80:0.037037 81:0.012346 82:0 83:0.012346 84:0.012346 85:0 86:0.012346 87:0 88:0 89:0.012346 90:0 91:0 92:0.012346 93:0 94:0.037037 95:0 96:0.024691 97:0.024691 98:0.037037 99:0.012346 100:0 
-56 1:0.015957 2:0.026596 3:0.015957 4:0.005319 5:0.005319 6:0.010638 7:0.005319 8:0 9:0.026596 10:0.005319 11:0.010638 12:0.005319 13:0.015957 14:0.010638 15:0.010638 16:0.015957 17:0.010638 18:0.005319 19:0.005319 20:0 21:0.015957 22:0 23:0.026596 24:0.015957 25:0 26:0.010638 27:0.015957 28:0.005319 29:0.010638 30:0.015957 31:0 32:0.021277 33:0.010638 34:0.015957 35:0.015957 36:0.015957 37:0.010638 38:0.005319 39:0 40:0.010638 41:0.010638 42:0.005319 43:0.005319 44:0 45:0.005319 46:0.015957 47:0.015957 48:0.015957 49:0.005319 50:0 51:0.005319 52:0 53:0.010638 54:0.026596 55:0.010638 56:0 57:0.005319 58:0 59:0.010638 60:0.021277 61:0 62:0.010638 63:0.031915 64:0.005319 65:0 66:0 67:0.005319 68:0 69:0.010638 70:0 71:0 72:0.015957 73:0.010638 74:0 75:0.010638 76:0.005319 77:0.010638 78:0.015957 79:0.010638 80:0.010638 81:0.015957 82:0.005319 83:0.010638 84:0 85:0.021277 86:0.005319 87:0.026596 88:0.005319 89:0.005319 90:0.005319 91:0.005319 92:0.010638 93:0.010638 94:0.005319 95:0 96:0.031915 97:0.010638 98:0.021277 99:0.010638 100:0.037234 
-53.63376599977791 1:0 2:0.011364 3:0.011364 4:0 5:0.034091 6:0 7:0.011364 8:0 9:0.011364 10:0 11:0.056818 12:0 13:0.022727 14:0.045455 15:0.034091 16:0 17:0 18:0 19:0 20:0 21:0 22:0 23:0 24:0.011364 25:0.022727 26:0.011364 27:0.022727 28:0.034091 29:0 30:0 31:0.022727 32:0 33:0.011364 34:0 35:0 36:0.011364 37:0.011364 38:0 39:0.034091 40:0.011364 41:0 42:0 43:0.011364 44:0 45:0 46:0 47:0 48:0.011364 49:0.022727 50:0.011364 51:0.011364 52:0.022727 53:0.022727 54:0.011364 55:0.022727 56:0 57:0 58:0.011364 59:0.011364 60:0 61:0 62:0 63:0 64:0 65:0 66:0 67:0 68:0.034091 69:0 70:0 71:0 72:0.022727 73:0.011364 74:0 75:0 76:0 77:0.068182 78:0 79:0 80:0.022727 81:0.011364 82:0.011364 83:0 84:0 85:0.022727 86:0.022727 87:0 88:0.011364 89:0 90:0.011364 91:0.034091 92:0.034091 93:0 94:0.034091 95:0.011364 96:0.011364 97:0 98:0 99:0.011364 100:0 
-56 1:0.020408 2:0.005102 3:0.010204 4:0 5:0.015306 6:0.010204 7:0.005102 8:0.005102 9:0.015306 10:0.02551 11:0.005102 12:0.035714 13:0.015306 14:0 15:0.020408 16:0.005102 17:0.020408 18:0.015306 19:0.010204 20:0.005102 21:0 22:0 23:0.010204 24:0 25:0.010204 26:0.015306 27:0.005102 28:0.005102 29:0.010204 30:0.015306 31:0 32:0.015306 33:0.020408 34:0.005102 35:0.005102 36:0 37:0.015306 38:0 39:0.005102 40:0.02551 41:0 42:0.02551 43:0.020408 44:0.010204 45:0 46:0.061224 47:0.005102 48:0.020408 49:0.030612 50:0.005102 51:0.015306 52:0 53:0.010204 54:0.005102 55:0.010204 56:0.010204 57:0.005102 58:0.005102 59:0.010204 60:0.005102 61:0.015306 62:0.015306 63:0.005102 64:0.005102 65:0 66:0.02551 67:0 68:0.015306 69:0.005102 70:0 71:0.010204 72:0 73:0 74:0 75:0.010204 76:0 77:0.005102 78:0.020408 79:0.010204 80:0.005102 81:0 82:0.010204 83:0.015306 84:0.010204 85:0.030612 86:0.010204 87:0.005102 88:0.010204 89:0 90:0 91:0.015306 92:0.010204 93:0.010204 94:0 95:0 96:0.005102 97:0 98:0.015306 99:0.005102 100:0.035714 
-42.09410182506247 1:0.012658 2:0.012658 3:0 4:0.012658 5:0 6:0.012658 7:0.012658 8:0 9:0.012658 10:0.050633 11:0 12:0 13:0.012658 14:0.075949 15:0 16:0 17:0.012658 18:0.012658 19:0 20:0.012658 21:0 22:0 23:0.012658 24:0 25:0.025316 26:0 27:0 28:0 29:0 30:0.025316 31:0.012658 32:0.012658 33:0.012658 34:0 35:0 36:0 37:0 38:0.025316 39:0 40:0 41:0.012658 42:0 43:0.025316 44:0 45:0 46:0 47:0 48:0.025316 49:0 50:0 51:0.063291 52:0.012658 53:0.012658 54:0.012658 55:0.025316 56:0 57:0.025316 58:0 59:0 60:0.012658 61:0.025316 62:0 63:0 64:0 65:0.012658 66:0 67:0 68:0 69:0.012658 70:0.012658 71:0 72:0 73:0.012658 74:0.012658 75:0.012658 76:0.012658 77:0.012658 78:0 79:0.012658 80:0.012658 81:0 82:0.025316 83:0 84:0 85:0.025316 86:0.012658 87:0 88:0.037975 89:0 90:0 91:0.025316 92:0.037975 93:0.037975 94:0 95:0 96:0.012658 97:0.025316 98:0 99:0 100:0 
-56 1:0 2:0 3:0 4:0 5:0 6:0 7:0 8:0.020833 9:0 10:0 11:0 12:0.041667 13:0.020833 14:0.0625 15:0 16:0.020833 17:0.041667 18:0 19:0 20:0.020833 21:0.020833 22:0 23:0 24:0 25:0.041667 26:0.020833 27:0.020833 28:0.020833 29:0 30:0 31:0 32:0 33:0.020833 34:0 35:0 36:0.020833 37:0.020833 38:0.020833 39:0 40:0 41:0.020833 42:0 43:0 44:0 45:0 46:0 47:0 48:0.020833 49:0 50:0.020833 51:0 52:0.020833 53:0 54:0.020833 55:0.020833 56:0 57:0.0625 58:0.020833 59:0 60:0 61:0 62:0 63:0 64:0 65:0 66:0 67:0 68:0.020833 69:0 70:0.041667 71:0 72:0.020833 73:0 74:0 75:0 76:0 77:0.020833 78:0 79:0.020833 80:0 81:0 82:0 83:0 84:0 85:0.020833 86:0.020833 87:0.020833 88:0 89:0.020833 90:0.020833 91:0 92:0.0625 93:0 94:0.020833 95:0.020833 96:0 97:0.020833 98:0 99:0 100:0 
-56 1:0.017391 2:0.026087 3:0.043478 4:0 5:0.034783 6:0 7:0.008696 8:0.008696 9:0 10:0.017391 11:0 12:0 13:0.034783 14:0.017391 15:0.008696 16:0.008696 17:0.008696 18:0 19:0.026087 20:0.026087 21:0 22:0 23:0 24:0 25:0.026087 26:0.008696 27:0 28:0 29:0 30:0.034783 31:0.008696 32:0.026087 33:0 34:0.008696 35:0.008696 36:0.017391 37:0 38:0.008696 39:0.017391 40:0.008696 41:0 42:0.017391 43:0 44:0.017391 45:0 46:0 47:0.008696 48:0.008696 49:0 50:0 51:0.026087 52:0 53:0.008696 54:0.008696 55:0.017391 56:0 57:0.008696 58:0 59:0.008696 60:0.017391 61:0 62:0.008696 63:0 64:0.008696 65:0.008696 66:0 67:0.008696 68:0.008696 69:0.017391 70:0 71:0.017391 72:0.008696 73:0.026087 74:0 75:0.008696 76:0.017391 77:0.017391 78:0 79:0 80:0.008696 81:0 82:0.017391 83:0 84:0 85:0.008696 86:0.008696 87:0.017391 88:0.008696 89:0 90:0 91:0 92:0.026087 93:0.043478 94:0.017391 95:0.008696 96:0.026087 97:0.034783 98:0.008696 99:0 100:0 
-7.722995261200873 1:0 2:0.016667 3:0.016667 4:0 5:0.016667 6:0.033333 7:0 8:0 9:0 10:0 11:0 12:0 13:0.033333 14:0.016667 15:0 16:0.016667 17:0.033333 18:0.033333 19:0 20:0.016667 21:0 22:0 23:0 24:0.033333 25:0.016667 26:0 27:0 28:0.016667 29:0.033333 30:0.016667 31:0 32:0 33:0 34:0.033333 35:0.016667 36:0 37:0.016667 38:0.033333 39:0 40:0.016667 41:0 42:0 43:0.016667 44:0 45:0 46:0 47:0 48:0.016667 49:0 50:0.016667 51:0 52:0 53:0 54:0.016667 55:0.016667 56:0 57:0 58:0 59:0 60:0 61:0.016667 62:0 63:0 64:0 65:0.016667 66:0 67:0 68:0 69:0 70:0 71:0 72:0 73:0 74:0 75:0 76:0.033333 77:0 78:0 79:0.016667 80:0 81:0 82:0.033333 83:0 84:0 85:0.016667 86:0 87:0.083333 88:0.033333 89:0 90:0.016667 91:0.016667 92:0.016667 93:0.016667 94:0 95:0.033333 96:0.033333 97:0.033333 98:0.033333 99:0 100:0 
-56 1:0 2:0 3:0.012821 4:0 5:0.012821 6:0 7:0 8:0.025641 9:0.012821 10:0.038462 11:0 12:0 13:0 14:0.012821 15:0.012821 16:0 17:0.012821 18:0 19:0.051282 20:0.012821 21:0 22:0.025641 23:0 24:0.038462 25:0.012821 26:0 27:0.012821 28:0.012821 29:0.025641 30:0.012821 31:0.012821 32:0.012821 33:0.025641 34:0.012821 35:0 36:0 37:0 38:0.025641 39:0.012821 40:0.025641 41:0.012821 42:0 43:0 44:0.012821 45:0 46:0.012821 47:0 48:0 49:0 50:0 51:0 52:0 53:0 54:0.012821 55:0 56:0 57:0.012821 58:0 59:0.025641 60:0 61:0 62:0 63:0 64:0.012821 65:0.025641 66:0.025641 67:0 68:0 69:0.012821 70:0.025641 71:0 72:0.025641 73:0.012821 74:0 75:0.012821 76:0.025641 77:0 78:0.025641 79:0.025641 80:0.038462 81:0 82:0.025641 83:0.012821 84:0 85:0.012821 86:0 87:0 88:0.012821 89:0 90:0.012821 91:0.025641 92:0 93:0.012821 94:0.038462 95:0 96:0 97:0.012821 98:0 99:0 100:0 
-56 1:0 2:0 3:0.024096 4:0 5:0 6:0.012048 7:0 8:0.012048 9:0 10:0.024096 11:0 12:0 13:0.024096 14:0.036145 15:0 16:0.012048 17:0.012048 18:0 19:0 20:0.024096 21:0.012048 22:0 23:0.036145 24:0 25:0.036145 26:0.024096 27:0.012048 28:0 29:0 30:0 31:0 32:0.012048 33:0.012048 34:0.024096 35:0 36:0 37:0 38:0.036145 39:0.012048 40:0 41:0 42:0 43:0.024096 44:0.012048 45:0 46:0 47:0 48:0 49:0.048193 50:0 51:0.012048 52:0 53:0 54:0 55:0.036145 56:0.024096 57:0 58:0 59:0 60:0 61:0 62:0 63:0 64:0.012048 65:0.024096 66:0 67:0.012048 68:0.012048 69:0 70:0 71:0.012048 72:0 73:0.012048 74:0.024096 75:0 76:0.024096 77:0.012048 78:0.036145 79:0 80:0.012048 81:0.012048 82:0.012048 83:0 84:0 85:0.012048 86:0.024096 87:0 88:0.012048 89:0.012048 90:0.024096 91:0 92:0.060241 93:0 94:0 95:0 96:0.012048 97:0.024096 98:0 99:0.036145 100:0.012048 
-56 1:0 2:0.033333 3:0.011111 4:0 5:0 6:0 7:0 8:0 9:0.011111 10:0 11:0 12:0.022222 13:0.022222 14:0.044444 15:0.022222 16:0 17:0.011111 18:0.011111 19:0.011111 20:0 21:0.011111 22:0 23:0.011111 24:0 25:0.011111 26:0.022222 27:0 28:0.022222 29:0 30:0 31:0 32:0.033333 33:0 34:0.033333 35:0 36:0.022222 37:0.022222 38:0.011111 39:0.011111 40:0 41:0 42:0.022222 43:0 44:0 45:0 46:0 47:0.022222 48:0 49:0 50:0.011111 51:0 52:0.011111 53:0.011111 54:0 55:0.022222 56:0.011111 57:0.011111 58:0.011111 59:0.011111 60:0 61:0.011111 62:0 63:0.022222 64:0.011111 65:0.011111 66:0 67:0.022222 68:0.033333 69:0 70:0.011111 71:0 72:0.011111 73:0.011111 74:0 75:0.022222 76:0.022222 77:0 78:0.022222 79:0.011111 80:0 81:0 82:0 83:0.022222 84:0 85:0.022222 86:0 87:0 88:0.022222 89:0.011111 90:0 91:0.011111 92:0.033333 93:0 94:0.022222 95:0.022222 96:0 97:0.022222 98:0 99:0 100:0.033333 
-32.16429869229749 1:0 2:0.016129 3:0.016129 4:0 5:0 6:0 7:0.032258 8:0 9:0 10:0.080645 11:0 12:0.016129 13:0.032258 14:0.016129 15:0.016129 16:0 17:0 18:0.016129 19:0 20:0 21:0.016129 22:0.016129 23:0.016129 24:0.016129 25:0.016129 26:0 27:0 28:0.016129 29:0 30:0.016129 31:0 32:0.016129 33:0.032258 34:0 35:0 36:0 37:0 38:0.016129 39:0.016129 40:0.016129 41:0 42:0 43:0.016129 44:0.016129 45:0 46:0 47:0 48:0.016129 49:0.016129 50:0 51:0.016129 52:0.032258 53:0.016129 54:0 55:0 56:0 57:0.032258 58:0.016129 59:0 60:0.016129 61:0 62:0 63:0 64:0 65:0 66:0.032258 67:0.016129 68:0.032258 69:0 70:0 71:0 72:0.016129 73:0 74:0.032258 75:0.016129 76:0 77:0 78:0 79:0 80:0 81:0.016129 82:0 83:0 84:0 85:0.080645 86:0 87:0.016129 88:0.016129 89:0 90:0 91:0 92:0 93:0 94:0 95:0.016129 96:0 97:0.016129 98:0.032258 99:0.016129 100:0 
-35.75028331458039 1:0.0125 2:0.025 3:0.0125 4:0 5:0.0125 6:0 7:0 8:0.0375 9:0 10:0 11:0 12:0 13:0.0125 14:0.05 15:0 16:0 17:0 18:0.025 19:0.025 20:0 21:0 22:0 23:0.0375 24:0.0125 25:0 26:0.0125 27:0.0125 28:0 29:0.025 30:0 31:0.0375 32:0.0125 33:0 34:0 35:0.0125 36:0.0125 37:0 38:0.0375 39:0.0125 40:0.0125 41:0 42:0 43:0.0125 44:0.0125 45:0 46:0 47:0 48:0.025 49:0 50:0.0125 51:0.0125 52:0 53:0 54:0.0125 55:0 56:0 57:0 58:0.0375 59:0 60:0.025 61:0 62:0 63:0.0125 64:0.0125 65:0.0125 66:0 67:0 68:0 69:0 70:0.0375 71:0.0125 72:0.0375 73:0.0125 74:0.025 75:0.025 76:0.0125 77:0 78:0 79:0 80:0 81:0 82:0.0125 83:0.0125 84:0 85:0.05 86:0 87:0 88:0.0125 89:0.0125 90:0.0125 91:0 92:0.0125 93:0.0375 94:0 95:0.0125 96:0 97:0 98:0 99:0.0125 100:0.0125 
-38.64208165317374 1:0.013889 2:0 3:0.027778 4:0 5:0.041667 6:0.013889 7:0 8:0 9:0.027778 10:0 11:0.013889 12:0 13:0.013889 14:0.083333 15:0 16:0.013889 17:0 18:0 19:0.041667 20:0 21:0.013889 22:0 23:0 24:0 25:0.013889 26:0 27:0 28:0 29:0.027778 30:0.013889 31:0.027778 32:0 33:0 34:0 35:0.013889 36:0 37:0 38:0.027778 39:0.013889 40:0 41:0.013889 42:0 43:0 44:0 45:0 46:0 47:0 48:0.013889 49:0 50:0 51:0 52:0 53:0 54:0 55:0 56:0.013889 57:0.013889 58:0.041667 59:0 60:0 61:0 62:0 63:0 64:0 65:0.013889 66:0.013889 67:0 68:0 69:0.013889 70:0 71:0.013889 72:0 73:0.041667 74:0 75:0 76:0 77:0 78:0 79:0.013889 80:0.013889 81:0 82:0 83:0.013889 84:0 85:0 86:0.013889 87:0.013889 88:0.013889 89:0.013889 90:0 91:0 92:0 93:0 94:0 95:0 96:0.125 97:0.083333 98:0.041667 99:0.013889 100:0 
-22.85802630450985 1:0 2:0.006993 3:0.013986 4:0 5:0.013986 6:0 7:0 8:0.006993 9:0.006993 10:0 11:0.013986 12:0.020979 13:0 14:0.027972 15:0 16:0.006993 17:0.006993 18:0.006993 19:0.013986 20:0 21:0.020979 22:0.006993 23:0.006993 24:0 25:0.013986 26:0.013986 27:0 28:0.013986 29:0 30:0.006993 31:0.013986 32:0.013986 33:0.006993 34:0.006993 35:0.006993 36:0 37:0.006993 38:0.020979 39:0 40:0.034965 41:0 42:0 43:0.027972 44:0.020979 45:0.006993 46:0.027972 47:0.020979 48:0.020979 49:0.006993 50:0 51:0.013986 52:0 53:0.041958 54:0.013986 55:0.006993 56:0 57:0.027972 58:0.013986 59:0 60:0.013986 61:0 62:0 63:0 64:0.006993 65:0.006993 66:0 67:0 68:0.006993 69:0.006993 70:0.013986 71:0 72:0.006993 73:0 74:0 75:0.013986 76:0.034965 77:0.013986 78:0.020979 79:0.013986 80:0.006993 81:0.013986 82:0.006993 83:0.006993 84:0.006993 85:0.034965 86:0 87:0.020979 88:0.041958 89:0 90:0.006993 91:0.020979 92:0.020979 93:0 94:0.006993 95:0 96:0 97:0.006993 98:0.013986 99:0 100:0.027972 
-56 1:0 2:0 3:0 4:0 5:0.018519 6:0.018519 7:0.018519 8:0.037037 9:0 10:0 11:0.018519 12:0.018519 13:0 14:0.12963 15:0 16:0 17:0 18:0.018519 19:0 20:0 21:0.037037 22:0 23:0.018519 24:0 25:0 26:0 27:0 28:0 29:0.018519 30:0 31:0.018519 32:0.018519 33:0 34:0 35:0.018519 36:0 37:0 38:0.018519 39:0.018519 40:0 41:0 42:0 43:0 44:0.018519 45:0.018519 46:0 47:0 48:0.018519 49:0 50:0.018519 51:0 52:0.018519 53:0 54:0.037037 55:0 56:0 57:0 58:0.018519 59:0 60:0 61:0.037037 62:0 63:0 64:0 65:0 66:0.018519 67:0 68:0.018519 69:0 70:0.018519 71:0.018519 72:0.018519 73:0 74:0 75:0.018519 76:0 77:0 78:0.018519 79:0 80:0.018519 81:0 82:0 83:0 84:0 85:0.037037 86:0 87:0 88:0 89:0.037037 90:0.018519 91:0 92:0 93:0.037037 94:0 95:0.037037 96:0 97:0 98:0 99:0.037037 100:0.018519 
-41.31374648210228 1:0 2:0.02 3:0 4:0.01 5:0.03 6:0.01 7:0.02 8:0.02 9:0.01 10:0 11:0 12:0 13:0.02 14:0.01 15:0 16:0.02 17:0.01 18:0.01 19:0 20:0 21:0 22:0 23:0.03 24:0.02 25:0 26:0 27:0.01 28:0.01 29:0 30:0.02 31:0.02 32:0 33:0 34:0 35:0.01 36:0.01 37:0 38:0.02 39:0 40:0.02 41:0.01 42:0.02 43:0.03 44:0.02 45:0.01 46:0 47:0.01 48:0 49:0.01 50:0 51:0.01 52:0.02 53:0.01 54:0.01 55:0.03 56:0 57:0.01 58:0 59:0.01 60:0.01 61:0 62:0 63:0.01 64:0.02 65:0 66:0 67:0 68:0.01 69:0.01 70:0.01 71:0 72:0.02 73:0.02 74:0 75:0.02 76:0.05 77:0.01 78:0.02 79:0.01 80:0.03 81:0 82:0 83:0 84:0 85:0.01 86:0 87:0.03 88:0.01 89:0 90:0.03 91:0 92:0 93:0.01 94:0 95:0 96:0.04 97:0.04 98:0.01 99:0 100:0 
-56 1:0.011765 2:0 3:0.011765 4:0.011765 5:0 6:0 7:0 8:0.011765 9:0.011765 10:0.011765 11:0.011765 12:0 13:0 14:0.023529 15:0.011765 16:0 17:0.011765 18:0 19:0 20:0 21:0.011765 22:0 23:0 24:0 25:0 26:0.011765 27:0 28:0.011765 29:0.035294 30:0.011765 31:0 32:0.011765 33:0.047059 34:0 35:0 36:0 37:0.011765 38:0.011765 39:0.047059 40:0 41:0.011765 42:0 43:0.011765 44:0.011765 45:0.035294 46:0.035294 47:0 48:0.011765 49:0 50:0.011765 51:0.023529 52:0.023529 53:0 54:0 55:0.011765 56:0.011765 57:0 58:0.011765 59:0.047059 60:0.011765 61:0 62:0 63:0 64:0.035294 65:0.011765 66:0 67:0 68:0.011765 69:0.011765 70:0.035294 71:0.023529 72:0.011765 73:0.023529 74:0.011765 75:0 76:0 77:0 78:0.011765 79:0.011765 80:0 81:0.011765 82:0 83:0 84:0 85:0 86:0.023529 87:0 88:0 89:0 90:0.011765 91:0 92:0.035294 93:0 94:0 95:0.023529 96:0.035294 97:0.011765 98:0.023529 99:0.011765 100:0 
-30.0184927393351 1:0 2:0 3:0 4:0.033333 5:0 6:0.016667 7:0 8:0 9:0 10:0 11:0.033333 12:0 13:0.016667 14:0.016667 15:0 16:0 17:0 18:0 19:0 20:0.016667 21:0 22:0 23:0 24:0 25:0 26:0 27:0.05 28:0 29:0 30:0.033333 31:0 32:0.033333 33:0 34:0 35:0 36:0 37:0 38:0.016667 39:0 40:0 41:0 42:0 43:0.016667 44:0.05 45:0 46:0 47:0 48:0 49:0.016667 50:0 51:0 52:0.016667 53:0 54:0.033333 55:0 56:0 57:0 58:0 59:0 60:0 61:0 62:0.033333 63:0.016667 64:0 65:0 66:0.033333 67:0 68:0 69:0.033333 70:0.066667 71:0 72:0.066667 73:0 74:0.016667 75:0.016667 76:0 77:0 78:0.033333 79:0.033333 80:0.016667 81:0 82:0.016667 83:0.016667 84:0 85:0 86:0 87:0.033333 88:0.033333 89:0.033333 90:0 91:0 92:0.05 93:0 94:0 95:0 96:0 97:0.016667 98:0.016667 99:0 100:0.016667 
-56 1:0 2:0.032967 3:0.010989 4:0 5:0.021978 6:0 7:0 8:0.010989 9:0 10:0 11:0.021978 12:0 13:0 14:0.065934 15:0 16:0 17:0 18:0 19:0 20:0 21:0.021978 22:0.010989 23:0.010989 24:0.010989 25:0.010989 26:0 27:0.010989 28:0.021978 29:0 30:0.032967 31:0 32:0 33:0.010989 34:0.032967 35:0 36:0.032967 37:0.010989 38:0 39:0.010989 40:0.021978 41:0 42:0.021978 43:0 44:0.010989 45:0.010989 46:0 47:0.021978 48:0 49:0 50:0.021978 51:0.010989 52:0 53:0.021978 54:0.010989 55:0 56:0.010989 57:0.021978 58:0 59:0.010989 60:0 61:0 62:0.021978 63:0 64:0.010989 65:0 66:0.021978 67:0.010989 68:0 69:0.010989 70:0.021978 71:0 72:0 73:0.010989 74:0.010989 75:0 76:0 77:0.021978 78:0 79:0 80:0 81:0.010989 82:0.010989 83:0 84:0 85:0.021978 86:0.010989 87:0 88:0.010989 89:0 90:0.010989 91:0.010989 92:0.076923 93:0.021978 94:0.010989 95:0 96:0 97:0.010989 98:0 99:0.010989 100:0.043956 
-56 1:0 2:0.039474 3:0.013158 4:0 5:0.013158 6:0.013158 7:0.013158 8:0.026316 9:0.026316 10:0 11:0 12:0 13:0.013158 14:0.039474 15:0 16:0.013158 17:0.013158 18:0.013158 19:0.013158 20:0 21:0.039474 22:0 23:0.026316 24:0 25:0 26:0.013158 27:0 28:0 29:0.013158 30:0.026316 31:0 32:0 33:0.026316 34:0 35:0 36:0 37:0 38:0.013158 39:0 40:0 41:0.013158 42:0 43:0 44:0.026316 45:0 46:0 47:0.013158 48:0 49:0.013158 50:0.013158 51:0.039474 52:0 53:0.013158 54:0 55:0.026316 56:0 57:0 58:0 59:0.026316 60:0.013158 61:0 62:0.013158 63:0 64:0 65:0.013158 66:0.026316 67:0 68:0.039474 69:0 70:0.013158 71:0.026316 72:0.065789 73:0.013158 74:0 75:0 76:0 77:0.013158 78:0 79:0.026316 80:0.013158 81:0.026316 82:0.013158 83:0.013158 84:0 85:0 86:0 87:0 88:0 89:0.013158 90:0.013158 91:0.013158 92:0.013158 93:0.013158 94:0 95:0 96:0 97:0 98:0.013158 99:0 100:0 
-56 1:0.010309 2:0.041237 3:0.030928 4:0 5:0.051546 6:0 7:0.010309 8:0.030928 9:0 10:0 11:0.030928 12:0 13:0.010309 14:0.020619 15:0.020619 16:0.020619 17:0 18:0.020619 19:0.010309 20:0 21:0 22:0 23:0.010309 24:0.010309 25:0.010309 26:0 27:0.010309 28:0 29:0.020619 30:0 31:0.020619 32:0.010309 33:0.010309 34:0 35:0.010309 36:0.010309 37:0 38:0.010309 39:0 40:0 41:0 42:0.010309 43:0.020619 44:0.010309 45:0 46:0 47:0.010309 48:0.010309 49:0 50:0 51:0.020619 52:0 53:0 54:0.020619 55:0.010309 56:0 57:0.020619 58:0 59:0.020619 60:0.041237 61:0 62:0.020619 63:0 64:0 65:0.010309 66:0.010309 67:0.010309 68:0 69:0.030928 70:0.010309 71:0.010309 72:0.010309 73:0.020619 74:0.010309 75:0 76:0 77:0.041237 78:0.020619 79:0.020619 80:0 81:0 82:0 83:0.010309 84:0 85:0.020619 86:0 87:0 88:0 89:0 90:0.020619 91:0.010309 92:0 93:0.020619 94:0 95:0 96:0.020619 97:0.030928 98:0 99:0 100:0 
-56 1:0.013158 2:0.013158 3:0 4:0.026316 5:0.013158 6:0 7:0 8:0 9:0 10:0.039474 11:0 12:0 13:0.026316 14:0.065789 15:0.013158 16:0.026316 17:0.039474 18:0 19:0.013158 20:0 21:0.026316 22:0 23:0.013158 24:0 25:0.013158 26:0.026316 27:0 28:0.013158 29:0.052632 30:0.013158 31:0.026316 32:0 33:0.013158 34:0 35:0 36:0 37:0 38:0.013158 39:0 40:0.013158 41:0.013158 42:0.026316 43:0 44:0.013158 45:0 46:0 47:0 48:0 49:0 50:0 51:0 52:0.052632 53:0.026316 54:0 55:0.013158 56:0 57:0 58:0 59:0 60:0 61:0.013158 62:0.013158 63:0 64:0 65:0 66:0.013158 67:0.013158 68:0 69:0 70:0 71:0 72:0.013158 73:0 74:0 75:0.013158 76:0 77:0 78:0.026316 79:0 80:0 81:0 82:0 83:0 84:0 85:0 86:0.013158 87:0.039474 88:0.065789 89:0 90:0.013158 91:0.013158 92:0.039474 93:0 94:0 95:0.026316 96:0 97:0.026316 98:0 99:0 100:0 
-56 1:0 2:0.012821 3:0 4:0.012821 5:0.012821 6:0 7:0.012821 8:0 9:0 10:0.012821 11:0 12:0 13:0 14:0 15:0.025641 16:0.012821 17:0 18:0.025641 19:0.012821 20:0 21:0.012821 22:0.012821 23:0 24:0.025641 25:0.012821 26:0.012821 27:0.012821 28:0.038462 29:0 30:0.064103 31:0.012821 32:0.038462 33:0 34:0 35:0 36:0 37:0 38:0.038462 39:0.025641 40:0 41:0 42:0 43:0.012821 44:0.025641 45:0 46:0 47:0 48:0 49:0 50:0.051282 51:0.012821 52:0 53:0.012821 54:0.025641 55:0 56:0.025641 57:0 58:0.012821 59:0 60:0 61:0 62:0 63:0.012821 64:0 65:0.012821 66:0.012821 67:0.051282 68:0.012821 69:0.012821 70:0 71:0.012821 72:0 73:0 74:0 75:0.025641 76:0.025641 77:0.012821 78:0 79:0.012821 80:0 81:0.012821 82:0 83:0.012821 84:0 85:0 86:0.012821 87:0 88:0 89:0.012821 90:0 91:0 92:0 93:0.012821 94:0.012821 95:0.012821 96:0 97:0.038462 98:0 99:0.012821 100:0.025641 
-31.91460031839411 1:0 2:0 3:0 4:0.032787 5:0.016393 6:0 7:0 8:0 9:0 10:0 11:0.032787 12:0 13:0.016393 14:0.016393 15:0 16:0 17:0 18:0.016393 19:0.016393 20:0 21:0 22:0 23:0 24:0 25:0 26:0 27:0.016393 28:0 29:0.016393 30:0 31:0.016393 32:0.016393 33:0 34:0.016393 35:0.016393 36:0.032787 37:0 38:0.065574 39:0 40:0 41:0 42:0 43:0.016393 44:0.016393 45:0 46:0 47:0.016393 48:0 49:0.032787 50:0 51:0.016393 52:0 53:0 54:0 55:0 56:0 57:0 58:0 59:0.032787 60:0 61:0 62:0 63:0.016393 64:0.016393 65:0 66:0.04918 67:0 68:0.016393 69:0.032787 70:0.016393 71:0 72:0 73:0 74:0 75:0.016393 76:0 77:0 78:0.065574 79:0.016393 80:0 81:0 82:0 83:0.016393 84:0 85:0 86:0 87:0 88:0.016393 89:0.016393 90:0 91:0.016393 92:0.081967 93:0.016393 94:0 95:0.016393 96:0 97:0.065574 98:0 99:0.016393 100:0.016393 
-56 1:0 2:0 3:0 4:0 5:0.025 6:0 7:0 8:0 9:0.0125 10:0.0125 11:0.0375 12:0 13:0.0125 14:0.025 15:0.0125 16:0.025 17:0.0625 18:0 19:0 20:0.025 21:0.0125 22:0 23:0 24:0.025 25:0.025 26:0 27:0 28:0.0125 29:0 30:0 31:0 32:0 33:0.0375 34:0 35:0 36:0.0125 37:0 38:0 39:0.0125 40:0.025 41:0 42:0 43:0.0125 44:0 45:0 46:0 47:0.025 48:0 49:0 50:0 51:0.0125 52:0 53:0.0125 54:0 55:0 56:0.0125 57:0.025 58:0.025 59:0 60:0 61:0 62:0 63:0.0125 64:0.0125 65:0.025 66:0.0125 67:0 68:0 69:0.025 70:0 71:0 72:0.0375 73:0.025 74:0 75:0 76:0.0125 77:0 78:0 79:0.0125 80:0 81:0 82:0 83:0 84:0 85:0.05 86:0 87:0 88:0.0125 89:0.0375 90:0.0375 91:0.025 92:0.0375 93:0 94:0 95:0.0375 96:0.0125 97:0.0125 98:0.025 99:0 100:0 
-56 1:0.009174 2:0 3:0 4:0.036697 5:0.027523 6:0 7:0.018349 8:0 9:0.009174 10:0.018349 11:0 12:0.009174 13:0.009174 14:0.055046 15:0 16:0.018349 17:0.036697 18:0.009174 19:0.018349 20:0 21:0.009174 22:0 23:0 24:0.018349 25:0.009174 26:0 27:0 28:0.018349 29:0.009174 30:0 31:0 32:0.009174 33:0.009174 34:0.009174 35:0 36:0.018349 37:0 38:0.045872 39:0 40:0 41:0 42:0.009174 43:0.018349 44:0.009174 45:0.009174 46:0.027523 47:0.027523 48:0.009174 49:0 50:0.009174 51:0.027523 52:0.009174 53:0.009174 54:0.009174 55:0 56:0.018349 57:0.036697 58:0 59:0 60:0.009174 61:0 62:0.018349 63:0 64:0.009174 65:0 66:0 67:0.009174 68:0.009174 69:0.009174 70:0.009174 71:0 72:0.009174 73:0 74:0 75:0.009174 76:0.009174 77:0 78:0 79:0.009174 80:0 81:0 82:0.009174 83:0 84:0.018349 85:0.009174 86:0.009174 87:0.018349 88:0.009174 89:0 90:0.018349 91:0.018349 92:0.027523 93:0.009174 94:0.009174 95:0.018349 96:0 97:0.027523 98:0 99:0 100:0.027523 
-56 1:0.011236 2:0.022472 3:0 4:0 5:0 6:0 7:0.011236 8:0 9:0 10:0 11:0.05618 12:0 13:0.011236 14:0.022472 15:0 16:0.033708 17:0.022472 18:0 19:0 20:0 21:0.011236 22:0 23:0 24:0 25:0.011236 26:0 27:0.011236 28:0 29:0.011236 30:0.011236 31:0.011236 32:0.022472 33:0 34:0 35:0.022472 36:0.011236 37:0 38:0 39:0.011236 40:0 41:0.022472 42:0.011236 43:0.011236 44:0.011236 45:0 46:0 47:0.033708 48:0 49:0.011236 50:0 51:0.011236 52:0 53:0.011236 54:0.011236 55:0 56:0 57:0.033708 58:0 59:0 60:0 61:0.011236 62:0.022472 63:0.011236 64:0 65:0.011236 66:0 67:0.011236 68:0.044944 69:0.011236 70:0.011236 71:0 72:0.011236 73:0 74:0 75:0 76:0.022472 77:0.011236 78:0.078652 79:0.022472 80:0.011236 81:0.011236 82:0 83:0.011236 84:0.011236 85:0.011236 86:0 87:0 88:0.022472 89:0.022472 90:0 91:0.022472 92:0.078652 93:0 94:0 95:0 96:0 97:0 98:0.011236 99:0 100:0.011236 
