svm_type c_svc
kernel_type linear
nr_class 2
total_sv 60
rho -0.316847
label 0 1
nr_sv 29 31
SV
56 1:0.015504 2:0.011628 3:0.01938 4:0.011628 5:0.003876 6:0 7:0.003876 8:0 9:0.015504 10:0.007752 11:0.011628 12:0.003876 13:0 14:0.007752 15:0.007752 16:0.007752 17:0.007752 18:0.007752 19:0.011628 20:0.007752 21:0.003876 22:0.007752 23:0.007752 24:0.011628 25:0.015504 26:0.007752 27:0 28:0 29:0 30:0.007752 31:0.011628 32:0.007752 33:0.023256 34:0.01938 35:0.007752 36:0.01938 37:0.003876 38:0.015504 39:0.011628 40:0.011628 41:0.003876 42:0.031008 43:0.015504 44:0.011628 45:0.01938 46:0 47:0.011628 48:0.011628 49:0.027132 50:0 51:0.01938 52:0.015504 53:0 54:0.003876 55:0.003876 56:0 57:0 58:0.007752 59:0.011628 60:0.011628 61:0 62:0 63:0.007752 64:0.007752 65:0.015504 66:0.007752 67:0.015504 68:0.015504 69:0 70:0.011628 71:0.011628 72:0 73:0.023256 74:0.003876 75:0 76:0.031008 77:0.011628 78:0.046512 79:0.015504 80:0 81:0 82:0.003876 83:0.007752 84:0 85:0.015504 86:0.007752 87:0 88:0.023256 89:0.007752 90:0.011628 91:0.015504 92:0.027132 93:0.015504 94:0.01938 95:0.007752 96:0.007752 97:0.011628 98:0.015504 99:0 100:0.015504 
56 1:0.00304 2:0.006079 3:0.00304 4:0.009119 5:0.00304 6:0.015198 7:0.00304 8:0.012158 9:0.00304 10:0.00304 11:0.006079 12:0 13:0.009119 14:0.018237 15:0.006079 16:0.00304 17:0.012158 18:0.00304 19:0 20:0.006079 21:0.009119 22:0.018237 23:0.012158 24:0 25:0.015198 26:0.015198 27:0.021277 28:0.015198 29:0 30:0.018237 31:0 32:0.021277 33:0.024316 34:0.027356 35:0.00304 36:0.006079 37:0.006079 38:0 39:0.015198 40:0.00304 41:0.006079 42:0 43:0.012158 44:0.009119 45:0 46:0.015198 47:0.00304 48:0.00304 49:0.012158 50:0.021277 51:0.015198 52:0.012158 53:0.006079 54:0.009119 55:0.009119 56:0.015198 57:0 58:0.015198 59:0.006079 60:0.012158 61:0.021277 62:0.006079 63:0.006079 64:0.012158 65:0.012158 66:0.009119 67:0.00304 68:0.018237 69:0.00304 70:0 71:0.009119 72:0.012158 73:0.012158 74:0.00304 75:0.006079 76:0.018237 77:0.00304 78:0.048632 79:0.00304 80:0.015198 81:0.021277 82:0.006079 83:0.012158 84:0.018237 85:0.00304 86:0.009119 87:0.006079 88:0 89:0.012158 90:0.012158 91:0.00304 92:0.048632 93:0.00304 94:0.021277 95:0.006079 96:0.033435 97:0 98:0.012158 99:0.012158 100:0 
56 1:0 2:0.012987 3:0 4:0.004329 5:0.012987 6:0.017316 7:0.004329 8:0 9:0 10:0.021645 11:0.025974 12:0.04329 13:0 14:0 15:0.004329 16:0.004329 17:0.008658 18:0.004329 19:0.012987 20:0.008658 21:0.008658 22:0.004329 23:0 24:0.012987 25:0.004329 26:0.017316 27:0.004329 28:0.017316 29:0 30:0.017316 31:0.017316 32:0.030303 33:0.012987 34:0.004329 35:0.004329 36:0 37:0.008658 38:0.021645 39:0.008658 40:0 41:0.012987 42:0.017316 43:0 44:0.017316 45:0.008658 46:0 47:0.004329 48:0 49:0.021645 50:0.004329 51:0.008658 52:0.012987 53:0.012987 54:0.004329 55:0.004329 56:0.012987 57:0.004329 58:0.017316 59:0.017316 60:0.030303 61:0 62:0.008658 63:0 64:0.012987 65:0.004329 66:0.004329 67:0.008658 68:0 69:0 70:0.008658 71:0 72:0.004329 73:0.017316 74:0.008658 75:0 76:0.025974 77:0.004329 78:0.012987 79:0.008658 80:0.004329 81:0 82:0.008658 83:0.008658 84:0 85:0.025974 86:0.008658 87:0.008658 88:0.008658 89:0.030303 90:0.025974 91:0.008658 92:0.017316 93:0.004329 94:0.004329 95:0.034632 96:0.004329 97:0.021645 98:0.030303 99:0.008658 100:0.012987 
24.14754639810306 1:0 2:0.006803 3:0.020408 4:0 5:0.006803 6:0.006803 7:0.006803 8:0.020408 9:0.020408 10:0.006803 11:0.061224 12:0.020408 13:0 14:0.006803 15:0 16:0.013605 17:0 18:0.013605 19:0.006803 20:0 21:0.013605 22:0.013605 23:0.006803 24:0.027211 25:0 26:0.006803 27:0.006803 28:0 29:0 30:0 31:0.006803 32:0.047619 33:0.006803 34:0.013605 35:0 36:0.006803 37:0 38:0.013605 39:0.034014 40:0.006803 41:0.006803 42:0.013605 43:0.013605 44:0 45:0.006803 46:0 47:0.006803 48:0 49:0 50:0 51:0.006803 52:0 53:0 54:0.006803 55:0 56:0.006803 57:0.006803 58:0.013605 59:0.020408 60:0.013605 61:0.006803 62:0 63:0 64:0.006803 65:0.006803 66:0.013605 67:0.013605 68:0.006803 69:0 70:0 71:0 72:0 73:0.047619 74:0.027211 75:0.020408 76:0 77:0.013605 78:0.006803 79:0.020408 80:0 81:0.006803 82:0 83:0.013605 84:0.006803 85:0 86:0.020408 87:0.006803 88:0.006803 89:0.013605 90:0.027211 91:0 92:0.006803 93:0 94:0 95:0.020408 96:0.034014 97:0.020408 98:0.027211 99:0.013605 100:0.034014 
56 1:0.009524 2:0.028571 3:0 4:0.009524 5:0 6:0.009524 7:0.019048 8:0 9:0 10:0 11:0.028571 12:0.019048 13:0 14:0.009524 15:0 16:0 17:0.019048 18:0 19:0.009524 20:0.019048 21:0.009524 22:0.028571 23:0.009524 24:0 25:0.019048 26:0.028571 27:0.009524 28:0 29:0 30:0.019048 31:0 32:0 33:0.028571 34:0.009524 35:0 36:0.028571 37:0 38:0.019048 39:0.019048 40:0.028571 41:0.009524 42:0.019048 43:0.019048 44:0 45:0 46:0 47:0 48:0 49:0.019048 50:0.009524 51:0.019048 52:0 53:0 54:0.019048 55:0 56:0 57:0.009524 58:0.009524 59:0.019048 60:0 61:0 62:0.009524 63:0 64:0 65:0 66:0 67:0 68:0 69:0.009524 70:0 71:0 72:0.019048 73:0.028571 74:0.009524 75:0.009524 76:0 77:0.028571 78:0 79:0.019048 80:0 81:0.019048 82:0 83:0 84:0.009524 85:0.009524 86:0 87:0.009524 88:0.009524 89:0.009524 90:0.009524 91:0.038095 92:0.009524 93:0.019048 94:0 95:0.038095 96:0.019048 97:0 98:0.057143 99:0 100:0.019048 
56 1:0 2:0.010753 3:0.005376 4:0.021505 5:0.026882 6:0 7:0.005376 8:0 9:0 10:0.026882 11:0.010753 12:0.005376 13:0.010753 14:0.005376 15:0.005376 16:0 17:0.016129 18:0.005376 19:0.016129 20:0 21:0.010753 22:0.010753 23:0.021505 24:0.005376 25:0 26:0 27:0.010753 28:0.005376 29:0 30:0 31:0.005376 32:0.005376 33:0 34:0.010753 35:0.016129 36:0.016129 37:0 38:0.016129 39:0.016129 40:0.016129 41:0.010753 42:0.016129 43:0.010753 44:0 45:0.005376 46:0.005376 47:0.016129 48:0.016129 49:0.010753 50:0.016129 51:0.021505 52:0.032258 53:0.005376 54:0 55:0.005376 56:0.005376 57:0.010753 58:0.016129 59:0 60:0.016129 61:0.005376 62:0.005376 63:0.026882 64:0.010753 65:0.005376 66:0.016129 67:0 68:0 69:0.016129 70:0.010753 71:0 72:0 73:0.005376 74:0.016129 75:0.010753 76:0.037634 77:0.016129 78:0.005376 79:0.016129 80:0.005376 81:0 82:0 83:0 84:0 85:0.010753 86:0 87:0.010753 88:0.043011 89:0.005376 90:0.016129 91:0.016129 92:0.021505 93:0.010753 94:0 95:0.005376 96:0.048387 97:0.010753 98:0.016129 99:0.010753 100:0.005376 
56 1:0.02 2:0.02 3:0.02 4:0.01 5:0.03 6:0.01 7:0.02 8:0 9:0.01 10:0 11:0 12:0 13:0.01 14:0.05 15:0.03 16:0.01 17:0.04 18:0 19:0.01 20:0.01 21:0 22:0 23:0 24:0 25:0.01 26:0.01 27:0.02 28:0 29:0.01 30:0.01 31:0.01 32:0 33:0.01 34:0 35:0.01 36:0.02 37:0 38:0.04 39:0 40:0.01 41:0 42:0 43:0.04 44:0 45:0.01 46:0 47:0 48:0.01 49:0.01 50:0.01 51:0 52:0 53:0.01 54:0.01 55:0.01 56:0.01 57:0.01 58:0.03 59:0.02 60:0 61:0.01 62:0 63:0.01 64:0 65:0.01 66:0.01 67:0.02 68:0.01 69:0.03 70:0.02 71:0 72:0 73:0 74:0 75:0.01 76:0 77:0.01 78:0 79:0.03 80:0.01 81:0 82:0 83:0 84:0 85:0.02 86:0.01 87:0 88:0.01 89:0.02 90:0.01 91:0.01 92:0.01 93:0.01 94:0.01 95:0.03 96:0.01 97:0.03 98:0 99:0 100:0 
56 1:0.006645 2:0.009967 3:0.003322 4:0.016611 5:0.006645 6:0.013289 7:0.003322 8:0 9:0.003322 10:0.053156 11:0.009967 12:0.076412 13:0.006645 14:0.003322 15:0.006645 16:0.006645 17:0.013289 18:0.019934 19:0.006645 20:0.003322 21:0.006645 22:0 23:0.006645 24:0.016611 25:0.009967 26:0.013289 27:0.006645 28:0.013289 29:0.003322 30:0.023256 31:0.003322 32:0.039867 33:0.009967 34:0.006645 35:0 36:0.003322 37:0.003322 38:0.009967 39:0.009967 40:0.003322 41:0.009967 42:0.003322 43:0.003322 44:0.019934 45:0.013289 46:0.009967 47:0.009967 48:0.003322 49:0 50:0.003322 51:0.003322 52:0.006645 53:0.003322 54:0.016611 55:0 56:0.003322 57:0 58:0.006645 59:0.003322 60:0.013289 61:0.003322 62:0.016611 63:0.016611 64:0.003322 65:0.003322 66:0.016611 67:0 68:0.003322 69:0.009967 70:0.003322 71:0.009967 72:0.013289 73:0.009967 74:0.019934 75:0.019934 76:0.006645 77:0 78:0.013289 79:0.003322 80:0.003322 81:0.003322 82:0.009967 83:0.013289 84:0.013289 85:0 86:0.009967 87:0.003322 88:0.013289 89:0.006645 90:0.019934 91:0 92:0.019934 93:0.009967 94:0.009967 95:0.019934 96:0.013289 97:0.006645 98:0.006645 99:0 100:0.053156 
56 1:0.018605 2:0.009302 3:0.013953 4:0 5:0.009302 6:0.018605 7:0 8:0.004651 9:0.004651 10:0.009302 11:0.023256 12:0.009302 13:0 14:0 15:0.018605 16:0.004651 17:0.018605 18:0.009302 19:0.009302 20:0.009302 21:0.004651 22:0.009302 23:0.009302 24:0.004651 25:0.004651 26:0.013953 27:0.009302 28:0.023256 29:0.004651 30:0.013953 31:0 32:0.013953 33:0.009302 34:0.009302 35:0.009302 36:0 37:0.023256 38:0 39:0.009302 40:0.004651 41:0.009302 42:0.009302 43:0.027907 44:0.023256 45:0.004651 46:0.027907 47:0 48:0.009302 49:0.009302 50:0.009302 51:0.013953 52:0.004651 53:0.023256 54:0.004651 55:0 56:0.013953 57:0.009302 58:0.004651 59:0.009302 60:0.018605 61:0.018605 62:0.013953 63:0.004651 64:0.013953 65:0.004651 66:0.004651 67:0.009302 68:0.009302 69:0.004651 70:0.009302 71:0 72:0.04186 73:0.018605 74:0 75:0.018605 76:0 77:0.023256 78:0.023256 79:0.009302 80:0.009302 81:0.004651 82:0.004651 83:0.004651 84:0.013953 85:0.009302 86:0.013953 87:0.013953 88:0.004651 89:0.004651 90:0 91:0.004651 92:0.018605 93:0 94:0.013953 95:0 96:0.013953 97:0.004651 98:0.004651 99:0 100:0.027907 
56 1:0.025424 2:0 3:0.016949 4:0.008475 5:0 6:0.008475 7:0.008475 8:0.008475 9:0.008475 10:0.008475 11:0.025424 12:0.016949 13:0 14:0.008475 15:0 16:0 17:0 18:0 19:0 20:0.008475 21:0 22:0.008475 23:0 24:0.008475 25:0.008475 26:0 27:0.008475 28:0.008475 29:0.025424 30:0 31:0.008475 32:0.025424 33:0.008475 34:0 35:0.025424 36:0 37:0.008475 38:0.008475 39:0.016949 40:0 41:0 42:0.008475 43:0.016949 44:0.008475 45:0.008475 46:0 47:0.025424 48:0.016949 49:0.008475 50:0 51:0.016949 52:0.008475 53:0.008475 54:0.016949 55:0 56:0.016949 57:0.025424 58:0.025424 59:0.016949 60:0 61:0.008475 62:0 63:0 64:0.008475 65:0 66:0.016949 67:0 68:0.025424 69:0.025424 70:0.008475 71:0.016949 72:0 73:0.025424 74:0.008475 75:0.008475 76:0.008475 77:0.008475 78:0 79:0.033898 80:0.008475 81:0 82:0.016949 83:0.016949 84:0 85:0.016949 86:0 87:0.016949 88:0.008475 89:0.016949 90:0.025424 91:0.025424 92:0.016949 93:0.008475 94:0.016949 95:0.016949 96:0 97:0 98:0.008475 99:0.008475 100:0.016949 
56 1:0 2:0 3:0 4:0.006098 5:0.006098 6:0.018293 7:0.018293 8:0.006098 9:0.006098 10:0.021341 11:0.012195 12:0.006098 13:0.012195 14:0.039634 15:0.012195 16:0.006098 17:0.006098 18:0.012195 19:0.015244 20:0.006098 21:0.02439 22:0.009146 23:0.003049 24:0.015244 25:0 26:0.015244 27:0.003049 28:0.003049 29:0.003049 30:0.009146 31:0.003049 32:0.018293 33:0.012195 34:0.012195 35:0.012195 36:0.003049 37:0.009146 38:0.003049 39:0.003049 40:0.009146 41:0.003049 42:0.003049 43:0.009146 44:0.006098 45:0.015244 46:0.021341 47:0.018293 48:0.009146 49:0.006098 50:0 51:0.015244 52:0.009146 53:0.021341 54:0.003049 55:0.003049 56:0.006098 57:0.006098 58:0.012195 59:0.012195 60:0.009146 61:0.003049 62:0.006098 63:0.015244 64:0.015244 65:0.006098 66:0.006098 67:0 68:0.021341 69:0.006098 70:0.009146 71:0.006098 72:0.015244 73:0.012195 74:0.003049 75:0.012195 76:0.003049 77:0 78:0.006098 79:0.006098 80:0.012195 81:0.009146 82:0.003049 83:0 84:0.018293 85:0.015244 86:0.012195 87:0.009146 88:0.018293 89:0.009146 90:0.045732 91:0.009146 92:0.006098 93:0.003049 94:0.009146 95:0.021341 96:0.018293 97:0.003049 98:0.033537 99:0.006098 100:0.015244 
0.1702337435005843 1:0 2:0 3:0.040816 4:0.020408 5:0 6:0 7:0 8:0 9:0.040816 10:0 11:0.040816 12:0 13:0.040816 14:0 15:0 16:0 17:0.020408 18:0 19:0.040816 20:0 21:0 22:0 23:0.020408 24:0 25:0 26:0 27:0 28:0 29:0.020408 30:0.020408 31:0 32:0.061224 33:0 34:0.020408 35:0 36:0 37:0 38:0.040816 39:0 40:0 41:0 42:0 43:0 44:0.020408 45:0 46:0 47:0 48:0 49:0.020408 50:0 51:0 52:0 53:0 54:0 55:0 56:0 57:0.020408 58:0.040816 59:0.020408 60:0 61:0 62:0 63:0 64:0 65:0 66:0 67:0.020408 68:0 69:0.020408 70:0.020408 71:0.020408 72:0 73:0 74:0.020408 75:0 76:0.040816 77:0 78:0 79:0 80:0 81:0.020408 82:0.040816 83:0 84:0.020408 85:0 86:0 87:0 88:0 89:0.061224 90:0.040816 91:0 92:0 93:0.020408 94:0.020408 95:0 96:0 97:0.020408 98:0 99:0 100:0.061224 
45.82716750270729 1:0 2:0 3:0.019802 4:0.019802 5:0.009901 6:0.019802 7:0.029703 8:0 9:0 10:0.009901 11:0.019802 12:0 13:0 14:0.029703 15:0.009901 16:0.019802 17:0.009901 18:0.019802 19:0.009901 20:0.019802 21:0 22:0.019802 23:0 24:0.009901 25:0 26:0 27:0 28:0 29:0.009901 30:0 31:0.019802 32:0 33:0.019802 34:0.039604 35:0.019802 36:0 37:0.009901 38:0.019802 39:0.029703 40:0.029703 41:0.009901 42:0 43:0 44:0 45:0 46:0 47:0.009901 48:0.009901 49:0.009901 50:0.009901 51:0.049505 52:0 53:0.009901 54:0.009901 55:0.009901 56:0.009901 57:0.009901 58:0 59:0 60:0.009901 61:0.019802 62:0.009901 63:0 64:0.009901 65:0 66:0 67:0 68:0 69:0.009901 70:0.019802 71:0.029703 72:0 73:0.019802 74:0 75:0 76:0 77:0 78:0 79:0.019802 80:0 81:0.009901 82:0.049505 83:0 84:0.009901 85:0.009901 86:0 87:0 88:0 89:0 90:0.009901 91:0.029703 92:0 93:0.019802 94:0 95:0.029703 96:0 97:0.039604 98:0 99:0 100:0.019802 
56 1:0.009009 2:0 3:0 4:0.027027 5:0 6:0 7:0 8:0.009009 9:0 10:0.027027 11:0.018018 12:0.009009 13:0 14:0.027027 15:0.018018 16:0 17:0.018018 18:0.009009 19:0.018018 20:0.027027 21:0.009009 22:0.009009 23:0.009009 24:0.018018 25:0.009009 26:0.009009 27:0.009009 28:0.009009 29:0.009009 30:0.009009 31:0.009009 32:0.009009 33:0 34:0 35:0 36:0.009009 37:0.009009 38:0.018018 39:0.018018 40:0.027027 41:0.009009 42:0.009009 43:0 44:0.009009 45:0 46:0 47:0.009009 48:0.009009 49:0.036036 50:0 51:0 52:0.009009 53:0.009009 54:0.009009 55:0 56:0 57:0.018018 58:0.009009 59:0.018018 60:0 61:0 62:0 63:0.009009 64:0.018018 65:0.009009 66:0.018018 67:0.009009 68:0.009009 69:0.009009 70:0.009009 71:0.009009 72:0.027027 73:0.009009 74:0.036036 75:0.009009 76:0.009009 77:0.009009 78:0.018018 79:0 80:0 81:0 82:0 83:0 84:0 85:0 86:0.018018 87:0.009009 88:0.018018 89:0 90:0 91:0.027027 92:0.027027 93:0.009009 94:0.009009 95:0.018018 96:0.009009 97:0.036036 98:0.018018 99:0 100:0.018018 
56 1:0 2:0.005236 3:0.005236 4:0.010471 5:0.015707 6:0.005236 7:0 8:0 9:0 10:0.010471 11:0.015707 12:0.015707 13:0.026178 14:0.010471 15:0.015707 16:0 17:0.031414 18:0.010471 19:0.005236 20:0 21:0 22:0 23:0.010471 24:0.005236 25:0.005236 26:0 27:0 28:0 29:0.010471 30:0.005236 31:0.005236 32:0 33:0 34:0.04712 35:0.010471 36:0 37:0 38:0.015707 39:0 40:0 41:0.005236 42:0.010471 43:0.031414 44:0.010471 45:0 46:0.015707 47:0.036649 48:0.005236 49:0.015707 50:0 51:0.026178 52:0.015707 53:0.010471 54:0.010471 55:0.020942 56:0.005236 57:0.005236 58:0 59:0.010471 60:0.020942 61:0 62:0.015707 63:0.010471 64:0.010471 65:0.015707 66:0.010471 67:0.005236 68:0.015707 69:0.020942 70:0 71:0 72:0.005236 73:0.020942 74:0.015707 75:0.005236 76:0.026178 77:0.020942 78:0.026178 79:0.020942 80:0.005236 81:0 82:0.010471 83:0.005236 84:0.005236 85:0.026178 86:0.005236 87:0 88:0.010471 89:0.005236 90:0 91:0 92:0.04712 93:0.005236 94:0.015707 95:0.005236 96:0.020942 97:0.015707 98:0 99:0.010471 100:0.005236 
23.20967462023235 1:0.030864 2:0.006173 3:0.018519 4:0.006173 5:0.012346 6:0 7:0.024691 8:0 9:0.012346 10:0.006173 11:0 12:0.006173 13:0 14:0.006173 15:0.018519 16:0.006173 17:0.006173 18:0 19:0.012346 20:0 21:0 22:0 23:0.012346 24:0.012346 25:0 26:0.006173 27:0.012346 28:0.037037 29:0.012346 30:0 31:0.024691 32:0 33:0.006173 34:0.012346 35:0.012346 36:0.012346 37:0.006173 38:0.018519 39:0 40:0 41:0.012346 42:0.006173 43:0 44:0 45:0 46:0.006173 47:0.006173 48:0.018519 49:0.006173 50:0 51:0.024691 52:0.006173 53:0.012346 54:0.012346 55:0.006173 56:0 57:0 58:0.006173 59:0.006173 60:0.018519 61:0.012346 62:0.012346 63:0.030864 64:0.006173 65:0 66:0.030864 67:0 68:0.012346 69:0.012346 70:0 71:0.012346 72:0.006173 73:0.012346 74:0.012346 75:0.006173 76:0 77:0.006173 78:0.049383 79:0.006173 80:0.006173 81:0.006173 82:0.006173 83:0.012346 84:0.006173 85:0.018519 86:0 87:0.012346 88:0.018519 89:0.006173 90:0.012346 91:0.006173 92:0.037037 93:0.030864 94:0.012346 95:0.006173 96:0.012346 97:0.024691 98:0.018519 99:0 100:0.012346 
56 1:0.00625 2:0.00625 3:0.003125 4:0.00625 5:0.00625 6:0.0125 7:0.00625 8:0.00625 9:0.003125 10:0.0125 11:0.0125 12:0.003125 13:0.00625 14:0.003125 15:0 16:0 17:0.0125 18:0.003125 19:0.021875 20:0.01875 21:0 22:0.0125 23:0.021875 24:0.00625 25:0.01875 26:0 27:0.003125 28:0.00625 29:0.00625 30:0.021875 31:0.003125 32:0.009375 33:0 34:0.021875 35:0.0125 36:0.009375 37:0.0125 38:0.009375 39:0 40:0.003125 41:0.003125 42:0.003125 43:0.015625 44:0.00625 45:0.003125 46:0.00625 47:0.009375 48:0.0125 49:0.0125 50:0 51:0.003125 52:0.009375 53:0.03125 54:0.00625 55:0.01875 56:0.00625 57:0.00625 58:0.0125 59:0.009375 60:0.021875 61:0.009375 62:0.00625 63:0.003125 64:0.00625 65:0.015625 66:0.003125 67:0.009375 68:0.003125 69:0.0125 70:0.009375 71:0.00625 72:0.003125 73:0.021875 74:0.00625 75:0.00625 76:0.025 77:0.015625 78:0.034375 79:0.00625 80:0.00625 81:0.0125 82:0 83:0.003125 84:0.003125 85:0.003125 86:0.00625 87:0.025 88:0.01875 89:0 90:0.040625 91:0.00625 92:0.034375 93:0.009375 94:0.009375 95:0.025 96:0.028125 97:0.009375 98:0.01875 99:0.00625 100:0.00625 
49.9079585707092 1:0.011811 2:0.003937 3:0.019685 4:0.011811 5:0.003937 6:0.003937 7:0.003937 8:0 9:0.023622 10:0.019685 11:0.011811 12:0 13:0.027559 14:0.007874 15:0.007874 16:0.007874 17:0.015748 18:0.003937 19:0.011811 20:0.011811 21:0.003937 22:0 23:0.035433 24:0.003937 25:0.019685 26:0 27:0.003937 28:0 29:0.007874 30:0.007874 31:0.003937 32:0.019685 33:0.011811 34:0.003937 35:0.011811 36:0.011811 37:0.007874 38:0.019685 39:0.003937 40:0 41:0 42:0.003937 43:0.003937 44:0.019685 45:0.011811 46:0.011811 47:0.003937 48:0.011811 49:0.007874 50:0 51:0.011811 52:0.011811 53:0.011811 54:0.003937 55:0.003937 56:0 57:0.003937 58:0.011811 59:0.015748 60:0.007874 61:0.007874 62:0 63:0 64:0.003937 65:0.019685 66:0.003937 67:0 68:0.027559 69:0 70:0.003937 71:0.011811 72:0.007874 73:0.003937 74:0.007874 75:0.011811 76:0.035433 77:0 78:0.043307 79:0.003937 80:0 81:0.003937 82:0.011811 83:0.019685 84:0.019685 85:0.011811 86:0.003937 87:0.011811 88:0.019685 89:0.003937 90:0.007874 91:0.003937 92:0.011811 93:0.003937 94:0.015748 95:0.015748 96:0.043307 97:0.023622 98:0.011811 99:0.003937 100:0.015748 
20.20896020500824 1:0.003597 2:0.007194 3:0.010791 4:0 5:0.017986 6:0.014388 7:0.014388 8:0.014388 9:0.007194 10:0.017986 11:0.003597 12:0.017986 13:0.003597 14:0.010791 15:0.014388 16:0.014388 17:0.007194 18:0.010791 19:0.003597 20:0.010791 21:0 22:0.007194 23:0.007194 24:0.010791 25:0.007194 26:0.010791 27:0.010791 28:0.003597 29:0 30:0.007194 31:0.003597 32:0.010791 33:0.010791 34:0.028777 35:0.003597 36:0.007194 37:0 38:0.003597 39:0.007194 40:0.007194 41:0.007194 42:0.014388 43:0.021583 44:0.003597 45:0.007194 46:0.003597 47:0.007194 48:0.010791 49:0.010791 50:0.010791 51:0.032374 52:0.014388 53:0.010791 54:0.007194 55:0.010791 56:0 57:0.003597 58:0.007194 59:0.021583 60:0.010791 61:0.017986 62:0.007194 63:0.010791 64:0.007194 65:0.007194 66:0.007194 67:0.003597 68:0.017986 69:0.010791 70:0.010791 71:0.003597 72:0.003597 73:0.007194 74:0.017986 75:0.010791 76:0.014388 77:0 78:0.035971 79:0.007194 80:0.014388 81:0.010791 82:0.014388 83:0 84:0.003597 85:0.014388 86:0.003597 87:0.007194 88:0.003597 89:0.007194 90:0.007194 91:0.007194 92:0.043165 93:0.010791 94:0.010791 95:0.02518 96:0.007194 97:0.007194 98:0.017986 99:0.007194 100:0.007194 
56 1:0.009693 2:0.012924 3:0.009693 4:0.012924 5:0.012924 6:0.004847 7:0.012924 8:0.004847 9:0.006462 10:0.037157 11:0.01454 12:0.021002 13:0.009693 14:0.027464 15:0.017771 16:0.004847 17:0.019386 18:0.011309 19:0.009693 20:0.006462 21:0.004847 22:0.004847 23:0.016155 24:0.009693 25:0.008078 26:0.012924 27:0.008078 28:0.004847 29:0.009693 30:0.009693 31:0.008078 32:0.012924 33:0.006462 34:0.012924 35:0.004847 36:0.004847 37:0.008078 38:0.011309 39:0.009693 40:0.01454 41:0.001616 42:0 43:0.01454 44:0.008078 45:0.009693 46:0.012924 47:0.008078 48:0.011309 49:0.008078 50:0 51:0.009693 52:0.019386 53:0.006462 54:0.004847 55:0.006462 56:0.008078 57:0.008078 58:0.016155 59:0.006462 60:0.001616 61:0.006462 62:0.004847 63:0.008078 64:0.004847 65:0.009693 66:0.001616 67:0.009693 68:0.006462 69:0.011309 70:0.006462 71:0.006462 72:0.008078 73:0.009693 74:0.012924 75:0.003231 76:0.012924 77:0.008078 78:0.024233 79:0.003231 80:0.016155 81:0.003231 82:0.001616 83:0.004847 84:0.008078 85:0.012924 86:0.012924 87:0.006462 88:0.008078 89:0.008078 90:0.011309 91:0.008078 92:0.017771 93:0.003231 94:0.008078 95:0.017771 96:0.009693 97:0.01454 98:0.024233 99:0.012924 100:0.021002 
56 1:0.009346 2:0.018692 3:0.018692 4:0.018692 5:0.009346 6:0 7:0 8:0.009346 9:0.009346 10:0.028037 11:0.009346 12:0.018692 13:0 14:0.018692 15:0 16:0.009346 17:0.028037 18:0 19:0 20:0 21:0.018692 22:0 23:0 24:0.018692 25:0.018692 26:0 27:0.009346 28:0 29:0 30:0.018692 31:0.009346 32:0.018692 33:0.018692 34:0.009346 35:0 36:0.018692 37:0.009346 38:0.018692 39:0.028037 40:0.009346 41:0 42:0 43:0.028037 44:0.009346 45:0 46:0 47:0 48:0.009346 49:0 50:0 51:0 52:0.018692 53:0.009346 54:0 55:0.018692 56:0 57:0.018692 58:0.018692 59:0.009346 60:0 61:0.018692 62:0.028037 63:0 64:0.009346 65:0.028037 66:0.056075 67:0 68:0.009346 69:0.009346 70:0.009346 71:0 72:0.018692 73:0.009346 74:0 75:0 76:0.018692 77:0 78:0 79:0.018692 80:0.009346 81:0 82:0 83:0 84:0.018692 85:0.009346 86:0 87:0 88:0.009346 89:0.009346 90:0 91:0 92:0.028037 93:0 94:0 95:0 96:0.009346 97:0.018692 98:0.028037 99:0 100:0.056075 
56 1:0.004566 2:0.009132 3:0.018265 4:0.018265 5:0.004566 6:0 7:0.009132 8:0.009132 9:0.018265 10:0 11:0.031963 12:0.009132 13:0.022831 14:0.009132 15:0.009132 16:0 17:0.018265 18:0 19:0.031963 20:0.004566 21:0 22:0.004566 23:0.022831 24:0.009132 25:0.009132 26:0.018265 27:0.013699 28:0.004566 29:0.022831 30:0.004566 31:0.004566 32:0.027397 33:0.009132 34:0.018265 35:0.004566 36:0 37:0 38:0.022831 39:0.018265 40:0.009132 41:0.013699 42:0.013699 43:0.013699 44:0.004566 45:0.013699 46:0 47:0.004566 48:0.009132 49:0.009132 50:0 51:0.031963 52:0.022831 53:0 54:0 55:0.013699 56:0.004566 57:0.004566 58:0.009132 59:0.009132 60:0 61:0.004566 62:0 63:0 64:0.013699 65:0.004566 66:0.013699 67:0.004566 68:0.004566 69:0.018265 70:0 71:0.013699 72:0.004566 73:0.013699 74:0 75:0.009132 76:0.009132 77:0.004566 78:0.041096 79:0.018265 80:0 81:0.004566 82:0 83:0.018265 84:0 85:0.004566 86:0.009132 87:0.009132 88:0 89:0.013699 90:0.009132 91:0 92:0.018265 93:0.013699 94:0 95:0.004566 96:0.009132 97:0.018265 98:0.022831 99:0.004566 100:0.031963 
56 1:0.011299 2:0 3:0.00565 4:0.00565 5:0.022599 6:0 7:0.022599 8:0.00565 9:0.00565 10:0.011299 11:0.016949 12:0.022599 13:0.00565 14:0.016949 15:0 16:0.00565 17:0 18:0.011299 19:0.00565 20:0.00565 21:0.00565 22:0 23:0.022599 24:0.011299 25:0.011299 26:0 27:0.016949 28:0.016949 29:0.00565 30:0.00565 31:0.00565 32:0.028249 33:0.00565 34:0.028249 35:0.016949 36:0 37:0 38:0.022599 39:0.00565 40:0.011299 41:0.00565 42:0 43:0 44:0.011299 45:0.00565 46:0 47:0.011299 48:0 49:0.011299 50:0 51:0.011299 52:0.00565 53:0.011299 54:0 55:0.011299 56:0.011299 57:0 58:0.00565 59:0 60:0.011299 61:0 62:0.022599 63:0.00565 64:0.00565 65:0.011299 66:0.016949 67:0.016949 68:0 69:0.016949 70:0.00565 71:0.00565 72:0.00565 73:0.016949 74:0.016949 75:0 76:0.016949 77:0.00565 78:0.039548 79:0.016949 80:0.00565 81:0 82:0.011299 83:0.011299 84:0.00565 85:0.00565 86:0 87:0.011299 88:0 89:0.016949 90:0.033898 91:0.011299 92:0.016949 93:0.00565 94:0.00565 95:0.039548 96:0.016949 97:0.011299 98:0.028249 99:0.011299 100:0.011299 
56 1:0.010753 2:0.016129 3:0.010753 4:0.005376 5:0.010753 6:0.010753 7:0.016129 8:0.005376 9:0.026882 10:0.016129 11:0 12:0.016129 13:0.026882 14:0.021505 15:0.010753 16:0 17:0.005376 18:0 19:0.032258 20:0 21:0 22:0 23:0.021505 24:0.021505 25:0.021505 26:0 27:0 28:0 29:0 30:0.010753 31:0.026882 32:0.005376 33:0 34:0.010753 35:0 36:0.021505 37:0.010753 38:0.016129 39:0.010753 40:0 41:0.005376 42:0 43:0.005376 44:0.005376 45:0.005376 46:0.053763 47:0 48:0 49:0.010753 50:0 51:0.026882 52:0.005376 53:0.010753 54:0 55:0.005376 56:0 57:0.005376 58:0 59:0.010753 60:0.005376 61:0.021505 62:0 63:0 64:0 65:0.005376 66:0.010753 67:0.005376 68:0.026882 69:0.021505 70:0.005376 71:0 72:0.005376 73:0.005376 74:0 75:0.010753 76:0.026882 77:0 78:0.043011 79:0 80:0 81:0.005376 82:0.010753 83:0 84:0.005376 85:0.010753 86:0 87:0.016129 88:0.005376 89:0.005376 90:0.010753 91:0 92:0.037634 93:0.016129 94:0.032258 95:0 96:0.010753 97:0.010753 98:0.043011 99:0.005376 100:0.010753 
56 1:0 2:0.013793 3:0.006897 4:0.013793 5:0.006897 6:0 7:0.006897 8:0 9:0.006897 10:0.02069 11:0.006897 12:0 13:0.034483 14:0.013793 15:0.013793 16:0.013793 17:0.006897 18:0.013793 19:0 20:0.02069 21:0 22:0.006897 23:0.013793 24:0 25:0.013793 26:0 27:0.013793 28:0 29:0 30:0.006897 31:0.006897 32:0.02069 33:0.013793 34:0.034483 35:0.027586 36:0 37:0.006897 38:0.02069 39:0 40:0.006897 41:0.013793 42:0.006897 43:0.02069 44:0.006897 45:0 46:0.013793 47:0.006897 48:0.013793 49:0.013793 50:0 51:0.013793 52:0.013793 53:0.02069 54:0.027586 55:0.027586 56:0.006897 57:0 58:0 59:0.013793 60:0.006897 61:0.006897 62:0.013793 63:0 64:0.006897 65:0.006897 66:0.034483 67:0.006897 68:0.006897 69:0.006897 70:0 71:0.006897 72:0.006897 73:0.006897 74:0 75:0.006897 76:0.027586 77:0.006897 78:0.013793 79:0.013793 80:0 81:0.006897 82:0.02069 83:0.006897 84:0.006897 85:0 86:0.006897 87:0 88:0 89:0.013793 90:0.02069 91:0 92:0.034483 93:0.006897 94:0.006897 95:0.013793 96:0.02069 97:0.006897 98:0.006897 99:0.006897 100:0.013793 
42.67826550303973 1:0.005291 2:0.021164 3:0.010582 4:0.005291 5:0.010582 6:0.021164 7:0.015873 8:0.005291 9:0 10:0.005291 11:0 12:0.010582 13:0.015873 14:0.005291 15:0.005291 16:0.005291 17:0 18:0.010582 19:0.005291 20:0.010582 21:0.005291 22:0.015873 23:0.015873 24:0.010582 25:0 26:0.005291 27:0 28:0.015873 29:0.005291 30:0.005291 31:0.005291 32:0.005291 33:0 34:0.026455 35:0.005291 36:0.005291 37:0 38:0.021164 39:0.010582 40:0.005291 41:0.015873 42:0.010582 43:0.026455 44:0.005291 45:0.015873 46:0.005291 47:0.005291 48:0 49:0.005291 50:0.010582 51:0.015873 52:0.015873 53:0.010582 54:0.005291 55:0.010582 56:0.010582 57:0 58:0.005291 59:0 60:0.005291 61:0.005291 62:0.005291 63:0.021164 64:0.005291 65:0.010582 66:0.026455 67:0.015873 68:0.015873 69:0.010582 70:0.005291 71:0.021164 72:0.005291 73:0.031746 74:0.005291 75:0.021164 76:0.010582 77:0.015873 78:0.021164 79:0.005291 80:0.010582 81:0.005291 82:0.015873 83:0.026455 84:0 85:0.026455 86:0.005291 87:0.021164 88:0.005291 89:0 90:0 91:0.005291 92:0.021164 93:0.015873 94:0.010582 95:0.010582 96:0.021164 97:0.005291 98:0.021164 99:0 100:0 
56 1:0 2:0 3:0.010753 4:0.010753 5:0.010753 6:0 7:0 8:0.021505 9:0.010753 10:0.032258 11:0.021505 12:0.010753 13:0.010753 14:0.010753 15:0 16:0 17:0.010753 18:0.053763 19:0.021505 20:0.010753 21:0 22:0 23:0.010753 24:0.010753 25:0 26:0 27:0 28:0 29:0.010753 30:0.010753 31:0.021505 32:0.010753 33:0 34:0 35:0 36:0 37:0 38:0.010753 39:0.010753 40:0 41:0.010753 42:0.010753 43:0.021505 44:0.032258 45:0.010753 46:0 47:0.010753 48:0 49:0 50:0 51:0.021505 52:0.021505 53:0 54:0 55:0 56:0.010753 57:0 58:0.010753 59:0.010753 60:0 61:0 62:0.010753 63:0.021505 64:0 65:0 66:0.010753 67:0 68:0.010753 69:0.043011 70:0 71:0 72:0 73:0.010753 74:0.053763 75:0.010753 76:0.043011 77:0 78:0 79:0.010753 80:0 81:0.021505 82:0.021505 83:0.010753 84:0.010753 85:0 86:0 87:0 88:0.021505 89:0 90:0.032258 91:0 92:0.010753 93:0.043011 94:0 95:0.021505 96:0 97:0.043011 98:0 99:0 100:0.021505 
11.72628981823801 1:0.012481 2:0.012481 3:0.010212 4:0.009834 5:0.007564 6:0.048033 7:0.004917 8:0.00416 9:0.016263 10:0.007943 11:0.006051 12:0.003026 13:0.009077 14:0.002269 15:0.013994 16:0.001135 17:0.006808 18:0.007943 19:0.005295 20:0.011346 21:0.010212 22:0.01059 23:0.014372 24:0.008321 25:0.007564 26:0.00643 27:0.004917 28:0.009834 29:0.010968 30:0.013994 31:0.00416 32:0.010212 33:0.005673 34:0.007564 35:0.011725 36:0.013616 37:0.016641 38:0.005295 39:0.005673 40:0.004539 41:0.012103 42:0.011346 43:0.005673 44:0.007943 45:0.011346 46:0.013994 47:0.008321 48:0.008699 49:0.007943 50:0.00643 51:0.005673 52:0.012481 53:0.019667 54:0.024962 55:0.010212 56:0.001513 57:0.006051 58:0.008321 59:0.010212 60:0.005673 61:0.026853 62:0.010212 63:0.013238 64:0.006808 65:0.008699 66:0.010212 67:0.003782 68:0.009455 69:0.007186 70:0.009455 71:0.009834 72:0.007943 73:0.009455 74:0.007943 75:0.010968 76:0.003026 77:0.003404 78:0.017398 79:0.007186 80:0.034039 81:0.008699 82:0.024206 83:0.007186 84:0.013238 85:0.00643 86:0.004539 87:0.003404 88:0.003404 89:0.00643 90:0.010968 91:0.005673 92:0.023449 93:0.002648 94:0.009455 95:0.004917 96:0.015885 97:0.00643 98:0.027231 99:0.012103 100:0.004917 
56 1:0 2:0.01626 3:0.00813 4:0.00813 5:0 6:0 7:0.01626 8:0 9:0.01626 10:0 11:0.01626 12:0.03252 13:0.00813 14:0 15:0 16:0.00813 17:0.00813 18:0 19:0.03252 20:0 21:0.00813 22:0.01626 23:0.02439 24:0.01626 25:0 26:0.01626 27:0.00813 28:0.00813 29:0.02439 30:0.01626 31:0.00813 32:0 33:0.01626 34:0.01626 35:0.00813 36:0 37:0.00813 38:0.01626 39:0.02439 40:0.00813 41:0 42:0 43:0.02439 44:0 45:0.01626 46:0 47:0.00813 48:0.00813 49:0 50:0 51:0.00813 52:0.00813 53:0 54:0.00813 55:0 56:0 57:0.00813 58:0 59:0.00813 60:0.01626 61:0 62:0.01626 63:0.00813 64:0.03252 65:0.00813 66:0.01626 67:0 68:0.04878 69:0.03252 70:0.01626 71:0.00813 72:0.01626 73:0.02439 74:0 75:0 76:0 77:0.00813 78:0.01626 79:0.03252 80:0 81:0 82:0 83:0 84:0.00813 85:0.01626 86:0.02439 87:0 88:0.00813 89:0.00813 90:0 91:0 92:0.01626 93:0.00813 94:0.03252 95:0 96:0.01626 97:0.02439 98:0 99:0.00813 100:0.01626 
-56 1:0.006211 2:0.024845 3:0.024845 4:0.012422 5:0.018634 6:0.006211 7:0.012422 8:0.006211 9:0 10:0.012422 11:0.012422 12:0 13:0 14:0.024845 15:0 16:0 17:0.012422 18:0.012422 19:0.018634 20:0.006211 21:0.012422 22:0.012422 23:0.012422 24:0.006211 25:0.024845 26:0.012422 27:0.012422 28:0.006211 29:0 30:0.018634 31:0.012422 32:0 33:0.012422 34:0 35:0.006211 36:0.018634 37:0 38:0.018634 39:0.012422 40:0.006211 41:0.012422 42:0.012422 43:0.006211 44:0.018634 45:0.012422 46:0 47:0 48:0 49:0.018634 50:0 51:0 52:0 53:0.024845 54:0.012422 55:0.018634 56:0.006211 57:0.006211 58:0.012422 59:0.012422 60:0.018634 61:0.012422 62:0 63:0.012422 64:0.012422 65:0 66:0.012422 67:0.024845 68:0.006211 69:0 70:0.018634 71:0.006211 72:0.006211 73:0.006211 74:0 75:0 76:0.006211 77:0 78:0.031056 79:0.018634 80:0.012422 81:0.012422 82:0.006211 83:0.006211 84:0 85:0.012422 86:0.018634 87:0.012422 88:0.006211 89:0 90:0.018634 91:0 92:0.024845 93:0.006211 94:0.024845 95:0.012422 96:0.006211 97:0.006211 98:0.024845 99:0.006211 100:0 
-56 1:0.011673 2:0 3:0.003891 4:0.011673 5:0.011673 6:0.011673 7:0.007782 8:0.003891 9:0.015564 10:0.003891 11:0.007782 12:0 13:0.003891 14:0.011673 15:0.011673 16:0.007782 17:0.023346 18:0.007782 19:0 20:0.007782 21:0.007782 22:0.023346 23:0.003891 24:0 25:0.003891 26:0.019455 27:0.003891 28:0.027237 29:0.003891 30:0.011673 31:0.015564 32:0.011673 33:0.011673 34:0 35:0 36:0.011673 37:0.011673 38:0 39:0.023346 40:0.003891 41:0.003891 42:0.003891 43:0.003891 44:0.019455 45:0.003891 46:0.015564 47:0 48:0.007782 49:0.011673 50:0.027237 51:0.003891 52:0.023346 53:0.003891 54:0.003891 55:0.003891 56:0.003891 57:0.003891 58:0.011673 59:0 60:0.007782 61:0.023346 62:0.015564 63:0.007782 64:0.003891 65:0.011673 66:0.027237 67:0.015564 68:0.019455 69:0 70:0 71:0 72:0.011673 73:0.027237 74:0 75:0.015564 76:0.003891 77:0.015564 78:0.007782 79:0.031128 80:0.011673 81:0.027237 82:0.011673 83:0 84:0 85:0 86:0.023346 87:0.015564 88:0 89:0.023346 90:0.015564 91:0.003891 92:0.023346 93:0.003891 94:0.015564 95:0 96:0.015564 97:0 98:0.031128 99:0.015564 100:0.003891 
-56 1:0.017699 2:0 3:0 4:0 5:0 6:0 7:0.00885 8:0 9:0 10:0.035398 11:0.017699 12:0.00885 13:0.00885 14:0.00885 15:0.00885 16:0.00885 17:0 18:0.00885 19:0.00885 20:0 21:0.026549 22:0.026549 23:0 24:0.026549 25:0.00885 26:0 27:0.017699 28:0.00885 29:0 30:0 31:0 32:0 33:0.00885 34:0.00885 35:0.026549 36:0 37:0.00885 38:0 39:0.026549 40:0 41:0 42:0 43:0 44:0.00885 45:0 46:0.00885 47:0 48:0.017699 49:0.026549 50:0.017699 51:0.026549 52:0.00885 53:0.00885 54:0 55:0.00885 56:0 57:0.00885 58:0 59:0.00885 60:0.026549 61:0 62:0.00885 63:0.017699 64:0.00885 65:0 66:0 67:0 68:0.017699 69:0.00885 70:0.017699 71:0.00885 72:0.00885 73:0.053097 74:0.026549 75:0 76:0.00885 77:0.017699 78:0 79:0.035398 80:0 81:0.017699 82:0.00885 83:0.017699 84:0 85:0.026549 86:0 87:0 88:0.044248 89:0.00885 90:0.035398 91:0.00885 92:0.00885 93:0 94:0 95:0.00885 96:0.017699 97:0.00885 98:0 99:0.026549 100:0.00885 
-23.91205207502448 1:0.013699 2:0.013699 3:0 4:0 5:0 6:0 7:0.041096 8:0.013699 9:0.013699 10:0 11:0 12:0 13:0.013699 14:0.041096 15:0 16:0 17:0.013699 18:0 19:0.027397 20:0 21:0 22:0.013699 23:0 24:0 25:0 26:0 27:0.041096 28:0 29:0 30:0.013699 31:0 32:0.027397 33:0.027397 34:0 35:0 36:0.027397 37:0 38:0.013699 39:0.013699 40:0.027397 41:0.013699 42:0 43:0 44:0 45:0.013699 46:0 47:0.013699 48:0 49:0.013699 50:0 51:0.027397 52:0 53:0.013699 54:0 55:0 56:0.027397 57:0 58:0 59:0 60:0.027397 61:0.013699 62:0.013699 63:0 64:0 65:0 66:0.013699 67:0 68:0 69:0 70:0.027397 71:0 72:0.027397 73:0.041096 74:0 75:0 76:0 77:0.027397 78:0.041096 79:0.013699 80:0 81:0 82:0 83:0.013699 84:0 85:0.027397 86:0.027397 87:0 88:0 89:0 90:0 91:0.013699 92:0.068493 93:0.027397 94:0.013699 95:0 96:0 97:0.013699 98:0 99:0.013699 100:0.013699 
-48.6173429670107 1:0 2:0.013699 3:0 4:0.027397 5:0 6:0 7:0 8:0.027397 9:0 10:0.09589 11:0.054795 12:0 13:0 14:0 15:0 16:0 17:0.013699 18:0.013699 19:0.013699 20:0.013699 21:0 22:0 23:0 24:0 25:0.013699 26:0.013699 27:0 28:0 29:0.013699 30:0.013699 31:0 32:0 33:0.027397 34:0 35:0.027397 36:0 37:0.013699 38:0 39:0.041096 40:0 41:0.041096 42:0 43:0.013699 44:0.027397 45:0.013699 46:0.013699 47:0 48:0 49:0 50:0 51:0 52:0 53:0.013699 54:0 55:0.013699 56:0.041096 57:0 58:0.013699 59:0 60:0.027397 61:0.013699 62:0 63:0 64:0 65:0 66:0 67:0 68:0 69:0 70:0 71:0 72:0.013699 73:0.041096 74:0 75:0 76:0.013699 77:0.013699 78:0 79:0.013699 80:0 81:0.041096 82:0 83:0 84:0 85:0 86:0.054795 87:0 88:0 89:0.027397 90:0.013699 91:0.013699 92:0.027397 93:0 94:0 95:0 96:0.027397 97:0 98:0 99:0 100:0.027397 
-5.736154733582532 1:0 2:0.009091 3:0.018182 4:0.009091 5:0.018182 6:0 7:0 8:0 9:0.009091 10:0.009091 11:0 12:0.009091 13:0.009091 14:0.018182 15:0.009091 16:0.009091 17:0.018182 18:0.018182 19:0.027273 20:0 21:0 22:0 23:0.009091 24:0 25:0.018182 26:0 27:0.027273 28:0 29:0.018182 30:0.018182 31:0.018182 32:0.027273 33:0.009091 34:0 35:0.009091 36:0.009091 37:0.018182 38:0.018182 39:0 40:0.009091 41:0.009091 42:0.018182 43:0.009091 44:0.018182 45:0 46:0 47:0.036364 48:0.018182 49:0 50:0 51:0 52:0.018182 53:0.009091 54:0 55:0.018182 56:0 57:0.036364 58:0.018182 59:0.009091 60:0 61:0.009091 62:0.009091 63:0.009091 64:0 65:0 66:0.018182 67:0 68:0.009091 69:0 70:0.018182 71:0.009091 72:0.018182 73:0.036364 74:0 75:0.027273 76:0.009091 77:0.018182 78:0.018182 79:0.009091 80:0 81:0.009091 82:0 83:0 84:0 85:0.009091 86:0 87:0 88:0 89:0.009091 90:0 91:0 92:0.036364 93:0 94:0.027273 95:0.009091 96:0.018182 97:0.018182 98:0 99:0.009091 100:0.018182 
-14.55607156034725 1:0 2:0 3:0.019231 4:0.019231 5:0.019231 6:0 7:0 8:0 9:0 10:0 11:0.019231 12:0.019231 13:0 14:0.009615 15:0 16:0.009615 17:0.009615 18:0.019231 19:0.019231 20:0 21:0.019231 22:0 23:0.028846 24:0.009615 25:0.028846 26:0.019231 27:0.009615 28:0 29:0.019231 30:0.009615 31:0.009615 32:0.019231 33:0.028846 34:0.009615 35:0.009615 36:0 37:0 38:0.009615 39:0 40:0.009615 41:0 42:0.009615 43:0.009615 44:0 45:0 46:0 47:0.009615 48:0 49:0.009615 50:0.009615 51:0 52:0 53:0 54:0.009615 55:0.019231 56:0.009615 57:0.009615 58:0.019231 59:0.009615 60:0.019231 61:0 62:0 63:0.009615 64:0.038462 65:0 66:0.019231 67:0.028846 68:0 69:0 70:0.009615 71:0 72:0.019231 73:0.009615 74:0 75:0.009615 76:0.048077 77:0.009615 78:0 79:0 80:0.009615 81:0 82:0 83:0.019231 84:0 85:0.028846 86:0.009615 87:0 88:0.009615 89:0.019231 90:0.019231 91:0.019231 92:0.028846 93:0.019231 94:0 95:0.019231 96:0 97:0.009615 98:0 99:0.028846 100:0.009615 
-56 1:0 2:0 3:0.017241 4:0 5:0 6:0 7:0 8:0 9:0 10:0.034483 11:0.017241 12:0 13:0.017241 14:0.034483 15:0 16:0 17:0.017241 18:0 19:0.034483 20:0.017241 21:0 22:0 23:0.017241 24:0.034483 25:0.034483 26:0 27:0 28:0 29:0.034483 30:0 31:0 32:0.034483 33:0.017241 34:0 35:0.017241 36:0 37:0 38:0.017241 39:0.017241 40:0 41:0 42:0 43:0 44:0 45:0.017241 46:0 47:0.017241 48:0 49:0.034483 50:0 51:0.017241 52:0.017241 53:0 54:0 55:0 56:0 57:0.017241 58:0 59:0.051724 60:0 61:0 62:0 63:0 64:0.034483 65:0.017241 66:0.017241 67:0 68:0.034483 69:0.017241 70:0.017241 71:0 72:0.017241 73:0.017241 74:0 75:0.017241 76:0 77:0 78:0.034483 79:0 80:0 81:0.017241 82:0 83:0 84:0 85:0 86:0 87:0.017241 88:0 89:0 90:0 91:0.017241 92:0.034483 93:0 94:0.017241 95:0.034483 96:0 97:0.017241 98:0 99:0 100:0.034483 
-56 1:0.016129 2:0 3:0.008065 4:0 5:0.008065 6:0.024194 7:0 8:0.024194 9:0.008065 10:0 11:0.040323 12:0 13:0 14:0 15:0.008065 16:0 17:0.008065 18:0 19:0.024194 20:0 21:0.016129 22:0 23:0.008065 24:0 25:0.016129 26:0.008065 27:0.016129 28:0.016129 29:0 30:0.016129 31:0 32:0.008065 33:0 34:0.032258 35:0.032258 36:0 37:0.008065 38:0.008065 39:0.032258 40:0 41:0 42:0.008065 43:0.048387 44:0 45:0.008065 46:0.112903 47:0.008065 48:0.008065 49:0.008065 50:0.008065 51:0.032258 52:0.008065 53:0 54:0 55:0.008065 56:0.016129 57:0 58:0 59:0.008065 60:0 61:0.008065 62:0 63:0 64:0.008065 65:0.016129 66:0.008065 67:0.008065 68:0 69:0 70:0 71:0 72:0 73:0.008065 74:0.016129 75:0.008065 76:0.024194 77:0.008065 78:0.024194 79:0.016129 80:0 81:0.008065 82:0.008065 83:0 84:0 85:0 86:0.008065 87:0.008065 88:0.016129 89:0.016129 90:0.008065 91:0 92:0.056452 93:0.024194 94:0.008065 95:0 96:0 97:0.008065 98:0 99:0.008065 100:0 
-42.54407848732577 1:0 2:0 3:0 4:0.018519 5:0 6:0.037037 7:0.018519 8:0 9:0 10:0 11:0 12:0.018519 13:0.037037 14:0.055556 15:0 16:0.018519 17:0 18:0.018519 19:0.037037 20:0 21:0 22:0 23:0 24:0 25:0 26:0 27:0.037037 28:0.018519 29:0 30:0 31:0.018519 32:0 33:0.018519 34:0.018519 35:0.018519 36:0 37:0 38:0.037037 39:0.018519 40:0 41:0 42:0 43:0 44:0.037037 45:0.037037 46:0 47:0 48:0 49:0.037037 50:0.018519 51:0 52:0 53:0.018519 54:0.037037 55:0 56:0.018519 57:0 58:0.018519 59:0 60:0 61:0 62:0 63:0.018519 64:0 65:0 66:0 67:0.018519 68:0.018519 69:0 70:0.018519 71:0 72:0.018519 73:0 74:0 75:0 76:0 77:0 78:0.018519 79:0 80:0 81:0.037037 82:0 83:0 84:0 85:0 86:0 87:0 88:0 89:0.018519 90:0.055556 91:0 92:0 93:0 94:0 95:0 96:0 97:0.037037 98:0.018519 99:0 100:0.055556 
-56 1:0 2:0 3:0 4:0 5:0 6:0 7:0 8:0 9:0 10:0 11:0.018519 12:0.074074 13:0 14:0.018519 15:0 16:0 17:0 18:0.037037 19:0.037037 20:0.018519 21:0.018519 22:0 23:0 24:0 25:0 26:0 27:0.018519 28:0 29:0.037037 30:0.037037 31:0.055556 32:0 33:0.018519 34:0 35:0 36:0 37:0 38:0.018519 39:0 40:0 41:0 42:0 43:0.037037 44:0.018519 45:0 46:0 47:0.018519 48:0 49:0 50:0 51:0.055556 52:0 53:0 54:0.037037 55:0 56:0 57:0.018519 58:0 59:0 60:0 61:0 62:0 63:0 64:0 65:0 66:0 67:0 68:0.018519 69:0.018519 70:0 71:0 72:0 73:0.018519 74:0 75:0.037037 76:0 77:0 78:0.074074 79:0.018519 80:0 81:0 82:0 83:0.018519 84:0.018519 85:0 86:0 87:0 88:0.037037 89:0.018519 90:0 91:0 92:0.037037 93:0.018519 94:0.018519 95:0.018519 96:0 97:0.018519 98:0 99:0 100:0.018519 
-56 1:0 2:0.035088 3:0 4:0.017544 5:0 6:0 7:0.017544 8:0.008772 9:0 10:0 11:0.008772 12:0.026316 13:0.008772 14:0.04386 15:0.04386 16:0 17:0.017544 18:0.008772 19:0.008772 20:0.008772 21:0.008772 22:0.008772 23:0.008772 24:0.008772 25:0.008772 26:0 27:0 28:0.026316 29:0.008772 30:0.017544 31:0.008772 32:0.008772 33:0 34:0.017544 35:0.008772 36:0.026316 37:0 38:0.008772 39:0 40:0.008772 41:0 42:0.008772 43:0.017544 44:0.008772 45:0 46:0.008772 47:0 48:0.008772 49:0.008772 50:0.008772 51:0 52:0.008772 53:0 54:0.008772 55:0.008772 56:0.017544 57:0.008772 58:0 59:0 60:0.035088 61:0 62:0.017544 63:0.008772 64:0 65:0 66:0.026316 67:0.026316 68:0.035088 69:0.017544 70:0 71:0.008772 72:0.026316 73:0.008772 74:0 75:0.008772 76:0 77:0.026316 78:0.008772 79:0.008772 80:0 81:0 82:0 83:0 84:0 85:0.017544 86:0 87:0 88:0.017544 89:0.008772 90:0.017544 91:0.008772 92:0.008772 93:0.017544 94:0.008772 95:0.052632 96:0 97:0 98:0 99:0 100:0.017544 
-56 1:0 2:0 3:0.027027 4:0.040541 5:0 6:0 7:0 8:0 9:0 10:0.013514 11:0.013514 12:0 13:0.013514 14:0 15:0.013514 16:0 17:0.013514 18:0.027027 19:0 20:0.013514 21:0 22:0 23:0.013514 24:0 25:0.027027 26:0 27:0.027027 28:0 29:0.013514 30:0.040541 31:0.013514 32:0.013514 33:0.013514 34:0 35:0 36:0 37:0.013514 38:0.040541 39:0 40:0 41:0 42:0.027027 43:0 44:0 45:0 46:0 47:0 48:0.013514 49:0.013514 50:0.013514 51:0.013514 52:0.027027 53:0 54:0 55:0.027027 56:0.013514 57:0 58:0.013514 59:0.013514 60:0 61:0 62:0 63:0 64:0.013514 65:0.013514 66:0.027027 67:0 68:0 69:0.027027 70:0 71:0 72:0.013514 73:0 74:0.013514 75:0.013514 76:0.094595 77:0.013514 78:0.040541 79:0 80:0 81:0 82:0 83:0 84:0 85:0 86:0.013514 87:0 88:0 89:0.027027 90:0.027027 91:0 92:0.054054 93:0 94:0 95:0 96:0 97:0.013514 98:0.027027 99:0 100:0 
-10.79067274266644 1:0 2:0 3:0.014925 4:0.029851 5:0.014925 6:0 7:0 8:0 9:0 10:0.014925 11:0 12:0 13:0.014925 14:0 15:0 16:0 17:0.014925 18:0 19:0.029851 20:0 21:0.014925 22:0 23:0 24:0.014925 25:0.029851 26:0.014925 27:0 28:0.029851 29:0 30:0.014925 31:0 32:0 33:0.014925 34:0 35:0.014925 36:0 37:0 38:0 39:0 40:0 41:0 42:0.029851 43:0.014925 44:0 45:0 46:0 47:0 48:0 49:0 50:0.014925 51:0.044776 52:0 53:0.044776 54:0 55:0.029851 56:0.029851 57:0.014925 58:0 59:0.029851 60:0.014925 61:0 62:0 63:0.014925 64:0.014925 65:0 66:0 67:0.014925 68:0 69:0 70:0.029851 71:0 72:0.029851 73:0.044776 74:0 75:0 76:0 77:0.014925 78:0.014925 79:0.044776 80:0 81:0.029851 82:0.014925 83:0 84:0 85:0 86:0.014925 87:0 88:0.014925 89:0 90:0.014925 91:0 92:0.029851 93:0.029851 94:0 95:0.014925 96:0 97:0.014925 98:0 99:0.014925 100:0.029851 
-56 1:0.009709 2:0.019417 3:0.019417 4:0 5:0.029126 6:0.009709 7:0.009709 8:0 9:0.009709 10:0.029126 11:0 12:0.009709 13:0.019417 14:0.038835 15:0.009709 16:0 17:0.019417 18:0.009709 19:0.009709 20:0.009709 21:0.009709 22:0 23:0.009709 24:0 25:0.009709 26:0 27:0.009709 28:0 29:0.038835 30:0.009709 31:0.009709 32:0.029126 33:0.009709 34:0 35:0.009709 36:0 37:0 38:0.019417 39:0 40:0.009709 41:0 42:0 43:0.038835 44:0 45:0 46:0 47:0.019417 48:0 49:0 50:0.019417 51:0 52:0.009709 53:0 54:0 55:0.029126 56:0 57:0.019417 58:0 59:0.009709 60:0.019417 61:0.009709 62:0.009709 63:0.009709 64:0.009709 65:0 66:0 67:0 68:0.019417 69:0.019417 70:0.019417 71:0 72:0.009709 73:0.009709 74:0.009709 75:0.019417 76:0.019417 77:0 78:0.019417 79:0.019417 80:0 81:0.009709 82:0 83:0 84:0 85:0.009709 86:0 87:0 88:0.009709 89:0 90:0.009709 91:0 92:0.019417 93:0.009709 94:0.009709 95:0.019417 96:0.019417 97:0.019417 98:0.029126 99:0 100:0.029126 
-56 1:0 2:0.008403 3:0.008403 4:0 5:0 6:0 7:0.016807 8:0.016807 9:0.008403 10:0 11:0.02521 12:0.008403 13:0.008403 14:0.016807 15:0 16:0 17:0 18:0.016807 19:0 20:0 21:0 22:0 23:0.02521 24:0 25:0.042017 26:0 27:0.016807 28:0 29:0.016807 30:0 31:0 32:0 33:0.016807 34:0.033613 35:0.02521 36:0.008403 37:0 38:0 39:0.016807 40:0 41:0.008403 42:0.02521 43:0.016807 44:0 45:0 46:0 47:0.008403 48:0.008403 49:0.008403 50:0 51:0.02521 52:0.02521 53:0 54:0 55:0.02521 56:0.042017 57:0.008403 58:0.02521 59:0 60:0.008403 61:0 62:0.016807 63:0.016807 64:0.02521 65:0 66:0.02521 67:0 68:0.02521 69:0 70:0 71:0.008403 72:0.016807 73:0.02521 74:0 75:0 76:0 77:0.042017 78:0.02521 79:0.016807 80:0.016807 81:0 82:0 83:0 84:0 85:0.008403 86:0 87:0 88:0.016807 89:0.02521 90:0.008403 91:0.016807 92:0.016807 93:0.016807 94:0.02521 95:0 96:0 97:0 98:0.02521 99:0.008403 100:0 
-56 1:0 2:0 3:0.009804 4:0.009804 5:0 6:0 7:0.019608 8:0.019608 9:0.019608 10:0.029412 11:0.029412 12:0 13:0.009804 14:0.029412 15:0.019608 16:0 17:0.009804 18:0 19:0.009804 20:0 21:0 22:0 23:0 24:0.009804 25:0.009804 26:0 27:0.009804 28:0 29:0 30:0.009804 31:0 32:0.019608 33:0.019608 34:0 35:0.019608 36:0 37:0 38:0.009804 39:0.009804 40:0 41:0.009804 42:0.009804 43:0.029412 44:0 45:0 46:0 47:0 48:0.009804 49:0.039216 50:0 51:0.019608 52:0 53:0 54:0.009804 55:0.009804 56:0.04902 57:0.019608 58:0.039216 59:0 60:0.009804 61:0 62:0.019608 63:0.009804 64:0.019608 65:0 66:0.019608 67:0 68:0.009804 69:0 70:0.019608 71:0.009804 72:0.019608 73:0.029412 74:0 75:0 76:0 77:0.019608 78:0.009804 79:0.029412 80:0 81:0.009804 82:0 83:0.009804 84:0 85:0.039216 86:0.009804 87:0.009804 88:0.009804 89:0.009804 90:0 91:0.009804 92:0.029412 93:0.009804 94:0 95:0.019608 96:0 97:0.009804 98:0.009804 99:0.009804 100:0 
-35.31514553650258 1:0 2:0.010101 3:0.010101 4:0 5:0.030303 6:0 7:0.020202 8:0.010101 9:0.010101 10:0 11:0 12:0 13:0.020202 14:0.060606 15:0 16:0 17:0 18:0.030303 19:0.020202 20:0.010101 21:0.030303 22:0 23:0.020202 24:0.020202 25:0.030303 26:0.010101 27:0 28:0.020202 29:0.010101 30:0.020202 31:0.010101 32:0.020202 33:0 34:0.030303 35:0 36:0.010101 37:0 38:0.010101 39:0.010101 40:0 41:0 42:0.010101 43:0 44:0.020202 45:0 46:0 47:0 48:0 49:0 50:0 51:0 52:0 53:0.010101 54:0.030303 55:0.010101 56:0 57:0.020202 58:0 59:0 60:0.010101 61:0 62:0.010101 63:0 64:0 65:0.010101 66:0.010101 67:0 68:0.010101 69:0.010101 70:0 71:0 72:0.010101 73:0.010101 74:0.010101 75:0 76:0.020202 77:0 78:0.030303 79:0.020202 80:0 81:0.010101 82:0 83:0.010101 84:0 85:0.030303 86:0.010101 87:0 88:0 89:0 90:0.030303 91:0.010101 92:0.020202 93:0.020202 94:0.010101 95:0.030303 96:0.020202 97:0.020202 98:0.010101 99:0 100:0.020202 
-56 1:0 2:0.029703 3:0.009901 4:0 5:0.019802 6:0 7:0 8:0 9:0 10:0 11:0 12:0.09901 13:0.009901 14:0.039604 15:0.009901 16:0.019802 17:0.009901 18:0.009901 19:0.009901 20:0 21:0 22:0 23:0.039604 24:0 25:0.019802 26:0.009901 27:0 28:0.019802 29:0.019802 30:0.029703 31:0.019802 32:0.029703 33:0.009901 34:0.019802 35:0 36:0 37:0 38:0.019802 39:0 40:0 41:0 42:0 43:0.009901 44:0.009901 45:0 46:0.009901 47:0.009901 48:0 49:0 50:0 51:0.039604 52:0.019802 53:0 54:0.019802 55:0.029703 56:0.009901 57:0.019802 58:0 59:0.009901 60:0.009901 61:0 62:0 63:0.009901 64:0.009901 65:0 66:0.019802 67:0 68:0.009901 69:0 70:0.019802 71:0 72:0.009901 73:0 74:0 75:0.009901 76:0.049505 77:0 78:0.019802 79:0 80:0 81:0 82:0 83:0 84:0 85:0 86:0 87:0.009901 88:0.029703 89:0 90:0 91:0 92:0.009901 93:0 94:0.029703 95:0 96:0 97:0.019802 98:0 99:0.009901 100:0.029703 
-46.54325301950503 1:0 2:0 3:0 4:0.010989 5:0.043956 6:0.010989 7:0 8:0 9:0.010989 10:0.032967 11:0.032967 12:0.010989 13:0.021978 14:0.032967 15:0 16:0.010989 17:0.043956 18:0.021978 19:0.010989 20:0.021978 21:0 22:0 23:0 24:0.010989 25:0.010989 26:0 27:0 28:0 29:0.010989 30:0.043956 31:0.010989 32:0.021978 33:0 34:0 35:0 36:0.021978 37:0 38:0.032967 39:0.032967 40:0 41:0.010989 42:0 43:0.021978 44:0.021978 45:0 46:0 47:0.010989 48:0.010989 49:0.010989 50:0.010989 51:0.021978 52:0 53:0.032967 54:0 55:0.010989 56:0.010989 57:0.010989 58:0 59:0 60:0.021978 61:0 62:0.010989 63:0.010989 64:0 65:0 66:0.032967 67:0 68:0 69:0.010989 70:0 71:0 72:0 73:0.010989 74:0 75:0 76:0.043956 77:0.010989 78:0.043956 79:0.010989 80:0 81:0 82:0 83:0 84:0 85:0.010989 86:0 87:0 88:0 89:0.010989 90:0.010989 91:0 92:0 93:0 94:0.010989 95:0 96:0 97:0.021978 98:0.021978 99:0 100:0 
-56 1:0.009804 2:0.009804 3:0 4:0 5:0.009804 6:0.009804 7:0.009804 8:0.009804 9:0.019608 10:0.009804 11:0.009804 12:0 13:0 14:0.039216 15:0 16:0 17:0 18:0 19:0.019608 20:0.009804 21:0 22:0 23:0.009804 24:0 25:0.019608 26:0.009804 27:0.009804 28:0.019608 29:0.029412 30:0 31:0 32:0.009804 33:0.029412 34:0 35:0.019608 36:0 37:0.009804 38:0 39:0.019608 40:0.019608 41:0.009804 42:0.009804 43:0 44:0 45:0.019608 46:0 47:0.019608 48:0 49:0.009804 50:0 51:0 52:0 53:0.019608 54:0.009804 55:0 56:0.009804 57:0.009804 58:0.019608 59:0.009804 60:0 61:0.009804 62:0.009804 63:0 64:0.009804 65:0.009804 66:0.009804 67:0.029412 68:0 69:0 70:0.019608 71:0.019608 72:0.019608 73:0.019608 74:0 75:0 76:0.039216 77:0.019608 78:0.019608 79:0.029412 80:0 81:0 82:0.019608 83:0.019608 84:0.009804 85:0 86:0 87:0.019608 88:0.058824 89:0 90:0.009804 91:0.019608 92:0 93:0 94:0 95:0 96:0.019608 97:0.009804 98:0.019608 99:0 100:0.009804 
-34.91831148016312 1:0.008333 2:0 3:0.033333 4:0.008333 5:0.016667 6:0 7:0.008333 8:0.008333 9:0 10:0.008333 11:0.008333 12:0.008333 13:0 14:0.041667 15:0.008333 16:0.041667 17:0.058333 18:0.008333 19:0 20:0 21:0 22:0 23:0.033333 24:0.016667 25:0.033333 26:0.008333 27:0 28:0.025 29:0 30:0 31:0.008333 32:0.008333 33:0.016667 34:0.016667 35:0 36:0.008333 37:0.008333 38:0 39:0 40:0.008333 41:0 42:0 43:0.016667 44:0 45:0 46:0 47:0.008333 48:0.008333 49:0.008333 50:0.008333 51:0 52:0.016667 53:0 54:0.008333 55:0.016667 56:0 57:0.008333 58:0.008333 59:0 60:0.008333 61:0.008333 62:0 63:0.025 64:0 65:0.008333 66:0.025 67:0.025 68:0 69:0 70:0.008333 71:0 72:0.033333 73:0.008333 74:0.016667 75:0 76:0.058333 77:0.008333 78:0 79:0.016667 80:0 81:0.008333 82:0.008333 83:0 84:0.008333 85:0 86:0.008333 87:0.016667 88:0 89:0.008333 90:0 91:0.016667 92:0.033333 93:0.008333 94:0 95:0.033333 96:0 97:0.008333 98:0.016667 99:0 100:0.008333 
-56 1:0.018519 2:0 3:0.037037 4:0 5:0 6:0.009259 7:0.009259 8:0.009259 9:0.009259 10:0.009259 11:0.018519 12:0 13:0.009259 14:0.018519 15:0 16:0.009259 17:0.037037 18:0.009259 19:0.009259 20:0.027778 21:0.018519 22:0.009259 23:0.037037 24:0 25:0.018519 26:0.018519 27:0 28:0.009259 29:0.009259 30:0.046296 31:0.009259 32:0 33:0 34:0 35:0 36:0 37:0 38:0.009259 39:0.009259 40:0.009259 41:0 42:0.027778 43:0 44:0.018519 45:0.009259 46:0 47:0 48:0 49:0 50:0.009259 51:0 52:0.018519 53:0.009259 54:0.009259 55:0.009259 56:0 57:0.009259 58:0 59:0.018519 60:0 61:0.009259 62:0 63:0 64:0.009259 65:0.009259 66:0.055556 67:0.009259 68:0.009259 69:0 70:0.009259 71:0 72:0.018519 73:0.027778 74:0.018519 75:0.018519 76:0 77:0.018519 78:0.009259 79:0.009259 80:0 81:0 82:0.009259 83:0 84:0 85:0 86:0.009259 87:0 88:0 89:0 90:0 91:0.009259 92:0.027778 93:0 94:0.009259 95:0.009259 96:0.074074 97:0.018519 98:0 99:0.018519 100:0 
-44.88999045437813 1:0.012346 2:0 3:0.024691 4:0 5:0.012346 6:0.012346 7:0.012346 8:0 9:0.012346 10:0.024691 11:0.012346 12:0 13:0 14:0 15:0 16:0 17:0.024691 18:0.024691 19:0.037037 20:0.037037 21:0 22:0 23:0.012346 24:0 25:0.049383 26:0 27:0 28:0 29:0.024691 30:0.049383 31:0 32:0.012346 33:0.012346 34:0.012346 35:0 36:0.024691 37:0.012346 38:0 39:0.012346 40:0.012346 41:0.012346 42:0.012346 43:0 44:0 45:0 46:0 47:0.012346 48:0.012346 49:0.024691 50:0 51:0 52:0 53:0 54:0 55:0.024691 56:0 57:0.012346 58:0.012346 59:0.037037 60:0 61:0 62:0 63:0 64:0.012346 65:0.049383 66:0.024691 67:0 68:0 69:0.012346 70:0.012346 71:0.024691 72:0 73:0 74:0 75:0.024691 76:0.012346 77:0 78:0.012346 79:0.012346 80:0 81:0 82:0 83:0.012346 84:0 85:0 86:0 87:0 88:0 89:0.024691 90:0.037037 91:0 92:0.012346 93:0.012346 94:0.012346 95:0.024691 96:0 97:0 98:0 99:0 100:0.024691 
-56 1:0 2:0.017391 3:0.008696 4:0 5:0.017391 6:0 7:0.008696 8:0 9:0.008696 10:0 11:0 12:0 13:0 14:0.017391 15:0 16:0.026087 17:0.026087 18:0.026087 19:0.026087 20:0.026087 21:0 22:0.008696 23:0.008696 24:0 25:0.008696 26:0 27:0 28:0.008696 29:0.008696 30:0.026087 31:0.026087 32:0.008696 33:0.017391 34:0 35:0 36:0 37:0 38:0.017391 39:0.008696 40:0.017391 41:0 42:0.008696 43:0.026087 44:0.008696 45:0 46:0 47:0.008696 48:0.008696 49:0.008696 50:0 51:0 52:0.008696 53:0 54:0.008696 55:0.034783 56:0.008696 57:0 58:0 59:0 60:0 61:0.008696 62:0.026087 63:0.008696 64:0.008696 65:0.008696 66:0.026087 67:0.008696 68:0.008696 69:0.034783 70:0.008696 71:0 72:0 73:0.008696 74:0 75:0.052174 76:0.034783 77:0 78:0 79:0 80:0 81:0 82:0.043478 83:0 84:0 85:0.026087 86:0 87:0 88:0.034783 89:0 90:0.026087 91:0.017391 92:0.043478 93:0.017391 94:0 95:0 96:0.017391 97:0.017391 98:0 99:0 100:0.008696 
-50.01473866487041 1:0 2:0.013889 3:0.013889 4:0.013889 5:0.027778 6:0.013889 7:0 8:0 9:0 10:0.027778 11:0 12:0.013889 13:0 14:0 15:0 16:0.041667 17:0.055556 18:0.027778 19:0.041667 20:0.041667 21:0 22:0 23:0.013889 24:0.013889 25:0.013889 26:0 27:0.013889 28:0 29:0.041667 30:0 31:0.013889 32:0 33:0 34:0 35:0 36:0 37:0 38:0.027778 39:0 40:0 41:0 42:0 43:0.027778 44:0 45:0.013889 46:0 47:0.027778 48:0 49:0 50:0 51:0.013889 52:0 53:0 54:0.041667 55:0.013889 56:0 57:0.013889 58:0 59:0 60:0 61:0.013889 62:0 63:0 64:0 65:0 66:0 67:0 68:0 69:0.013889 70:0.027778 71:0 72:0 73:0.013889 74:0.013889 75:0.013889 76:0.013889 77:0 78:0.055556 79:0.013889 80:0 81:0.013889 82:0 83:0 84:0 85:0.013889 86:0 87:0 88:0.041667 89:0 90:0.027778 91:0 92:0 93:0.027778 94:0 95:0 96:0.013889 97:0.027778 98:0 99:0 100:0.027778 
-32.07406146874092 1:0 2:0 3:0.008621 4:0.025862 5:0 6:0 7:0.008621 8:0 9:0.008621 10:0.008621 11:0.008621 12:0.008621 13:0.025862 14:0.043103 15:0 16:0.017241 17:0.034483 18:0.034483 19:0.008621 20:0.025862 21:0 22:0.008621 23:0.008621 24:0.008621 25:0.008621 26:0.008621 27:0.008621 28:0 29:0.008621 30:0.017241 31:0.017241 32:0.017241 33:0.008621 34:0.008621 35:0.025862 36:0.017241 37:0 38:0 39:0 40:0.008621 41:0.008621 42:0.008621 43:0.008621 44:0.008621 45:0 46:0 47:0 48:0 49:0 50:0 51:0 52:0.008621 53:0 54:0.008621 55:0.008621 56:0.008621 57:0 58:0.017241 59:0 60:0.008621 61:0.017241 62:0 63:0 64:0 65:0.008621 66:0.017241 67:0.008621 68:0 69:0.017241 70:0.008621 71:0 72:0.008621 73:0.034483 74:0.008621 75:0.008621 76:0 77:0.034483 78:0 79:0.025862 80:0 81:0.008621 82:0 83:0.008621 84:0.008621 85:0.034483 86:0.008621 87:0 88:0.017241 89:0.008621 90:0 91:0 92:0.043103 93:0.008621 94:0.008621 95:0.008621 96:0.034483 97:0 98:0.017241 99:0 100:0.043103 
-55.55734302072307 1:0 2:0 3:0 4:0.010204 5:0.010204 6:0 7:0 8:0.010204 9:0 10:0.040816 11:0.010204 12:0.040816 13:0 14:0.05102 15:0 16:0 17:0.010204 18:0 19:0 20:0 21:0.020408 22:0.010204 23:0.020408 24:0.010204 25:0.010204 26:0.020408 27:0.010204 28:0.010204 29:0.010204 30:0 31:0 32:0.010204 33:0.010204 34:0 35:0 36:0 37:0.010204 38:0 39:0.020408 40:0 41:0.010204 42:0.020408 43:0.010204 44:0.020408 45:0 46:0 47:0 48:0.010204 49:0.040816 50:0.05102 51:0 52:0 53:0.010204 54:0 55:0 56:0 57:0 58:0.010204 59:0 60:0 61:0.020408 62:0.020408 63:0.010204 64:0 65:0.010204 66:0.030612 67:0 68:0.030612 69:0 70:0.010204 71:0 72:0.010204 73:0.040816 74:0.010204 75:0 76:0 77:0 78:0 79:0.030612 80:0 81:0.010204 82:0 83:0 84:0 85:0 86:0 87:0.010204 88:0 89:0.030612 90:0.020408 91:0.010204 92:0.010204 93:0 94:0.020408 95:0.010204 96:0.020408 97:0 98:0.05102 99:0 100:0.040816 
-29.70132282828038 1:0 2:0 3:0 4:0 5:0 6:0.018519 7:0.037037 8:0 9:0 10:0 11:0 12:0 13:0.037037 14:0 15:0 16:0.018519 17:0.018519 18:0.037037 19:0 20:0 21:0 22:0 23:0 24:0.018519 25:0.018519 26:0 27:0.018519 28:0 29:0.074074 30:0.018519 31:0.037037 32:0 33:0.018519 34:0 35:0 36:0.018519 37:0 38:0.055556 39:0 40:0 41:0 42:0 43:0 44:0 45:0.018519 46:0 47:0.018519 48:0 49:0.018519 50:0.018519 51:0.018519 52:0.018519 53:0 54:0.018519 55:0 56:0 57:0.018519 58:0 59:0 60:0.018519 61:0 62:0 63:0 64:0 65:0.018519 66:0 67:0 68:0.055556 69:0.018519 70:0 71:0.018519 72:0 73:0 74:0.018519 75:0.018519 76:0.018519 77:0 78:0.018519 79:0.018519 80:0 81:0 82:0 83:0.018519 84:0 85:0.018519 86:0.018519 87:0 88:0 89:0 90:0 91:0 92:0.037037 93:0 94:0.018519 95:0 96:0 97:0.037037 98:0 99:0.018519 100:0.018519 
-22.70555732241766 1:0 2:0.029412 3:0.029412 4:0 5:0.014706 6:0 7:0.044118 8:0.014706 9:0.029412 10:0 11:0 12:0 13:0.014706 14:0.044118 15:0 16:0 17:0.014706 18:0 19:0.014706 20:0 21:0.014706 22:0.014706 23:0.014706 24:0 25:0.029412 26:0 27:0.014706 28:0 29:0 30:0 31:0 32:0.014706 33:0.044118 34:0.014706 35:0 36:0.014706 37:0 38:0.014706 39:0.058824 40:0.014706 41:0 42:0 43:0 44:0 45:0.014706 46:0 47:0.014706 48:0 49:0 50:0 51:0.014706 52:0.044118 53:0 54:0 55:0 56:0.014706 57:0 58:0.014706 59:0 60:0.014706 61:0 62:0.029412 63:0 64:0 65:0.014706 66:0.014706 67:0 68:0 69:0 70:0 71:0 72:0.014706 73:0.029412 74:0 75:0 76:0 77:0.029412 78:0 79:0.014706 80:0.014706 81:0 82:0 83:0 84:0 85:0.014706 86:0.029412 87:0 88:0 89:0 90:0 91:0.014706 92:0.088235 93:0 94:0.014706 95:0 96:0 97:0.014706 98:0 99:0 100:0.014706 
-56 1:0 2:0 3:0 4:0.02381 5:0.011905 6:0.011905 7:0.02381 8:0.011905 9:0 10:0.011905 11:0 12:0 13:0 14:0.035714 15:0 16:0 17:0 18:0.02381 19:0.011905 20:0 21:0.02381 22:0 23:0.011905 24:0.011905 25:0 26:0.02381 27:0.02381 28:0.02381 29:0.011905 30:0.011905 31:0 32:0.047619 33:0 34:0 35:0 36:0.011905 37:0 38:0 39:0.011905 40:0.02381 41:0 42:0 43:0.011905 44:0.02381 45:0 46:0.02381 47:0 48:0 49:0.011905 50:0.02381 51:0 52:0.011905 53:0.011905 54:0.011905 55:0 56:0 57:0 58:0.011905 59:0 60:0.011905 61:0 62:0 63:0.011905 64:0 65:0.011905 66:0.02381 67:0 68:0.011905 69:0 70:0.011905 71:0 72:0.011905 73:0.02381 74:0.02381 75:0 76:0 77:0 78:0 79:0.02381 80:0.011905 81:0.011905 82:0 83:0 84:0 85:0.011905 86:0.02381 87:0.02381 88:0 89:0.02381 90:0.011905 91:0 92:0 93:0.011905 94:0 95:0.02381 96:0.011905 97:0 98:0.071429 99:0.035714 100:0.011905 
