svm_type c_svc
kernel_type linear
nr_class 2
total_sv 60
rho 0.11749
label 1 3
nr_sv 33 27
SV
56 1:0.006211 2:0.024845 3:0.024845 4:0.012422 5:0.018634 6:0.006211 7:0.012422 8:0.006211 9:0 10:0.012422 11:0.012422 12:0 13:0 14:0.024845 15:0 16:0 17:0.012422 18:0.012422 19:0.018634 20:0.006211 21:0.012422 22:0.012422 23:0.012422 24:0.006211 25:0.024845 26:0.012422 27:0.012422 28:0.006211 29:0 30:0.018634 31:0.012422 32:0 33:0.012422 34:0 35:0.006211 36:0.018634 37:0 38:0.018634 39:0.012422 40:0.006211 41:0.012422 42:0.012422 43:0.006211 44:0.018634 45:0.012422 46:0 47:0 48:0 49:0.018634 50:0 51:0 52:0 53:0.024845 54:0.012422 55:0.018634 56:0.006211 57:0.006211 58:0.012422 59:0.012422 60:0.018634 61:0.012422 62:0 63:0.012422 64:0.012422 65:0 66:0.012422 67:0.024845 68:0.006211 69:0 70:0.018634 71:0.006211 72:0.006211 73:0.006211 74:0 75:0 76:0.006211 77:0 78:0.031056 79:0.018634 80:0.012422 81:0.012422 82:0.006211 83:0.006211 84:0 85:0.012422 86:0.018634 87:0.012422 88:0.006211 89:0 90:0.018634 91:0 92:0.024845 93:0.006211 94:0.024845 95:0.012422 96:0.006211 97:0.006211 98:0.024845 99:0.006211 100:0 
56 1:0.011673 2:0 3:0.003891 4:0.011673 5:0.011673 6:0.011673 7:0.007782 8:0.003891 9:0.015564 10:0.003891 11:0.007782 12:0 13:0.003891 14:0.011673 15:0.011673 16:0.007782 17:0.023346 18:0.007782 19:0 20:0.007782 21:0.007782 22:0.023346 23:0.003891 24:0 25:0.003891 26:0.019455 27:0.003891 28:0.027237 29:0.003891 30:0.011673 31:0.015564 32:0.011673 33:0.011673 34:0 35:0 36:0.011673 37:0.011673 38:0 39:0.023346 40:0.003891 41:0.003891 42:0.003891 43:0.003891 44:0.019455 45:0.003891 46:0.015564 47:0 48:0.007782 49:0.011673 50:0.027237 51:0.003891 52:0.023346 53:0.003891 54:0.003891 55:0.003891 56:0.003891 57:0.003891 58:0.011673 59:0 60:0.007782 61:0.023346 62:0.015564 63:0.007782 64:0.003891 65:0.011673 66:0.027237 67:0.015564 68:0.019455 69:0 70:0 71:0 72:0.011673 73:0.027237 74:0 75:0.015564 76:0.003891 77:0.015564 78:0.007782 79:0.031128 80:0.011673 81:0.027237 82:0.011673 83:0 84:0 85:0 86:0.023346 87:0.015564 88:0 89:0.023346 90:0.015564 91:0.003891 92:0.023346 93:0.003891 94:0.015564 95:0 96:0.015564 97:0 98:0.031128 99:0.015564 100:0.003891 
56 1:0.017699 2:0 3:0 4:0 5:0 6:0 7:0.00885 8:0 9:0 10:0.035398 11:0.017699 12:0.00885 13:0.00885 14:0.00885 15:0.00885 16:0.00885 17:0 18:0.00885 19:0.00885 20:0 21:0.026549 22:0.026549 23:0 24:0.026549 25:0.00885 26:0 27:0.017699 28:0.00885 29:0 30:0 31:0 32:0 33:0.00885 34:0.00885 35:0.026549 36:0 37:0.00885 38:0 39:0.026549 40:0 41:0 42:0 43:0 44:0.00885 45:0 46:0.00885 47:0 48:0.017699 49:0.026549 50:0.017699 51:0.026549 52:0.00885 53:0.00885 54:0 55:0.00885 56:0 57:0.00885 58:0 59:0.00885 60:0.026549 61:0 62:0.00885 63:0.017699 64:0.00885 65:0 66:0 67:0 68:0.017699 69:0.00885 70:0.017699 71:0.00885 72:0.00885 73:0.053097 74:0.026549 75:0 76:0.00885 77:0.017699 78:0 79:0.035398 80:0 81:0.017699 82:0.00885 83:0.017699 84:0 85:0.026549 86:0 87:0 88:0.044248 89:0.00885 90:0.035398 91:0.00885 92:0.00885 93:0 94:0 95:0.00885 96:0.017699 97:0.00885 98:0 99:0.026549 100:0.00885 
30.46635911103497 1:0.013699 2:0.013699 3:0 4:0 5:0 6:0 7:0.041096 8:0.013699 9:0.013699 10:0 11:0 12:0 13:0.013699 14:0.041096 15:0 16:0 17:0.013699 18:0 19:0.027397 20:0 21:0 22:0.013699 23:0 24:0 25:0 26:0 27:0.041096 28:0 29:0 30:0.013699 31:0 32:0.027397 33:0.027397 34:0 35:0 36:0.027397 37:0 38:0.013699 39:0.013699 40:0.027397 41:0.013699 42:0 43:0 44:0 45:0.013699 46:0 47:0.013699 48:0 49:0.013699 50:0 51:0.027397 52:0 53:0.013699 54:0 55:0 56:0.027397 57:0 58:0 59:0 60:0.027397 61:0.013699 62:0.013699 63:0 64:0 65:0 66:0.013699 67:0 68:0 69:0 70:0.027397 71:0 72:0.027397 73:0.041096 74:0 75:0 76:0 77:0.027397 78:0.041096 79:0.013699 80:0 81:0 82:0 83:0.013699 84:0 85:0.027397 86:0.027397 87:0 88:0 89:0 90:0 91:0.013699 92:0.068493 93:0.027397 94:0.013699 95:0 96:0 97:0.013699 98:0 99:0.013699 100:0.013699 
56 1:0 2:0.013699 3:0 4:0.027397 5:0 6:0 7:0 8:0.027397 9:0 10:0.09589 11:0.054795 12:0 13:0 14:0 15:0 16:0 17:0.013699 18:0.013699 19:0.013699 20:0.013699 21:0 22:0 23:0 24:0 25:0.013699 26:0.013699 27:0 28:0 29:0.013699 30:0.013699 31:0 32:0 33:0.027397 34:0 35:0.027397 36:0 37:0.013699 38:0 39:0.041096 40:0 41:0.041096 42:0 43:0.013699 44:0.027397 45:0.013699 46:0.013699 47:0 48:0 49:0 50:0 51:0 52:0 53:0.013699 54:0 55:0.013699 56:0.041096 57:0 58:0.013699 59:0 60:0.027397 61:0.013699 62:0 63:0 64:0 65:0 66:0 67:0 68:0 69:0 70:0 71:0 72:0.013699 73:0.041096 74:0 75:0 76:0.013699 77:0.013699 78:0 79:0.013699 80:0 81:0.041096 82:0 83:0 84:0 85:0 86:0.054795 87:0 88:0 89:0.027397 90:0.013699 91:0.013699 92:0.027397 93:0 94:0 95:0 96:0.027397 97:0 98:0 99:0 100:0.027397 
11.22704972342168 1:0 2:0.009091 3:0.018182 4:0.009091 5:0.018182 6:0 7:0 8:0 9:0.009091 10:0.009091 11:0 12:0.009091 13:0.009091 14:0.018182 15:0.009091 16:0.009091 17:0.018182 18:0.018182 19:0.027273 20:0 21:0 22:0 23:0.009091 24:0 25:0.018182 26:0 27:0.027273 28:0 29:0.018182 30:0.018182 31:0.018182 32:0.027273 33:0.009091 34:0 35:0.009091 36:0.009091 37:0.018182 38:0.018182 39:0 40:0.009091 41:0.009091 42:0.018182 43:0.009091 44:0.018182 45:0 46:0 47:0.036364 48:0.018182 49:0 50:0 51:0 52:0.018182 53:0.009091 54:0 55:0.018182 56:0 57:0.036364 58:0.018182 59:0.009091 60:0 61:0.009091 62:0.009091 63:0.009091 64:0 65:0 66:0.018182 67:0 68:0.009091 69:0 70:0.018182 71:0.009091 72:0.018182 73:0.036364 74:0 75:0.027273 76:0.009091 77:0.018182 78:0.018182 79:0.009091 80:0 81:0.009091 82:0 83:0 84:0 85:0.009091 86:0 87:0 88:0 89:0.009091 90:0 91:0 92:0.036364 93:0 94:0.027273 95:0.009091 96:0.018182 97:0.018182 98:0 99:0.009091 100:0.018182 
56 1:0 2:0 3:0.019231 4:0.019231 5:0.019231 6:0 7:0 8:0 9:0 10:0 11:0.019231 12:0.019231 13:0 14:0.009615 15:0 16:0.009615 17:0.009615 18:0.019231 19:0.019231 20:0 21:0.019231 22:0 23:0.028846 24:0.009615 25:0.028846 26:0.019231 27:0.009615 28:0 29:0.019231 30:0.009615 31:0.009615 32:0.019231 33:0.028846 34:0.009615 35:0.009615 36:0 37:0 38:0.009615 39:0 40:0.009615 41:0 42:0.009615 43:0.009615 44:0 45:0 46:0 47:0.009615 48:0 49:0.009615 50:0.009615 51:0 52:0 53:0 54:0.009615 55:0.019231 56:0.009615 57:0.009615 58:0.019231 59:0.009615 60:0.019231 61:0 62:0 63:0.009615 64:0.038462 65:0 66:0.019231 67:0.028846 68:0 69:0 70:0.009615 71:0 72:0.019231 73:0.009615 74:0 75:0.009615 76:0.048077 77:0.009615 78:0 79:0 80:0.009615 81:0 82:0 83:0.019231 84:0 85:0.028846 86:0.009615 87:0 88:0.009615 89:0.019231 90:0.019231 91:0.019231 92:0.028846 93:0.019231 94:0 95:0.019231 96:0 97:0.009615 98:0 99:0.028846 100:0.009615 
1.760548859166766 1:0 2:0 3:0 4:0 5:0.018868 6:0 7:0 8:0 9:0.018868 10:0 11:0 12:0.037736 13:0 14:0.018868 15:0 16:0 17:0.018868 18:0.018868 19:0.075472 20:0.018868 21:0 22:0 23:0.018868 24:0.018868 25:0.018868 26:0.018868 27:0.018868 28:0 29:0.075472 30:0.018868 31:0 32:0.037736 33:0 34:0 35:0 36:0 37:0 38:0.037736 39:0 40:0 41:0 42:0 43:0.037736 44:0 45:0 46:0 47:0.037736 48:0 49:0 50:0 51:0 52:0 53:0 54:0.056604 55:0 56:0 57:0 58:0 59:0 60:0 61:0 62:0 63:0.018868 64:0 65:0 66:0 67:0 68:0 69:0.018868 70:0.037736 71:0.018868 72:0 73:0.018868 74:0 75:0.056604 76:0 77:0.018868 78:0.018868 79:0.018868 80:0 81:0.018868 82:0 83:0 84:0 85:0.018868 86:0 87:0.018868 88:0.037736 89:0 90:0 91:0 92:0 93:0.018868 94:0 95:0 96:0.018868 97:0 98:0 99:0 100:0.018868 
37.90820689909312 1:0 2:0 3:0.017241 4:0 5:0 6:0 7:0 8:0 9:0 10:0.034483 11:0.017241 12:0 13:0.017241 14:0.034483 15:0 16:0 17:0.017241 18:0 19:0.034483 20:0.017241 21:0 22:0 23:0.017241 24:0.034483 25:0.034483 26:0 27:0 28:0 29:0.034483 30:0 31:0 32:0.034483 33:0.017241 34:0 35:0.017241 36:0 37:0 38:0.017241 39:0.017241 40:0 41:0 42:0 43:0 44:0 45:0.017241 46:0 47:0.017241 48:0 49:0.034483 50:0 51:0.017241 52:0.017241 53:0 54:0 55:0 56:0 57:0.017241 58:0 59:0.051724 60:0 61:0 62:0 63:0 64:0.034483 65:0.017241 66:0.017241 67:0 68:0.034483 69:0.017241 70:0.017241 71:0 72:0.017241 73:0.017241 74:0 75:0.017241 76:0 77:0 78:0.034483 79:0 80:0 81:0.017241 82:0 83:0 84:0 85:0 86:0 87:0.017241 88:0 89:0 90:0 91:0.017241 92:0.034483 93:0 94:0.017241 95:0.034483 96:0 97:0.017241 98:0 99:0 100:0.034483 
6.76748751365971 1:0 2:0.013514 3:0.013514 4:0.013514 5:0.013514 6:0 7:0 8:0.027027 9:0 10:0.027027 11:0 12:0.013514 13:0.013514 14:0.013514 15:0 16:0.013514 17:0.040541 18:0 19:0.027027 20:0 21:0.013514 22:0 23:0.013514 24:0.013514 25:0 26:0.027027 27:0.027027 28:0.013514 29:0 30:0.027027 31:0 32:0.013514 33:0.040541 34:0 35:0.013514 36:0 37:0 38:0.013514 39:0 40:0.013514 41:0 42:0 43:0 44:0 45:0 46:0 47:0 48:0 49:0.027027 50:0 51:0.013514 52:0 53:0 54:0.013514 55:0 56:0.013514 57:0 58:0 59:0.013514 60:0.013514 61:0 62:0.013514 63:0.027027 64:0 65:0.027027 66:0.013514 67:0.027027 68:0 69:0 70:0.013514 71:0.013514 72:0.027027 73:0.040541 74:0 75:0.013514 76:0 77:0.013514 78:0 79:0.040541 80:0 81:0 82:0 83:0.013514 84:0 85:0.013514 86:0.013514 87:0.013514 88:0.013514 89:0.013514 90:0.013514 91:0 92:0.013514 93:0 94:0 95:0 96:0.013514 97:0.013514 98:0 99:0.027027 100:0.013514 
56 1:0.016129 2:0 3:0.008065 4:0 5:0.008065 6:0.024194 7:0 8:0.024194 9:0.008065 10:0 11:0.040323 12:0 13:0 14:0 15:0.008065 16:0 17:0.008065 18:0 19:0.024194 20:0 21:0.016129 22:0 23:0.008065 24:0 25:0.016129 26:0.008065 27:0.016129 28:0.016129 29:0 30:0.016129 31:0 32:0.008065 33:0 34:0.032258 35:0.032258 36:0 37:0.008065 38:0.008065 39:0.032258 40:0 41:0 42:0.008065 43:0.048387 44:0 45:0.008065 46:0.112903 47:0.008065 48:0.008065 49:0.008065 50:0.008065 51:0.032258 52:0.008065 53:0 54:0 55:0.008065 56:0.016129 57:0 58:0 59:0.008065 60:0 61:0.008065 62:0 63:0 64:0.008065 65:0.016129 66:0.008065 67:0.008065 68:0 69:0 70:0 71:0 72:0 73:0.008065 74:0.016129 75:0.008065 76:0.024194 77:0.008065 78:0.024194 79:0.016129 80:0 81:0.008065 82:0.008065 83:0 84:0 85:0 86:0.008065 87:0.008065 88:0.016129 89:0.016129 90:0.008065 91:0 92:0.056452 93:0.024194 94:0.008065 95:0 96:0 97:0.008065 98:0 99:0.008065 100:0 
56 1:0 2:0 3:0 4:0.018519 5:0 6:0.037037 7:0.018519 8:0 9:0 10:0 11:0 12:0.018519 13:0.037037 14:0.055556 15:0 16:0.018519 17:0 18:0.018519 19:0.037037 20:0 21:0 22:0 23:0 24:0 25:0 26:0 27:0.037037 28:0.018519 29:0 30:0 31:0.018519 32:0 33:0.018519 34:0.018519 35:0.018519 36:0 37:0 38:0.037037 39:0.018519 40:0 41:0 42:0 43:0 44:0.037037 45:0.037037 46:0 47:0 48:0 49:0.037037 50:0.018519 51:0 52:0 53:0.018519 54:0.037037 55:0 56:0.018519 57:0 58:0.018519 59:0 60:0 61:0 62:0 63:0.018519 64:0 65:0 66:0 67:0.018519 68:0.018519 69:0 70:0.018519 71:0 72:0.018519 73:0 74:0 75:0 76:0 77:0 78:0.018519 79:0 80:0 81:0.037037 82:0 83:0 84:0 85:0 86:0 87:0 88:0 89:0.018519 90:0.055556 91:0 92:0 93:0 94:0 95:0 96:0 97:0.037037 98:0.018519 99:0 100:0.055556 
56 1:0 2:0 3:0 4:0 5:0 6:0 7:0 8:0 9:0 10:0 11:0.018519 12:0.074074 13:0 14:0.018519 15:0 16:0 17:0 18:0.037037 19:0.037037 20:0.018519 21:0.018519 22:0 23:0 24:0 25:0 26:0 27:0.018519 28:0 29:0.037037 30:0.037037 31:0.055556 32:0 33:0.018519 34:0 35:0 36:0 37:0 38:0.018519 39:0 40:0 41:0 42:0 43:0.037037 44:0.018519 45:0 46:0 47:0.018519 48:0 49:0 50:0 51:0.055556 52:0 53:0 54:0.037037 55:0 56:0 57:0.018519 58:0 59:0 60:0 61:0 62:0 63:0 64:0 65:0 66:0 67:0 68:0.018519 69:0.018519 70:0 71:0 72:0 73:0.018519 74:0 75:0.037037 76:0 77:0 78:0.074074 79:0.018519 80:0 81:0 82:0 83:0.018519 84:0.018519 85:0 86:0 87:0 88:0.037037 89:0.018519 90:0 91:0 92:0.037037 93:0.018519 94:0.018519 95:0.018519 96:0 97:0.018519 98:0 99:0 100:0.018519 
56 1:0 2:0.035088 3:0 4:0.017544 5:0 6:0 7:0.017544 8:0.008772 9:0 10:0 11:0.008772 12:0.026316 13:0.008772 14:0.04386 15:0.04386 16:0 17:0.017544 18:0.008772 19:0.008772 20:0.008772 21:0.008772 22:0.008772 23:0.008772 24:0.008772 25:0.008772 26:0 27:0 28:0.026316 29:0.008772 30:0.017544 31:0.008772 32:0.008772 33:0 34:0.017544 35:0.008772 36:0.026316 37:0 38:0.008772 39:0 40:0.008772 41:0 42:0.008772 43:0.017544 44:0.008772 45:0 46:0.008772 47:0 48:0.008772 49:0.008772 50:0.008772 51:0 52:0.008772 53:0 54:0.008772 55:0.008772 56:0.017544 57:0.008772 58:0 59:0 60:0.035088 61:0 62:0.017544 63:0.008772 64:0 65:0 66:0.026316 67:0.026316 68:0.035088 69:0.017544 70:0 71:0.008772 72:0.026316 73:0.008772 74:0 75:0.008772 76:0 77:0.026316 78:0.008772 79:0.008772 80:0 81:0 82:0 83:0 84:0 85:0.017544 86:0 87:0 88:0.017544 89:0.008772 90:0.017544 91:0.008772 92:0.008772 93:0.017544 94:0.008772 95:0.052632 96:0 97:0 98:0 99:0 100:0.017544 
56 1:0 2:0 3:0.018692 4:0 5:0.018692 6:0 7:0 8:0 9:0 10:0.018692 11:0.009346 12:0 13:0.009346 14:0.056075 15:0.009346 16:0 17:0.018692 18:0.028037 19:0.028037 20:0 21:0 22:0.009346 23:0.009346 24:0 25:0.018692 26:0.028037 27:0.009346 28:0.009346 29:0.009346 30:0.009346 31:0.037383 32:0.065421 33:0.009346 34:0 35:0 36:0.009346 37:0 38:0.046729 39:0.009346 40:0 41:0.018692 42:0.009346 43:0.028037 44:0.018692 45:0 46:0 47:0.028037 48:0.009346 49:0 50:0 51:0 52:0 53:0.009346 54:0 55:0.028037 56:0 57:0.037383 58:0 59:0.009346 60:0 61:0.028037 62:0 63:0.009346 64:0 65:0 66:0.018692 67:0.009346 68:0.009346 69:0 70:0.018692 71:0 72:0 73:0 74:0 75:0.018692 76:0.009346 77:0.018692 78:0.037383 79:0 80:0 81:0.018692 82:0 83:0 84:0 85:0 86:0 87:0 88:0 89:0.009346 90:0 91:0 92:0.009346 93:0 94:0.018692 95:0 96:0.018692 97:0.018692 98:0.018692 99:0 100:0.018692 
36.81797947215244 1:0 2:0 3:0.027027 4:0.040541 5:0 6:0 7:0 8:0 9:0 10:0.013514 11:0.013514 12:0 13:0.013514 14:0 15:0.013514 16:0 17:0.013514 18:0.027027 19:0 20:0.013514 21:0 22:0 23:0.013514 24:0 25:0.027027 26:0 27:0.027027 28:0 29:0.013514 30:0.040541 31:0.013514 32:0.013514 33:0.013514 34:0 35:0 36:0 37:0.013514 38:0.040541 39:0 40:0 41:0 42:0.027027 43:0 44:0 45:0 46:0 47:0 48:0.013514 49:0.013514 50:0.013514 51:0.013514 52:0.027027 53:0 54:0 55:0.027027 56:0.013514 57:0 58:0.013514 59:0.013514 60:0 61:0 62:0 63:0 64:0.013514 65:0.013514 66:0.027027 67:0 68:0 69:0.027027 70:0 71:0 72:0.013514 73:0 74:0.013514 75:0.013514 76:0.094595 77:0.013514 78:0.040541 79:0 80:0 81:0 82:0 83:0 84:0 85:0 86:0.013514 87:0 88:0 89:0.027027 90:0.027027 91:0 92:0.054054 93:0 94:0 95:0 96:0 97:0.013514 98:0.027027 99:0 100:0 
0.3555648607679809 1:0 2:0 3:0.009346 4:0 5:0 6:0 7:0.018692 8:0.009346 9:0.009346 10:0.009346 11:0.009346 12:0 13:0 14:0.074766 15:0.018692 16:0.009346 17:0.009346 18:0.009346 19:0.009346 20:0 21:0.009346 22:0 23:0 24:0.018692 25:0.018692 26:0.009346 27:0.009346 28:0.009346 29:0 30:0 31:0 32:0 33:0.056075 34:0 35:0.028037 36:0.018692 37:0 38:0.018692 39:0.018692 40:0.009346 41:0 42:0 43:0.037383 44:0 45:0.009346 46:0 47:0 48:0.009346 49:0.018692 50:0.018692 51:0.018692 52:0.009346 53:0 54:0.009346 55:0 56:0.037383 57:0.009346 58:0 59:0 60:0.009346 61:0.009346 62:0 63:0 64:0 65:0 66:0 67:0.037383 68:0 69:0 70:0.018692 71:0 72:0.028037 73:0.009346 74:0.009346 75:0 76:0 77:0.009346 78:0.037383 79:0.018692 80:0.009346 81:0 82:0.009346 83:0.009346 84:0 85:0.028037 86:0.009346 87:0 88:0.028037 89:0.009346 90:0.009346 91:0.009346 92:0.018692 93:0.018692 94:0.018692 95:0 96:0.018692 97:0 98:0 99:0.009346 100:0.009346 
56 1:0.009709 2:0.019417 3:0.019417 4:0 5:0.029126 6:0.009709 7:0.009709 8:0 9:0.009709 10:0.029126 11:0 12:0.009709 13:0.019417 14:0.038835 15:0.009709 16:0 17:0.019417 18:0.009709 19:0.009709 20:0.009709 21:0.009709 22:0 23:0.009709 24:0 25:0.009709 26:0 27:0.009709 28:0 29:0.038835 30:0.009709 31:0.009709 32:0.029126 33:0.009709 34:0 35:0.009709 36:0 37:0 38:0.019417 39:0 40:0.009709 41:0 42:0 43:0.038835 44:0 45:0 46:0 47:0.019417 48:0 49:0 50:0.019417 51:0 52:0.009709 53:0 54:0 55:0.029126 56:0 57:0.019417 58:0 59:0.009709 60:0.019417 61:0.009709 62:0.009709 63:0.009709 64:0.009709 65:0 66:0 67:0 68:0.019417 69:0.019417 70:0.019417 71:0 72:0.009709 73:0.009709 74:0.009709 75:0.019417 76:0.019417 77:0 78:0.019417 79:0.019417 80:0 81:0.009709 82:0 83:0 84:0 85:0.009709 86:0 87:0 88:0.009709 89:0 90:0.009709 91:0 92:0.019417 93:0.009709 94:0.009709 95:0.019417 96:0.019417 97:0.019417 98:0.029126 99:0 100:0.029126 
56 1:0 2:0 3:0.009804 4:0.009804 5:0 6:0 7:0.019608 8:0.019608 9:0.019608 10:0.029412 11:0.029412 12:0 13:0.009804 14:0.029412 15:0.019608 16:0 17:0.009804 18:0 19:0.009804 20:0 21:0 22:0 23:0 24:0.009804 25:0.009804 26:0 27:0.009804 28:0 29:0 30:0.009804 31:0 32:0.019608 33:0.019608 34:0 35:0.019608 36:0 37:0 38:0.009804 39:0.009804 40:0 41:0.009804 42:0.009804 43:0.029412 44:0 45:0 46:0 47:0 48:0.009804 49:0.039216 50:0 51:0.019608 52:0 53:0 54:0.009804 55:0.009804 56:0.04902 57:0.019608 58:0.039216 59:0 60:0.009804 61:0 62:0.019608 63:0.009804 64:0.019608 65:0 66:0.019608 67:0 68:0.009804 69:0 70:0.019608 71:0.009804 72:0.019608 73:0.029412 74:0 75:0 76:0 77:0.019608 78:0.009804 79:0.029412 80:0 81:0.009804 82:0 83:0.009804 84:0 85:0.039216 86:0.009804 87:0.009804 88:0.009804 89:0.009804 90:0 91:0.009804 92:0.029412 93:0.009804 94:0 95:0.019608 96:0 97:0.009804 98:0.009804 99:0.009804 100:0 
2.814082114585316 1:0 2:0.029703 3:0.009901 4:0 5:0.019802 6:0 7:0 8:0 9:0 10:0 11:0 12:0.09901 13:0.009901 14:0.039604 15:0.009901 16:0.019802 17:0.009901 18:0.009901 19:0.009901 20:0 21:0 22:0 23:0.039604 24:0 25:0.019802 26:0.009901 27:0 28:0.019802 29:0.019802 30:0.029703 31:0.019802 32:0.029703 33:0.009901 34:0.019802 35:0 36:0 37:0 38:0.019802 39:0 40:0 41:0 42:0 43:0.009901 44:0.009901 45:0 46:0.009901 47:0.009901 48:0 49:0 50:0 51:0.039604 52:0.019802 53:0 54:0.019802 55:0.029703 56:0.009901 57:0.019802 58:0 59:0.009901 60:0.009901 61:0 62:0 63:0.009901 64:0.009901 65:0 66:0.019802 67:0 68:0.009901 69:0 70:0.019802 71:0 72:0.009901 73:0 74:0 75:0.009901 76:0.049505 77:0 78:0.019802 79:0 80:0 81:0 82:0 83:0 84:0 85:0 86:0 87:0.009901 88:0.029703 89:0 90:0 91:0 92:0.009901 93:0 94:0.029703 95:0 96:0 97:0.019802 98:0 99:0.009901 100:0.029703 
23.25014226422983 1:0.009009 2:0.009009 3:0.009009 4:0 5:0.009009 6:0 7:0 8:0.009009 9:0.027027 10:0.018018 11:0.009009 12:0 13:0 14:0.099099 15:0 16:0 17:0.009009 18:0.018018 19:0 20:0 21:0 22:0.009009 23:0.018018 24:0 25:0.018018 26:0.009009 27:0 28:0 29:0.036036 30:0 31:0.018018 32:0 33:0 34:0 35:0.018018 36:0 37:0.009009 38:0.009009 39:0.009009 40:0 41:0.009009 42:0.009009 43:0 44:0.009009 45:0 46:0 47:0 48:0.009009 49:0 50:0 51:0 52:0.018018 53:0.018018 54:0.018018 55:0.018018 56:0 57:0 58:0.027027 59:0 60:0.018018 61:0.009009 62:0.018018 63:0.009009 64:0.009009 65:0.009009 66:0.027027 67:0.009009 68:0.009009 69:0 70:0.009009 71:0.009009 72:0 73:0 74:0 75:0.009009 76:0.018018 77:0 78:0.009009 79:0.018018 80:0.018018 81:0.009009 82:0.018018 83:0 84:0 85:0.009009 86:0.018018 87:0.009009 88:0.027027 89:0.027027 90:0.018018 91:0 92:0.009009 93:0.009009 94:0 95:0.045045 96:0.027027 97:0.018018 98:0.027027 99:0 100:0.009009 
55.96125629089634 1:0.009804 2:0.009804 3:0 4:0 5:0.009804 6:0.009804 7:0.009804 8:0.009804 9:0.019608 10:0.009804 11:0.009804 12:0 13:0 14:0.039216 15:0 16:0 17:0 18:0 19:0.019608 20:0.009804 21:0 22:0 23:0.009804 24:0 25:0.019608 26:0.009804 27:0.009804 28:0.019608 29:0.029412 30:0 31:0 32:0.009804 33:0.029412 34:0 35:0.019608 36:0 37:0.009804 38:0 39:0.019608 40:0.019608 41:0.009804 42:0.009804 43:0 44:0 45:0.019608 46:0 47:0.019608 48:0 49:0.009804 50:0 51:0 52:0 53:0.019608 54:0.009804 55:0 56:0.009804 57:0.009804 58:0.019608 59:0.009804 60:0 61:0.009804 62:0.009804 63:0 64:0.009804 65:0.009804 66:0.009804 67:0.029412 68:0 69:0 70:0.019608 71:0.019608 72:0.019608 73:0.019608 74:0 75:0 76:0.039216 77:0.019608 78:0.019608 79:0.029412 80:0 81:0 82:0.019608 83:0.019608 84:0.009804 85:0 86:0 87:0.019608 88:0.058824 89:0 90:0.009804 91:0.019608 92:0 93:0 94:0 95:0 96:0.019608 97:0.009804 98:0.019608 99:0 100:0.009804 
56 1:0.018519 2:0 3:0.037037 4:0 5:0 6:0.009259 7:0.009259 8:0.009259 9:0.009259 10:0.009259 11:0.018519 12:0 13:0.009259 14:0.018519 15:0 16:0.009259 17:0.037037 18:0.009259 19:0.009259 20:0.027778 21:0.018519 22:0.009259 23:0.037037 24:0 25:0.018519 26:0.018519 27:0 28:0.009259 29:0.009259 30:0.046296 31:0.009259 32:0 33:0 34:0 35:0 36:0 37:0 38:0.009259 39:0.009259 40:0.009259 41:0 42:0.027778 43:0 44:0.018519 45:0.009259 46:0 47:0 48:0 49:0 50:0.009259 51:0 52:0.018519 53:0.009259 54:0.009259 55:0.009259 56:0 57:0.009259 58:0 59:0.018519 60:0 61:0.009259 62:0 63:0 64:0.009259 65:0.009259 66:0.055556 67:0.009259 68:0.009259 69:0 70:0.009259 71:0 72:0.018519 73:0.027778 74:0.018519 75:0.018519 76:0 77:0.018519 78:0.009259 79:0.009259 80:0 81:0 82:0.009259 83:0 84:0 85:0 86:0.009259 87:0 88:0 89:0 90:0 91:0.009259 92:0.027778 93:0 94:0.009259 95:0.009259 96:0.074074 97:0.018519 98:0 99:0.018519 100:0 
14.67019989603726 1:0 2:0 3:0 4:0 5:0.038462 6:0.009615 7:0 8:0.009615 9:0 10:0.057692 11:0 12:0.009615 13:0.009615 14:0.048077 15:0.019231 16:0 17:0.019231 18:0 19:0.019231 20:0 21:0 22:0 23:0.009615 24:0.019231 25:0.028846 26:0.009615 27:0 28:0.019231 29:0.019231 30:0 31:0 32:0 33:0 34:0 35:0 36:0.048077 37:0 38:0.009615 39:0 40:0 41:0 42:0 43:0.019231 44:0 45:0.009615 46:0 47:0.009615 48:0.009615 49:0.009615 50:0 51:0 52:0.009615 53:0 54:0.009615 55:0 56:0 57:0.019231 58:0.028846 59:0 60:0.009615 61:0 62:0.009615 63:0 64:0.009615 65:0 66:0.019231 67:0 68:0.009615 69:0.009615 70:0.009615 71:0.009615 72:0 73:0.019231 74:0.009615 75:0 76:0.038462 77:0 78:0.019231 79:0 80:0 81:0.009615 82:0 83:0 84:0.019231 85:0.009615 86:0 87:0.009615 88:0.057692 89:0.028846 90:0 91:0.019231 92:0.067308 93:0.019231 94:0.028846 95:0.009615 96:0 97:0.019231 98:0 99:0 100:0 
56 1:0.012346 2:0 3:0.024691 4:0 5:0.012346 6:0.012346 7:0.012346 8:0 9:0.012346 10:0.024691 11:0.012346 12:0 13:0 14:0 15:0 16:0 17:0.024691 18:0.024691 19:0.037037 20:0.037037 21:0 22:0 23:0.012346 24:0 25:0.049383 26:0 27:0 28:0 29:0.024691 30:0.049383 31:0 32:0.012346 33:0.012346 34:0.012346 35:0 36:0.024691 37:0.012346 38:0 39:0.012346 40:0.012346 41:0.012346 42:0.012346 43:0 44:0 45:0 46:0 47:0.012346 48:0.012346 49:0.024691 50:0 51:0 52:0 53:0 54:0 55:0.024691 56:0 57:0.012346 58:0.012346 59:0.037037 60:0 61:0 62:0 63:0 64:0.012346 65:0.049383 66:0.024691 67:0 68:0 69:0.012346 70:0.012346 71:0.024691 72:0 73:0 74:0 75:0.024691 76:0.012346 77:0 78:0.012346 79:0.012346 80:0 81:0 82:0 83:0.012346 84:0 85:0 86:0 87:0 88:0 89:0.024691 90:0.037037 91:0 92:0.012346 93:0.012346 94:0.012346 95:0.024691 96:0 97:0 98:0 99:0 100:0.024691 
56 1:0 2:0.017391 3:0.008696 4:0 5:0.017391 6:0 7:0.008696 8:0 9:0.008696 10:0 11:0 12:0 13:0 14:0.017391 15:0 16:0.026087 17:0.026087 18:0.026087 19:0.026087 20:0.026087 21:0 22:0.008696 23:0.008696 24:0 25:0.008696 26:0 27:0 28:0.008696 29:0.008696 30:0.026087 31:0.026087 32:0.008696 33:0.017391 34:0 35:0 36:0 37:0 38:0.017391 39:0.008696 40:0.017391 41:0 42:0.008696 43:0.026087 44:0.008696 45:0 46:0 47:0.008696 48:0.008696 49:0.008696 50:0 51:0 52:0.008696 53:0 54:0.008696 55:0.034783 56:0.008696 57:0 58:0 59:0 60:0 61:0.008696 62:0.026087 63:0.008696 64:0.008696 65:0.008696 66:0.026087 67:0.008696 68:0.008696 69:0.034783 70:0.008696 71:0 72:0 73:0.008696 74:0 75:0.052174 76:0.034783 77:0 78:0 79:0 80:0 81:0 82:0.043478 83:0 84:0 85:0.026087 86:0 87:0 88:0.034783 89:0 90:0.026087 91:0.017391 92:0.043478 93:0.017391 94:0 95:0 96:0.017391 97:0.017391 98:0 99:0 100:0.008696 
7.432437633695937 1:0 2:0 3:0.015152 4:0 5:0 6:0 7:0 8:0 9:0 10:0.030303 11:0.060606 12:0 13:0 14:0.045455 15:0 16:0 17:0 18:0 19:0 20:0 21:0 22:0 23:0 24:0 25:0 26:0.015152 27:0.015152 28:0.015152 29:0 30:0 31:0 32:0.015152 33:0.030303 34:0.015152 35:0.015152 36:0 37:0 38:0 39:0.030303 40:0 41:0 42:0 43:0.015152 44:0 45:0 46:0 47:0.015152 48:0 49:0.030303 50:0.030303 51:0.030303 52:0 53:0 54:0 55:0 56:0.075758 57:0.015152 58:0 59:0 60:0.045455 61:0 62:0.030303 63:0 64:0 65:0 66:0.030303 67:0.045455 68:0 69:0.015152 70:0.045455 71:0.015152 72:0 73:0.015152 74:0.015152 75:0 76:0.030303 77:0.015152 78:0.030303 79:0 80:0 81:0.015152 82:0 83:0.015152 84:0 85:0.030303 86:0.030303 87:0.015152 88:0 89:0 90:0 91:0.030303 92:0 93:0 94:0 95:0 96:0 97:0 98:0 99:0.015152 100:0 
43.5447658892272 1:0 2:0 3:0.008621 4:0.025862 5:0 6:0 7:0.008621 8:0 9:0.008621 10:0.008621 11:0.008621 12:0.008621 13:0.025862 14:0.043103 15:0 16:0.017241 17:0.034483 18:0.034483 19:0.008621 20:0.025862 21:0 22:0.008621 23:0.008621 24:0.008621 25:0.008621 26:0.008621 27:0.008621 28:0 29:0.008621 30:0.017241 31:0.017241 32:0.017241 33:0.008621 34:0.008621 35:0.025862 36:0.017241 37:0 38:0 39:0 40:0.008621 41:0.008621 42:0.008621 43:0.008621 44:0.008621 45:0 46:0 47:0 48:0 49:0 50:0 51:0 52:0.008621 53:0 54:0.008621 55:0.008621 56:0.008621 57:0 58:0.017241 59:0 60:0.008621 61:0.017241 62:0 63:0 64:0 65:0.008621 66:0.017241 67:0.008621 68:0 69:0.017241 70:0.008621 71:0 72:0.008621 73:0.034483 74:0.008621 75:0.008621 76:0 77:0.034483 78:0 79:0.025862 80:0 81:0.008621 82:0 83:0.008621 84:0.008621 85:0.034483 86:0.008621 87:0 88:0.017241 89:0.008621 90:0 91:0 92:0.043103 93:0.008621 94:0.008621 95:0.008621 96:0.034483 97:0 98:0.017241 99:0 100:0.043103 
56 1:0 2:0 3:0 4:0.010204 5:0.010204 6:0 7:0 8:0.010204 9:0 10:0.040816 11:0.010204 12:0.040816 13:0 14:0.05102 15:0 16:0 17:0.010204 18:0 19:0 20:0 21:0.020408 22:0.010204 23:0.020408 24:0.010204 25:0.010204 26:0.020408 27:0.010204 28:0.010204 29:0.010204 30:0 31:0 32:0.010204 33:0.010204 34:0 35:0 36:0 37:0.010204 38:0 39:0.020408 40:0 41:0.010204 42:0.020408 43:0.010204 44:0.020408 45:0 46:0 47:0 48:0.010204 49:0.040816 50:0.05102 51:0 52:0 53:0.010204 54:0 55:0 56:0 57:0 58:0.010204 59:0 60:0 61:0.020408 62:0.020408 63:0.010204 64:0 65:0.010204 66:0.030612 67:0 68:0.030612 69:0 70:0.010204 71:0 72:0.010204 73:0.040816 74:0.010204 75:0 76:0 77:0 78:0 79:0.030612 80:0 81:0.010204 82:0 83:0 84:0 85:0 86:0 87:0.010204 88:0 89:0.030612 90:0.020408 91:0.010204 92:0.010204 93:0 94:0.020408 95:0.010204 96:0.020408 97:0 98:0.05102 99:0 100:0.040816 
27.10729585006992 1:0 2:0 3:0 4:0 5:0 6:0.018519 7:0.037037 8:0 9:0 10:0 11:0 12:0 13:0.037037 14:0 15:0 16:0.018519 17:0.018519 18:0.037037 19:0 20:0 21:0 22:0 23:0 24:0.018519 25:0.018519 26:0 27:0.018519 28:0 29:0.074074 30:0.018519 31:0.037037 32:0 33:0.018519 34:0 35:0 36:0.018519 37:0 38:0.055556 39:0 40:0 41:0 42:0 43:0 44:0 45:0.018519 46:0 47:0.018519 48:0 49:0.018519 50:0.018519 51:0.018519 52:0.018519 53:0 54:0.018519 55:0 56:0 57:0.018519 58:0 59:0 60:0.018519 61:0 62:0 63:0 64:0 65:0.018519 66:0 67:0 68:0.055556 69:0.018519 70:0 71:0.018519 72:0 73:0 74:0.018519 75:0.018519 76:0.018519 77:0 78:0.018519 79:0.018519 80:0 81:0 82:0 83:0.018519 84:0 85:0.018519 86:0.018519 87:0 88:0 89:0 90:0 91:0 92:0.037037 93:0 94:0.018519 95:0 96:0 97:0.037037 98:0 99:0.018519 100:0.018519 
29.37073085702289 1:0 2:0 3:0 4:0.012987 5:0 6:0 7:0 8:0.012987 9:0 10:0 11:0.012987 12:0.064935 13:0.012987 14:0.116883 15:0.025974 16:0.025974 17:0.012987 18:0 19:0.012987 20:0.012987 21:0 22:0.012987 23:0.012987 24:0 25:0.012987 26:0.012987 27:0.025974 28:0 29:0 30:0 31:0 32:0 33:0.012987 34:0 35:0 36:0 37:0.012987 38:0.012987 39:0.012987 40:0.038961 41:0 42:0.012987 43:0.025974 44:0 45:0.012987 46:0 47:0.012987 48:0.012987 49:0.012987 50:0.012987 51:0 52:0 53:0 54:0.038961 55:0.012987 56:0 57:0.025974 58:0.012987 59:0 60:0 61:0 62:0 63:0.012987 64:0.012987 65:0 66:0 67:0.025974 68:0 69:0.012987 70:0.012987 71:0.012987 72:0 73:0.038961 74:0.012987 75:0.025974 76:0 77:0.012987 78:0 79:0 80:0 81:0 82:0 83:0 84:0 85:0.012987 86:0.025974 87:0 88:0.012987 89:0.012987 90:0.025974 91:0.025974 92:0 93:0 94:0 95:0 96:0 97:0 98:0 99:0 100:0.012987 
4.48432741673523 1:0 2:0.029412 3:0.029412 4:0 5:0.014706 6:0 7:0.044118 8:0.014706 9:0.029412 10:0 11:0 12:0 13:0.014706 14:0.044118 15:0 16:0 17:0.014706 18:0 19:0.014706 20:0 21:0.014706 22:0.014706 23:0.014706 24:0 25:0.029412 26:0 27:0.014706 28:0 29:0 30:0 31:0 32:0.014706 33:0.044118 34:0.014706 35:0 36:0.014706 37:0 38:0.014706 39:0.058824 40:0.014706 41:0 42:0 43:0 44:0 45:0.014706 46:0 47:0.014706 48:0 49:0 50:0 51:0.014706 52:0.044118 53:0 54:0 55:0 56:0.014706 57:0 58:0.014706 59:0 60:0.014706 61:0 62:0.029412 63:0 64:0 65:0.014706 66:0.014706 67:0 68:0 69:0 70:0 71:0 72:0.014706 73:0.029412 74:0 75:0 76:0 77:0.029412 78:0 79:0.014706 80:0.014706 81:0 82:0 83:0 84:0 85:0.014706 86:0.029412 87:0 88:0 89:0 90:0 91:0.014706 92:0.088235 93:0 94:0.014706 95:0 96:0 97:0.014706 98:0 99:0 100:0.014706 
56 1:0 2:0 3:0 4:0.02381 5:0.011905 6:0.011905 7:0.02381 8:0.011905 9:0 10:0.011905 11:0 12:0 13:0 14:0.035714 15:0 16:0 17:0 18:0.02381 19:0.011905 20:0 21:0.02381 22:0 23:0.011905 24:0.011905 25:0 26:0.02381 27:0.02381 28:0.02381 29:0.011905 30:0.011905 31:0 32:0.047619 33:0 34:0 35:0 36:0.011905 37:0 38:0 39:0.011905 40:0.02381 41:0 42:0 43:0.011905 44:0.02381 45:0 46:0.02381 47:0 48:0 49:0.011905 50:0.02381 51:0 52:0.011905 53:0.011905 54:0.011905 55:0 56:0 57:0 58:0.011905 59:0 60:0.011905 61:0 62:0 63:0.011905 64:0 65:0.011905 66:0.02381 67:0 68:0.011905 69:0 70:0.011905 71:0 72:0.011905 73:0.02381 74:0.02381 75:0 76:0 77:0 78:0 79:0.02381 80:0.011905 81:0.011905 82:0 83:0 84:0 85:0.011905 86:0.02381 87:0.02381 88:0 89:0.02381 90:0.011905 91:0 92:0 93:0.011905 94:0 95:0.02381 96:0.011905 97:0 98:0.071429 99:0.035714 100:0.011905 
-56 1:0.014815 2:0 3:0.007407 4:0.007407 5:0.007407 6:0 7:0.007407 8:0 9:0.007407 10:0 11:0.007407 12:0.02963 13:0 14:0.022222 15:0.02963 16:0.022222 17:0.014815 18:0.022222 19:0 20:0.007407 21:0.014815 22:0 23:0.022222 24:0 25:0.014815 26:0.007407 27:0.007407 28:0.007407 29:0.007407 30:0.007407 31:0.007407 32:0 33:0.02963 34:0 35:0.014815 36:0.007407 37:0 38:0.022222 39:0.014815 40:0.014815 41:0 42:0.007407 43:0.014815 44:0.014815 45:0.007407 46:0 47:0.022222 48:0.007407 49:0 50:0.014815 51:0.007407 52:0.007407 53:0.007407 54:0.022222 55:0 56:0.014815 57:0 58:0.007407 59:0.014815 60:0.007407 61:0 62:0 63:0.007407 64:0.022222 65:0.007407 66:0.014815 67:0 68:0 69:0.014815 70:0 71:0.014815 72:0.007407 73:0 74:0.007407 75:0 76:0.014815 77:0.02963 78:0.044444 79:0 80:0.014815 81:0 82:0.007407 83:0 84:0.02963 85:0.02963 86:0 87:0.014815 88:0.014815 89:0.014815 90:0 91:0.02963 92:0.022222 93:0.014815 94:0 95:0.007407 96:0.007407 97:0 98:0 99:0 100:0.022222 
-56 1:0.006849 2:0.010274 3:0.010274 4:0.013699 5:0 6:0.023973 7:0.003425 8:0.003425 9:0.013699 10:0.006849 11:0.010274 12:0.030822 13:0.006849 14:0.003425 15:0.030822 16:0.003425 17:0.013699 18:0 19:0.020548 20:0.003425 21:0 22:0.027397 23:0.003425 24:0.003425 25:0.003425 26:0.010274 27:0.017123 28:0 29:0.006849 30:0.010274 31:0.006849 32:0.006849 33:0.013699 34:0.003425 35:0.017123 36:0.006849 37:0.027397 38:0.003425 39:0.010274 40:0.003425 41:0.013699 42:0.003425 43:0.006849 44:0.010274 45:0.013699 46:0.030822 47:0.006849 48:0.013699 49:0.010274 50:0 51:0 52:0 53:0.006849 54:0.010274 55:0.010274 56:0.010274 57:0.013699 58:0.006849 59:0.013699 60:0.023973 61:0.013699 62:0.013699 63:0 64:0 65:0.017123 66:0.017123 67:0 68:0.010274 69:0.003425 70:0.003425 71:0.006849 72:0.017123 73:0.006849 74:0.017123 75:0.003425 76:0.010274 77:0.006849 78:0.003425 79:0.013699 80:0.006849 81:0.010274 82:0.006849 83:0.010274 84:0.013699 85:0.013699 86:0.013699 87:0.006849 88:0.003425 89:0.013699 90:0.027397 91:0.017123 92:0.013699 93:0 94:0.010274 95:0.013699 96:0.017123 97:0.003425 98:0.017123 99:0.006849 100:0.006849 
-5.778862785862859 1:0 2:0.003311 3:0.006623 4:0 5:0.003311 6:0.049669 7:0 8:0.003311 9:0.006623 10:0.006623 11:0 12:0 13:0.003311 14:0.009934 15:0.016556 16:0.009934 17:0.009934 18:0.003311 19:0.006623 20:0.013245 21:0.02649 22:0.036424 23:0.013245 24:0.006623 25:0.009934 26:0.006623 27:0 28:0.009934 29:0.013245 30:0.033113 31:0 32:0.009934 33:0.003311 34:0.003311 35:0.006623 36:0.006623 37:0.003311 38:0.006623 39:0.003311 40:0 41:0.003311 42:0.009934 43:0.006623 44:0.016556 45:0.019868 46:0.006623 47:0 48:0.003311 49:0.003311 50:0.02649 51:0.003311 52:0.009934 53:0.013245 54:0.003311 55:0.009934 56:0 57:0 58:0.003311 59:0.016556 60:0.009934 61:0.062914 62:0.019868 63:0.003311 64:0.013245 65:0.019868 66:0 67:0.02649 68:0.016556 69:0 70:0.029801 71:0 72:0.009934 73:0 74:0 75:0.009934 76:0.003311 77:0.003311 78:0.003311 79:0.003311 80:0.036424 81:0.019868 82:0.009934 83:0.003311 84:0.003311 85:0 86:0.006623 87:0.016556 88:0 89:0 90:0.003311 91:0.003311 92:0.006623 93:0.003311 94:0.003311 95:0.009934 96:0.049669 97:0.006623 98:0.02649 99:0.033113 100:0.016556 
-10.94721618837926 1:0.013333 2:0.013333 3:0 4:0 5:0.026667 6:0 7:0 8:0 9:0 10:0.026667 11:0 12:0.026667 13:0 14:0 15:0 16:0 17:0 18:0 19:0 20:0 21:0 22:0 23:0 24:0 25:0.013333 26:0.013333 27:0.04 28:0 29:0.013333 30:0 31:0.026667 32:0 33:0.013333 34:0.013333 35:0.013333 36:0 37:0 38:0.026667 39:0 40:0.013333 41:0.026667 42:0 43:0 44:0.026667 45:0 46:0.013333 47:0 48:0 49:0.026667 50:0 51:0 52:0 53:0 54:0.04 55:0.013333 56:0 57:0 58:0.013333 59:0.013333 60:0.013333 61:0 62:0 63:0.013333 64:0 65:0 66:0.013333 67:0 68:0.013333 69:0.026667 70:0.013333 71:0.053333 72:0.026667 73:0 74:0 75:0 76:0 77:0 78:0.04 79:0 80:0 81:0.026667 82:0 83:0.066667 84:0.013333 85:0 86:0 87:0 88:0 89:0 90:0.026667 91:0.013333 92:0.066667 93:0.013333 94:0 95:0.013333 96:0.013333 97:0.026667 98:0 99:0.013333 100:0.026667 
-56 1:0 2:0.013158 3:0.026316 4:0 5:0 6:0.013158 7:0.039474 8:0 9:0.026316 10:0.026316 11:0.026316 12:0 13:0.026316 14:0.052632 15:0 16:0 17:0.026316 18:0 19:0.013158 20:0 21:0 22:0 23:0.026316 24:0.013158 25:0.026316 26:0.013158 27:0.039474 28:0 29:0.013158 30:0.013158 31:0 32:0 33:0.013158 34:0 35:0 36:0.013158 37:0 38:0.026316 39:0 40:0.013158 41:0 42:0 43:0.026316 44:0 45:0 46:0.026316 47:0.013158 48:0 49:0.013158 50:0.013158 51:0 52:0 53:0 54:0 55:0 56:0.013158 57:0.013158 58:0 59:0 60:0.026316 61:0 62:0 63:0.013158 64:0 65:0 66:0 67:0 68:0 69:0 70:0 71:0.013158 72:0 73:0.013158 74:0.026316 75:0.026316 76:0 77:0.013158 78:0 79:0.013158 80:0.013158 81:0 82:0.013158 83:0.013158 84:0.013158 85:0.026316 86:0 87:0.013158 88:0.026316 89:0 90:0.026316 91:0.013158 92:0 93:0 94:0.026316 95:0.013158 96:0.013158 97:0.013158 98:0.013158 99:0 100:0 
-56 1:0 2:0.009091 3:0 4:0 5:0 6:0.009091 7:0.009091 8:0.009091 9:0.009091 10:0.045455 11:0 12:0.018182 13:0 14:0.045455 15:0.009091 16:0 17:0 18:0 19:0.009091 20:0.009091 21:0.027273 22:0.009091 23:0.018182 24:0 25:0 26:0 27:0.009091 28:0.018182 29:0.009091 30:0.027273 31:0.027273 32:0.027273 33:0 34:0.009091 35:0 36:0 37:0.009091 38:0.027273 39:0.009091 40:0.009091 41:0.018182 42:0 43:0 44:0 45:0.009091 46:0 47:0 48:0.009091 49:0.018182 50:0.027273 51:0 52:0 53:0 54:0.009091 55:0 56:0.027273 57:0 58:0 59:0 60:0 61:0 62:0.009091 63:0 64:0.009091 65:0 66:0 67:0.009091 68:0 69:0 70:0.036364 71:0 72:0.009091 73:0.009091 74:0 75:0.027273 76:0.009091 77:0 78:0 79:0.009091 80:0.009091 81:0 82:0.009091 83:0.018182 84:0.018182 85:0 86:0 87:0.009091 88:0.018182 89:0.009091 90:0.027273 91:0.027273 92:0 93:0 94:0 95:0.009091 96:0 97:0.009091 98:0.018182 99:0.009091 100:0.145455 
-56 1:0.010989 2:0 3:0.010989 4:0 5:0 6:0.010989 7:0 8:0.010989 9:0 10:0.021978 11:0.010989 12:0.010989 13:0.021978 14:0.054945 15:0 16:0 17:0.010989 18:0.010989 19:0.010989 20:0 21:0.010989 22:0.010989 23:0.010989 24:0.010989 25:0.021978 26:0 27:0 28:0 29:0 30:0 31:0 32:0.010989 33:0.010989 34:0 35:0.010989 36:0.010989 37:0 38:0.010989 39:0.010989 40:0.010989 41:0.010989 42:0 43:0.065934 44:0.010989 45:0 46:0 47:0.010989 48:0 49:0 50:0.021978 51:0.010989 52:0 53:0 54:0 55:0.010989 56:0 57:0 58:0 59:0 60:0.010989 61:0.010989 62:0 63:0 64:0 65:0 66:0 67:0.021978 68:0.010989 69:0 70:0.010989 71:0.021978 72:0.010989 73:0.021978 74:0.010989 75:0 76:0.010989 77:0.010989 78:0 79:0.010989 80:0 81:0 82:0.010989 83:0.021978 84:0.010989 85:0.010989 86:0 87:0 88:0.043956 89:0 90:0.032967 91:0 92:0.054945 93:0.010989 94:0.010989 95:0.065934 96:0.043956 97:0 98:0 99:0 100:0.032967 
-56 1:0 2:0.010417 3:0 4:0 5:0.010417 6:0 7:0 8:0.020833 9:0.020833 10:0.020833 11:0 12:0 13:0 14:0.083333 15:0.010417 16:0 17:0.010417 18:0 19:0 20:0.010417 21:0 22:0.03125 23:0.03125 24:0.020833 25:0.010417 26:0.010417 27:0 28:0 29:0 30:0.010417 31:0.010417 32:0.010417 33:0 34:0 35:0.020833 36:0.010417 37:0.010417 38:0.03125 39:0.010417 40:0 41:0 42:0 43:0.0625 44:0.020833 45:0 46:0 47:0 48:0.010417 49:0.010417 50:0.010417 51:0.020833 52:0 53:0 54:0.020833 55:0 56:0 57:0 58:0.020833 59:0.020833 60:0.020833 61:0.010417 62:0.010417 63:0 64:0 65:0 66:0 67:0 68:0.010417 69:0.010417 70:0.010417 71:0 72:0.010417 73:0.010417 74:0.010417 75:0.010417 76:0.020833 77:0.010417 78:0.03125 79:0.020833 80:0 81:0 82:0 83:0 84:0 85:0.020833 86:0.010417 87:0 88:0.0625 89:0 90:0.020833 91:0 92:0.03125 93:0 94:0.010417 95:0 96:0.010417 97:0.010417 98:0 99:0 100:0.010417 
-53.41122311983351 1:0 2:0 3:0.013158 4:0.013158 5:0.013158 6:0.013158 7:0.013158 8:0 9:0.026316 10:0.013158 11:0.013158 12:0.013158 13:0 14:0 15:0 16:0 17:0 18:0.026316 19:0.026316 20:0 21:0.013158 22:0.013158 23:0.013158 24:0 25:0 26:0.013158 27:0 28:0.013158 29:0.013158 30:0.026316 31:0.013158 32:0 33:0 34:0.013158 35:0 36:0 37:0 38:0.026316 39:0.013158 40:0 41:0.026316 42:0 43:0.026316 44:0 45:0 46:0 47:0.013158 48:0 49:0.013158 50:0 51:0 52:0 53:0 54:0 55:0 56:0.013158 57:0.026316 58:0.026316 59:0.013158 60:0.026316 61:0.026316 62:0 63:0 64:0 65:0.026316 66:0 67:0 68:0 69:0.026316 70:0.013158 71:0.013158 72:0 73:0 74:0 75:0.026316 76:0 77:0 78:0.026316 79:0 80:0 81:0.013158 82:0.013158 83:0.026316 84:0 85:0.026316 86:0 87:0 88:0 89:0.026316 90:0.039474 91:0 92:0.078947 93:0.026316 94:0 95:0.013158 96:0 97:0.013158 98:0.013158 99:0.013158 100:0 
-56 1:0.012195 2:0.006098 3:0.012195 4:0 5:0.02439 6:0.006098 7:0 8:0.006098 9:0.006098 10:0.018293 11:0.02439 12:0 13:0.02439 14:0.012195 15:0 16:0 17:0.018293 18:0.018293 19:0.012195 20:0.006098 21:0.018293 22:0 23:0.012195 24:0 25:0 26:0.036585 27:0 28:0.006098 29:0.018293 30:0.012195 31:0.012195 32:0.012195 33:0 34:0 35:0 36:0.006098 37:0.012195 38:0.018293 39:0.012195 40:0.018293 41:0.018293 42:0.006098 43:0.006098 44:0.030488 45:0.02439 46:0.012195 47:0 48:0.018293 49:0.006098 50:0 51:0.006098 52:0.012195 53:0.012195 54:0.012195 55:0 56:0.006098 57:0.006098 58:0.006098 59:0.012195 60:0.018293 61:0.006098 62:0 63:0.006098 64:0.006098 65:0.012195 66:0.012195 67:0.012195 68:0.006098 69:0.006098 70:0.012195 71:0.018293 72:0.018293 73:0 74:0.012195 75:0.02439 76:0.006098 77:0.006098 78:0.006098 79:0.012195 80:0.006098 81:0.012195 82:0 83:0 84:0.006098 85:0.006098 86:0.006098 87:0 88:0 89:0.042683 90:0.02439 91:0.012195 92:0 93:0 94:0.012195 95:0.018293 96:0 97:0.012195 98:0.006098 99:0.018293 100:0.018293 
-1.937449392930044 1:0.007752 2:0.007752 3:0 4:0.015504 5:0.031008 6:0 7:0 8:0 9:0.007752 10:0.015504 11:0 12:0 13:0.007752 14:0 15:0 16:0 17:0.015504 18:0 19:0.007752 20:0 21:0.031008 22:0 23:0.031008 24:0.007752 25:0.031008 26:0 27:0 28:0.007752 29:0.007752 30:0.007752 31:0.007752 32:0 33:0.007752 34:0.023256 35:0.023256 36:0.007752 37:0 38:0.139535 39:0.015504 40:0.015504 41:0 42:0 43:0.007752 44:0 45:0.015504 46:0.031008 47:0 48:0 49:0.007752 50:0.007752 51:0 52:0 53:0.007752 54:0 55:0 56:0 57:0.007752 58:0.007752 59:0.015504 60:0 61:0.007752 62:0 63:0.007752 64:0 65:0.007752 66:0.015504 67:0 68:0.015504 69:0 70:0 71:0.031008 72:0.007752 73:0 74:0.007752 75:0.007752 76:0.015504 77:0 78:0.031008 79:0 80:0 81:0 82:0.015504 83:0.03876 84:0 85:0.007752 86:0 87:0 88:0 89:0 90:0 91:0.015504 92:0.031008 93:0 94:0.015504 95:0 96:0 97:0.116279 98:0 99:0.015504 100:0 
-56 1:0 2:0 3:0.014599 4:0.029197 5:0 6:0 7:0 8:0.007299 9:0.021898 10:0.021898 11:0.021898 12:0.021898 13:0.014599 14:0 15:0.021898 16:0 17:0.007299 18:0.007299 19:0.021898 20:0 21:0.021898 22:0 23:0 24:0 25:0.021898 26:0.007299 27:0.021898 28:0.014599 29:0.021898 30:0.014599 31:0.029197 32:0.029197 33:0.007299 34:0 35:0 36:0 37:0 38:0.036496 39:0.014599 40:0.014599 41:0.029197 42:0.014599 43:0.007299 44:0.007299 45:0.007299 46:0 47:0 48:0.007299 49:0 50:0.014599 51:0.021898 52:0 53:0 54:0.014599 55:0.014599 56:0 57:0 58:0.014599 59:0.014599 60:0 61:0 62:0 63:0.014599 64:0.021898 65:0.007299 66:0.029197 67:0 68:0 69:0.007299 70:0.007299 71:0.007299 72:0.021898 73:0 74:0 75:0.043796 76:0 77:0 78:0.007299 79:0.007299 80:0.014599 81:0.007299 82:0.007299 83:0.014599 84:0 85:0.007299 86:0 87:0.007299 88:0 89:0 90:0.014599 91:0.007299 92:0.021898 93:0.007299 94:0 95:0.014599 96:0 97:0.014599 98:0.021898 99:0.014599 100:0.014599 
-56 1:0 2:0 3:0.007299 4:0.007299 5:0.007299 6:0.007299 7:0 8:0 9:0.014599 10:0.014599 11:0.007299 12:0 13:0.007299 14:0.014599 15:0.007299 16:0.014599 17:0 18:0.021898 19:0.029197 20:0.007299 21:0.021898 22:0.007299 23:0.007299 24:0.007299 25:0.036496 26:0 27:0 28:0.007299 29:0.007299 30:0.021898 31:0 32:0.014599 33:0.043796 34:0 35:0 36:0 37:0.007299 38:0.007299 39:0 40:0.014599 41:0.021898 42:0 43:0.007299 44:0.021898 45:0.029197 46:0.007299 47:0.007299 48:0.014599 49:0 50:0.007299 51:0.007299 52:0.007299 53:0.007299 54:0.007299 55:0.007299 56:0 57:0 58:0.014599 59:0 60:0 61:0.014599 62:0.014599 63:0.014599 64:0.014599 65:0.007299 66:0.043796 67:0.007299 68:0 69:0.014599 70:0 71:0.014599 72:0 73:0.007299 74:0.029197 75:0.007299 76:0.007299 77:0 78:0 79:0 80:0.021898 81:0.007299 82:0.021898 83:0.007299 84:0.021898 85:0 86:0.007299 87:0.014599 88:0 89:0.007299 90:0.029197 91:0.007299 92:0 93:0 94:0.007299 95:0 96:0.021898 97:0.021898 98:0.014599 99:0.036496 100:0.014599 
-56 1:0.00821 2:0.008621 3:0.006568 4:0.0078 5:0.006568 6:0.005337 7:0.00821 8:0.004516 9:0.005337 10:0.014778 11:0.010673 12:0.0078 13:0.004516 14:0.028325 15:0.003284 16:0.013136 17:0.010673 18:0.004105 19:0.0078 20:0.011905 21:0.006158 22:0.015189 23:0.01601 24:0.005747 25:0.003284 26:0.010263 27:0.009852 28:0.009442 29:0.002874 30:0.004926 31:0.004926 32:0.025041 33:0.004105 34:0.009031 35:0.006979 36:0.006568 37:0.004105 38:0.006979 39:0.00821 40:0.003284 41:0.004105 42:0.003695 43:0.018883 44:0.00821 45:0.004926 46:0.004926 47:0.004926 48:0.004926 49:0.013136 50:0.014368 51:0.009852 52:0.011905 53:0.003284 54:0.006979 55:0.004516 56:0.013136 57:0.004926 58:0.006568 59:0.00821 60:0.004516 61:0.009852 62:0.004926 63:0.004926 64:0.003695 65:0.009442 66:0.015599 67:0.005747 68:0.009852 69:0.004926 70:0.003695 71:0.000411 72:0.006158 73:0.010263 74:0.003695 75:0.004516 76:0.007389 77:0.009852 78:0.059524 79:0.006979 80:0.006158 81:0.004516 82:0.004926 83:0.000411 84:0.007389 85:0.003695 86:0.006158 87:0.014778 88:0.005337 89:0.004926 90:0.014368 91:0.003284 92:0.06486 93:0.004926 94:0.009031 95:0.020525 96:0.081691 97:0.006568 98:0.041872 99:0.005747 100:0.010263 
-56 1:0.021053 2:0 3:0 4:0.010526 5:0.010526 6:0.021053 7:0 8:0 9:0 10:0 11:0.010526 12:0.042105 13:0.021053 14:0.010526 15:0.010526 16:0.010526 17:0 18:0.010526 19:0.010526 20:0.010526 21:0.010526 22:0.010526 23:0.021053 24:0 25:0 26:0.010526 27:0 28:0.010526 29:0.010526 30:0.031579 31:0 32:0.031579 33:0.010526 34:0.010526 35:0.010526 36:0.010526 37:0 38:0.010526 39:0.010526 40:0.010526 41:0 42:0 43:0.042105 44:0 45:0 46:0.031579 47:0.010526 48:0.021053 49:0.021053 50:0 51:0 52:0.010526 53:0.031579 54:0.010526 55:0.010526 56:0 57:0 58:0 59:0 60:0.010526 61:0.031579 62:0 63:0 64:0.010526 65:0 66:0.010526 67:0 68:0.021053 69:0 70:0 71:0 72:0.010526 73:0.021053 74:0 75:0.031579 76:0.021053 77:0.010526 78:0.010526 79:0.010526 80:0.010526 81:0.010526 82:0.010526 83:0 84:0 85:0.010526 86:0.010526 87:0.010526 88:0.021053 89:0 90:0.021053 91:0 92:0.010526 93:0 94:0 95:0.010526 96:0 97:0.010526 98:0.031579 99:0.010526 100:0.021053 
-56 1:0.006289 2:0.012579 3:0.012579 4:0.012579 5:0 6:0.006289 7:0.025157 8:0.031447 9:0.006289 10:0 11:0.025157 12:0 13:0 14:0 15:0 16:0.006289 17:0.012579 18:0 19:0.012579 20:0.006289 21:0.006289 22:0.018868 23:0.006289 24:0 25:0 26:0.018868 27:0.006289 28:0.025157 29:0 30:0 31:0.012579 32:0.050314 33:0 34:0.012579 35:0 36:0 37:0.006289 38:0 39:0.012579 40:0.018868 41:0 42:0.006289 43:0.006289 44:0.006289 45:0.006289 46:0 47:0 48:0.012579 49:0 50:0.075472 51:0 52:0 53:0.018868 54:0.006289 55:0 56:0.025157 57:0 58:0.006289 59:0.012579 60:0.006289 61:0.006289 62:0.031447 63:0 64:0.012579 65:0.006289 66:0.018868 67:0.018868 68:0.012579 69:0 70:0.025157 71:0 72:0.012579 73:0.044025 74:0 75:0 76:0 77:0.012579 78:0.006289 79:0.037736 80:0 81:0 82:0.006289 83:0 84:0 85:0 86:0.031447 87:0.012579 88:0 89:0.025157 90:0.006289 91:0.006289 92:0.006289 93:0 94:0.012579 95:0.018868 96:0.025157 97:0 98:0.018868 99:0.006289 100:0.018868 
-56 1:0.001357 2:0.005427 3:0.008141 4:0.008141 5:0 6:0.008141 7:0.006784 8:0.012212 9:0 10:0.013569 11:0.016282 12:0.006784 13:0.012212 14:0.02171 15:0.001357 16:0.005427 17:0.012212 18:0.002714 19:0.005427 20:0.006784 21:0.004071 22:0.014925 23:0.013569 24:0.001357 25:0.014925 26:0.009498 27:0.018996 28:0.010855 29:0.002714 30:0.014925 31:0.005427 32:0.010855 33:0.010855 34:0.009498 35:0.001357 36:0.001357 37:0.002714 38:0.005427 39:0.016282 40:0.006784 41:0.002714 42:0.002714 43:0.014925 44:0.009498 45:0.004071 46:0.009498 47:0.020353 48:0.002714 49:0.016282 50:0.017639 51:0.002714 52:0.010855 53:0.013569 54:0.005427 55:0.014925 56:0.020353 57:0.006784 58:0.016282 59:0.02578 60:0.005427 61:0.020353 62:0.002714 63:0.002714 64:0.006784 65:0.012212 66:0.02578 67:0.010855 68:0.020353 69:0.006784 70:0.014925 71:0.006784 72:0.014925 73:0.018996 74:0.009498 75:0.005427 76:0.004071 77:0.02171 78:0.02171 79:0.016282 80:0.006784 81:0.006784 82:0.004071 83:0.006784 84:0.004071 85:0.013569 86:0.016282 87:0.008141 88:0.004071 89:0.010855 90:0.008141 91:0.010855 92:0.024423 93:0.004071 94:0.005427 95:0.005427 96:0.032564 97:0.005427 98:0.008141 99:0.010855 100:0.006784 
-56 1:0.007082 2:0.009915 3:0.018414 4:0.005666 5:0.008499 6:0.014164 7:0.001416 8:0.014164 9:0.009915 10:0.004249 11:0.021246 12:0.007082 13:0.008499 14:0.015581 15:0.007082 16:0.005666 17:0.024079 18:0.001416 19:0.001416 20:0.007082 21:0.008499 22:0.014164 23:0.014164 24:0.005666 25:0.009915 26:0.015581 27:0.002833 28:0.014164 29:0.004249 30:0.009915 31:0.002833 32:0.009915 33:0.008499 34:0.009915 35:0.007082 36:0.008499 37:0.005666 38:0.004249 39:0.025496 40:0.007082 41:0.011331 42:0.008499 43:0.012748 44:0.007082 45:0.008499 46:0.005666 47:0.009915 48:0.011331 49:0.014164 50:0.008499 51:0.008499 52:0.009915 53:0.008499 54:0.008499 55:0.012748 56:0.007082 57:0.004249 58:0.011331 59:0.01983 60:0.007082 61:0.009915 62:0.012748 63:0.001416 64:0.008499 65:0.014164 66:0.021246 67:0.001416 68:0.009915 69:0.004249 70:0.008499 71:0.007082 72:0.01983 73:0.024079 74:0.002833 75:0 76:0.004249 77:0.009915 78:0.024079 79:0.026912 80:0.009915 81:0.002833 82:0.007082 83:0.007082 84:0.011331 85:0.009915 86:0.005666 87:0.009915 88:0.001416 89:0.01983 90:0.008499 91:0.004249 92:0.033994 93:0.007082 94:0.011331 95:0.008499 96:0.015581 97:0.008499 98:0.009915 99:0.012748 100:0.007082 
-37.25685366774071 1:0 2:0.008264 3:0 4:0.008264 5:0.016529 6:0.008264 7:0 8:0.008264 9:0 10:0.024793 11:0.041322 12:0 13:0.008264 14:0.008264 15:0 16:0 17:0.008264 18:0.008264 19:0.016529 20:0 21:0.016529 22:0 23:0.016529 24:0.016529 25:0 26:0.008264 27:0.024793 28:0.008264 29:0 30:0.024793 31:0.008264 32:0.024793 33:0.016529 34:0.016529 35:0 36:0 37:0 38:0.016529 39:0.024793 40:0.008264 41:0 42:0 43:0.016529 44:0.016529 45:0.008264 46:0 47:0.008264 48:0 49:0.016529 50:0.016529 51:0.008264 52:0.008264 53:0 54:0.024793 55:0 56:0 57:0 58:0.016529 59:0.008264 60:0.008264 61:0.024793 62:0 63:0 64:0.008264 65:0.016529 66:0.008264 67:0.008264 68:0.008264 69:0.008264 70:0 71:0 72:0 73:0 74:0 75:0.024793 76:0 77:0.008264 78:0.066116 79:0 80:0.008264 81:0.024793 82:0.008264 83:0.016529 84:0.016529 85:0 86:0.016529 87:0 88:0 89:0.024793 90:0.016529 91:0 92:0.024793 93:0 94:0 95:0.033058 96:0.008264 97:0.008264 98:0.016529 99:0.016529 100:0.024793 
-56 1:0.004329 2:0.004329 3:0.012987 4:0.017316 5:0.012987 6:0.017316 7:0 8:0.004329 9:0.008658 10:0 11:0 12:0.025974 13:0.025974 14:0 15:0.012987 16:0.004329 17:0.021645 18:0.012987 19:0.004329 20:0.012987 21:0 22:0.004329 23:0.012987 24:0.004329 25:0.004329 26:0.004329 27:0.004329 28:0.008658 29:0.012987 30:0.004329 31:0.008658 32:0.030303 33:0.008658 34:0.008658 35:0.004329 36:0.008658 37:0.008658 38:0.008658 39:0.004329 40:0 41:0.021645 42:0.004329 43:0.017316 44:0.021645 45:0.008658 46:0.012987 47:0 48:0.008658 49:0 50:0 51:0.004329 52:0.004329 53:0 54:0.008658 55:0.004329 56:0.004329 57:0.008658 58:0.025974 59:0.004329 60:0.008658 61:0.017316 62:0.012987 63:0.004329 64:0.017316 65:0.008658 66:0.021645 67:0 68:0 69:0.012987 70:0 71:0.012987 72:0.004329 73:0.030303 74:0.021645 75:0.021645 76:0.008658 77:0 78:0.025974 79:0.008658 80:0.004329 81:0.004329 82:0.017316 83:0.012987 84:0.004329 85:0.004329 86:0.008658 87:0 88:0.017316 89:0.025974 90:0.021645 91:0.012987 92:0.017316 93:0.008658 94:0.008658 95:0.012987 96:0.017316 97:0 98:0.038961 99:0 100:0.008658 
-56 1:0.029412 2:0.009804 3:0.009804 4:0.019608 5:0 6:0.009804 7:0 8:0.009804 9:0 10:0.019608 11:0.019608 12:0 13:0 14:0.019608 15:0 16:0 17:0.019608 18:0.009804 19:0.009804 20:0.009804 21:0.009804 22:0 23:0 24:0 25:0.009804 26:0 27:0.019608 28:0.009804 29:0 30:0.029412 31:0.009804 32:0.029412 33:0.039216 34:0 35:0.019608 36:0.009804 37:0 38:0 39:0 40:0.019608 41:0.019608 42:0.039216 43:0 44:0.029412 45:0.009804 46:0.009804 47:0 48:0 49:0.009804 50:0.029412 51:0.019608 52:0 53:0 54:0.009804 55:0 56:0 57:0 58:0.019608 59:0 60:0.009804 61:0.019608 62:0 63:0 64:0.009804 65:0.009804 66:0 67:0 68:0.009804 69:0.009804 70:0.009804 71:0 72:0 73:0.019608 74:0.009804 75:0.009804 76:0 77:0 78:0.029412 79:0.009804 80:0.009804 81:0.029412 82:0 83:0 84:0.009804 85:0 86:0 87:0.039216 88:0.009804 89:0.019608 90:0.019608 91:0.009804 92:0 93:0 94:0.009804 95:0.019608 96:0.019608 97:0 98:0.019608 99:0.019608 100:0.009804 
-56 1:0.01105 2:0.01105 3:0.005525 4:0.016575 5:0.016575 6:0 7:0.01105 8:0.005525 9:0.005525 10:0.027624 11:0.016575 12:0.016575 13:0.01105 14:0.066298 15:0 16:0.01105 17:0.016575 18:0.01105 19:0.005525 20:0.01105 21:0.01105 22:0 23:0 24:0 25:0.01105 26:0 27:0.005525 28:0.005525 29:0.005525 30:0.01105 31:0.01105 32:0.022099 33:0.016575 34:0 35:0.01105 36:0.005525 37:0 38:0.005525 39:0.01105 40:0.016575 41:0 42:0.016575 43:0.033149 44:0.01105 45:0 46:0 47:0 48:0.016575 49:0.01105 50:0.016575 51:0.01105 52:0 53:0.005525 54:0.016575 55:0 56:0.022099 57:0.005525 58:0.01105 59:0.005525 60:0.016575 61:0.005525 62:0.01105 63:0.005525 64:0.01105 65:0.01105 66:0 67:0.005525 68:0.01105 69:0.016575 70:0.01105 71:0 72:0.027624 73:0.01105 74:0.005525 75:0.005525 76:0.005525 77:0.01105 78:0.005525 79:0.005525 80:0 81:0 82:0.01105 83:0 84:0.022099 85:0.016575 86:0.01105 87:0.005525 88:0.027624 89:0 90:0.027624 91:0.005525 92:0.016575 93:0.01105 94:0.01105 95:0.033149 96:0 97:0 98:0 99:0.005525 100:0.005525 
-56 1:0.004808 2:0 3:0.004808 4:0.019231 5:0.033654 6:0.004808 7:0 8:0 9:0.014423 10:0.038462 11:0.004808 12:0.019231 13:0.024038 14:0.024038 15:0.004808 16:0 17:0.004808 18:0.004808 19:0.014423 20:0.009615 21:0.004808 22:0.009615 23:0 24:0 25:0.019231 26:0 27:0.009615 28:0.004808 29:0.014423 30:0.019231 31:0.014423 32:0.014423 33:0.009615 34:0.004808 35:0.004808 36:0 37:0.004808 38:0.038462 39:0.004808 40:0 41:0.004808 42:0.004808 43:0 44:0.014423 45:0.024038 46:0.024038 47:0.009615 48:0.004808 49:0 50:0.004808 51:0.004808 52:0.004808 53:0 54:0.004808 55:0.009615 56:0.014423 57:0.004808 58:0.009615 59:0.009615 60:0.004808 61:0 62:0.004808 63:0.009615 64:0.028846 65:0.014423 66:0.028846 67:0 68:0.028846 69:0.033654 70:0.004808 71:0.014423 72:0 73:0 74:0.014423 75:0.004808 76:0 77:0.004808 78:0.014423 79:0 80:0 81:0.004808 82:0.004808 83:0.038462 84:0.014423 85:0.009615 86:0 87:0 88:0.004808 89:0.014423 90:0.009615 91:0 92:0.019231 93:0.019231 94:0.019231 95:0.009615 96:0.004808 97:0.033654 98:0 99:0.004808 100:0.014423 
-56 1:0 2:0.011364 3:0.011364 4:0.011364 5:0 6:0.011364 7:0 8:0 9:0 10:0.022727 11:0.045455 12:0 13:0.011364 14:0 15:0.011364 16:0 17:0 18:0.011364 19:0.011364 20:0 21:0 22:0 23:0.034091 24:0 25:0.034091 26:0 27:0.034091 28:0 29:0 30:0 31:0.011364 32:0.011364 33:0 34:0 35:0.011364 36:0 37:0.011364 38:0.011364 39:0.011364 40:0.011364 41:0 42:0 43:0.011364 44:0 45:0 46:0 47:0.034091 48:0.011364 49:0.022727 50:0.022727 51:0 52:0.056818 53:0 54:0 55:0.022727 56:0 57:0 58:0.034091 59:0 60:0.022727 61:0 62:0 63:0.011364 64:0.011364 65:0.056818 66:0.011364 67:0 68:0 69:0 70:0.022727 71:0.022727 72:0 73:0.022727 74:0 75:0.034091 76:0 77:0.011364 78:0.011364 79:0.011364 80:0 81:0.011364 82:0 83:0.034091 84:0 85:0.022727 86:0 87:0 88:0 89:0 90:0 91:0.011364 92:0.056818 93:0.022727 94:0.011364 95:0.011364 96:0 97:0.011364 98:0 99:0 100:0 
-56 1:0.017751 2:0 3:0.005917 4:0.017751 5:0 6:0.029586 7:0 8:0 9:0.017751 10:0.023669 11:0 12:0.005917 13:0.005917 14:0.029586 15:0 16:0 17:0 18:0.029586 19:0.005917 20:0.005917 21:0.005917 22:0 23:0.023669 24:0 25:0.005917 26:0.011834 27:0.005917 28:0.011834 29:0.011834 30:0.035503 31:0.005917 32:0.017751 33:0.017751 34:0.005917 35:0 36:0.011834 37:0 38:0.017751 39:0.017751 40:0.005917 41:0.017751 42:0 43:0.011834 44:0.023669 45:0.011834 46:0.005917 47:0 48:0.005917 49:0.029586 50:0 51:0.011834 52:0.005917 53:0.005917 54:0.005917 55:0.005917 56:0.011834 57:0.005917 58:0.011834 59:0.005917 60:0.005917 61:0.005917 62:0.011834 63:0 64:0.017751 65:0 66:0.017751 67:0 68:0.017751 69:0.005917 70:0.005917 71:0.011834 72:0.011834 73:0 74:0.005917 75:0.029586 76:0.023669 77:0.005917 78:0 79:0 80:0 81:0.017751 82:0.005917 83:0.005917 84:0.023669 85:0.017751 86:0.005917 87:0.017751 88:0 89:0.029586 90:0.005917 91:0 92:0.017751 93:0 94:0.005917 95:0.011834 96:0 97:0.017751 98:0.011834 99:0.011834 100:0.029586 
-24.94067222903673 1:0.004167 2:0.004167 3:0.0125 4:0.004167 5:0.029167 6:0.004167 7:0 8:0.004167 9:0.016667 10:0.020833 11:0.0125 12:0.004167 13:0.016667 14:0.016667 15:0.008333 16:0.004167 17:0.0125 18:0.004167 19:0.008333 20:0.004167 21:0.008333 22:0.008333 23:0.008333 24:0.004167 25:0 26:0.008333 27:0.008333 28:0 29:0.008333 30:0.016667 31:0.004167 32:0 33:0 34:0.008333 35:0.008333 36:0.004167 37:0 38:0.058333 39:0 40:0.004167 41:0.008333 42:0.004167 43:0.004167 44:0.020833 45:0.033333 46:0.041667 47:0 48:0.016667 49:0.016667 50:0 51:0.020833 52:0.0125 53:0 54:0.008333 55:0.0125 56:0 57:0.004167 58:0.008333 59:0 60:0.016667 61:0.0125 62:0.008333 63:0.004167 64:0.004167 65:0.0125 66:0.008333 67:0 68:0.0125 69:0.004167 70:0 71:0.020833 72:0.004167 73:0 74:0.008333 75:0.004167 76:0.0125 77:0 78:0.025 79:0 80:0.004167 81:0.004167 82:0 83:0.045833 84:0.0125 85:0.004167 86:0 87:0 88:0.016667 89:0.008333 90:0.020833 91:0.0125 92:0.041667 93:0.025 94:0.008333 95:0.004167 96:0 97:0.041667 98:0.0125 99:0.0125 100:0.004167 
-31.6661572680135 1:0.011628 2:0 3:0.023256 4:0.023256 5:0 6:0 7:0 8:0.011628 9:0.034884 10:0 11:0 12:0 13:0 14:0.011628 15:0.034884 16:0 17:0.011628 18:0.011628 19:0.011628 20:0 21:0 22:0 23:0.023256 24:0 25:0.011628 26:0.011628 27:0 28:0.011628 29:0 30:0.034884 31:0 32:0 33:0.023256 34:0.011628 35:0.023256 36:0 37:0.011628 38:0.023256 39:0.011628 40:0.023256 41:0 42:0 43:0.034884 44:0.023256 45:0.011628 46:0 47:0.046512 48:0 49:0 50:0.011628 51:0.011628 52:0 53:0.011628 54:0.011628 55:0.023256 56:0.023256 57:0.011628 58:0 59:0.023256 60:0.023256 61:0.023256 62:0 63:0 64:0 65:0.011628 66:0.011628 67:0 68:0.011628 69:0.011628 70:0 71:0.011628 72:0 73:0.023256 74:0.011628 75:0 76:0 77:0 78:0.011628 79:0.011628 80:0 81:0.011628 82:0 83:0 84:0.023256 85:0.023256 86:0 87:0.023256 88:0 89:0.023256 90:0 91:0.046512 92:0.011628 93:0 94:0 95:0 96:0.023256 97:0 98:0 99:0 100:0 
