svm_type c_svc
kernel_type linear
nr_class 2
total_sv 70
rho 0.103358
label 0 2
nr_sv 32 38
SV
56 1:0.015504 2:0.011628 3:0.01938 4:0.011628 5:0.003876 6:0 7:0.003876 8:0 9:0.015504 10:0.007752 11:0.011628 12:0.003876 13:0 14:0.007752 15:0.007752 16:0.007752 17:0.007752 18:0.007752 19:0.011628 20:0.007752 21:0.003876 22:0.007752 23:0.007752 24:0.011628 25:0.015504 26:0.007752 27:0 28:0 29:0 30:0.007752 31:0.011628 32:0.007752 33:0.023256 34:0.01938 35:0.007752 36:0.01938 37:0.003876 38:0.015504 39:0.011628 40:0.011628 41:0.003876 42:0.031008 43:0.015504 44:0.011628 45:0.01938 46:0 47:0.011628 48:0.011628 49:0.027132 50:0 51:0.01938 52:0.015504 53:0 54:0.003876 55:0.003876 56:0 57:0 58:0.007752 59:0.011628 60:0.011628 61:0 62:0 63:0.007752 64:0.007752 65:0.015504 66:0.007752 67:0.015504 68:0.015504 69:0 70:0.011628 71:0.011628 72:0 73:0.023256 74:0.003876 75:0 76:0.031008 77:0.011628 78:0.046512 79:0.015504 80:0 81:0 82:0.003876 83:0.007752 84:0 85:0.015504 86:0.007752 87:0 88:0.023256 89:0.007752 90:0.011628 91:0.015504 92:0.027132 93:0.015504 94:0.01938 95:0.007752 96:0.007752 97:0.011628 98:0.015504 99:0 100:0.015504 
56 1:0.00304 2:0.006079 3:0.00304 4:0.009119 5:0.00304 6:0.015198 7:0.00304 8:0.012158 9:0.00304 10:0.00304 11:0.006079 12:0 13:0.009119 14:0.018237 15:0.006079 16:0.00304 17:0.012158 18:0.00304 19:0 20:0.006079 21:0.009119 22:0.018237 23:0.012158 24:0 25:0.015198 26:0.015198 27:0.021277 28:0.015198 29:0 30:0.018237 31:0 32:0.021277 33:0.024316 34:0.027356 35:0.00304 36:0.006079 37:0.006079 38:0 39:0.015198 40:0.00304 41:0.006079 42:0 43:0.012158 44:0.009119 45:0 46:0.015198 47:0.00304 48:0.00304 49:0.012158 50:0.021277 51:0.015198 52:0.012158 53:0.006079 54:0.009119 55:0.009119 56:0.015198 57:0 58:0.015198 59:0.006079 60:0.012158 61:0.021277 62:0.006079 63:0.006079 64:0.012158 65:0.012158 66:0.009119 67:0.00304 68:0.018237 69:0.00304 70:0 71:0.009119 72:0.012158 73:0.012158 74:0.00304 75:0.006079 76:0.018237 77:0.00304 78:0.048632 79:0.00304 80:0.015198 81:0.021277 82:0.006079 83:0.012158 84:0.018237 85:0.00304 86:0.009119 87:0.006079 88:0 89:0.012158 90:0.012158 91:0.00304 92:0.048632 93:0.00304 94:0.021277 95:0.006079 96:0.033435 97:0 98:0.012158 99:0.012158 100:0 
56 1:0 2:0.012987 3:0 4:0.004329 5:0.012987 6:0.017316 7:0.004329 8:0 9:0 10:0.021645 11:0.025974 12:0.04329 13:0 14:0 15:0.004329 16:0.004329 17:0.008658 18:0.004329 19:0.012987 20:0.008658 21:0.008658 22:0.004329 23:0 24:0.012987 25:0.004329 26:0.017316 27:0.004329 28:0.017316 29:0 30:0.017316 31:0.017316 32:0.030303 33:0.012987 34:0.004329 35:0.004329 36:0 37:0.008658 38:0.021645 39:0.008658 40:0 41:0.012987 42:0.017316 43:0 44:0.017316 45:0.008658 46:0 47:0.004329 48:0 49:0.021645 50:0.004329 51:0.008658 52:0.012987 53:0.012987 54:0.004329 55:0.004329 56:0.012987 57:0.004329 58:0.017316 59:0.017316 60:0.030303 61:0 62:0.008658 63:0 64:0.012987 65:0.004329 66:0.004329 67:0.008658 68:0 69:0 70:0.008658 71:0 72:0.004329 73:0.017316 74:0.008658 75:0 76:0.025974 77:0.004329 78:0.012987 79:0.008658 80:0.004329 81:0 82:0.008658 83:0.008658 84:0 85:0.025974 86:0.008658 87:0.008658 88:0.008658 89:0.030303 90:0.025974 91:0.008658 92:0.017316 93:0.004329 94:0.004329 95:0.034632 96:0.004329 97:0.021645 98:0.030303 99:0.008658 100:0.012987 
52.22635730253207 1:0 2:0.006803 3:0.020408 4:0 5:0.006803 6:0.006803 7:0.006803 8:0.020408 9:0.020408 10:0.006803 11:0.061224 12:0.020408 13:0 14:0.006803 15:0 16:0.013605 17:0 18:0.013605 19:0.006803 20:0 21:0.013605 22:0.013605 23:0.006803 24:0.027211 25:0 26:0.006803 27:0.006803 28:0 29:0 30:0 31:0.006803 32:0.047619 33:0.006803 34:0.013605 35:0 36:0.006803 37:0 38:0.013605 39:0.034014 40:0.006803 41:0.006803 42:0.013605 43:0.013605 44:0 45:0.006803 46:0 47:0.006803 48:0 49:0 50:0 51:0.006803 52:0 53:0 54:0.006803 55:0 56:0.006803 57:0.006803 58:0.013605 59:0.020408 60:0.013605 61:0.006803 62:0 63:0 64:0.006803 65:0.006803 66:0.013605 67:0.013605 68:0.006803 69:0 70:0 71:0 72:0 73:0.047619 74:0.027211 75:0.020408 76:0 77:0.013605 78:0.006803 79:0.020408 80:0 81:0.006803 82:0 83:0.013605 84:0.006803 85:0 86:0.020408 87:0.006803 88:0.006803 89:0.013605 90:0.027211 91:0 92:0.006803 93:0 94:0 95:0.020408 96:0.034014 97:0.020408 98:0.027211 99:0.013605 100:0.034014 
56 1:0.009524 2:0.028571 3:0 4:0.009524 5:0 6:0.009524 7:0.019048 8:0 9:0 10:0 11:0.028571 12:0.019048 13:0 14:0.009524 15:0 16:0 17:0.019048 18:0 19:0.009524 20:0.019048 21:0.009524 22:0.028571 23:0.009524 24:0 25:0.019048 26:0.028571 27:0.009524 28:0 29:0 30:0.019048 31:0 32:0 33:0.028571 34:0.009524 35:0 36:0.028571 37:0 38:0.019048 39:0.019048 40:0.028571 41:0.009524 42:0.019048 43:0.019048 44:0 45:0 46:0 47:0 48:0 49:0.019048 50:0.009524 51:0.019048 52:0 53:0 54:0.019048 55:0 56:0 57:0.009524 58:0.009524 59:0.019048 60:0 61:0 62:0.009524 63:0 64:0 65:0 66:0 67:0 68:0 69:0.009524 70:0 71:0 72:0.019048 73:0.028571 74:0.009524 75:0.009524 76:0 77:0.028571 78:0 79:0.019048 80:0 81:0.019048 82:0 83:0 84:0.009524 85:0.009524 86:0 87:0.009524 88:0.009524 89:0.009524 90:0.009524 91:0.038095 92:0.009524 93:0.019048 94:0 95:0.038095 96:0.019048 97:0 98:0.057143 99:0 100:0.019048 
56 1:0 2:0.010753 3:0.005376 4:0.021505 5:0.026882 6:0 7:0.005376 8:0 9:0 10:0.026882 11:0.010753 12:0.005376 13:0.010753 14:0.005376 15:0.005376 16:0 17:0.016129 18:0.005376 19:0.016129 20:0 21:0.010753 22:0.010753 23:0.021505 24:0.005376 25:0 26:0 27:0.010753 28:0.005376 29:0 30:0 31:0.005376 32:0.005376 33:0 34:0.010753 35:0.016129 36:0.016129 37:0 38:0.016129 39:0.016129 40:0.016129 41:0.010753 42:0.016129 43:0.010753 44:0 45:0.005376 46:0.005376 47:0.016129 48:0.016129 49:0.010753 50:0.016129 51:0.021505 52:0.032258 53:0.005376 54:0 55:0.005376 56:0.005376 57:0.010753 58:0.016129 59:0 60:0.016129 61:0.005376 62:0.005376 63:0.026882 64:0.010753 65:0.005376 66:0.016129 67:0 68:0 69:0.016129 70:0.010753 71:0 72:0 73:0.005376 74:0.016129 75:0.010753 76:0.037634 77:0.016129 78:0.005376 79:0.016129 80:0.005376 81:0 82:0 83:0 84:0 85:0.010753 86:0 87:0.010753 88:0.043011 89:0.005376 90:0.016129 91:0.016129 92:0.021505 93:0.010753 94:0 95:0.005376 96:0.048387 97:0.010753 98:0.016129 99:0.010753 100:0.005376 
56 1:0.02 2:0.02 3:0.02 4:0.01 5:0.03 6:0.01 7:0.02 8:0 9:0.01 10:0 11:0 12:0 13:0.01 14:0.05 15:0.03 16:0.01 17:0.04 18:0 19:0.01 20:0.01 21:0 22:0 23:0 24:0 25:0.01 26:0.01 27:0.02 28:0 29:0.01 30:0.01 31:0.01 32:0 33:0.01 34:0 35:0.01 36:0.02 37:0 38:0.04 39:0 40:0.01 41:0 42:0 43:0.04 44:0 45:0.01 46:0 47:0 48:0.01 49:0.01 50:0.01 51:0 52:0 53:0.01 54:0.01 55:0.01 56:0.01 57:0.01 58:0.03 59:0.02 60:0 61:0.01 62:0 63:0.01 64:0 65:0.01 66:0.01 67:0.02 68:0.01 69:0.03 70:0.02 71:0 72:0 73:0 74:0 75:0.01 76:0 77:0.01 78:0 79:0.03 80:0.01 81:0 82:0 83:0 84:0 85:0.02 86:0.01 87:0 88:0.01 89:0.02 90:0.01 91:0.01 92:0.01 93:0.01 94:0.01 95:0.03 96:0.01 97:0.03 98:0 99:0 100:0 
56 1:0.018605 2:0.009302 3:0.013953 4:0 5:0.009302 6:0.018605 7:0 8:0.004651 9:0.004651 10:0.009302 11:0.023256 12:0.009302 13:0 14:0 15:0.018605 16:0.004651 17:0.018605 18:0.009302 19:0.009302 20:0.009302 21:0.004651 22:0.009302 23:0.009302 24:0.004651 25:0.004651 26:0.013953 27:0.009302 28:0.023256 29:0.004651 30:0.013953 31:0 32:0.013953 33:0.009302 34:0.009302 35:0.009302 36:0 37:0.023256 38:0 39:0.009302 40:0.004651 41:0.009302 42:0.009302 43:0.027907 44:0.023256 45:0.004651 46:0.027907 47:0 48:0.009302 49:0.009302 50:0.009302 51:0.013953 52:0.004651 53:0.023256 54:0.004651 55:0 56:0.013953 57:0.009302 58:0.004651 59:0.009302 60:0.018605 61:0.018605 62:0.013953 63:0.004651 64:0.013953 65:0.004651 66:0.004651 67:0.009302 68:0.009302 69:0.004651 70:0.009302 71:0 72:0.04186 73:0.018605 74:0 75:0.018605 76:0 77:0.023256 78:0.023256 79:0.009302 80:0.009302 81:0.004651 82:0.004651 83:0.004651 84:0.013953 85:0.009302 86:0.013953 87:0.013953 88:0.004651 89:0.004651 90:0 91:0.004651 92:0.018605 93:0 94:0.013953 95:0 96:0.013953 97:0.004651 98:0.004651 99:0 100:0.027907 
56 1:0.025424 2:0 3:0.016949 4:0.008475 5:0 6:0.008475 7:0.008475 8:0.008475 9:0.008475 10:0.008475 11:0.025424 12:0.016949 13:0 14:0.008475 15:0 16:0 17:0 18:0 19:0 20:0.008475 21:0 22:0.008475 23:0 24:0.008475 25:0.008475 26:0 27:0.008475 28:0.008475 29:0.025424 30:0 31:0.008475 32:0.025424 33:0.008475 34:0 35:0.025424 36:0 37:0.008475 38:0.008475 39:0.016949 40:0 41:0 42:0.008475 43:0.016949 44:0.008475 45:0.008475 46:0 47:0.025424 48:0.016949 49:0.008475 50:0 51:0.016949 52:0.008475 53:0.008475 54:0.016949 55:0 56:0.016949 57:0.025424 58:0.025424 59:0.016949 60:0 61:0.008475 62:0 63:0 64:0.008475 65:0 66:0.016949 67:0 68:0.025424 69:0.025424 70:0.008475 71:0.016949 72:0 73:0.025424 74:0.008475 75:0.008475 76:0.008475 77:0.008475 78:0 79:0.033898 80:0.008475 81:0 82:0.016949 83:0.016949 84:0 85:0.016949 86:0 87:0.016949 88:0.008475 89:0.016949 90:0.025424 91:0.025424 92:0.016949 93:0.008475 94:0.016949 95:0.016949 96:0 97:0 98:0.008475 99:0.008475 100:0.016949 
56 1:0 2:0 3:0 4:0.006098 5:0.006098 6:0.018293 7:0.018293 8:0.006098 9:0.006098 10:0.021341 11:0.012195 12:0.006098 13:0.012195 14:0.039634 15:0.012195 16:0.006098 17:0.006098 18:0.012195 19:0.015244 20:0.006098 21:0.02439 22:0.009146 23:0.003049 24:0.015244 25:0 26:0.015244 27:0.003049 28:0.003049 29:0.003049 30:0.009146 31:0.003049 32:0.018293 33:0.012195 34:0.012195 35:0.012195 36:0.003049 37:0.009146 38:0.003049 39:0.003049 40:0.009146 41:0.003049 42:0.003049 43:0.009146 44:0.006098 45:0.015244 46:0.021341 47:0.018293 48:0.009146 49:0.006098 50:0 51:0.015244 52:0.009146 53:0.021341 54:0.003049 55:0.003049 56:0.006098 57:0.006098 58:0.012195 59:0.012195 60:0.009146 61:0.003049 62:0.006098 63:0.015244 64:0.015244 65:0.006098 66:0.006098 67:0 68:0.021341 69:0.006098 70:0.009146 71:0.006098 72:0.015244 73:0.012195 74:0.003049 75:0.012195 76:0.003049 77:0 78:0.006098 79:0.006098 80:0.012195 81:0.009146 82:0.003049 83:0 84:0.018293 85:0.015244 86:0.012195 87:0.009146 88:0.018293 89:0.009146 90:0.045732 91:0.009146 92:0.006098 93:0.003049 94:0.009146 95:0.021341 96:0.018293 97:0.003049 98:0.033537 99:0.006098 100:0.015244 
32.73141864278607 1:0 2:0 3:0.040816 4:0.020408 5:0 6:0 7:0 8:0 9:0.040816 10:0 11:0.040816 12:0 13:0.040816 14:0 15:0 16:0 17:0.020408 18:0 19:0.040816 20:0 21:0 22:0 23:0.020408 24:0 25:0 26:0 27:0 28:0 29:0.020408 30:0.020408 31:0 32:0.061224 33:0 34:0.020408 35:0 36:0 37:0 38:0.040816 39:0 40:0 41:0 42:0 43:0 44:0.020408 45:0 46:0 47:0 48:0 49:0.020408 50:0 51:0 52:0 53:0 54:0 55:0 56:0 57:0.020408 58:0.040816 59:0.020408 60:0 61:0 62:0 63:0 64:0 65:0 66:0 67:0.020408 68:0 69:0.020408 70:0.020408 71:0.020408 72:0 73:0 74:0.020408 75:0 76:0.040816 77:0 78:0 79:0 80:0 81:0.020408 82:0.040816 83:0 84:0.020408 85:0 86:0 87:0 88:0 89:0.061224 90:0.040816 91:0 92:0 93:0.020408 94:0.020408 95:0 96:0 97:0.020408 98:0 99:0 100:0.061224 
56 1:0 2:0 3:0.019802 4:0.019802 5:0.009901 6:0.019802 7:0.029703 8:0 9:0 10:0.009901 11:0.019802 12:0 13:0 14:0.029703 15:0.009901 16:0.019802 17:0.009901 18:0.019802 19:0.009901 20:0.019802 21:0 22:0.019802 23:0 24:0.009901 25:0 26:0 27:0 28:0 29:0.009901 30:0 31:0.019802 32:0 33:0.019802 34:0.039604 35:0.019802 36:0 37:0.009901 38:0.019802 39:0.029703 40:0.029703 41:0.009901 42:0 43:0 44:0 45:0 46:0 47:0.009901 48:0.009901 49:0.009901 50:0.009901 51:0.049505 52:0 53:0.009901 54:0.009901 55:0.009901 56:0.009901 57:0.009901 58:0 59:0 60:0.009901 61:0.019802 62:0.009901 63:0 64:0.009901 65:0 66:0 67:0 68:0 69:0.009901 70:0.019802 71:0.029703 72:0 73:0.019802 74:0 75:0 76:0 77:0 78:0 79:0.019802 80:0 81:0.009901 82:0.049505 83:0 84:0.009901 85:0.009901 86:0 87:0 88:0 89:0 90:0.009901 91:0.029703 92:0 93:0.019802 94:0 95:0.029703 96:0 97:0.039604 98:0 99:0 100:0.019802 
27.49136687168132 1:0.016949 2:0 3:0 4:0 5:0 6:0 7:0 8:0 9:0.016949 10:0.016949 11:0.050847 12:0.033898 13:0.033898 14:0 15:0.016949 16:0 17:0.016949 18:0 19:0 20:0 21:0.016949 22:0 23:0.016949 24:0.016949 25:0 26:0.033898 27:0 28:0 29:0 30:0 31:0.033898 32:0.016949 33:0.016949 34:0.016949 35:0 36:0.016949 37:0 38:0.016949 39:0.084746 40:0 41:0.016949 42:0.016949 43:0 44:0.016949 45:0 46:0 47:0 48:0 49:0 50:0.016949 51:0.067797 52:0.050847 53:0 54:0 55:0 56:0 57:0 58:0 59:0 60:0 61:0 62:0 63:0 64:0 65:0 66:0.033898 67:0 68:0 69:0.016949 70:0.016949 71:0.050847 72:0 73:0 74:0 75:0 76:0 77:0.016949 78:0.016949 79:0 80:0 81:0.016949 82:0 83:0.033898 84:0 85:0.016949 86:0.033898 87:0 88:0 89:0 90:0 91:0 92:0 93:0 94:0 95:0 96:0 97:0.016949 98:0 99:0.016949 100:0.033898 
56 1:0.005747 2:0.005747 3:0.011494 4:0.005747 5:0.011494 6:0 7:0.017241 8:0 9:0.034483 10:0.028736 11:0 12:0.028736 13:0.017241 14:0.011494 15:0 16:0.005747 17:0.011494 18:0 19:0.022989 20:0.011494 21:0 22:0 23:0.045977 24:0.005747 25:0 26:0.017241 27:0.005747 28:0 29:0 30:0.017241 31:0.017241 32:0.028736 33:0 34:0.005747 35:0.011494 36:0.005747 37:0.011494 38:0.022989 39:0.005747 40:0.005747 41:0.011494 42:0.005747 43:0 44:0.022989 45:0.022989 46:0 47:0.017241 48:0.005747 49:0.005747 50:0 51:0.017241 52:0.011494 53:0 54:0 55:0 56:0 57:0 58:0.017241 59:0.005747 60:0.005747 61:0 62:0 63:0 64:0 65:0.017241 66:0.005747 67:0 68:0.005747 69:0.005747 70:0.005747 71:0.017241 72:0.005747 73:0.011494 74:0.034483 75:0.017241 76:0 77:0 78:0.028736 79:0.005747 80:0 81:0 82:0.011494 83:0.011494 84:0.005747 85:0.017241 86:0 87:0.011494 88:0 89:0.011494 90:0.011494 91:0 92:0.057471 93:0.011494 94:0.005747 95:0.022989 96:0.017241 97:0.04023 98:0 99:0.005747 100:0.011494 
56 1:0.009009 2:0 3:0 4:0.027027 5:0 6:0 7:0 8:0.009009 9:0 10:0.027027 11:0.018018 12:0.009009 13:0 14:0.027027 15:0.018018 16:0 17:0.018018 18:0.009009 19:0.018018 20:0.027027 21:0.009009 22:0.009009 23:0.009009 24:0.018018 25:0.009009 26:0.009009 27:0.009009 28:0.009009 29:0.009009 30:0.009009 31:0.009009 32:0.009009 33:0 34:0 35:0 36:0.009009 37:0.009009 38:0.018018 39:0.018018 40:0.027027 41:0.009009 42:0.009009 43:0 44:0.009009 45:0 46:0 47:0.009009 48:0.009009 49:0.036036 50:0 51:0 52:0.009009 53:0.009009 54:0.009009 55:0 56:0 57:0.018018 58:0.009009 59:0.018018 60:0 61:0 62:0 63:0.009009 64:0.018018 65:0.009009 66:0.018018 67:0.009009 68:0.009009 69:0.009009 70:0.009009 71:0.009009 72:0.027027 73:0.009009 74:0.036036 75:0.009009 76:0.009009 77:0.009009 78:0.018018 79:0 80:0 81:0 82:0 83:0 84:0 85:0 86:0.018018 87:0.009009 88:0.018018 89:0 90:0 91:0.027027 92:0.027027 93:0.009009 94:0.009009 95:0.018018 96:0.009009 97:0.036036 98:0.018018 99:0 100:0.018018 
26.93280661372213 1:0.025 2:0.005 3:0.005 4:0.015 5:0.02 6:0.005 7:0.005 8:0 9:0.005 10:0.005 11:0.015 12:0.005 13:0.02 14:0.005 15:0.015 16:0.01 17:0.015 18:0 19:0.015 20:0.015 21:0 22:0 23:0.03 24:0 25:0.015 26:0.005 27:0.005 28:0.005 29:0.005 30:0.01 31:0.01 32:0.005 33:0.005 34:0.035 35:0 36:0 37:0.005 38:0.02 39:0 40:0 41:0.005 42:0.02 43:0.015 44:0.005 45:0.015 46:0 47:0.015 48:0.005 49:0.005 50:0 51:0.04 52:0.025 53:0 54:0.005 55:0.005 56:0 57:0 58:0.005 59:0.01 60:0.01 61:0 62:0.005 63:0.01 64:0 65:0.02 66:0.015 67:0.005 68:0.02 69:0.01 70:0.015 71:0.025 72:0.005 73:0.015 74:0.015 75:0.005 76:0.03 77:0 78:0.02 79:0.01 80:0.005 81:0.005 82:0.01 83:0.005 84:0.005 85:0.015 86:0.005 87:0.01 88:0.015 89:0.015 90:0.01 91:0.01 92:0.03 93:0.015 94:0.015 95:0 96:0.005 97:0.015 98:0.025 99:0.005 100:0.01 
14.47280432604783 1:0.006993 2:0.013986 3:0.006993 4:0.006993 5:0.013986 6:0 7:0.006993 8:0 9:0.006993 10:0.027972 11:0 12:0.027972 13:0 14:0.020979 15:0.006993 16:0.006993 17:0.006993 18:0.006993 19:0.006993 20:0.006993 21:0.006993 22:0 23:0.020979 24:0.013986 25:0 26:0.013986 27:0 28:0 29:0 30:0.013986 31:0.013986 32:0.06993 33:0 34:0.013986 35:0.013986 36:0.006993 37:0.020979 38:0.034965 39:0.006993 40:0.006993 41:0.006993 42:0.013986 43:0 44:0.027972 45:0.020979 46:0 47:0.006993 48:0.006993 49:0 50:0 51:0.034965 52:0.013986 53:0 54:0 55:0 56:0.006993 57:0 58:0.013986 59:0.013986 60:0.006993 61:0 62:0.013986 63:0 64:0 65:0 66:0.006993 67:0 68:0.006993 69:0.006993 70:0.006993 71:0.020979 72:0 73:0.013986 74:0.034965 75:0.006993 76:0.006993 77:0 78:0.006993 79:0.006993 80:0 81:0 82:0.006993 83:0.027972 84:0.006993 85:0.006993 86:0 87:0 88:0 89:0.006993 90:0.013986 91:0.013986 92:0.034965 93:0.020979 94:0 95:0.006993 96:0.006993 97:0.027972 98:0 99:0.006993 100:0.055944 
56 1:0 2:0.005236 3:0.005236 4:0.010471 5:0.015707 6:0.005236 7:0 8:0 9:0 10:0.010471 11:0.015707 12:0.015707 13:0.026178 14:0.010471 15:0.015707 16:0 17:0.031414 18:0.010471 19:0.005236 20:0 21:0 22:0 23:0.010471 24:0.005236 25:0.005236 26:0 27:0 28:0 29:0.010471 30:0.005236 31:0.005236 32:0 33:0 34:0.04712 35:0.010471 36:0 37:0 38:0.015707 39:0 40:0 41:0.005236 42:0.010471 43:0.031414 44:0.010471 45:0 46:0.015707 47:0.036649 48:0.005236 49:0.015707 50:0 51:0.026178 52:0.015707 53:0.010471 54:0.010471 55:0.020942 56:0.005236 57:0.005236 58:0 59:0.010471 60:0.020942 61:0 62:0.015707 63:0.010471 64:0.010471 65:0.015707 66:0.010471 67:0.005236 68:0.015707 69:0.020942 70:0 71:0 72:0.005236 73:0.020942 74:0.015707 75:0.005236 76:0.026178 77:0.020942 78:0.026178 79:0.020942 80:0.005236 81:0 82:0.010471 83:0.005236 84:0.005236 85:0.026178 86:0.005236 87:0 88:0.010471 89:0.005236 90:0 91:0 92:0.04712 93:0.005236 94:0.015707 95:0.005236 96:0.020942 97:0.015707 98:0 99:0.010471 100:0.005236 
56 1:0.030864 2:0.006173 3:0.018519 4:0.006173 5:0.012346 6:0 7:0.024691 8:0 9:0.012346 10:0.006173 11:0 12:0.006173 13:0 14:0.006173 15:0.018519 16:0.006173 17:0.006173 18:0 19:0.012346 20:0 21:0 22:0 23:0.012346 24:0.012346 25:0 26:0.006173 27:0.012346 28:0.037037 29:0.012346 30:0 31:0.024691 32:0 33:0.006173 34:0.012346 35:0.012346 36:0.012346 37:0.006173 38:0.018519 39:0 40:0 41:0.012346 42:0.006173 43:0 44:0 45:0 46:0.006173 47:0.006173 48:0.018519 49:0.006173 50:0 51:0.024691 52:0.006173 53:0.012346 54:0.012346 55:0.006173 56:0 57:0 58:0.006173 59:0.006173 60:0.018519 61:0.012346 62:0.012346 63:0.030864 64:0.006173 65:0 66:0.030864 67:0 68:0.012346 69:0.012346 70:0 71:0.012346 72:0.006173 73:0.012346 74:0.012346 75:0.006173 76:0 77:0.006173 78:0.049383 79:0.006173 80:0.006173 81:0.006173 82:0.006173 83:0.012346 84:0.006173 85:0.018519 86:0 87:0.012346 88:0.018519 89:0.006173 90:0.012346 91:0.006173 92:0.037037 93:0.030864 94:0.012346 95:0.006173 96:0.012346 97:0.024691 98:0.018519 99:0 100:0.012346 
56 1:0.00625 2:0.00625 3:0.003125 4:0.00625 5:0.00625 6:0.0125 7:0.00625 8:0.00625 9:0.003125 10:0.0125 11:0.0125 12:0.003125 13:0.00625 14:0.003125 15:0 16:0 17:0.0125 18:0.003125 19:0.021875 20:0.01875 21:0 22:0.0125 23:0.021875 24:0.00625 25:0.01875 26:0 27:0.003125 28:0.00625 29:0.00625 30:0.021875 31:0.003125 32:0.009375 33:0 34:0.021875 35:0.0125 36:0.009375 37:0.0125 38:0.009375 39:0 40:0.003125 41:0.003125 42:0.003125 43:0.015625 44:0.00625 45:0.003125 46:0.00625 47:0.009375 48:0.0125 49:0.0125 50:0 51:0.003125 52:0.009375 53:0.03125 54:0.00625 55:0.01875 56:0.00625 57:0.00625 58:0.0125 59:0.009375 60:0.021875 61:0.009375 62:0.00625 63:0.003125 64:0.00625 65:0.015625 66:0.003125 67:0.009375 68:0.003125 69:0.0125 70:0.009375 71:0.00625 72:0.003125 73:0.021875 74:0.00625 75:0.00625 76:0.025 77:0.015625 78:0.034375 79:0.00625 80:0.00625 81:0.0125 82:0 83:0.003125 84:0.003125 85:0.003125 86:0.00625 87:0.025 88:0.01875 89:0 90:0.040625 91:0.00625 92:0.034375 93:0.009375 94:0.009375 95:0.025 96:0.028125 97:0.009375 98:0.01875 99:0.00625 100:0.00625 
56 1:0.011811 2:0.003937 3:0.019685 4:0.011811 5:0.003937 6:0.003937 7:0.003937 8:0 9:0.023622 10:0.019685 11:0.011811 12:0 13:0.027559 14:0.007874 15:0.007874 16:0.007874 17:0.015748 18:0.003937 19:0.011811 20:0.011811 21:0.003937 22:0 23:0.035433 24:0.003937 25:0.019685 26:0 27:0.003937 28:0 29:0.007874 30:0.007874 31:0.003937 32:0.019685 33:0.011811 34:0.003937 35:0.011811 36:0.011811 37:0.007874 38:0.019685 39:0.003937 40:0 41:0 42:0.003937 43:0.003937 44:0.019685 45:0.011811 46:0.011811 47:0.003937 48:0.011811 49:0.007874 50:0 51:0.011811 52:0.011811 53:0.011811 54:0.003937 55:0.003937 56:0 57:0.003937 58:0.011811 59:0.015748 60:0.007874 61:0.007874 62:0 63:0 64:0.003937 65:0.019685 66:0.003937 67:0 68:0.027559 69:0 70:0.003937 71:0.011811 72:0.007874 73:0.003937 74:0.007874 75:0.011811 76:0.035433 77:0 78:0.043307 79:0.003937 80:0 81:0.003937 82:0.011811 83:0.019685 84:0.019685 85:0.011811 86:0.003937 87:0.011811 88:0.019685 89:0.003937 90:0.007874 91:0.003937 92:0.011811 93:0.003937 94:0.015748 95:0.015748 96:0.043307 97:0.023622 98:0.011811 99:0.003937 100:0.015748 
56 1:0.003597 2:0.007194 3:0.010791 4:0 5:0.017986 6:0.014388 7:0.014388 8:0.014388 9:0.007194 10:0.017986 11:0.003597 12:0.017986 13:0.003597 14:0.010791 15:0.014388 16:0.014388 17:0.007194 18:0.010791 19:0.003597 20:0.010791 21:0 22:0.007194 23:0.007194 24:0.010791 25:0.007194 26:0.010791 27:0.010791 28:0.003597 29:0 30:0.007194 31:0.003597 32:0.010791 33:0.010791 34:0.028777 35:0.003597 36:0.007194 37:0 38:0.003597 39:0.007194 40:0.007194 41:0.007194 42:0.014388 43:0.021583 44:0.003597 45:0.007194 46:0.003597 47:0.007194 48:0.010791 49:0.010791 50:0.010791 51:0.032374 52:0.014388 53:0.010791 54:0.007194 55:0.010791 56:0 57:0.003597 58:0.007194 59:0.021583 60:0.010791 61:0.017986 62:0.007194 63:0.010791 64:0.007194 65:0.007194 66:0.007194 67:0.003597 68:0.017986 69:0.010791 70:0.010791 71:0.003597 72:0.003597 73:0.007194 74:0.017986 75:0.010791 76:0.014388 77:0 78:0.035971 79:0.007194 80:0.014388 81:0.010791 82:0.014388 83:0 84:0.003597 85:0.014388 86:0.003597 87:0.007194 88:0.003597 89:0.007194 90:0.007194 91:0.007194 92:0.043165 93:0.010791 94:0.010791 95:0.02518 96:0.007194 97:0.007194 98:0.017986 99:0.007194 100:0.007194 
56 1:0.009693 2:0.012924 3:0.009693 4:0.012924 5:0.012924 6:0.004847 7:0.012924 8:0.004847 9:0.006462 10:0.037157 11:0.01454 12:0.021002 13:0.009693 14:0.027464 15:0.017771 16:0.004847 17:0.019386 18:0.011309 19:0.009693 20:0.006462 21:0.004847 22:0.004847 23:0.016155 24:0.009693 25:0.008078 26:0.012924 27:0.008078 28:0.004847 29:0.009693 30:0.009693 31:0.008078 32:0.012924 33:0.006462 34:0.012924 35:0.004847 36:0.004847 37:0.008078 38:0.011309 39:0.009693 40:0.01454 41:0.001616 42:0 43:0.01454 44:0.008078 45:0.009693 46:0.012924 47:0.008078 48:0.011309 49:0.008078 50:0 51:0.009693 52:0.019386 53:0.006462 54:0.004847 55:0.006462 56:0.008078 57:0.008078 58:0.016155 59:0.006462 60:0.001616 61:0.006462 62:0.004847 63:0.008078 64:0.004847 65:0.009693 66:0.001616 67:0.009693 68:0.006462 69:0.011309 70:0.006462 71:0.006462 72:0.008078 73:0.009693 74:0.012924 75:0.003231 76:0.012924 77:0.008078 78:0.024233 79:0.003231 80:0.016155 81:0.003231 82:0.001616 83:0.004847 84:0.008078 85:0.012924 86:0.012924 87:0.006462 88:0.008078 89:0.008078 90:0.011309 91:0.008078 92:0.017771 93:0.003231 94:0.008078 95:0.017771 96:0.009693 97:0.01454 98:0.024233 99:0.012924 100:0.021002 
56 1:0.009346 2:0.018692 3:0.018692 4:0.018692 5:0.009346 6:0 7:0 8:0.009346 9:0.009346 10:0.028037 11:0.009346 12:0.018692 13:0 14:0.018692 15:0 16:0.009346 17:0.028037 18:0 19:0 20:0 21:0.018692 22:0 23:0 24:0.018692 25:0.018692 26:0 27:0.009346 28:0 29:0 30:0.018692 31:0.009346 32:0.018692 33:0.018692 34:0.009346 35:0 36:0.018692 37:0.009346 38:0.018692 39:0.028037 40:0.009346 41:0 42:0 43:0.028037 44:0.009346 45:0 46:0 47:0 48:0.009346 49:0 50:0 51:0 52:0.018692 53:0.009346 54:0 55:0.018692 56:0 57:0.018692 58:0.018692 59:0.009346 60:0 61:0.018692 62:0.028037 63:0 64:0.009346 65:0.028037 66:0.056075 67:0 68:0.009346 69:0.009346 70:0.009346 71:0 72:0.018692 73:0.009346 74:0 75:0 76:0.018692 77:0 78:0 79:0.018692 80:0.009346 81:0 82:0 83:0 84:0.018692 85:0.009346 86:0 87:0 88:0.009346 89:0.009346 90:0 91:0 92:0.028037 93:0 94:0 95:0 96:0.009346 97:0.018692 98:0.028037 99:0 100:0.056075 
56 1:0.004566 2:0.009132 3:0.018265 4:0.018265 5:0.004566 6:0 7:0.009132 8:0.009132 9:0.018265 10:0 11:0.031963 12:0.009132 13:0.022831 14:0.009132 15:0.009132 16:0 17:0.018265 18:0 19:0.031963 20:0.004566 21:0 22:0.004566 23:0.022831 24:0.009132 25:0.009132 26:0.018265 27:0.013699 28:0.004566 29:0.022831 30:0.004566 31:0.004566 32:0.027397 33:0.009132 34:0.018265 35:0.004566 36:0 37:0 38:0.022831 39:0.018265 40:0.009132 41:0.013699 42:0.013699 43:0.013699 44:0.004566 45:0.013699 46:0 47:0.004566 48:0.009132 49:0.009132 50:0 51:0.031963 52:0.022831 53:0 54:0 55:0.013699 56:0.004566 57:0.004566 58:0.009132 59:0.009132 60:0 61:0.004566 62:0 63:0 64:0.013699 65:0.004566 66:0.013699 67:0.004566 68:0.004566 69:0.018265 70:0 71:0.013699 72:0.004566 73:0.013699 74:0 75:0.009132 76:0.009132 77:0.004566 78:0.041096 79:0.018265 80:0 81:0.004566 82:0 83:0.018265 84:0 85:0.004566 86:0.009132 87:0.009132 88:0 89:0.013699 90:0.009132 91:0 92:0.018265 93:0.013699 94:0 95:0.004566 96:0.009132 97:0.018265 98:0.022831 99:0.004566 100:0.031963 
48.92539954803773 1:0.011299 2:0 3:0.00565 4:0.00565 5:0.022599 6:0 7:0.022599 8:0.00565 9:0.00565 10:0.011299 11:0.016949 12:0.022599 13:0.00565 14:0.016949 15:0 16:0.00565 17:0 18:0.011299 19:0.00565 20:0.00565 21:0.00565 22:0 23:0.022599 24:0.011299 25:0.011299 26:0 27:0.016949 28:0.016949 29:0.00565 30:0.00565 31:0.00565 32:0.028249 33:0.00565 34:0.028249 35:0.016949 36:0 37:0 38:0.022599 39:0.00565 40:0.011299 41:0.00565 42:0 43:0 44:0.011299 45:0.00565 46:0 47:0.011299 48:0 49:0.011299 50:0 51:0.011299 52:0.00565 53:0.011299 54:0 55:0.011299 56:0.011299 57:0 58:0.00565 59:0 60:0.011299 61:0 62:0.022599 63:0.00565 64:0.00565 65:0.011299 66:0.016949 67:0.016949 68:0 69:0.016949 70:0.00565 71:0.00565 72:0.00565 73:0.016949 74:0.016949 75:0 76:0.016949 77:0.00565 78:0.039548 79:0.016949 80:0.00565 81:0 82:0.011299 83:0.011299 84:0.00565 85:0.00565 86:0 87:0.011299 88:0 89:0.016949 90:0.033898 91:0.011299 92:0.016949 93:0.00565 94:0.00565 95:0.039548 96:0.016949 97:0.011299 98:0.028249 99:0.011299 100:0.011299 
46.48558087175895 1:0.010753 2:0.016129 3:0.010753 4:0.005376 5:0.010753 6:0.010753 7:0.016129 8:0.005376 9:0.026882 10:0.016129 11:0 12:0.016129 13:0.026882 14:0.021505 15:0.010753 16:0 17:0.005376 18:0 19:0.032258 20:0 21:0 22:0 23:0.021505 24:0.021505 25:0.021505 26:0 27:0 28:0 29:0 30:0.010753 31:0.026882 32:0.005376 33:0 34:0.010753 35:0 36:0.021505 37:0.010753 38:0.016129 39:0.010753 40:0 41:0.005376 42:0 43:0.005376 44:0.005376 45:0.005376 46:0.053763 47:0 48:0 49:0.010753 50:0 51:0.026882 52:0.005376 53:0.010753 54:0 55:0.005376 56:0 57:0.005376 58:0 59:0.010753 60:0.005376 61:0.021505 62:0 63:0 64:0 65:0.005376 66:0.010753 67:0.005376 68:0.026882 69:0.021505 70:0.005376 71:0 72:0.005376 73:0.005376 74:0 75:0.010753 76:0.026882 77:0 78:0.043011 79:0 80:0 81:0.005376 82:0.010753 83:0 84:0.005376 85:0.010753 86:0 87:0.016129 88:0.005376 89:0.005376 90:0.010753 91:0 92:0.037634 93:0.016129 94:0.032258 95:0 96:0.010753 97:0.010753 98:0.043011 99:0.005376 100:0.010753 
56 1:0 2:0.013793 3:0.006897 4:0.013793 5:0.006897 6:0 7:0.006897 8:0 9:0.006897 10:0.02069 11:0.006897 12:0 13:0.034483 14:0.013793 15:0.013793 16:0.013793 17:0.006897 18:0.013793 19:0 20:0.02069 21:0 22:0.006897 23:0.013793 24:0 25:0.013793 26:0 27:0.013793 28:0 29:0 30:0.006897 31:0.006897 32:0.02069 33:0.013793 34:0.034483 35:0.027586 36:0 37:0.006897 38:0.02069 39:0 40:0.006897 41:0.013793 42:0.006897 43:0.02069 44:0.006897 45:0 46:0.013793 47:0.006897 48:0.013793 49:0.013793 50:0 51:0.013793 52:0.013793 53:0.02069 54:0.027586 55:0.027586 56:0.006897 57:0 58:0 59:0.013793 60:0.006897 61:0.006897 62:0.013793 63:0 64:0.006897 65:0.006897 66:0.034483 67:0.006897 68:0.006897 69:0.006897 70:0 71:0.006897 72:0.006897 73:0.006897 74:0 75:0.006897 76:0.027586 77:0.006897 78:0.013793 79:0.013793 80:0 81:0.006897 82:0.02069 83:0.006897 84:0.006897 85:0 86:0.006897 87:0 88:0 89:0.013793 90:0.02069 91:0 92:0.034483 93:0.006897 94:0.006897 95:0.013793 96:0.02069 97:0.006897 98:0.006897 99:0.006897 100:0.013793 
56 1:0.005291 2:0.021164 3:0.010582 4:0.005291 5:0.010582 6:0.021164 7:0.015873 8:0.005291 9:0 10:0.005291 11:0 12:0.010582 13:0.015873 14:0.005291 15:0.005291 16:0.005291 17:0 18:0.010582 19:0.005291 20:0.010582 21:0.005291 22:0.015873 23:0.015873 24:0.010582 25:0 26:0.005291 27:0 28:0.015873 29:0.005291 30:0.005291 31:0.005291 32:0.005291 33:0 34:0.026455 35:0.005291 36:0.005291 37:0 38:0.021164 39:0.010582 40:0.005291 41:0.015873 42:0.010582 43:0.026455 44:0.005291 45:0.015873 46:0.005291 47:0.005291 48:0 49:0.005291 50:0.010582 51:0.015873 52:0.015873 53:0.010582 54:0.005291 55:0.010582 56:0.010582 57:0 58:0.005291 59:0 60:0.005291 61:0.005291 62:0.005291 63:0.021164 64:0.005291 65:0.010582 66:0.026455 67:0.015873 68:0.015873 69:0.010582 70:0.005291 71:0.021164 72:0.005291 73:0.031746 74:0.005291 75:0.021164 76:0.010582 77:0.015873 78:0.021164 79:0.005291 80:0.010582 81:0.005291 82:0.015873 83:0.026455 84:0 85:0.026455 86:0.005291 87:0.021164 88:0.005291 89:0 90:0 91:0.005291 92:0.021164 93:0.015873 94:0.010582 95:0.010582 96:0.021164 97:0.005291 98:0.021164 99:0 100:0 
35.67659228563602 1:0 2:0 3:0.010753 4:0.010753 5:0.010753 6:0 7:0 8:0.021505 9:0.010753 10:0.032258 11:0.021505 12:0.010753 13:0.010753 14:0.010753 15:0 16:0 17:0.010753 18:0.053763 19:0.021505 20:0.010753 21:0 22:0 23:0.010753 24:0.010753 25:0 26:0 27:0 28:0 29:0.010753 30:0.010753 31:0.021505 32:0.010753 33:0 34:0 35:0 36:0 37:0 38:0.010753 39:0.010753 40:0 41:0.010753 42:0.010753 43:0.021505 44:0.032258 45:0.010753 46:0 47:0.010753 48:0 49:0 50:0 51:0.021505 52:0.021505 53:0 54:0 55:0 56:0.010753 57:0 58:0.010753 59:0.010753 60:0 61:0 62:0.010753 63:0.021505 64:0 65:0 66:0.010753 67:0 68:0.010753 69:0.043011 70:0 71:0 72:0 73:0.010753 74:0.053763 75:0.010753 76:0.043011 77:0 78:0 79:0.010753 80:0 81:0.021505 82:0.021505 83:0.010753 84:0.010753 85:0 86:0 87:0 88:0.021505 89:0 90:0.032258 91:0 92:0.010753 93:0.043011 94:0 95:0.021505 96:0 97:0.043011 98:0 99:0 100:0.021505 
56 1:0.012481 2:0.012481 3:0.010212 4:0.009834 5:0.007564 6:0.048033 7:0.004917 8:0.00416 9:0.016263 10:0.007943 11:0.006051 12:0.003026 13:0.009077 14:0.002269 15:0.013994 16:0.001135 17:0.006808 18:0.007943 19:0.005295 20:0.011346 21:0.010212 22:0.01059 23:0.014372 24:0.008321 25:0.007564 26:0.00643 27:0.004917 28:0.009834 29:0.010968 30:0.013994 31:0.00416 32:0.010212 33:0.005673 34:0.007564 35:0.011725 36:0.013616 37:0.016641 38:0.005295 39:0.005673 40:0.004539 41:0.012103 42:0.011346 43:0.005673 44:0.007943 45:0.011346 46:0.013994 47:0.008321 48:0.008699 49:0.007943 50:0.00643 51:0.005673 52:0.012481 53:0.019667 54:0.024962 55:0.010212 56:0.001513 57:0.006051 58:0.008321 59:0.010212 60:0.005673 61:0.026853 62:0.010212 63:0.013238 64:0.006808 65:0.008699 66:0.010212 67:0.003782 68:0.009455 69:0.007186 70:0.009455 71:0.009834 72:0.007943 73:0.009455 74:0.007943 75:0.010968 76:0.003026 77:0.003404 78:0.017398 79:0.007186 80:0.034039 81:0.008699 82:0.024206 83:0.007186 84:0.013238 85:0.00643 86:0.004539 87:0.003404 88:0.003404 89:0.00643 90:0.010968 91:0.005673 92:0.023449 93:0.002648 94:0.009455 95:0.004917 96:0.015885 97:0.00643 98:0.027231 99:0.012103 100:0.004917 
56 1:0 2:0.01626 3:0.00813 4:0.00813 5:0 6:0 7:0.01626 8:0 9:0.01626 10:0 11:0.01626 12:0.03252 13:0.00813 14:0 15:0 16:0.00813 17:0.00813 18:0 19:0.03252 20:0 21:0.00813 22:0.01626 23:0.02439 24:0.01626 25:0 26:0.01626 27:0.00813 28:0.00813 29:0.02439 30:0.01626 31:0.00813 32:0 33:0.01626 34:0.01626 35:0.00813 36:0 37:0.00813 38:0.01626 39:0.02439 40:0.00813 41:0 42:0 43:0.02439 44:0 45:0.01626 46:0 47:0.00813 48:0.00813 49:0 50:0 51:0.00813 52:0.00813 53:0 54:0.00813 55:0 56:0 57:0.00813 58:0 59:0.00813 60:0.01626 61:0 62:0.01626 63:0.00813 64:0.03252 65:0.00813 66:0.01626 67:0 68:0.04878 69:0.03252 70:0.01626 71:0.00813 72:0.01626 73:0.02439 74:0 75:0 76:0 77:0.00813 78:0.01626 79:0.03252 80:0 81:0 82:0 83:0 84:0.00813 85:0.01626 86:0.02439 87:0 88:0.00813 89:0.00813 90:0 91:0 92:0.01626 93:0.00813 94:0.03252 95:0 96:0.01626 97:0.02439 98:0 99:0.00813 100:0.01626 
-56 1:0 2:0.014493 3:0.014493 4:0 5:0.014493 6:0.014493 7:0 8:0 9:0.014493 10:0.028986 11:0.014493 12:0 13:0 14:0.014493 15:0 16:0 17:0 18:0 19:0 20:0.014493 21:0.014493 22:0 23:0.043478 24:0.014493 25:0.014493 26:0 27:0 28:0 29:0 30:0 31:0.014493 32:0.014493 33:0.014493 34:0.014493 35:0.014493 36:0.014493 37:0 38:0.014493 39:0.028986 40:0 41:0 42:0 43:0.014493 44:0 45:0.028986 46:0 47:0.014493 48:0.028986 49:0.057971 50:0 51:0.043478 52:0 53:0 54:0 55:0 56:0 57:0 58:0.028986 59:0.014493 60:0 61:0 62:0 63:0 64:0.014493 65:0 66:0.014493 67:0 68:0.028986 69:0 70:0 71:0.028986 72:0 73:0 74:0.014493 75:0.014493 76:0 77:0.014493 78:0.028986 79:0 80:0 81:0 82:0 83:0.014493 84:0 85:0.014493 86:0 87:0 88:0.014493 89:0.014493 90:0.028986 91:0.014493 92:0.043478 93:0 94:0 95:0 96:0.028986 97:0.028986 98:0 99:0.014493 100:0.028986 
-56 1:0 2:0.025 3:0.0125 4:0.025 5:0.0125 6:0 7:0 8:0.025 9:0.0125 10:0.0125 11:0.0375 12:0 13:0.0125 14:0 15:0 16:0 17:0.0125 18:0 19:0 20:0 21:0.025 22:0 23:0.0125 24:0 25:0.0125 26:0 27:0 28:0 29:0.025 30:0.0125 31:0.0375 32:0 33:0.025 34:0.0125 35:0.0125 36:0 37:0.0375 38:0.0125 39:0.025 40:0.0125 41:0.0125 42:0.0125 43:0 44:0 45:0 46:0 47:0 48:0.025 49:0 50:0.0125 51:0 52:0.0375 53:0.0125 54:0.0125 55:0 56:0 57:0 58:0.0125 59:0.0375 60:0 61:0.0125 62:0 63:0 64:0.0375 65:0.025 66:0.0125 67:0 68:0.0125 69:0 70:0 71:0.0125 72:0.0375 73:0 74:0.025 75:0 76:0 77:0 78:0 79:0.025 80:0.025 81:0.0125 82:0 83:0.0125 84:0 85:0 86:0 87:0 88:0.0125 89:0.0125 90:0.0125 91:0 92:0 93:0 94:0.0125 95:0 96:0.0125 97:0.0125 98:0.0125 99:0.0375 100:0 
-56 1:0.021739 2:0 3:0 4:0.021739 5:0 6:0 7:0 8:0.043478 9:0 10:0 11:0.021739 12:0 13:0 14:0 15:0 16:0 17:0 18:0 19:0.021739 20:0 21:0 22:0 23:0.043478 24:0 25:0.021739 26:0.021739 27:0.086957 28:0 29:0.043478 30:0.021739 31:0 32:0.021739 33:0.021739 34:0 35:0 36:0 37:0 38:0 39:0.043478 40:0.021739 41:0 42:0 43:0 44:0.021739 45:0 46:0 47:0 48:0 49:0 50:0 51:0 52:0 53:0 54:0 55:0 56:0 57:0 58:0 59:0.021739 60:0.021739 61:0 62:0 63:0 64:0.043478 65:0 66:0.021739 67:0 68:0 69:0.021739 70:0 71:0.021739 72:0 73:0.021739 74:0 75:0 76:0 77:0 78:0.043478 79:0.021739 80:0 81:0.021739 82:0 83:0.021739 84:0 85:0 86:0.043478 87:0 88:0 89:0.021739 90:0.065217 91:0 92:0.021739 93:0 94:0 95:0.043478 96:0 97:0.021739 98:0 99:0 100:0 
-56 1:0 2:0 3:0.007874 4:0.007874 5:0.023622 6:0 7:0.007874 8:0.007874 9:0.007874 10:0 11:0.007874 12:0 13:0 14:0.015748 15:0 16:0.007874 17:0.007874 18:0.015748 19:0.015748 20:0 21:0 22:0.015748 23:0.007874 24:0.007874 25:0 26:0 27:0.007874 28:0.023622 29:0 30:0.007874 31:0.007874 32:0.015748 33:0.015748 34:0 35:0 36:0 37:0 38:0.023622 39:0.015748 40:0.015748 41:0.007874 42:0 43:0.023622 44:0.015748 45:0.023622 46:0.070866 47:0.023622 48:0.007874 49:0.007874 50:0 51:0.007874 52:0.007874 53:0 54:0 55:0.007874 56:0 57:0 58:0.007874 59:0.007874 60:0.007874 61:0.03937 62:0.007874 63:0.007874 64:0.007874 65:0.007874 66:0.023622 67:0.007874 68:0 69:0.015748 70:0.007874 71:0.007874 72:0.023622 73:0.015748 74:0.007874 75:0.007874 76:0 77:0.007874 78:0.007874 79:0.015748 80:0 81:0 82:0.007874 83:0.007874 84:0 85:0.007874 86:0.031496 87:0 88:0.015748 89:0.007874 90:0 91:0.015748 92:0.031496 93:0.015748 94:0 95:0 96:0.031496 97:0.015748 98:0.047244 99:0 100:0.015748 
-12.9501114721056 1:0 2:0 3:0 4:0 5:0.015152 6:0 7:0 8:0.030303 9:0.015152 10:0.045455 11:0.015152 12:0 13:0 14:0.015152 15:0 16:0.015152 17:0 18:0 19:0 20:0 21:0 22:0 23:0 24:0 25:0.030303 26:0.030303 27:0.015152 28:0 29:0.030303 30:0.015152 31:0.030303 32:0 33:0 34:0 35:0 36:0.015152 37:0 38:0.015152 39:0.015152 40:0.030303 41:0.015152 42:0 43:0 44:0.015152 45:0 46:0.015152 47:0 48:0.015152 49:0.075758 50:0.015152 51:0 52:0.015152 53:0 54:0 55:0 56:0.030303 57:0 58:0.015152 59:0 60:0 61:0.045455 62:0.015152 63:0 64:0 65:0 66:0.030303 67:0 68:0.015152 69:0.015152 70:0 71:0 72:0.015152 73:0.015152 74:0.015152 75:0.030303 76:0 77:0.015152 78:0.015152 79:0 80:0 81:0 82:0 83:0 84:0 85:0.045455 86:0 87:0 88:0 89:0.030303 90:0.015152 91:0 92:0 93:0.015152 94:0 95:0.030303 96:0.015152 97:0 98:0.015152 99:0.015152 100:0 
-56 1:0 2:0 3:0 4:0 5:0 6:0.033333 7:0 8:0 9:0.033333 10:0 11:0 12:0 13:0 14:0 15:0 16:0 17:0.066667 18:0 19:0.033333 20:0 21:0.033333 22:0 23:0 24:0 25:0 26:0 27:0.033333 28:0 29:0 30:0 31:0.033333 32:0.033333 33:0 34:0.033333 35:0 36:0 37:0 38:0 39:0 40:0.033333 41:0.033333 42:0 43:0 44:0.066667 45:0 46:0 47:0 48:0 49:0.033333 50:0 51:0.033333 52:0 53:0 54:0 55:0 56:0 57:0 58:0.033333 59:0 60:0 61:0 62:0 63:0 64:0.033333 65:0 66:0 67:0 68:0 69:0 70:0.066667 71:0.066667 72:0 73:0 74:0.033333 75:0 76:0 77:0 78:0.066667 79:0.033333 80:0 81:0 82:0 83:0 84:0 85:0 86:0 87:0 88:0 89:0.066667 90:0 91:0 92:0 93:0 94:0 95:0.033333 96:0 97:0 98:0 99:0.033333 100:0 
-56 1:0.010309 2:0.010309 3:0 4:0 5:0.020619 6:0 7:0.020619 8:0.020619 9:0.020619 10:0.010309 11:0.010309 12:0 13:0 14:0.020619 15:0 16:0.020619 17:0.010309 18:0.010309 19:0.030928 20:0.010309 21:0.020619 22:0.030928 23:0.010309 24:0 25:0.020619 26:0.010309 27:0 28:0 29:0 30:0.020619 31:0 32:0.010309 33:0 34:0.010309 35:0 36:0.020619 37:0 38:0.010309 39:0 40:0.020619 41:0.020619 42:0 43:0.020619 44:0.030928 45:0.010309 46:0 47:0 48:0.020619 49:0.010309 50:0 51:0.041237 52:0.020619 53:0 54:0.020619 55:0 56:0.020619 57:0.020619 58:0.020619 59:0 60:0.010309 61:0.010309 62:0 63:0 64:0.010309 65:0 66:0.030928 67:0 68:0 69:0.020619 70:0 71:0 72:0.030928 73:0.010309 74:0 75:0.010309 76:0 77:0.010309 78:0 79:0 80:0 81:0 82:0 83:0 84:0 85:0.020619 86:0 87:0.010309 88:0 89:0.010309 90:0.010309 91:0.010309 92:0.010309 93:0.030928 94:0.020619 95:0 96:0 97:0.020619 98:0.010309 99:0.020619 100:0.010309 
-56 1:0 2:0 3:0.020619 4:0.020619 5:0 6:0 7:0.010309 8:0 9:0 10:0 11:0.020619 12:0 13:0 14:0 15:0.010309 16:0 17:0.010309 18:0 19:0.010309 20:0.010309 21:0.020619 22:0 23:0.010309 24:0 25:0 26:0 27:0.010309 28:0.030928 29:0 30:0 31:0 32:0.010309 33:0.010309 34:0 35:0.010309 36:0 37:0 38:0.020619 39:0.010309 40:0.010309 41:0 42:0 43:0.020619 44:0 45:0 46:0.010309 47:0 48:0.010309 49:0.020619 50:0.010309 51:0 52:0.010309 53:0.030928 54:0.030928 55:0.010309 56:0.041237 57:0.020619 58:0.010309 59:0.010309 60:0.020619 61:0 62:0.010309 63:0.010309 64:0 65:0.010309 66:0.030928 67:0.010309 68:0.030928 69:0 70:0.030928 71:0 72:0 73:0.020619 74:0 75:0.010309 76:0.020619 77:0.020619 78:0 79:0.010309 80:0 81:0 82:0.030928 83:0 84:0 85:0.020619 86:0.010309 87:0 88:0 89:0 90:0 91:0.030928 92:0.020619 93:0 94:0.010309 95:0.061856 96:0.030928 97:0.030928 98:0.010309 99:0.010309 100:0 
-56 1:0 2:0.017857 3:0 4:0 5:0 6:0 7:0 8:0 9:0.017857 10:0.071429 11:0 12:0 13:0.017857 14:0.017857 15:0 16:0 17:0 18:0.035714 19:0.035714 20:0 21:0 22:0.017857 23:0.053571 24:0.017857 25:0 26:0 27:0.017857 28:0 29:0.035714 30:0.017857 31:0 32:0.017857 33:0 34:0.017857 35:0 36:0 37:0 38:0.071429 39:0 40:0 41:0.017857 42:0 43:0.053571 44:0 45:0 46:0 47:0 48:0.017857 49:0 50:0 51:0 52:0.017857 53:0 54:0 55:0.035714 56:0.017857 57:0 58:0 59:0 60:0 61:0 62:0 63:0 64:0 65:0 66:0 67:0 68:0 69:0 70:0.017857 71:0.035714 72:0 73:0 74:0 75:0.035714 76:0 77:0 78:0.017857 79:0.017857 80:0 81:0 82:0.017857 83:0.035714 84:0 85:0 86:0 87:0.017857 88:0 89:0 90:0.017857 91:0.017857 92:0 93:0.017857 94:0 95:0.017857 96:0 97:0.035714 98:0 99:0 100:0.053571 
-18.10349204774971 1:0.01087 2:0.01087 3:0.021739 4:0 5:0 6:0 7:0.01087 8:0.01087 9:0.01087 10:0.01087 11:0.01087 12:0.021739 13:0 14:0.021739 15:0.021739 16:0.01087 17:0 18:0 19:0.021739 20:0 21:0 22:0.021739 23:0.01087 24:0.01087 25:0 26:0 27:0.01087 28:0 29:0 30:0 31:0 32:0.01087 33:0.032609 34:0 35:0 36:0 37:0.043478 38:0.01087 39:0 40:0.01087 41:0.01087 42:0.021739 43:0 44:0 45:0 46:0.021739 47:0.021739 48:0 49:0 50:0.043478 51:0.01087 52:0.01087 53:0.01087 54:0.01087 55:0 56:0 57:0.021739 58:0 59:0.01087 60:0 61:0.01087 62:0.032609 63:0.01087 64:0.021739 65:0 66:0.01087 67:0.032609 68:0.01087 69:0.021739 70:0.01087 71:0 72:0 73:0 74:0 75:0 76:0.043478 77:0.032609 78:0.01087 79:0 80:0 81:0.01087 82:0.01087 83:0 84:0 85:0.076087 86:0 87:0 88:0 89:0.01087 90:0 91:0.043478 92:0.021739 93:0.01087 94:0 95:0 96:0 97:0 98:0 99:0.01087 100:0 
-56 1:0 2:0 3:0.0125 4:0.025 5:0.025 6:0 7:0.0125 8:0.025 9:0 10:0 11:0.0125 12:0.025 13:0 14:0.0125 15:0 16:0.025 17:0 18:0.0125 19:0 20:0 21:0.025 22:0.0125 23:0 24:0.025 25:0 26:0.0125 27:0.025 28:0 29:0 30:0 31:0 32:0.025 33:0.0125 34:0 35:0.0125 36:0 37:0 38:0 39:0 40:0.025 41:0 42:0.025 43:0 44:0 45:0 46:0 47:0.0375 48:0 49:0 50:0.0125 51:0.0375 52:0 53:0.0125 54:0 55:0 56:0.0125 57:0 58:0.0125 59:0.0125 60:0 61:0.0125 62:0.0125 63:0 64:0 65:0.025 66:0 67:0.0125 68:0 69:0.0125 70:0.025 71:0 72:0.0125 73:0.0125 74:0.0125 75:0 76:0 77:0.0125 78:0 79:0.0125 80:0.0125 81:0.0125 82:0.025 83:0 84:0 85:0.0125 86:0.025 87:0.05 88:0.025 89:0.0125 90:0 91:0.0375 92:0.0375 93:0 94:0.0125 95:0 96:0.0125 97:0.0125 98:0.025 99:0 100:0 
-56 1:0.012987 2:0.012987 3:0 4:0.025974 5:0.012987 6:0.012987 7:0 8:0 9:0.051948 10:0.064935 11:0.025974 12:0 13:0 14:0.025974 15:0.012987 16:0.012987 17:0 18:0.012987 19:0 20:0.012987 21:0.012987 22:0.012987 23:0 24:0 25:0 26:0.012987 27:0 28:0.025974 29:0 30:0.025974 31:0 32:0 33:0 34:0 35:0 36:0 37:0.012987 38:0.038961 39:0 40:0 41:0 42:0.012987 43:0 44:0 45:0.012987 46:0 47:0 48:0 49:0 50:0 51:0 52:0 53:0 54:0 55:0.012987 56:0 57:0.012987 58:0.012987 59:0 60:0.025974 61:0 62:0.025974 63:0 64:0.012987 65:0 66:0.012987 67:0.012987 68:0 69:0 70:0.012987 71:0 72:0 73:0.038961 74:0.012987 75:0 76:0 77:0 78:0.038961 79:0.051948 80:0.012987 81:0.012987 82:0.012987 83:0.025974 84:0.012987 85:0.012987 86:0.025974 87:0 88:0.012987 89:0 90:0 91:0.025974 92:0.012987 93:0 94:0 95:0 96:0.012987 97:0.025974 98:0.012987 99:0.025974 100:0 
-51.53157896830221 1:0 2:0.012346 3:0.024691 4:0 5:0 6:0 7:0 8:0.012346 9:0.012346 10:0.012346 11:0 12:0 13:0.061728 14:0.012346 15:0.012346 16:0 17:0.012346 18:0.012346 19:0.012346 20:0 21:0.024691 22:0 23:0 24:0 25:0 26:0.012346 27:0 28:0.012346 29:0.012346 30:0.012346 31:0.037037 32:0 33:0.012346 34:0.012346 35:0 36:0 37:0 38:0.037037 39:0.012346 40:0 41:0.024691 42:0 43:0.024691 44:0 45:0.012346 46:0.012346 47:0 48:0.012346 49:0 50:0.012346 51:0 52:0 53:0.012346 54:0.012346 55:0 56:0.012346 57:0 58:0 59:0.037037 60:0 61:0.012346 62:0 63:0 64:0.037037 65:0.024691 66:0 67:0 68:0.024691 69:0 70:0.012346 71:0.012346 72:0.012346 73:0.012346 74:0 75:0.012346 76:0.037037 77:0 78:0 79:0 80:0.037037 81:0.012346 82:0 83:0.012346 84:0.012346 85:0 86:0.012346 87:0 88:0 89:0.012346 90:0 91:0 92:0.012346 93:0 94:0.037037 95:0 96:0.024691 97:0.024691 98:0.037037 99:0.012346 100:0 
-56 1:0.015957 2:0.026596 3:0.015957 4:0.005319 5:0.005319 6:0.010638 7:0.005319 8:0 9:0.026596 10:0.005319 11:0.010638 12:0.005319 13:0.015957 14:0.010638 15:0.010638 16:0.015957 17:0.010638 18:0.005319 19:0.005319 20:0 21:0.015957 22:0 23:0.026596 24:0.015957 25:0 26:0.010638 27:0.015957 28:0.005319 29:0.010638 30:0.015957 31:0 32:0.021277 33:0.010638 34:0.015957 35:0.015957 36:0.015957 37:0.010638 38:0.005319 39:0 40:0.010638 41:0.010638 42:0.005319 43:0.005319 44:0 45:0.005319 46:0.015957 47:0.015957 48:0.015957 49:0.005319 50:0 51:0.005319 52:0 53:0.010638 54:0.026596 55:0.010638 56:0 57:0.005319 58:0 59:0.010638 60:0.021277 61:0 62:0.010638 63:0.031915 64:0.005319 65:0 66:0 67:0.005319 68:0 69:0.010638 70:0 71:0 72:0.015957 73:0.010638 74:0 75:0.010638 76:0.005319 77:0.010638 78:0.015957 79:0.010638 80:0.010638 81:0.015957 82:0.005319 83:0.010638 84:0 85:0.021277 86:0.005319 87:0.026596 88:0.005319 89:0.005319 90:0.005319 91:0.005319 92:0.010638 93:0.010638 94:0.005319 95:0 96:0.031915 97:0.010638 98:0.021277 99:0.010638 100:0.037234 
-9.465237424310329 1:0 2:0.011364 3:0.011364 4:0 5:0.034091 6:0 7:0.011364 8:0 9:0.011364 10:0 11:0.056818 12:0 13:0.022727 14:0.045455 15:0.034091 16:0 17:0 18:0 19:0 20:0 21:0 22:0 23:0 24:0.011364 25:0.022727 26:0.011364 27:0.022727 28:0.034091 29:0 30:0 31:0.022727 32:0 33:0.011364 34:0 35:0 36:0.011364 37:0.011364 38:0 39:0.034091 40:0.011364 41:0 42:0 43:0.011364 44:0 45:0 46:0 47:0 48:0.011364 49:0.022727 50:0.011364 51:0.011364 52:0.022727 53:0.022727 54:0.011364 55:0.022727 56:0 57:0 58:0.011364 59:0.011364 60:0 61:0 62:0 63:0 64:0 65:0 66:0 67:0 68:0.034091 69:0 70:0 71:0 72:0.022727 73:0.011364 74:0 75:0 76:0 77:0.068182 78:0 79:0 80:0.022727 81:0.011364 82:0.011364 83:0 84:0 85:0.022727 86:0.022727 87:0 88:0.011364 89:0 90:0.011364 91:0.034091 92:0.034091 93:0 94:0.034091 95:0.011364 96:0.011364 97:0 98:0 99:0.011364 100:0 
-56 1:0.020408 2:0.005102 3:0.010204 4:0 5:0.015306 6:0.010204 7:0.005102 8:0.005102 9:0.015306 10:0.02551 11:0.005102 12:0.035714 13:0.015306 14:0 15:0.020408 16:0.005102 17:0.020408 18:0.015306 19:0.010204 20:0.005102 21:0 22:0 23:0.010204 24:0 25:0.010204 26:0.015306 27:0.005102 28:0.005102 29:0.010204 30:0.015306 31:0 32:0.015306 33:0.020408 34:0.005102 35:0.005102 36:0 37:0.015306 38:0 39:0.005102 40:0.02551 41:0 42:0.02551 43:0.020408 44:0.010204 45:0 46:0.061224 47:0.005102 48:0.020408 49:0.030612 50:0.005102 51:0.015306 52:0 53:0.010204 54:0.005102 55:0.010204 56:0.010204 57:0.005102 58:0.005102 59:0.010204 60:0.005102 61:0.015306 62:0.015306 63:0.005102 64:0.005102 65:0 66:0.02551 67:0 68:0.015306 69:0.005102 70:0 71:0.010204 72:0 73:0 74:0 75:0.010204 76:0 77:0.005102 78:0.020408 79:0.010204 80:0.005102 81:0 82:0.010204 83:0.015306 84:0.010204 85:0.030612 86:0.010204 87:0.005102 88:0.010204 89:0 90:0 91:0.015306 92:0.010204 93:0.010204 94:0 95:0 96:0.005102 97:0 98:0.015306 99:0.005102 100:0.035714 
-2.968505567982875 1:0.012658 2:0.012658 3:0 4:0.012658 5:0 6:0.012658 7:0.012658 8:0 9:0.012658 10:0.050633 11:0 12:0 13:0.012658 14:0.075949 15:0 16:0 17:0.012658 18:0.012658 19:0 20:0.012658 21:0 22:0 23:0.012658 24:0 25:0.025316 26:0 27:0 28:0 29:0 30:0.025316 31:0.012658 32:0.012658 33:0.012658 34:0 35:0 36:0 37:0 38:0.025316 39:0 40:0 41:0.012658 42:0 43:0.025316 44:0 45:0 46:0 47:0 48:0.025316 49:0 50:0 51:0.063291 52:0.012658 53:0.012658 54:0.012658 55:0.025316 56:0 57:0.025316 58:0 59:0 60:0.012658 61:0.025316 62:0 63:0 64:0 65:0.012658 66:0 67:0 68:0 69:0.012658 70:0.012658 71:0 72:0 73:0.012658 74:0.012658 75:0.012658 76:0.012658 77:0.012658 78:0 79:0.012658 80:0.012658 81:0 82:0.025316 83:0 84:0 85:0.025316 86:0.012658 87:0 88:0.037975 89:0 90:0 91:0.025316 92:0.037975 93:0.037975 94:0 95:0 96:0.012658 97:0.025316 98:0 99:0 100:0 
-56 1:0.017391 2:0.026087 3:0.043478 4:0 5:0.034783 6:0 7:0.008696 8:0.008696 9:0 10:0.017391 11:0 12:0 13:0.034783 14:0.017391 15:0.008696 16:0.008696 17:0.008696 18:0 19:0.026087 20:0.026087 21:0 22:0 23:0 24:0 25:0.026087 26:0.008696 27:0 28:0 29:0 30:0.034783 31:0.008696 32:0.026087 33:0 34:0.008696 35:0.008696 36:0.017391 37:0 38:0.008696 39:0.017391 40:0.008696 41:0 42:0.017391 43:0 44:0.017391 45:0 46:0 47:0.008696 48:0.008696 49:0 50:0 51:0.026087 52:0 53:0.008696 54:0.008696 55:0.017391 56:0 57:0.008696 58:0 59:0.008696 60:0.017391 61:0 62:0.008696 63:0 64:0.008696 65:0.008696 66:0 67:0.008696 68:0.008696 69:0.017391 70:0 71:0.017391 72:0.008696 73:0.026087 74:0 75:0.008696 76:0.017391 77:0.017391 78:0 79:0 80:0.008696 81:0 82:0.017391 83:0 84:0 85:0.008696 86:0.008696 87:0.017391 88:0.008696 89:0 90:0 91:0 92:0.026087 93:0.043478 94:0.017391 95:0.008696 96:0.026087 97:0.034783 98:0.008696 99:0 100:0 
-56 1:0 2:0.016667 3:0.016667 4:0 5:0.016667 6:0.033333 7:0 8:0 9:0 10:0 11:0 12:0 13:0.033333 14:0.016667 15:0 16:0.016667 17:0.033333 18:0.033333 19:0 20:0.016667 21:0 22:0 23:0 24:0.033333 25:0.016667 26:0 27:0 28:0.016667 29:0.033333 30:0.016667 31:0 32:0 33:0 34:0.033333 35:0.016667 36:0 37:0.016667 38:0.033333 39:0 40:0.016667 41:0 42:0 43:0.016667 44:0 45:0 46:0 47:0 48:0.016667 49:0 50:0.016667 51:0 52:0 53:0 54:0.016667 55:0.016667 56:0 57:0 58:0 59:0 60:0 61:0.016667 62:0 63:0 64:0 65:0.016667 66:0 67:0 68:0 69:0 70:0 71:0 72:0 73:0 74:0 75:0 76:0.033333 77:0 78:0 79:0.016667 80:0 81:0 82:0.033333 83:0 84:0 85:0.016667 86:0 87:0.083333 88:0.033333 89:0 90:0.016667 91:0.016667 92:0.016667 93:0.016667 94:0 95:0.033333 96:0.033333 97:0.033333 98:0.033333 99:0 100:0 
-13.25380579630784 1:0.015385 2:0 3:0 4:0 5:0.046154 6:0.030769 7:0 8:0.015385 9:0.015385 10:0 11:0.030769 12:0 13:0 14:0.030769 15:0.015385 16:0 17:0 18:0 19:0 20:0.015385 21:0 22:0 23:0 24:0.015385 25:0 26:0 27:0 28:0.015385 29:0 30:0 31:0 32:0 33:0.030769 34:0 35:0 36:0 37:0 38:0.061538 39:0.015385 40:0 41:0.015385 42:0.015385 43:0.015385 44:0 45:0 46:0 47:0 48:0 49:0.015385 50:0 51:0.015385 52:0 53:0 54:0.015385 55:0 56:0 57:0.015385 58:0 59:0.015385 60:0 61:0 62:0 63:0.015385 64:0 65:0.015385 66:0 67:0.015385 68:0.061538 69:0.015385 70:0 71:0 72:0 73:0.030769 74:0 75:0 76:0 77:0 78:0.030769 79:0.015385 80:0.046154 81:0.030769 82:0 83:0.015385 84:0.015385 85:0 86:0 87:0 88:0.030769 89:0 90:0 91:0.015385 92:0 93:0.015385 94:0.015385 95:0 96:0.061538 97:0.030769 98:0 99:0.046154 100:0 
-14.18347063189468 1:0 2:0 3:0.012821 4:0 5:0.012821 6:0 7:0 8:0.025641 9:0.012821 10:0.038462 11:0 12:0 13:0 14:0.012821 15:0.012821 16:0 17:0.012821 18:0 19:0.051282 20:0.012821 21:0 22:0.025641 23:0 24:0.038462 25:0.012821 26:0 27:0.012821 28:0.012821 29:0.025641 30:0.012821 31:0.012821 32:0.012821 33:0.025641 34:0.012821 35:0 36:0 37:0 38:0.025641 39:0.012821 40:0.025641 41:0.012821 42:0 43:0 44:0.012821 45:0 46:0.012821 47:0 48:0 49:0 50:0 51:0 52:0 53:0 54:0.012821 55:0 56:0 57:0.012821 58:0 59:0.025641 60:0 61:0 62:0 63:0 64:0.012821 65:0.025641 66:0.025641 67:0 68:0 69:0.012821 70:0.025641 71:0 72:0.025641 73:0.012821 74:0 75:0.012821 76:0.025641 77:0 78:0.025641 79:0.025641 80:0.038462 81:0 82:0.025641 83:0.012821 84:0 85:0.012821 86:0 87:0 88:0.012821 89:0 90:0.012821 91:0.025641 92:0 93:0.012821 94:0.038462 95:0 96:0 97:0.012821 98:0 99:0 100:0 
-56 1:0 2:0 3:0.024096 4:0 5:0 6:0.012048 7:0 8:0.012048 9:0 10:0.024096 11:0 12:0 13:0.024096 14:0.036145 15:0 16:0.012048 17:0.012048 18:0 19:0 20:0.024096 21:0.012048 22:0 23:0.036145 24:0 25:0.036145 26:0.024096 27:0.012048 28:0 29:0 30:0 31:0 32:0.012048 33:0.012048 34:0.024096 35:0 36:0 37:0 38:0.036145 39:0.012048 40:0 41:0 42:0 43:0.024096 44:0.012048 45:0 46:0 47:0 48:0 49:0.048193 50:0 51:0.012048 52:0 53:0 54:0 55:0.036145 56:0.024096 57:0 58:0 59:0 60:0 61:0 62:0 63:0 64:0.012048 65:0.024096 66:0 67:0.012048 68:0.012048 69:0 70:0 71:0.012048 72:0 73:0.012048 74:0.024096 75:0 76:0.024096 77:0.012048 78:0.036145 79:0 80:0.012048 81:0.012048 82:0.012048 83:0 84:0 85:0.012048 86:0.024096 87:0 88:0.012048 89:0.012048 90:0.024096 91:0 92:0.060241 93:0 94:0 95:0 96:0.012048 97:0.024096 98:0 99:0.036145 100:0.012048 
-56 1:0 2:0.033333 3:0.011111 4:0 5:0 6:0 7:0 8:0 9:0.011111 10:0 11:0 12:0.022222 13:0.022222 14:0.044444 15:0.022222 16:0 17:0.011111 18:0.011111 19:0.011111 20:0 21:0.011111 22:0 23:0.011111 24:0 25:0.011111 26:0.022222 27:0 28:0.022222 29:0 30:0 31:0 32:0.033333 33:0 34:0.033333 35:0 36:0.022222 37:0.022222 38:0.011111 39:0.011111 40:0 41:0 42:0.022222 43:0 44:0 45:0 46:0 47:0.022222 48:0 49:0 50:0.011111 51:0 52:0.011111 53:0.011111 54:0 55:0.022222 56:0.011111 57:0.011111 58:0.011111 59:0.011111 60:0 61:0.011111 62:0 63:0.022222 64:0.011111 65:0.011111 66:0 67:0.022222 68:0.033333 69:0 70:0.011111 71:0 72:0.011111 73:0.011111 74:0 75:0.022222 76:0.022222 77:0 78:0.022222 79:0.011111 80:0 81:0 82:0 83:0.022222 84:0 85:0.022222 86:0 87:0 88:0.022222 89:0.011111 90:0 91:0.011111 92:0.033333 93:0 94:0.022222 95:0.022222 96:0 97:0.022222 98:0 99:0 100:0.033333 
-40.09501350060636 1:0 2:0.016129 3:0.016129 4:0 5:0 6:0 7:0.032258 8:0 9:0 10:0.080645 11:0 12:0.016129 13:0.032258 14:0.016129 15:0.016129 16:0 17:0 18:0.016129 19:0 20:0 21:0.016129 22:0.016129 23:0.016129 24:0.016129 25:0.016129 26:0 27:0 28:0.016129 29:0 30:0.016129 31:0 32:0.016129 33:0.032258 34:0 35:0 36:0 37:0 38:0.016129 39:0.016129 40:0.016129 41:0 42:0 43:0.016129 44:0.016129 45:0 46:0 47:0 48:0.016129 49:0.016129 50:0 51:0.016129 52:0.032258 53:0.016129 54:0 55:0 56:0 57:0.032258 58:0.016129 59:0 60:0.016129 61:0 62:0 63:0 64:0 65:0 66:0.032258 67:0.016129 68:0.032258 69:0 70:0 71:0 72:0.016129 73:0 74:0.032258 75:0.016129 76:0 77:0 78:0 79:0 80:0 81:0.016129 82:0 83:0 84:0 85:0.080645 86:0 87:0.016129 88:0.016129 89:0 90:0 91:0 92:0 93:0 94:0 95:0.016129 96:0 97:0.016129 98:0.032258 99:0.016129 100:0 
-36.05084079133949 1:0 2:0.006993 3:0.013986 4:0 5:0.013986 6:0 7:0 8:0.006993 9:0.006993 10:0 11:0.013986 12:0.020979 13:0 14:0.027972 15:0 16:0.006993 17:0.006993 18:0.006993 19:0.013986 20:0 21:0.020979 22:0.006993 23:0.006993 24:0 25:0.013986 26:0.013986 27:0 28:0.013986 29:0 30:0.006993 31:0.013986 32:0.013986 33:0.006993 34:0.006993 35:0.006993 36:0 37:0.006993 38:0.020979 39:0 40:0.034965 41:0 42:0 43:0.027972 44:0.020979 45:0.006993 46:0.027972 47:0.020979 48:0.020979 49:0.006993 50:0 51:0.013986 52:0 53:0.041958 54:0.013986 55:0.006993 56:0 57:0.027972 58:0.013986 59:0 60:0.013986 61:0 62:0 63:0 64:0.006993 65:0.006993 66:0 67:0 68:0.006993 69:0.006993 70:0.013986 71:0 72:0.006993 73:0 74:0 75:0.013986 76:0.034965 77:0.013986 78:0.020979 79:0.013986 80:0.006993 81:0.013986 82:0.006993 83:0.006993 84:0.006993 85:0.034965 86:0 87:0.020979 88:0.041958 89:0 90:0.006993 91:0.020979 92:0.020979 93:0 94:0.006993 95:0 96:0 97:0.006993 98:0.013986 99:0 100:0.027972 
-56 1:0 2:0.02 3:0 4:0.01 5:0.03 6:0.01 7:0.02 8:0.02 9:0.01 10:0 11:0 12:0 13:0.02 14:0.01 15:0 16:0.02 17:0.01 18:0.01 19:0 20:0 21:0 22:0 23:0.03 24:0.02 25:0 26:0 27:0.01 28:0.01 29:0 30:0.02 31:0.02 32:0 33:0 34:0 35:0.01 36:0.01 37:0 38:0.02 39:0 40:0.02 41:0.01 42:0.02 43:0.03 44:0.02 45:0.01 46:0 47:0.01 48:0 49:0.01 50:0 51:0.01 52:0.02 53:0.01 54:0.01 55:0.03 56:0 57:0.01 58:0 59:0.01 60:0.01 61:0 62:0 63:0.01 64:0.02 65:0 66:0 67:0 68:0.01 69:0.01 70:0.01 71:0 72:0.02 73:0.02 74:0 75:0.02 76:0.05 77:0.01 78:0.02 79:0.01 80:0.03 81:0 82:0 83:0 84:0 85:0.01 86:0 87:0.03 88:0.01 89:0 90:0.03 91:0 92:0 93:0.01 94:0 95:0 96:0.04 97:0.04 98:0.01 99:0 100:0 
-56 1:0.011765 2:0 3:0.011765 4:0.011765 5:0 6:0 7:0 8:0.011765 9:0.011765 10:0.011765 11:0.011765 12:0 13:0 14:0.023529 15:0.011765 16:0 17:0.011765 18:0 19:0 20:0 21:0.011765 22:0 23:0 24:0 25:0 26:0.011765 27:0 28:0.011765 29:0.035294 30:0.011765 31:0 32:0.011765 33:0.047059 34:0 35:0 36:0 37:0.011765 38:0.011765 39:0.047059 40:0 41:0.011765 42:0 43:0.011765 44:0.011765 45:0.035294 46:0.035294 47:0 48:0.011765 49:0 50:0.011765 51:0.023529 52:0.023529 53:0 54:0 55:0.011765 56:0.011765 57:0 58:0.011765 59:0.047059 60:0.011765 61:0 62:0 63:0 64:0.035294 65:0.011765 66:0 67:0 68:0.011765 69:0.011765 70:0.035294 71:0.023529 72:0.011765 73:0.023529 74:0.011765 75:0 76:0 77:0 78:0.011765 79:0.011765 80:0 81:0.011765 82:0 83:0 84:0 85:0 86:0.023529 87:0 88:0 89:0 90:0.011765 91:0 92:0.035294 93:0 94:0 95:0.023529 96:0.035294 97:0.011765 98:0.023529 99:0.011765 100:0 
-20.13510460975418 1:0 2:0 3:0 4:0.033333 5:0 6:0.016667 7:0 8:0 9:0 10:0 11:0.033333 12:0 13:0.016667 14:0.016667 15:0 16:0 17:0 18:0 19:0 20:0.016667 21:0 22:0 23:0 24:0 25:0 26:0 27:0.05 28:0 29:0 30:0.033333 31:0 32:0.033333 33:0 34:0 35:0 36:0 37:0 38:0.016667 39:0 40:0 41:0 42:0 43:0.016667 44:0.05 45:0 46:0 47:0 48:0 49:0.016667 50:0 51:0 52:0.016667 53:0 54:0.033333 55:0 56:0 57:0 58:0 59:0 60:0 61:0 62:0.033333 63:0.016667 64:0 65:0 66:0.033333 67:0 68:0 69:0.033333 70:0.066667 71:0 72:0.066667 73:0 74:0.016667 75:0.016667 76:0 77:0 78:0.033333 79:0.033333 80:0.016667 81:0 82:0.016667 83:0.016667 84:0 85:0 86:0 87:0.033333 88:0.033333 89:0.033333 90:0 91:0 92:0.05 93:0 94:0 95:0 96:0 97:0.016667 98:0.016667 99:0 100:0.016667 
-19.35449566759561 1:0 2:0.032967 3:0.010989 4:0 5:0.021978 6:0 7:0 8:0.010989 9:0 10:0 11:0.021978 12:0 13:0 14:0.065934 15:0 16:0 17:0 18:0 19:0 20:0 21:0.021978 22:0.010989 23:0.010989 24:0.010989 25:0.010989 26:0 27:0.010989 28:0.021978 29:0 30:0.032967 31:0 32:0 33:0.010989 34:0.032967 35:0 36:0.032967 37:0.010989 38:0 39:0.010989 40:0.021978 41:0 42:0.021978 43:0 44:0.010989 45:0.010989 46:0 47:0.021978 48:0 49:0 50:0.021978 51:0.010989 52:0 53:0.021978 54:0.010989 55:0 56:0.010989 57:0.021978 58:0 59:0.010989 60:0 61:0 62:0.021978 63:0 64:0.010989 65:0 66:0.021978 67:0.010989 68:0 69:0.010989 70:0.021978 71:0 72:0 73:0.010989 74:0.010989 75:0 76:0 77:0.021978 78:0 79:0 80:0 81:0.010989 82:0.010989 83:0 84:0 85:0.021978 86:0.010989 87:0 88:0.010989 89:0 90:0.010989 91:0.010989 92:0.076923 93:0.021978 94:0.010989 95:0 96:0 97:0.010989 98:0 99:0.010989 100:0.043956 
-56 1:0 2:0.011765 3:0.011765 4:0.011765 5:0 6:0 7:0 8:0 9:0.023529 10:0.011765 11:0.023529 12:0 13:0.011765 14:0 15:0 16:0 17:0.011765 18:0 19:0.023529 20:0 21:0.023529 22:0 23:0.011765 24:0.023529 25:0.011765 26:0 27:0.011765 28:0 29:0.023529 30:0 31:0.011765 32:0.011765 33:0.011765 34:0.011765 35:0 36:0.011765 37:0.011765 38:0.011765 39:0.011765 40:0 41:0.035294 42:0.035294 43:0.023529 44:0 45:0 46:0 47:0 48:0.011765 49:0 50:0.011765 51:0.023529 52:0 53:0.011765 54:0.023529 55:0 56:0 57:0.011765 58:0.035294 59:0.023529 60:0 61:0 62:0.011765 63:0 64:0 65:0.011765 66:0 67:0.023529 68:0.023529 69:0 70:0 71:0.047059 72:0 73:0.011765 74:0.011765 75:0.011765 76:0.011765 77:0.011765 78:0 79:0.011765 80:0.011765 81:0 82:0.011765 83:0.023529 84:0 85:0.023529 86:0 87:0 88:0.047059 89:0.023529 90:0 91:0 92:0 93:0.023529 94:0.023529 95:0 96:0 97:0.011765 98:0.011765 99:0.011765 100:0 
-42.50210299082387 1:0.010309 2:0.041237 3:0.030928 4:0 5:0.051546 6:0 7:0.010309 8:0.030928 9:0 10:0 11:0.030928 12:0 13:0.010309 14:0.020619 15:0.020619 16:0.020619 17:0 18:0.020619 19:0.010309 20:0 21:0 22:0 23:0.010309 24:0.010309 25:0.010309 26:0 27:0.010309 28:0 29:0.020619 30:0 31:0.020619 32:0.010309 33:0.010309 34:0 35:0.010309 36:0.010309 37:0 38:0.010309 39:0 40:0 41:0 42:0.010309 43:0.020619 44:0.010309 45:0 46:0 47:0.010309 48:0.010309 49:0 50:0 51:0.020619 52:0 53:0 54:0.020619 55:0.010309 56:0 57:0.020619 58:0 59:0.020619 60:0.041237 61:0 62:0.020619 63:0 64:0 65:0.010309 66:0.010309 67:0.010309 68:0 69:0.030928 70:0.010309 71:0.010309 72:0.010309 73:0.020619 74:0.010309 75:0 76:0 77:0.041237 78:0.020619 79:0.020619 80:0 81:0 82:0 83:0.010309 84:0 85:0.020619 86:0 87:0 88:0 89:0 90:0.020619 91:0.010309 92:0 93:0.020619 94:0 95:0 96:0.020619 97:0.030928 98:0 99:0 100:0 
-20.29487183074168 1:0 2:0 3:0 4:0.014286 5:0.028571 6:0 7:0.028571 8:0.014286 9:0 10:0 11:0.014286 12:0 13:0 14:0.014286 15:0 16:0 17:0 18:0.014286 19:0.028571 20:0 21:0.014286 22:0.014286 23:0.014286 24:0 25:0 26:0.014286 27:0.014286 28:0.028571 29:0 30:0.014286 31:0 32:0.028571 33:0.014286 34:0 35:0 36:0 37:0 38:0.071429 39:0.014286 40:0.014286 41:0.014286 42:0 43:0 44:0 45:0 46:0.014286 47:0.028571 48:0 49:0.028571 50:0.014286 51:0.014286 52:0.014286 53:0 54:0.014286 55:0 56:0.014286 57:0 58:0.028571 59:0.014286 60:0 61:0 62:0 63:0 64:0 65:0.028571 66:0.014286 67:0.014286 68:0.014286 69:0.014286 70:0 71:0.028571 72:0 73:0.014286 74:0 75:0.014286 76:0.014286 77:0.014286 78:0 79:0 80:0 81:0 82:0.014286 83:0.028571 84:0 85:0 86:0 87:0.028571 88:0 89:0.014286 90:0 91:0.014286 92:0 93:0 94:0 95:0.014286 96:0 97:0.028571 98:0.042857 99:0.014286 100:0.014286 
-19.71250428247502 1:0 2:0.012821 3:0 4:0.012821 5:0.012821 6:0 7:0.012821 8:0 9:0 10:0.012821 11:0 12:0 13:0 14:0 15:0.025641 16:0.012821 17:0 18:0.025641 19:0.012821 20:0 21:0.012821 22:0.012821 23:0 24:0.025641 25:0.012821 26:0.012821 27:0.012821 28:0.038462 29:0 30:0.064103 31:0.012821 32:0.038462 33:0 34:0 35:0 36:0 37:0 38:0.038462 39:0.025641 40:0 41:0 42:0 43:0.012821 44:0.025641 45:0 46:0 47:0 48:0 49:0 50:0.051282 51:0.012821 52:0 53:0.012821 54:0.025641 55:0 56:0.025641 57:0 58:0.012821 59:0 60:0 61:0 62:0 63:0.012821 64:0 65:0.012821 66:0.012821 67:0.051282 68:0.012821 69:0.012821 70:0 71:0.012821 72:0 73:0 74:0 75:0.025641 76:0.025641 77:0.012821 78:0 79:0.012821 80:0 81:0.012821 82:0 83:0.012821 84:0 85:0 86:0.012821 87:0 88:0 89:0.012821 90:0 91:0 92:0 93:0.012821 94:0.012821 95:0.012821 96:0 97:0.038462 98:0 99:0.012821 100:0.025641 
-56 1:0 2:0 3:0 4:0.032787 5:0.016393 6:0 7:0 8:0 9:0 10:0 11:0.032787 12:0 13:0.016393 14:0.016393 15:0 16:0 17:0 18:0.016393 19:0.016393 20:0 21:0 22:0 23:0 24:0 25:0 26:0 27:0.016393 28:0 29:0.016393 30:0 31:0.016393 32:0.016393 33:0 34:0.016393 35:0.016393 36:0.032787 37:0 38:0.065574 39:0 40:0 41:0 42:0 43:0.016393 44:0.016393 45:0 46:0 47:0.016393 48:0 49:0.032787 50:0 51:0.016393 52:0 53:0 54:0 55:0 56:0 57:0 58:0 59:0.032787 60:0 61:0 62:0 63:0.016393 64:0.016393 65:0 66:0.04918 67:0 68:0.016393 69:0.032787 70:0.016393 71:0 72:0 73:0 74:0 75:0.016393 76:0 77:0 78:0.065574 79:0.016393 80:0 81:0 82:0 83:0.016393 84:0 85:0 86:0 87:0 88:0.016393 89:0.016393 90:0 91:0.016393 92:0.081967 93:0.016393 94:0 95:0.016393 96:0 97:0.065574 98:0 99:0.016393 100:0.016393 
-56 1:0 2:0 3:0 4:0 5:0.025 6:0 7:0 8:0 9:0.0125 10:0.0125 11:0.0375 12:0 13:0.0125 14:0.025 15:0.0125 16:0.025 17:0.0625 18:0 19:0 20:0.025 21:0.0125 22:0 23:0 24:0.025 25:0.025 26:0 27:0 28:0.0125 29:0 30:0 31:0 32:0 33:0.0375 34:0 35:0 36:0.0125 37:0 38:0 39:0.0125 40:0.025 41:0 42:0 43:0.0125 44:0 45:0 46:0 47:0.025 48:0 49:0 50:0 51:0.0125 52:0 53:0.0125 54:0 55:0 56:0.0125 57:0.025 58:0.025 59:0 60:0 61:0 62:0 63:0.0125 64:0.0125 65:0.025 66:0.0125 67:0 68:0 69:0.025 70:0 71:0 72:0.0375 73:0.025 74:0 75:0 76:0.0125 77:0 78:0 79:0.0125 80:0 81:0 82:0 83:0 84:0 85:0.05 86:0 87:0 88:0.0125 89:0.0375 90:0.0375 91:0.025 92:0.0375 93:0 94:0 95:0.0375 96:0.0125 97:0.0125 98:0.025 99:0 100:0 
-38.2186153364943 1:0 2:0 3:0 4:0 5:0 6:0.013514 7:0.040541 8:0 9:0 10:0.027027 11:0.013514 12:0 13:0 14:0.013514 15:0.013514 16:0.013514 17:0 18:0 19:0 20:0 21:0.040541 22:0.013514 23:0 24:0.040541 25:0.013514 26:0 27:0.027027 28:0 29:0 30:0.027027 31:0 32:0.027027 33:0.040541 34:0.013514 35:0 36:0 37:0 38:0 39:0.013514 40:0.013514 41:0.013514 42:0 43:0.013514 44:0 45:0.013514 46:0 47:0.013514 48:0.013514 49:0.013514 50:0.013514 51:0.027027 52:0.013514 53:0.013514 54:0 55:0 56:0 57:0.013514 58:0.013514 59:0 60:0.027027 61:0 62:0.027027 63:0.013514 64:0 65:0 66:0.013514 67:0 68:0.027027 69:0 70:0 71:0 72:0.013514 73:0.013514 74:0 75:0 76:0.027027 77:0.040541 78:0 79:0 80:0.013514 81:0 82:0.027027 83:0 84:0 85:0.054054 86:0 87:0.013514 88:0 89:0 90:0 91:0.027027 92:0 93:0 94:0 95:0.027027 96:0.013514 97:0.013514 98:0 99:0.013514 100:0.013514 
-38.12257554371838 1:0.009174 2:0 3:0 4:0.036697 5:0.027523 6:0 7:0.018349 8:0 9:0.009174 10:0.018349 11:0 12:0.009174 13:0.009174 14:0.055046 15:0 16:0.018349 17:0.036697 18:0.009174 19:0.018349 20:0 21:0.009174 22:0 23:0 24:0.018349 25:0.009174 26:0 27:0 28:0.018349 29:0.009174 30:0 31:0 32:0.009174 33:0.009174 34:0.009174 35:0 36:0.018349 37:0 38:0.045872 39:0 40:0 41:0 42:0.009174 43:0.018349 44:0.009174 45:0.009174 46:0.027523 47:0.027523 48:0.009174 49:0 50:0.009174 51:0.027523 52:0.009174 53:0.009174 54:0.009174 55:0 56:0.018349 57:0.036697 58:0 59:0 60:0.009174 61:0 62:0.018349 63:0 64:0.009174 65:0 66:0 67:0.009174 68:0.009174 69:0.009174 70:0.009174 71:0 72:0.009174 73:0 74:0 75:0.009174 76:0.009174 77:0 78:0 79:0.009174 80:0 81:0 82:0.009174 83:0 84:0.018349 85:0.009174 86:0.009174 87:0.018349 88:0.009174 89:0 90:0.018349 91:0.018349 92:0.027523 93:0.009174 94:0.009174 95:0.018349 96:0 97:0.027523 98:0 99:0 100:0.027523 
-56 1:0.011236 2:0.022472 3:0 4:0 5:0 6:0 7:0.011236 8:0 9:0 10:0 11:0.05618 12:0 13:0.011236 14:0.022472 15:0 16:0.033708 17:0.022472 18:0 19:0 20:0 21:0.011236 22:0 23:0 24:0 25:0.011236 26:0 27:0.011236 28:0 29:0.011236 30:0.011236 31:0.011236 32:0.022472 33:0 34:0 35:0.022472 36:0.011236 37:0 38:0 39:0.011236 40:0 41:0.022472 42:0.011236 43:0.011236 44:0.011236 45:0 46:0 47:0.033708 48:0 49:0.011236 50:0 51:0.011236 52:0 53:0.011236 54:0.011236 55:0 56:0 57:0.033708 58:0 59:0 60:0 61:0.011236 62:0.022472 63:0.011236 64:0 65:0.011236 66:0 67:0.011236 68:0.044944 69:0.011236 70:0.011236 71:0 72:0.011236 73:0 74:0 75:0 76:0.022472 77:0.011236 78:0.078652 79:0.022472 80:0.011236 81:0.011236 82:0 83:0.011236 84:0.011236 85:0.011236 86:0 87:0 88:0.022472 89:0.022472 90:0 91:0.022472 92:0.078652 93:0 94:0 95:0 96:0 97:0 98:0.011236 99:0 100:0.011236 
