svm_type c_svc
kernel_type linear
nr_class 2
total_sv 67
rho -0.182655
label 2 3
nr_sv 38 29
SV
56 1:0 2:0.014493 3:0.014493 4:0 5:0.014493 6:0.014493 7:0 8:0 9:0.014493 10:0.028986 11:0.014493 12:0 13:0 14:0.014493 15:0 16:0 17:0 18:0 19:0 20:0.014493 21:0.014493 22:0 23:0.043478 24:0.014493 25:0.014493 26:0 27:0 28:0 29:0 30:0 31:0.014493 32:0.014493 33:0.014493 34:0.014493 35:0.014493 36:0.014493 37:0 38:0.014493 39:0.028986 40:0 41:0 42:0 43:0.014493 44:0 45:0.028986 46:0 47:0.014493 48:0.028986 49:0.057971 50:0 51:0.043478 52:0 53:0 54:0 55:0 56:0 57:0 58:0.028986 59:0.014493 60:0 61:0 62:0 63:0 64:0.014493 65:0 66:0.014493 67:0 68:0.028986 69:0 70:0 71:0.028986 72:0 73:0 74:0.014493 75:0.014493 76:0 77:0.014493 78:0.028986 79:0 80:0 81:0 82:0 83:0.014493 84:0 85:0.014493 86:0 87:0 88:0.014493 89:0.014493 90:0.028986 91:0.014493 92:0.043478 93:0 94:0 95:0 96:0.028986 97:0.028986 98:0 99:0.014493 100:0.028986 
56 1:0 2:0.025 3:0.0125 4:0.025 5:0.0125 6:0 7:0 8:0.025 9:0.0125 10:0.0125 11:0.0375 12:0 13:0.0125 14:0 15:0 16:0 17:0.0125 18:0 19:0 20:0 21:0.025 22:0 23:0.0125 24:0 25:0.0125 26:0 27:0 28:0 29:0.025 30:0.0125 31:0.0375 32:0 33:0.025 34:0.0125 35:0.0125 36:0 37:0.0375 38:0.0125 39:0.025 40:0.0125 41:0.0125 42:0.0125 43:0 44:0 45:0 46:0 47:0 48:0.025 49:0 50:0.0125 51:0 52:0.0375 53:0.0125 54:0.0125 55:0 56:0 57:0 58:0.0125 59:0.0375 60:0 61:0.0125 62:0 63:0 64:0.0375 65:0.025 66:0.0125 67:0 68:0.0125 69:0 70:0 71:0.0125 72:0.0375 73:0 74:0.025 75:0 76:0 77:0 78:0 79:0.025 80:0.025 81:0.0125 82:0 83:0.0125 84:0 85:0 86:0 87:0 88:0.0125 89:0.0125 90:0.0125 91:0 92:0 93:0 94:0.0125 95:0 96:0.0125 97:0.0125 98:0.0125 99:0.0375 100:0 
56 1:0.021739 2:0 3:0 4:0.021739 5:0 6:0 7:0 8:0.043478 9:0 10:0 11:0.021739 12:0 13:0 14:0 15:0 16:0 17:0 18:0 19:0.021739 20:0 21:0 22:0 23:0.043478 24:0 25:0.021739 26:0.021739 27:0.086957 28:0 29:0.043478 30:0.021739 31:0 32:0.021739 33:0.021739 34:0 35:0 36:0 37:0 38:0 39:0.043478 40:0.021739 41:0 42:0 43:0 44:0.021739 45:0 46:0 47:0 48:0 49:0 50:0 51:0 52:0 53:0 54:0 55:0 56:0 57:0 58:0 59:0.021739 60:0.021739 61:0 62:0 63:0 64:0.043478 65:0 66:0.021739 67:0 68:0 69:0.021739 70:0 71:0.021739 72:0 73:0.021739 74:0 75:0 76:0 77:0 78:0.043478 79:0.021739 80:0 81:0.021739 82:0 83:0.021739 84:0 85:0 86:0.043478 87:0 88:0 89:0.021739 90:0.065217 91:0 92:0.021739 93:0 94:0 95:0.043478 96:0 97:0.021739 98:0 99:0 100:0 
56 1:0 2:0 3:0.007874 4:0.007874 5:0.023622 6:0 7:0.007874 8:0.007874 9:0.007874 10:0 11:0.007874 12:0 13:0 14:0.015748 15:0 16:0.007874 17:0.007874 18:0.015748 19:0.015748 20:0 21:0 22:0.015748 23:0.007874 24:0.007874 25:0 26:0 27:0.007874 28:0.023622 29:0 30:0.007874 31:0.007874 32:0.015748 33:0.015748 34:0 35:0 36:0 37:0 38:0.023622 39:0.015748 40:0.015748 41:0.007874 42:0 43:0.023622 44:0.015748 45:0.023622 46:0.070866 47:0.023622 48:0.007874 49:0.007874 50:0 51:0.007874 52:0.007874 53:0 54:0 55:0.007874 56:0 57:0 58:0.007874 59:0.007874 60:0.007874 61:0.03937 62:0.007874 63:0.007874 64:0.007874 65:0.007874 66:0.023622 67:0.007874 68:0 69:0.015748 70:0.007874 71:0.007874 72:0.023622 73:0.015748 74:0.007874 75:0.007874 76:0 77:0.007874 78:0.007874 79:0.015748 80:0 81:0 82:0.007874 83:0.007874 84:0 85:0.007874 86:0.031496 87:0 88:0.015748 89:0.007874 90:0 91:0.015748 92:0.031496 93:0.015748 94:0 95:0 96:0.031496 97:0.015748 98:0.047244 99:0 100:0.015748 
56 1:0 2:0 3:0 4:0 5:0.015152 6:0 7:0 8:0.030303 9:0.015152 10:0.045455 11:0.015152 12:0 13:0 14:0.015152 15:0 16:0.015152 17:0 18:0 19:0 20:0 21:0 22:0 23:0 24:0 25:0.030303 26:0.030303 27:0.015152 28:0 29:0.030303 30:0.015152 31:0.030303 32:0 33:0 34:0 35:0 36:0.015152 37:0 38:0.015152 39:0.015152 40:0.030303 41:0.015152 42:0 43:0 44:0.015152 45:0 46:0.015152 47:0 48:0.015152 49:0.075758 50:0.015152 51:0 52:0.015152 53:0 54:0 55:0 56:0.030303 57:0 58:0.015152 59:0 60:0 61:0.045455 62:0.015152 63:0 64:0 65:0 66:0.030303 67:0 68:0.015152 69:0.015152 70:0 71:0 72:0.015152 73:0.015152 74:0.015152 75:0.030303 76:0 77:0.015152 78:0.015152 79:0 80:0 81:0 82:0 83:0 84:0 85:0.045455 86:0 87:0 88:0 89:0.030303 90:0.015152 91:0 92:0 93:0.015152 94:0 95:0.030303 96:0.015152 97:0 98:0.015152 99:0.015152 100:0 
38.88119030557017 1:0 2:0 3:0 4:0 5:0 6:0.033333 7:0 8:0 9:0.033333 10:0 11:0 12:0 13:0 14:0 15:0 16:0 17:0.066667 18:0 19:0.033333 20:0 21:0.033333 22:0 23:0 24:0 25:0 26:0 27:0.033333 28:0 29:0 30:0 31:0.033333 32:0.033333 33:0 34:0.033333 35:0 36:0 37:0 38:0 39:0 40:0.033333 41:0.033333 42:0 43:0 44:0.066667 45:0 46:0 47:0 48:0 49:0.033333 50:0 51:0.033333 52:0 53:0 54:0 55:0 56:0 57:0 58:0.033333 59:0 60:0 61:0 62:0 63:0 64:0.033333 65:0 66:0 67:0 68:0 69:0 70:0.066667 71:0.066667 72:0 73:0 74:0.033333 75:0 76:0 77:0 78:0.066667 79:0.033333 80:0 81:0 82:0 83:0 84:0 85:0 86:0 87:0 88:0 89:0.066667 90:0 91:0 92:0 93:0 94:0 95:0.033333 96:0 97:0 98:0 99:0.033333 100:0 
42.79677477253107 1:0.010309 2:0.010309 3:0 4:0 5:0.020619 6:0 7:0.020619 8:0.020619 9:0.020619 10:0.010309 11:0.010309 12:0 13:0 14:0.020619 15:0 16:0.020619 17:0.010309 18:0.010309 19:0.030928 20:0.010309 21:0.020619 22:0.030928 23:0.010309 24:0 25:0.020619 26:0.010309 27:0 28:0 29:0 30:0.020619 31:0 32:0.010309 33:0 34:0.010309 35:0 36:0.020619 37:0 38:0.010309 39:0 40:0.020619 41:0.020619 42:0 43:0.020619 44:0.030928 45:0.010309 46:0 47:0 48:0.020619 49:0.010309 50:0 51:0.041237 52:0.020619 53:0 54:0.020619 55:0 56:0.020619 57:0.020619 58:0.020619 59:0 60:0.010309 61:0.010309 62:0 63:0 64:0.010309 65:0 66:0.030928 67:0 68:0 69:0.020619 70:0 71:0 72:0.030928 73:0.010309 74:0 75:0.010309 76:0 77:0.010309 78:0 79:0 80:0 81:0 82:0 83:0 84:0 85:0.020619 86:0 87:0.010309 88:0 89:0.010309 90:0.010309 91:0.010309 92:0.010309 93:0.030928 94:0.020619 95:0 96:0 97:0.020619 98:0.010309 99:0.020619 100:0.010309 
46.07597533560116 1:0 2:0 3:0.020619 4:0.020619 5:0 6:0 7:0.010309 8:0 9:0 10:0 11:0.020619 12:0 13:0 14:0 15:0.010309 16:0 17:0.010309 18:0 19:0.010309 20:0.010309 21:0.020619 22:0 23:0.010309 24:0 25:0 26:0 27:0.010309 28:0.030928 29:0 30:0 31:0 32:0.010309 33:0.010309 34:0 35:0.010309 36:0 37:0 38:0.020619 39:0.010309 40:0.010309 41:0 42:0 43:0.020619 44:0 45:0 46:0.010309 47:0 48:0.010309 49:0.020619 50:0.010309 51:0 52:0.010309 53:0.030928 54:0.030928 55:0.010309 56:0.041237 57:0.020619 58:0.010309 59:0.010309 60:0.020619 61:0 62:0.010309 63:0.010309 64:0 65:0.010309 66:0.030928 67:0.010309 68:0.030928 69:0 70:0.030928 71:0 72:0 73:0.020619 74:0 75:0.010309 76:0.020619 77:0.020619 78:0 79:0.010309 80:0 81:0 82:0.030928 83:0 84:0 85:0.020619 86:0.010309 87:0 88:0 89:0 90:0 91:0.030928 92:0.020619 93:0 94:0.010309 95:0.061856 96:0.030928 97:0.030928 98:0.010309 99:0.010309 100:0 
56 1:0 2:0.017857 3:0 4:0 5:0 6:0 7:0 8:0 9:0.017857 10:0.071429 11:0 12:0 13:0.017857 14:0.017857 15:0 16:0 17:0 18:0.035714 19:0.035714 20:0 21:0 22:0.017857 23:0.053571 24:0.017857 25:0 26:0 27:0.017857 28:0 29:0.035714 30:0.017857 31:0 32:0.017857 33:0 34:0.017857 35:0 36:0 37:0 38:0.071429 39:0 40:0 41:0.017857 42:0 43:0.053571 44:0 45:0 46:0 47:0 48:0.017857 49:0 50:0 51:0 52:0.017857 53:0 54:0 55:0.035714 56:0.017857 57:0 58:0 59:0 60:0 61:0 62:0 63:0 64:0 65:0 66:0 67:0 68:0 69:0 70:0.017857 71:0.035714 72:0 73:0 74:0 75:0.035714 76:0 77:0 78:0.017857 79:0.017857 80:0 81:0 82:0.017857 83:0.035714 84:0 85:0 86:0 87:0.017857 88:0 89:0 90:0.017857 91:0.017857 92:0 93:0.017857 94:0 95:0.017857 96:0 97:0.035714 98:0 99:0 100:0.053571 
0.8377682485674889 1:0.01087 2:0.01087 3:0.021739 4:0 5:0 6:0 7:0.01087 8:0.01087 9:0.01087 10:0.01087 11:0.01087 12:0.021739 13:0 14:0.021739 15:0.021739 16:0.01087 17:0 18:0 19:0.021739 20:0 21:0 22:0.021739 23:0.01087 24:0.01087 25:0 26:0 27:0.01087 28:0 29:0 30:0 31:0 32:0.01087 33:0.032609 34:0 35:0 36:0 37:0.043478 38:0.01087 39:0 40:0.01087 41:0.01087 42:0.021739 43:0 44:0 45:0 46:0.021739 47:0.021739 48:0 49:0 50:0.043478 51:0.01087 52:0.01087 53:0.01087 54:0.01087 55:0 56:0 57:0.021739 58:0 59:0.01087 60:0 61:0.01087 62:0.032609 63:0.01087 64:0.021739 65:0 66:0.01087 67:0.032609 68:0.01087 69:0.021739 70:0.01087 71:0 72:0 73:0 74:0 75:0 76:0.043478 77:0.032609 78:0.01087 79:0 80:0 81:0.01087 82:0.01087 83:0 84:0 85:0.076087 86:0 87:0 88:0 89:0.01087 90:0 91:0.043478 92:0.021739 93:0.01087 94:0 95:0 96:0 97:0 98:0 99:0.01087 100:0 
56 1:0 2:0 3:0.007874 4:0.015748 5:0.007874 6:0.015748 7:0 8:0 9:0.007874 10:0 11:0.015748 12:0 13:0 14:0.047244 15:0.007874 16:0.007874 17:0.023622 18:0.015748 19:0.023622 20:0.007874 21:0.015748 22:0 23:0.015748 24:0 25:0.007874 26:0.023622 27:0 28:0.023622 29:0 30:0.023622 31:0 32:0.015748 33:0.007874 34:0 35:0.007874 36:0.007874 37:0.007874 38:0.007874 39:0 40:0.007874 41:0.031496 42:0 43:0.007874 44:0.015748 45:0.007874 46:0 47:0.023622 48:0.015748 49:0 50:0.015748 51:0.015748 52:0 53:0.007874 54:0 55:0.015748 56:0.015748 57:0.015748 58:0.007874 59:0 60:0.015748 61:0.015748 62:0.03937 63:0.007874 64:0 65:0 66:0.007874 67:0 68:0.015748 69:0 70:0.023622 71:0.007874 72:0.03937 73:0 74:0.007874 75:0.023622 76:0.007874 77:0.015748 78:0.007874 79:0 80:0.007874 81:0 82:0 83:0 84:0.015748 85:0.070866 86:0 87:0 88:0.023622 89:0.007874 90:0.007874 91:0.015748 92:0 93:0 94:0.007874 95:0 96:0 97:0.007874 98:0 99:0 100:0.023622 
9.087948773804705 1:0 2:0 3:0.0125 4:0.025 5:0.025 6:0 7:0.0125 8:0.025 9:0 10:0 11:0.0125 12:0.025 13:0 14:0.0125 15:0 16:0.025 17:0 18:0.0125 19:0 20:0 21:0.025 22:0.0125 23:0 24:0.025 25:0 26:0.0125 27:0.025 28:0 29:0 30:0 31:0 32:0.025 33:0.0125 34:0 35:0.0125 36:0 37:0 38:0 39:0 40:0.025 41:0 42:0.025 43:0 44:0 45:0 46:0 47:0.0375 48:0 49:0 50:0.0125 51:0.0375 52:0 53:0.0125 54:0 55:0 56:0.0125 57:0 58:0.0125 59:0.0125 60:0 61:0.0125 62:0.0125 63:0 64:0 65:0.025 66:0 67:0.0125 68:0 69:0.0125 70:0.025 71:0 72:0.0125 73:0.0125 74:0.0125 75:0 76:0 77:0.0125 78:0 79:0.0125 80:0.0125 81:0.0125 82:0.025 83:0 84:0 85:0.0125 86:0.025 87:0.05 88:0.025 89:0.0125 90:0 91:0.0375 92:0.0375 93:0 94:0.0125 95:0 96:0.0125 97:0.0125 98:0.025 99:0 100:0 
56 1:0.012987 2:0.012987 3:0 4:0.025974 5:0.012987 6:0.012987 7:0 8:0 9:0.051948 10:0.064935 11:0.025974 12:0 13:0 14:0.025974 15:0.012987 16:0.012987 17:0 18:0.012987 19:0 20:0.012987 21:0.012987 22:0.012987 23:0 24:0 25:0 26:0.012987 27:0 28:0.025974 29:0 30:0.025974 31:0 32:0 33:0 34:0 35:0 36:0 37:0.012987 38:0.038961 39:0 40:0 41:0 42:0.012987 43:0 44:0 45:0.012987 46:0 47:0 48:0 49:0 50:0 51:0 52:0 53:0 54:0 55:0.012987 56:0 57:0.012987 58:0.012987 59:0 60:0.025974 61:0 62:0.025974 63:0 64:0.012987 65:0 66:0.012987 67:0.012987 68:0 69:0 70:0.012987 71:0 72:0 73:0.038961 74:0.012987 75:0 76:0 77:0 78:0.038961 79:0.051948 80:0.012987 81:0.012987 82:0.012987 83:0.025974 84:0.012987 85:0.012987 86:0.025974 87:0 88:0.012987 89:0 90:0 91:0.025974 92:0.012987 93:0 94:0 95:0 96:0.012987 97:0.025974 98:0.012987 99:0.025974 100:0 
56 1:0 2:0.012346 3:0.024691 4:0 5:0 6:0 7:0 8:0.012346 9:0.012346 10:0.012346 11:0 12:0 13:0.061728 14:0.012346 15:0.012346 16:0 17:0.012346 18:0.012346 19:0.012346 20:0 21:0.024691 22:0 23:0 24:0 25:0 26:0.012346 27:0 28:0.012346 29:0.012346 30:0.012346 31:0.037037 32:0 33:0.012346 34:0.012346 35:0 36:0 37:0 38:0.037037 39:0.012346 40:0 41:0.024691 42:0 43:0.024691 44:0 45:0.012346 46:0.012346 47:0 48:0.012346 49:0 50:0.012346 51:0 52:0 53:0.012346 54:0.012346 55:0 56:0.012346 57:0 58:0 59:0.037037 60:0 61:0.012346 62:0 63:0 64:0.037037 65:0.024691 66:0 67:0 68:0.024691 69:0 70:0.012346 71:0.012346 72:0.012346 73:0.012346 74:0 75:0.012346 76:0.037037 77:0 78:0 79:0 80:0.037037 81:0.012346 82:0 83:0.012346 84:0.012346 85:0 86:0.012346 87:0 88:0 89:0.012346 90:0 91:0 92:0.012346 93:0 94:0.037037 95:0 96:0.024691 97:0.024691 98:0.037037 99:0.012346 100:0 
56 1:0.015957 2:0.026596 3:0.015957 4:0.005319 5:0.005319 6:0.010638 7:0.005319 8:0 9:0.026596 10:0.005319 11:0.010638 12:0.005319 13:0.015957 14:0.010638 15:0.010638 16:0.015957 17:0.010638 18:0.005319 19:0.005319 20:0 21:0.015957 22:0 23:0.026596 24:0.015957 25:0 26:0.010638 27:0.015957 28:0.005319 29:0.010638 30:0.015957 31:0 32:0.021277 33:0.010638 34:0.015957 35:0.015957 36:0.015957 37:0.010638 38:0.005319 39:0 40:0.010638 41:0.010638 42:0.005319 43:0.005319 44:0 45:0.005319 46:0.015957 47:0.015957 48:0.015957 49:0.005319 50:0 51:0.005319 52:0 53:0.010638 54:0.026596 55:0.010638 56:0 57:0.005319 58:0 59:0.010638 60:0.021277 61:0 62:0.010638 63:0.031915 64:0.005319 65:0 66:0 67:0.005319 68:0 69:0.010638 70:0 71:0 72:0.015957 73:0.010638 74:0 75:0.010638 76:0.005319 77:0.010638 78:0.015957 79:0.010638 80:0.010638 81:0.015957 82:0.005319 83:0.010638 84:0 85:0.021277 86:0.005319 87:0.026596 88:0.005319 89:0.005319 90:0.005319 91:0.005319 92:0.010638 93:0.010638 94:0.005319 95:0 96:0.031915 97:0.010638 98:0.021277 99:0.010638 100:0.037234 
56 1:0.020408 2:0.005102 3:0.010204 4:0 5:0.015306 6:0.010204 7:0.005102 8:0.005102 9:0.015306 10:0.02551 11:0.005102 12:0.035714 13:0.015306 14:0 15:0.020408 16:0.005102 17:0.020408 18:0.015306 19:0.010204 20:0.005102 21:0 22:0 23:0.010204 24:0 25:0.010204 26:0.015306 27:0.005102 28:0.005102 29:0.010204 30:0.015306 31:0 32:0.015306 33:0.020408 34:0.005102 35:0.005102 36:0 37:0.015306 38:0 39:0.005102 40:0.02551 41:0 42:0.02551 43:0.020408 44:0.010204 45:0 46:0.061224 47:0.005102 48:0.020408 49:0.030612 50:0.005102 51:0.015306 52:0 53:0.010204 54:0.005102 55:0.010204 56:0.010204 57:0.005102 58:0.005102 59:0.010204 60:0.005102 61:0.015306 62:0.015306 63:0.005102 64:0.005102 65:0 66:0.02551 67:0 68:0.015306 69:0.005102 70:0 71:0.010204 72:0 73:0 74:0 75:0.010204 76:0 77:0.005102 78:0.020408 79:0.010204 80:0.005102 81:0 82:0.010204 83:0.015306 84:0.010204 85:0.030612 86:0.010204 87:0.005102 88:0.010204 89:0 90:0 91:0.015306 92:0.010204 93:0.010204 94:0 95:0 96:0.005102 97:0 98:0.015306 99:0.005102 100:0.035714 
10.41674008068782 1:0.012658 2:0.012658 3:0 4:0.012658 5:0 6:0.012658 7:0.012658 8:0 9:0.012658 10:0.050633 11:0 12:0 13:0.012658 14:0.075949 15:0 16:0 17:0.012658 18:0.012658 19:0 20:0.012658 21:0 22:0 23:0.012658 24:0 25:0.025316 26:0 27:0 28:0 29:0 30:0.025316 31:0.012658 32:0.012658 33:0.012658 34:0 35:0 36:0 37:0 38:0.025316 39:0 40:0 41:0.012658 42:0 43:0.025316 44:0 45:0 46:0 47:0 48:0.025316 49:0 50:0 51:0.063291 52:0.012658 53:0.012658 54:0.012658 55:0.025316 56:0 57:0.025316 58:0 59:0 60:0.012658 61:0.025316 62:0 63:0 64:0 65:0.012658 66:0 67:0 68:0 69:0.012658 70:0.012658 71:0 72:0 73:0.012658 74:0.012658 75:0.012658 76:0.012658 77:0.012658 78:0 79:0.012658 80:0.012658 81:0 82:0.025316 83:0 84:0 85:0.025316 86:0.012658 87:0 88:0.037975 89:0 90:0 91:0.025316 92:0.037975 93:0.037975 94:0 95:0 96:0.012658 97:0.025316 98:0 99:0 100:0 
29.91956181240718 1:0.017391 2:0.026087 3:0.043478 4:0 5:0.034783 6:0 7:0.008696 8:0.008696 9:0 10:0.017391 11:0 12:0 13:0.034783 14:0.017391 15:0.008696 16:0.008696 17:0.008696 18:0 19:0.026087 20:0.026087 21:0 22:0 23:0 24:0 25:0.026087 26:0.008696 27:0 28:0 29:0 30:0.034783 31:0.008696 32:0.026087 33:0 34:0.008696 35:0.008696 36:0.017391 37:0 38:0.008696 39:0.017391 40:0.008696 41:0 42:0.017391 43:0 44:0.017391 45:0 46:0 47:0.008696 48:0.008696 49:0 50:0 51:0.026087 52:0 53:0.008696 54:0.008696 55:0.017391 56:0 57:0.008696 58:0 59:0.008696 60:0.017391 61:0 62:0.008696 63:0 64:0.008696 65:0.008696 66:0 67:0.008696 68:0.008696 69:0.017391 70:0 71:0.017391 72:0.008696 73:0.026087 74:0 75:0.008696 76:0.017391 77:0.017391 78:0 79:0 80:0.008696 81:0 82:0.017391 83:0 84:0 85:0.008696 86:0.008696 87:0.017391 88:0.008696 89:0 90:0 91:0 92:0.026087 93:0.043478 94:0.017391 95:0.008696 96:0.026087 97:0.034783 98:0.008696 99:0 100:0 
47.23105402203041 1:0 2:0.016667 3:0.016667 4:0 5:0.016667 6:0.033333 7:0 8:0 9:0 10:0 11:0 12:0 13:0.033333 14:0.016667 15:0 16:0.016667 17:0.033333 18:0.033333 19:0 20:0.016667 21:0 22:0 23:0 24:0.033333 25:0.016667 26:0 27:0 28:0.016667 29:0.033333 30:0.016667 31:0 32:0 33:0 34:0.033333 35:0.016667 36:0 37:0.016667 38:0.033333 39:0 40:0.016667 41:0 42:0 43:0.016667 44:0 45:0 46:0 47:0 48:0.016667 49:0 50:0.016667 51:0 52:0 53:0 54:0.016667 55:0.016667 56:0 57:0 58:0 59:0 60:0 61:0.016667 62:0 63:0 64:0 65:0.016667 66:0 67:0 68:0 69:0 70:0 71:0 72:0 73:0 74:0 75:0 76:0.033333 77:0 78:0 79:0.016667 80:0 81:0 82:0.033333 83:0 84:0 85:0.016667 86:0 87:0.083333 88:0.033333 89:0 90:0.016667 91:0.016667 92:0.016667 93:0.016667 94:0 95:0.033333 96:0.033333 97:0.033333 98:0.033333 99:0 100:0 
28.20041184818086 1:0.015385 2:0 3:0 4:0 5:0.046154 6:0.030769 7:0 8:0.015385 9:0.015385 10:0 11:0.030769 12:0 13:0 14:0.030769 15:0.015385 16:0 17:0 18:0 19:0 20:0.015385 21:0 22:0 23:0 24:0.015385 25:0 26:0 27:0 28:0.015385 29:0 30:0 31:0 32:0 33:0.030769 34:0 35:0 36:0 37:0 38:0.061538 39:0.015385 40:0 41:0.015385 42:0.015385 43:0.015385 44:0 45:0 46:0 47:0 48:0 49:0.015385 50:0 51:0.015385 52:0 53:0 54:0.015385 55:0 56:0 57:0.015385 58:0 59:0.015385 60:0 61:0 62:0 63:0.015385 64:0 65:0.015385 66:0 67:0.015385 68:0.061538 69:0.015385 70:0 71:0 72:0 73:0.030769 74:0 75:0 76:0 77:0 78:0.030769 79:0.015385 80:0.046154 81:0.030769 82:0 83:0.015385 84:0.015385 85:0 86:0 87:0 88:0.030769 89:0 90:0 91:0.015385 92:0 93:0.015385 94:0.015385 95:0 96:0.061538 97:0.030769 98:0 99:0.046154 100:0 
20.61629003291493 1:0 2:0 3:0.012821 4:0 5:0.012821 6:0 7:0 8:0.025641 9:0.012821 10:0.038462 11:0 12:0 13:0 14:0.012821 15:0.012821 16:0 17:0.012821 18:0 19:0.051282 20:0.012821 21:0 22:0.025641 23:0 24:0.038462 25:0.012821 26:0 27:0.012821 28:0.012821 29:0.025641 30:0.012821 31:0.012821 32:0.012821 33:0.025641 34:0.012821 35:0 36:0 37:0 38:0.025641 39:0.012821 40:0.025641 41:0.012821 42:0 43:0 44:0.012821 45:0 46:0.012821 47:0 48:0 49:0 50:0 51:0 52:0 53:0 54:0.012821 55:0 56:0 57:0.012821 58:0 59:0.025641 60:0 61:0 62:0 63:0 64:0.012821 65:0.025641 66:0.025641 67:0 68:0 69:0.012821 70:0.025641 71:0 72:0.025641 73:0.012821 74:0 75:0.012821 76:0.025641 77:0 78:0.025641 79:0.025641 80:0.038462 81:0 82:0.025641 83:0.012821 84:0 85:0.012821 86:0 87:0 88:0.012821 89:0 90:0.012821 91:0.025641 92:0 93:0.012821 94:0.038462 95:0 96:0 97:0.012821 98:0 99:0 100:0 
56 1:0 2:0 3:0.024096 4:0 5:0 6:0.012048 7:0 8:0.012048 9:0 10:0.024096 11:0 12:0 13:0.024096 14:0.036145 15:0 16:0.012048 17:0.012048 18:0 19:0 20:0.024096 21:0.012048 22:0 23:0.036145 24:0 25:0.036145 26:0.024096 27:0.012048 28:0 29:0 30:0 31:0 32:0.012048 33:0.012048 34:0.024096 35:0 36:0 37:0 38:0.036145 39:0.012048 40:0 41:0 42:0 43:0.024096 44:0.012048 45:0 46:0 47:0 48:0 49:0.048193 50:0 51:0.012048 52:0 53:0 54:0 55:0.036145 56:0.024096 57:0 58:0 59:0 60:0 61:0 62:0 63:0 64:0.012048 65:0.024096 66:0 67:0.012048 68:0.012048 69:0 70:0 71:0.012048 72:0 73:0.012048 74:0.024096 75:0 76:0.024096 77:0.012048 78:0.036145 79:0 80:0.012048 81:0.012048 82:0.012048 83:0 84:0 85:0.012048 86:0.024096 87:0 88:0.012048 89:0.012048 90:0.024096 91:0 92:0.060241 93:0 94:0 95:0 96:0.012048 97:0.024096 98:0 99:0.036145 100:0.012048 
56 1:0 2:0.033333 3:0.011111 4:0 5:0 6:0 7:0 8:0 9:0.011111 10:0 11:0 12:0.022222 13:0.022222 14:0.044444 15:0.022222 16:0 17:0.011111 18:0.011111 19:0.011111 20:0 21:0.011111 22:0 23:0.011111 24:0 25:0.011111 26:0.022222 27:0 28:0.022222 29:0 30:0 31:0 32:0.033333 33:0 34:0.033333 35:0 36:0.022222 37:0.022222 38:0.011111 39:0.011111 40:0 41:0 42:0.022222 43:0 44:0 45:0 46:0 47:0.022222 48:0 49:0 50:0.011111 51:0 52:0.011111 53:0.011111 54:0 55:0.022222 56:0.011111 57:0.011111 58:0.011111 59:0.011111 60:0 61:0.011111 62:0 63:0.022222 64:0.011111 65:0.011111 66:0 67:0.022222 68:0.033333 69:0 70:0.011111 71:0 72:0.011111 73:0.011111 74:0 75:0.022222 76:0.022222 77:0 78:0.022222 79:0.011111 80:0 81:0 82:0 83:0.022222 84:0 85:0.022222 86:0 87:0 88:0.022222 89:0.011111 90:0 91:0.011111 92:0.033333 93:0 94:0.022222 95:0.022222 96:0 97:0.022222 98:0 99:0 100:0.033333 
21.11381050043324 1:0 2:0.016129 3:0.016129 4:0 5:0 6:0 7:0.032258 8:0 9:0 10:0.080645 11:0 12:0.016129 13:0.032258 14:0.016129 15:0.016129 16:0 17:0 18:0.016129 19:0 20:0 21:0.016129 22:0.016129 23:0.016129 24:0.016129 25:0.016129 26:0 27:0 28:0.016129 29:0 30:0.016129 31:0 32:0.016129 33:0.032258 34:0 35:0 36:0 37:0 38:0.016129 39:0.016129 40:0.016129 41:0 42:0 43:0.016129 44:0.016129 45:0 46:0 47:0 48:0.016129 49:0.016129 50:0 51:0.016129 52:0.032258 53:0.016129 54:0 55:0 56:0 57:0.032258 58:0.016129 59:0 60:0.016129 61:0 62:0 63:0 64:0 65:0 66:0.032258 67:0.016129 68:0.032258 69:0 70:0 71:0 72:0.016129 73:0 74:0.032258 75:0.016129 76:0 77:0 78:0 79:0 80:0 81:0.016129 82:0 83:0 84:0 85:0.080645 86:0 87:0.016129 88:0.016129 89:0 90:0 91:0 92:0 93:0 94:0 95:0.016129 96:0 97:0.016129 98:0.032258 99:0.016129 100:0 
4.647103547830962 1:0 2:0.011236 3:0.022472 4:0 5:0.011236 6:0.011236 7:0 8:0 9:0.011236 10:0.011236 11:0 12:0 13:0.011236 14:0 15:0 16:0.022472 17:0.011236 18:0 19:0 20:0.011236 21:0.033708 22:0 23:0.011236 24:0.022472 25:0 26:0 27:0.022472 28:0.022472 29:0.022472 30:0 31:0.022472 32:0 33:0 34:0.011236 35:0.022472 36:0 37:0.022472 38:0.022472 39:0.022472 40:0.044944 41:0 42:0.011236 43:0.011236 44:0.011236 45:0 46:0.033708 47:0.033708 48:0.011236 49:0 50:0.033708 51:0 52:0 53:0 54:0.011236 55:0.022472 56:0 57:0.011236 58:0 59:0.011236 60:0 61:0.011236 62:0.011236 63:0.022472 64:0 65:0 66:0.011236 67:0 68:0 69:0.011236 70:0.011236 71:0.011236 72:0 73:0.022472 74:0 75:0.022472 76:0.022472 77:0.011236 78:0 79:0.011236 80:0.011236 81:0 82:0 83:0 84:0 85:0.033708 86:0 87:0.033708 88:0.011236 89:0 90:0 91:0.022472 92:0 93:0 94:0 95:0 96:0.011236 97:0.011236 98:0.033708 99:0 100:0.011236 
7.175934423046097 1:0.013889 2:0 3:0.027778 4:0 5:0.041667 6:0.013889 7:0 8:0 9:0.027778 10:0 11:0.013889 12:0 13:0.013889 14:0.083333 15:0 16:0.013889 17:0 18:0 19:0.041667 20:0 21:0.013889 22:0 23:0 24:0 25:0.013889 26:0 27:0 28:0 29:0.027778 30:0.013889 31:0.027778 32:0 33:0 34:0 35:0.013889 36:0 37:0 38:0.027778 39:0.013889 40:0 41:0.013889 42:0 43:0 44:0 45:0 46:0 47:0 48:0.013889 49:0 50:0 51:0 52:0 53:0 54:0 55:0 56:0.013889 57:0.013889 58:0.041667 59:0 60:0 61:0 62:0 63:0 64:0 65:0.013889 66:0.013889 67:0 68:0 69:0.013889 70:0 71:0.013889 72:0 73:0.041667 74:0 75:0 76:0 77:0 78:0 79:0.013889 80:0.013889 81:0 82:0 83:0.013889 84:0 85:0 86:0.013889 87:0.013889 88:0.013889 89:0.013889 90:0 91:0 92:0 93:0 94:0 95:0 96:0.125 97:0.083333 98:0.041667 99:0.013889 100:0 
52.02873479971098 1:0 2:0.006993 3:0.013986 4:0 5:0.013986 6:0 7:0 8:0.006993 9:0.006993 10:0 11:0.013986 12:0.020979 13:0 14:0.027972 15:0 16:0.006993 17:0.006993 18:0.006993 19:0.013986 20:0 21:0.020979 22:0.006993 23:0.006993 24:0 25:0.013986 26:0.013986 27:0 28:0.013986 29:0 30:0.006993 31:0.013986 32:0.013986 33:0.006993 34:0.006993 35:0.006993 36:0 37:0.006993 38:0.020979 39:0 40:0.034965 41:0 42:0 43:0.027972 44:0.020979 45:0.006993 46:0.027972 47:0.020979 48:0.020979 49:0.006993 50:0 51:0.013986 52:0 53:0.041958 54:0.013986 55:0.006993 56:0 57:0.027972 58:0.013986 59:0 60:0.013986 61:0 62:0 63:0 64:0.006993 65:0.006993 66:0 67:0 68:0.006993 69:0.006993 70:0.013986 71:0 72:0.006993 73:0 74:0 75:0.013986 76:0.034965 77:0.013986 78:0.020979 79:0.013986 80:0.006993 81:0.013986 82:0.006993 83:0.006993 84:0.006993 85:0.034965 86:0 87:0.020979 88:0.041958 89:0 90:0.006993 91:0.020979 92:0.020979 93:0 94:0.006993 95:0 96:0 97:0.006993 98:0.013986 99:0 100:0.027972 
50.79096337512777 1:0 2:0 3:0 4:0 5:0.018519 6:0.018519 7:0.018519 8:0.037037 9:0 10:0 11:0.018519 12:0.018519 13:0 14:0.12963 15:0 16:0 17:0 18:0.018519 19:0 20:0 21:0.037037 22:0 23:0.018519 24:0 25:0 26:0 27:0 28:0 29:0.018519 30:0 31:0.018519 32:0.018519 33:0 34:0 35:0.018519 36:0 37:0 38:0.018519 39:0.018519 40:0 41:0 42:0 43:0 44:0.018519 45:0.018519 46:0 47:0 48:0.018519 49:0 50:0.018519 51:0 52:0.018519 53:0 54:0.037037 55:0 56:0 57:0 58:0.018519 59:0 60:0 61:0.037037 62:0 63:0 64:0 65:0 66:0.018519 67:0 68:0.018519 69:0 70:0.018519 71:0.018519 72:0.018519 73:0 74:0 75:0.018519 76:0 77:0 78:0.018519 79:0 80:0.018519 81:0 82:0 83:0 84:0 85:0.037037 86:0 87:0 88:0 89:0.037037 90:0.018519 91:0 92:0 93:0.037037 94:0 95:0.037037 96:0 97:0 98:0 99:0.037037 100:0.018519 
56 1:0.011765 2:0 3:0.011765 4:0.011765 5:0 6:0 7:0 8:0.011765 9:0.011765 10:0.011765 11:0.011765 12:0 13:0 14:0.023529 15:0.011765 16:0 17:0.011765 18:0 19:0 20:0 21:0.011765 22:0 23:0 24:0 25:0 26:0.011765 27:0 28:0.011765 29:0.035294 30:0.011765 31:0 32:0.011765 33:0.047059 34:0 35:0 36:0 37:0.011765 38:0.011765 39:0.047059 40:0 41:0.011765 42:0 43:0.011765 44:0.011765 45:0.035294 46:0.035294 47:0 48:0.011765 49:0 50:0.011765 51:0.023529 52:0.023529 53:0 54:0 55:0.011765 56:0.011765 57:0 58:0.011765 59:0.047059 60:0.011765 61:0 62:0 63:0 64:0.035294 65:0.011765 66:0 67:0 68:0.011765 69:0.011765 70:0.035294 71:0.023529 72:0.011765 73:0.023529 74:0.011765 75:0 76:0 77:0 78:0.011765 79:0.011765 80:0 81:0.011765 82:0 83:0 84:0 85:0 86:0.023529 87:0 88:0 89:0 90:0.011765 91:0 92:0.035294 93:0 94:0 95:0.023529 96:0.035294 97:0.011765 98:0.023529 99:0.011765 100:0 
56 1:0 2:0 3:0 4:0.033333 5:0 6:0.016667 7:0 8:0 9:0 10:0 11:0.033333 12:0 13:0.016667 14:0.016667 15:0 16:0 17:0 18:0 19:0 20:0.016667 21:0 22:0 23:0 24:0 25:0 26:0 27:0.05 28:0 29:0 30:0.033333 31:0 32:0.033333 33:0 34:0 35:0 36:0 37:0 38:0.016667 39:0 40:0 41:0 42:0 43:0.016667 44:0.05 45:0 46:0 47:0 48:0 49:0.016667 50:0 51:0 52:0.016667 53:0 54:0.033333 55:0 56:0 57:0 58:0 59:0 60:0 61:0 62:0.033333 63:0.016667 64:0 65:0 66:0.033333 67:0 68:0 69:0.033333 70:0.066667 71:0 72:0.066667 73:0 74:0.016667 75:0.016667 76:0 77:0 78:0.033333 79:0.033333 80:0.016667 81:0 82:0.016667 83:0.016667 84:0 85:0 86:0 87:0.033333 88:0.033333 89:0.033333 90:0 91:0 92:0.05 93:0 94:0 95:0 96:0 97:0.016667 98:0.016667 99:0 100:0.016667 
26.51577000984586 1:0 2:0.032967 3:0.010989 4:0 5:0.021978 6:0 7:0 8:0.010989 9:0 10:0 11:0.021978 12:0 13:0 14:0.065934 15:0 16:0 17:0 18:0 19:0 20:0 21:0.021978 22:0.010989 23:0.010989 24:0.010989 25:0.010989 26:0 27:0.010989 28:0.021978 29:0 30:0.032967 31:0 32:0 33:0.010989 34:0.032967 35:0 36:0.032967 37:0.010989 38:0 39:0.010989 40:0.021978 41:0 42:0.021978 43:0 44:0.010989 45:0.010989 46:0 47:0.021978 48:0 49:0 50:0.021978 51:0.010989 52:0 53:0.021978 54:0.010989 55:0 56:0.010989 57:0.021978 58:0 59:0.010989 60:0 61:0 62:0.021978 63:0 64:0.010989 65:0 66:0.021978 67:0.010989 68:0 69:0.010989 70:0.021978 71:0 72:0 73:0.010989 74:0.010989 75:0 76:0 77:0.021978 78:0 79:0 80:0 81:0.010989 82:0.010989 83:0 84:0 85:0.021978 86:0.010989 87:0 88:0.010989 89:0 90:0.010989 91:0.010989 92:0.076923 93:0.021978 94:0.010989 95:0 96:0 97:0.010989 98:0 99:0.010989 100:0.043956 
24.81153559945206 1:0 2:0.011765 3:0.011765 4:0.011765 5:0 6:0 7:0 8:0 9:0.023529 10:0.011765 11:0.023529 12:0 13:0.011765 14:0 15:0 16:0 17:0.011765 18:0 19:0.023529 20:0 21:0.023529 22:0 23:0.011765 24:0.023529 25:0.011765 26:0 27:0.011765 28:0 29:0.023529 30:0 31:0.011765 32:0.011765 33:0.011765 34:0.011765 35:0 36:0.011765 37:0.011765 38:0.011765 39:0.011765 40:0 41:0.035294 42:0.035294 43:0.023529 44:0 45:0 46:0 47:0 48:0.011765 49:0 50:0.011765 51:0.023529 52:0 53:0.011765 54:0.023529 55:0 56:0 57:0.011765 58:0.035294 59:0.023529 60:0 61:0 62:0.011765 63:0 64:0 65:0.011765 66:0 67:0.023529 68:0.023529 69:0 70:0 71:0.047059 72:0 73:0.011765 74:0.011765 75:0.011765 76:0.011765 77:0.011765 78:0 79:0.011765 80:0.011765 81:0 82:0.011765 83:0.023529 84:0 85:0.023529 86:0 87:0 88:0.047059 89:0.023529 90:0 91:0 92:0 93:0.023529 94:0.023529 95:0 96:0 97:0.011765 98:0.011765 99:0.011765 100:0 
56 1:0 2:0 3:0 4:0.014286 5:0.028571 6:0 7:0.028571 8:0.014286 9:0 10:0 11:0.014286 12:0 13:0 14:0.014286 15:0 16:0 17:0 18:0.014286 19:0.028571 20:0 21:0.014286 22:0.014286 23:0.014286 24:0 25:0 26:0.014286 27:0.014286 28:0.028571 29:0 30:0.014286 31:0 32:0.028571 33:0.014286 34:0 35:0 36:0 37:0 38:0.071429 39:0.014286 40:0.014286 41:0.014286 42:0 43:0 44:0 45:0 46:0.014286 47:0.028571 48:0 49:0.028571 50:0.014286 51:0.014286 52:0.014286 53:0 54:0.014286 55:0 56:0.014286 57:0 58:0.028571 59:0.014286 60:0 61:0 62:0 63:0 64:0 65:0.028571 66:0.014286 67:0.014286 68:0.014286 69:0.014286 70:0 71:0.028571 72:0 73:0.014286 74:0 75:0.014286 76:0.014286 77:0.014286 78:0 79:0 80:0 81:0 82:0.014286 83:0.028571 84:0 85:0 86:0 87:0.028571 88:0 89:0.014286 90:0 91:0.014286 92:0 93:0 94:0 95:0.014286 96:0 97:0.028571 98:0.042857 99:0.014286 100:0.014286 
56 1:0 2:0.012821 3:0 4:0.012821 5:0.012821 6:0 7:0.012821 8:0 9:0 10:0.012821 11:0 12:0 13:0 14:0 15:0.025641 16:0.012821 17:0 18:0.025641 19:0.012821 20:0 21:0.012821 22:0.012821 23:0 24:0.025641 25:0.012821 26:0.012821 27:0.012821 28:0.038462 29:0 30:0.064103 31:0.012821 32:0.038462 33:0 34:0 35:0 36:0 37:0 38:0.038462 39:0.025641 40:0 41:0 42:0 43:0.012821 44:0.025641 45:0 46:0 47:0 48:0 49:0 50:0.051282 51:0.012821 52:0 53:0.012821 54:0.025641 55:0 56:0.025641 57:0 58:0.012821 59:0 60:0 61:0 62:0 63:0.012821 64:0 65:0.012821 66:0.012821 67:0.051282 68:0.012821 69:0.012821 70:0 71:0.012821 72:0 73:0 74:0 75:0.025641 76:0.025641 77:0.012821 78:0 79:0.012821 80:0 81:0.012821 82:0 83:0.012821 84:0 85:0 86:0.012821 87:0 88:0 89:0.012821 90:0 91:0 92:0 93:0.012821 94:0.012821 95:0.012821 96:0 97:0.038462 98:0 99:0.012821 100:0.025641 
56 1:0 2:0 3:0 4:0.032787 5:0.016393 6:0 7:0 8:0 9:0 10:0 11:0.032787 12:0 13:0.016393 14:0.016393 15:0 16:0 17:0 18:0.016393 19:0.016393 20:0 21:0 22:0 23:0 24:0 25:0 26:0 27:0.016393 28:0 29:0.016393 30:0 31:0.016393 32:0.016393 33:0 34:0.016393 35:0.016393 36:0.032787 37:0 38:0.065574 39:0 40:0 41:0 42:0 43:0.016393 44:0.016393 45:0 46:0 47:0.016393 48:0 49:0.032787 50:0 51:0.016393 52:0 53:0 54:0 55:0 56:0 57:0 58:0 59:0.032787 60:0 61:0 62:0 63:0.016393 64:0.016393 65:0 66:0.04918 67:0 68:0.016393 69:0.032787 70:0.016393 71:0 72:0 73:0 74:0 75:0.016393 76:0 77:0 78:0.065574 79:0.016393 80:0 81:0 82:0 83:0.016393 84:0 85:0 86:0 87:0 88:0.016393 89:0.016393 90:0 91:0.016393 92:0.081967 93:0.016393 94:0 95:0.016393 96:0 97:0.065574 98:0 99:0.016393 100:0.016393 
17.54972032002337 1:0 2:0 3:0 4:0 5:0.025 6:0 7:0 8:0 9:0.0125 10:0.0125 11:0.0375 12:0 13:0.0125 14:0.025 15:0.0125 16:0.025 17:0.0625 18:0 19:0 20:0.025 21:0.0125 22:0 23:0 24:0.025 25:0.025 26:0 27:0 28:0.0125 29:0 30:0 31:0 32:0 33:0.0375 34:0 35:0 36:0.0125 37:0 38:0 39:0.0125 40:0.025 41:0 42:0 43:0.0125 44:0 45:0 46:0 47:0.025 48:0 49:0 50:0 51:0.0125 52:0 53:0.0125 54:0 55:0 56:0.0125 57:0.025 58:0.025 59:0 60:0 61:0 62:0 63:0.0125 64:0.0125 65:0.025 66:0.0125 67:0 68:0 69:0.025 70:0 71:0 72:0.0375 73:0.025 74:0 75:0 76:0.0125 77:0 78:0 79:0.0125 80:0 81:0 82:0 83:0 84:0 85:0.05 86:0 87:0 88:0.0125 89:0.0375 90:0.0375 91:0.025 92:0.0375 93:0 94:0 95:0.0375 96:0.0125 97:0.0125 98:0.025 99:0 100:0 
30.92754605234157 1:0.009174 2:0 3:0 4:0.036697 5:0.027523 6:0 7:0.018349 8:0 9:0.009174 10:0.018349 11:0 12:0.009174 13:0.009174 14:0.055046 15:0 16:0.018349 17:0.036697 18:0.009174 19:0.018349 20:0 21:0.009174 22:0 23:0 24:0.018349 25:0.009174 26:0 27:0 28:0.018349 29:0.009174 30:0 31:0 32:0.009174 33:0.009174 34:0.009174 35:0 36:0.018349 37:0 38:0.045872 39:0 40:0 41:0 42:0.009174 43:0.018349 44:0.009174 45:0.009174 46:0.027523 47:0.027523 48:0.009174 49:0 50:0.009174 51:0.027523 52:0.009174 53:0.009174 54:0.009174 55:0 56:0.018349 57:0.036697 58:0 59:0 60:0.009174 61:0 62:0.018349 63:0 64:0.009174 65:0 66:0 67:0.009174 68:0.009174 69:0.009174 70:0.009174 71:0 72:0.009174 73:0 74:0 75:0.009174 76:0.009174 77:0 78:0 79:0.009174 80:0 81:0 82:0.009174 83:0 84:0.018349 85:0.009174 86:0.009174 87:0.018349 88:0.009174 89:0 90:0.018349 91:0.018349 92:0.027523 93:0.009174 94:0.009174 95:0.018349 96:0 97:0.027523 98:0 99:0 100:0.027523 
52.46941523628392 1:0.011236 2:0.022472 3:0 4:0 5:0 6:0 7:0.011236 8:0 9:0 10:0 11:0.05618 12:0 13:0.011236 14:0.022472 15:0 16:0.033708 17:0.022472 18:0 19:0 20:0 21:0.011236 22:0 23:0 24:0 25:0.011236 26:0 27:0.011236 28:0 29:0.011236 30:0.011236 31:0.011236 32:0.022472 33:0 34:0 35:0.022472 36:0.011236 37:0 38:0 39:0.011236 40:0 41:0.022472 42:0.011236 43:0.011236 44:0.011236 45:0 46:0 47:0.033708 48:0 49:0.011236 50:0 51:0.011236 52:0 53:0.011236 54:0.011236 55:0 56:0 57:0.033708 58:0 59:0 60:0 61:0.011236 62:0.022472 63:0.011236 64:0 65:0.011236 66:0 67:0.011236 68:0.044944 69:0.011236 70:0.011236 71:0 72:0.011236 73:0 74:0 75:0 76:0.022472 77:0.011236 78:0.078652 79:0.022472 80:0.011236 81:0.011236 82:0 83:0.011236 84:0.011236 85:0.011236 86:0 87:0 88:0.022472 89:0.022472 90:0 91:0.022472 92:0.078652 93:0 94:0 95:0 96:0 97:0 98:0.011236 99:0 100:0.011236 
-56 1:0.014815 2:0 3:0.007407 4:0.007407 5:0.007407 6:0 7:0.007407 8:0 9:0.007407 10:0 11:0.007407 12:0.02963 13:0 14:0.022222 15:0.02963 16:0.022222 17:0.014815 18:0.022222 19:0 20:0.007407 21:0.014815 22:0 23:0.022222 24:0 25:0.014815 26:0.007407 27:0.007407 28:0.007407 29:0.007407 30:0.007407 31:0.007407 32:0 33:0.02963 34:0 35:0.014815 36:0.007407 37:0 38:0.022222 39:0.014815 40:0.014815 41:0 42:0.007407 43:0.014815 44:0.014815 45:0.007407 46:0 47:0.022222 48:0.007407 49:0 50:0.014815 51:0.007407 52:0.007407 53:0.007407 54:0.022222 55:0 56:0.014815 57:0 58:0.007407 59:0.014815 60:0.007407 61:0 62:0 63:0.007407 64:0.022222 65:0.007407 66:0.014815 67:0 68:0 69:0.014815 70:0 71:0.014815 72:0.007407 73:0 74:0.007407 75:0 76:0.014815 77:0.02963 78:0.044444 79:0 80:0.014815 81:0 82:0.007407 83:0 84:0.02963 85:0.02963 86:0 87:0.014815 88:0.014815 89:0.014815 90:0 91:0.02963 92:0.022222 93:0.014815 94:0 95:0.007407 96:0.007407 97:0 98:0 99:0 100:0.022222 
-48.80479690241014 1:0.006849 2:0.010274 3:0.010274 4:0.013699 5:0 6:0.023973 7:0.003425 8:0.003425 9:0.013699 10:0.006849 11:0.010274 12:0.030822 13:0.006849 14:0.003425 15:0.030822 16:0.003425 17:0.013699 18:0 19:0.020548 20:0.003425 21:0 22:0.027397 23:0.003425 24:0.003425 25:0.003425 26:0.010274 27:0.017123 28:0 29:0.006849 30:0.010274 31:0.006849 32:0.006849 33:0.013699 34:0.003425 35:0.017123 36:0.006849 37:0.027397 38:0.003425 39:0.010274 40:0.003425 41:0.013699 42:0.003425 43:0.006849 44:0.010274 45:0.013699 46:0.030822 47:0.006849 48:0.013699 49:0.010274 50:0 51:0 52:0 53:0.006849 54:0.010274 55:0.010274 56:0.010274 57:0.013699 58:0.006849 59:0.013699 60:0.023973 61:0.013699 62:0.013699 63:0 64:0 65:0.017123 66:0.017123 67:0 68:0.010274 69:0.003425 70:0.003425 71:0.006849 72:0.017123 73:0.006849 74:0.017123 75:0.003425 76:0.010274 77:0.006849 78:0.003425 79:0.013699 80:0.006849 81:0.010274 82:0.006849 83:0.010274 84:0.013699 85:0.013699 86:0.013699 87:0.006849 88:0.003425 89:0.013699 90:0.027397 91:0.017123 92:0.013699 93:0 94:0.010274 95:0.013699 96:0.017123 97:0.003425 98:0.017123 99:0.006849 100:0.006849 
-56 1:0 2:0.003311 3:0.006623 4:0 5:0.003311 6:0.049669 7:0 8:0.003311 9:0.006623 10:0.006623 11:0 12:0 13:0.003311 14:0.009934 15:0.016556 16:0.009934 17:0.009934 18:0.003311 19:0.006623 20:0.013245 21:0.02649 22:0.036424 23:0.013245 24:0.006623 25:0.009934 26:0.006623 27:0 28:0.009934 29:0.013245 30:0.033113 31:0 32:0.009934 33:0.003311 34:0.003311 35:0.006623 36:0.006623 37:0.003311 38:0.006623 39:0.003311 40:0 41:0.003311 42:0.009934 43:0.006623 44:0.016556 45:0.019868 46:0.006623 47:0 48:0.003311 49:0.003311 50:0.02649 51:0.003311 52:0.009934 53:0.013245 54:0.003311 55:0.009934 56:0 57:0 58:0.003311 59:0.016556 60:0.009934 61:0.062914 62:0.019868 63:0.003311 64:0.013245 65:0.019868 66:0 67:0.02649 68:0.016556 69:0 70:0.029801 71:0 72:0.009934 73:0 74:0 75:0.009934 76:0.003311 77:0.003311 78:0.003311 79:0.003311 80:0.036424 81:0.019868 82:0.009934 83:0.003311 84:0.003311 85:0 86:0.006623 87:0.016556 88:0 89:0 90:0.003311 91:0.003311 92:0.006623 93:0.003311 94:0.003311 95:0.009934 96:0.049669 97:0.006623 98:0.02649 99:0.033113 100:0.016556 
-30.45667727925486 1:0.013333 2:0.013333 3:0 4:0 5:0.026667 6:0 7:0 8:0 9:0 10:0.026667 11:0 12:0.026667 13:0 14:0 15:0 16:0 17:0 18:0 19:0 20:0 21:0 22:0 23:0 24:0 25:0.013333 26:0.013333 27:0.04 28:0 29:0.013333 30:0 31:0.026667 32:0 33:0.013333 34:0.013333 35:0.013333 36:0 37:0 38:0.026667 39:0 40:0.013333 41:0.026667 42:0 43:0 44:0.026667 45:0 46:0.013333 47:0 48:0 49:0.026667 50:0 51:0 52:0 53:0 54:0.04 55:0.013333 56:0 57:0 58:0.013333 59:0.013333 60:0.013333 61:0 62:0 63:0.013333 64:0 65:0 66:0.013333 67:0 68:0.013333 69:0.026667 70:0.013333 71:0.053333 72:0.026667 73:0 74:0 75:0 76:0 77:0 78:0.04 79:0 80:0 81:0.026667 82:0 83:0.066667 84:0.013333 85:0 86:0 87:0 88:0 89:0 90:0.026667 91:0.013333 92:0.066667 93:0.013333 94:0 95:0.013333 96:0.013333 97:0.026667 98:0 99:0.013333 100:0.026667 
-56 1:0 2:0.013158 3:0.026316 4:0 5:0 6:0.013158 7:0.039474 8:0 9:0.026316 10:0.026316 11:0.026316 12:0 13:0.026316 14:0.052632 15:0 16:0 17:0.026316 18:0 19:0.013158 20:0 21:0 22:0 23:0.026316 24:0.013158 25:0.026316 26:0.013158 27:0.039474 28:0 29:0.013158 30:0.013158 31:0 32:0 33:0.013158 34:0 35:0 36:0.013158 37:0 38:0.026316 39:0 40:0.013158 41:0 42:0 43:0.026316 44:0 45:0 46:0.026316 47:0.013158 48:0 49:0.013158 50:0.013158 51:0 52:0 53:0 54:0 55:0 56:0.013158 57:0.013158 58:0 59:0 60:0.026316 61:0 62:0 63:0.013158 64:0 65:0 66:0 67:0 68:0 69:0 70:0 71:0.013158 72:0 73:0.013158 74:0.026316 75:0.026316 76:0 77:0.013158 78:0 79:0.013158 80:0.013158 81:0 82:0.013158 83:0.013158 84:0.013158 85:0.026316 86:0 87:0.013158 88:0.026316 89:0 90:0.026316 91:0.013158 92:0 93:0 94:0.026316 95:0.013158 96:0.013158 97:0.013158 98:0.013158 99:0 100:0 
-56 1:0 2:0.009091 3:0 4:0 5:0 6:0.009091 7:0.009091 8:0.009091 9:0.009091 10:0.045455 11:0 12:0.018182 13:0 14:0.045455 15:0.009091 16:0 17:0 18:0 19:0.009091 20:0.009091 21:0.027273 22:0.009091 23:0.018182 24:0 25:0 26:0 27:0.009091 28:0.018182 29:0.009091 30:0.027273 31:0.027273 32:0.027273 33:0 34:0.009091 35:0 36:0 37:0.009091 38:0.027273 39:0.009091 40:0.009091 41:0.018182 42:0 43:0 44:0 45:0.009091 46:0 47:0 48:0.009091 49:0.018182 50:0.027273 51:0 52:0 53:0 54:0.009091 55:0 56:0.027273 57:0 58:0 59:0 60:0 61:0 62:0.009091 63:0 64:0.009091 65:0 66:0 67:0.009091 68:0 69:0 70:0.036364 71:0 72:0.009091 73:0.009091 74:0 75:0.027273 76:0.009091 77:0 78:0 79:0.009091 80:0.009091 81:0 82:0.009091 83:0.018182 84:0.018182 85:0 86:0 87:0.009091 88:0.018182 89:0.009091 90:0.027273 91:0.027273 92:0 93:0 94:0 95:0.009091 96:0 97:0.009091 98:0.018182 99:0.009091 100:0.145455 
-38.67767853653031 1:0.010989 2:0 3:0.010989 4:0 5:0 6:0.010989 7:0 8:0.010989 9:0 10:0.021978 11:0.010989 12:0.010989 13:0.021978 14:0.054945 15:0 16:0 17:0.010989 18:0.010989 19:0.010989 20:0 21:0.010989 22:0.010989 23:0.010989 24:0.010989 25:0.021978 26:0 27:0 28:0 29:0 30:0 31:0 32:0.010989 33:0.010989 34:0 35:0.010989 36:0.010989 37:0 38:0.010989 39:0.010989 40:0.010989 41:0.010989 42:0 43:0.065934 44:0.010989 45:0 46:0 47:0.010989 48:0 49:0 50:0.021978 51:0.010989 52:0 53:0 54:0 55:0.010989 56:0 57:0 58:0 59:0 60:0.010989 61:0.010989 62:0 63:0 64:0 65:0 66:0 67:0.021978 68:0.010989 69:0 70:0.010989 71:0.021978 72:0.010989 73:0.021978 74:0.010989 75:0 76:0.010989 77:0.010989 78:0 79:0.010989 80:0 81:0 82:0.010989 83:0.021978 84:0.010989 85:0.010989 86:0 87:0 88:0.043956 89:0 90:0.032967 91:0 92:0.054945 93:0.010989 94:0.010989 95:0.065934 96:0.043956 97:0 98:0 99:0 100:0.032967 
-56 1:0 2:0.010417 3:0 4:0 5:0.010417 6:0 7:0 8:0.020833 9:0.020833 10:0.020833 11:0 12:0 13:0 14:0.083333 15:0.010417 16:0 17:0.010417 18:0 19:0 20:0.010417 21:0 22:0.03125 23:0.03125 24:0.020833 25:0.010417 26:0.010417 27:0 28:0 29:0 30:0.010417 31:0.010417 32:0.010417 33:0 34:0 35:0.020833 36:0.010417 37:0.010417 38:0.03125 39:0.010417 40:0 41:0 42:0 43:0.0625 44:0.020833 45:0 46:0 47:0 48:0.010417 49:0.010417 50:0.010417 51:0.020833 52:0 53:0 54:0.020833 55:0 56:0 57:0 58:0.020833 59:0.020833 60:0.020833 61:0.010417 62:0.010417 63:0 64:0 65:0 66:0 67:0 68:0.010417 69:0.010417 70:0.010417 71:0 72:0.010417 73:0.010417 74:0.010417 75:0.010417 76:0.020833 77:0.010417 78:0.03125 79:0.020833 80:0 81:0 82:0 83:0 84:0 85:0.020833 86:0.010417 87:0 88:0.0625 89:0 90:0.020833 91:0 92:0.03125 93:0 94:0.010417 95:0 96:0.010417 97:0.010417 98:0 99:0 100:0.010417 
-52.15509637819628 1:0 2:0 3:0.013158 4:0.013158 5:0.013158 6:0.013158 7:0.013158 8:0 9:0.026316 10:0.013158 11:0.013158 12:0.013158 13:0 14:0 15:0 16:0 17:0 18:0.026316 19:0.026316 20:0 21:0.013158 22:0.013158 23:0.013158 24:0 25:0 26:0.013158 27:0 28:0.013158 29:0.013158 30:0.026316 31:0.013158 32:0 33:0 34:0.013158 35:0 36:0 37:0 38:0.026316 39:0.013158 40:0 41:0.026316 42:0 43:0.026316 44:0 45:0 46:0 47:0.013158 48:0 49:0.013158 50:0 51:0 52:0 53:0 54:0 55:0 56:0.013158 57:0.026316 58:0.026316 59:0.013158 60:0.026316 61:0.026316 62:0 63:0 64:0 65:0.026316 66:0 67:0 68:0 69:0.026316 70:0.013158 71:0.013158 72:0 73:0 74:0 75:0.026316 76:0 77:0 78:0.026316 79:0 80:0 81:0.013158 82:0.013158 83:0.026316 84:0 85:0.026316 86:0 87:0 88:0 89:0.026316 90:0.039474 91:0 92:0.078947 93:0.026316 94:0 95:0.013158 96:0 97:0.013158 98:0.013158 99:0.013158 100:0 
-56 1:0.012195 2:0.006098 3:0.012195 4:0 5:0.02439 6:0.006098 7:0 8:0.006098 9:0.006098 10:0.018293 11:0.02439 12:0 13:0.02439 14:0.012195 15:0 16:0 17:0.018293 18:0.018293 19:0.012195 20:0.006098 21:0.018293 22:0 23:0.012195 24:0 25:0 26:0.036585 27:0 28:0.006098 29:0.018293 30:0.012195 31:0.012195 32:0.012195 33:0 34:0 35:0 36:0.006098 37:0.012195 38:0.018293 39:0.012195 40:0.018293 41:0.018293 42:0.006098 43:0.006098 44:0.030488 45:0.02439 46:0.012195 47:0 48:0.018293 49:0.006098 50:0 51:0.006098 52:0.012195 53:0.012195 54:0.012195 55:0 56:0.006098 57:0.006098 58:0.006098 59:0.012195 60:0.018293 61:0.006098 62:0 63:0.006098 64:0.006098 65:0.012195 66:0.012195 67:0.012195 68:0.006098 69:0.006098 70:0.012195 71:0.018293 72:0.018293 73:0 74:0.012195 75:0.02439 76:0.006098 77:0.006098 78:0.006098 79:0.012195 80:0.006098 81:0.012195 82:0 83:0 84:0.006098 85:0.006098 86:0.006098 87:0 88:0 89:0.042683 90:0.02439 91:0.012195 92:0 93:0 94:0.012195 95:0.018293 96:0 97:0.012195 98:0.006098 99:0.018293 100:0.018293 
-56 1:0 2:0.012739 3:0.006369 4:0 5:0 6:0.006369 7:0 8:0 9:0.012739 10:0.031847 11:0.012739 12:0.006369 13:0 14:0.006369 15:0.012739 16:0 17:0.006369 18:0.012739 19:0.006369 20:0 21:0 22:0.006369 23:0.025478 24:0.006369 25:0.006369 26:0.006369 27:0.012739 28:0 29:0.012739 30:0.012739 31:0.006369 32:0 33:0 34:0 35:0.012739 36:0.012739 37:0.006369 38:0.031847 39:0.025478 40:0.012739 41:0.025478 42:0 43:0 44:0.006369 45:0.006369 46:0.025478 47:0.006369 48:0.019108 49:0 50:0.012739 51:0.012739 52:0.006369 53:0 54:0 55:0.006369 56:0 57:0.006369 58:0.006369 59:0.019108 60:0.006369 61:0.019108 62:0.006369 63:0.006369 64:0.019108 65:0.025478 66:0.044586 67:0.012739 68:0.019108 69:0.012739 70:0.006369 71:0.025478 72:0 73:0 74:0.025478 75:0.006369 76:0 77:0 78:0.025478 79:0 80:0.019108 81:0 82:0.006369 83:0.031847 84:0.025478 85:0.019108 86:0 87:0 88:0.012739 89:0.031847 90:0 91:0.006369 92:0.050955 93:0 94:0 95:0.012739 96:0 97:0.025478 98:0 99:0.006369 100:0 
-56 1:0.007752 2:0.007752 3:0 4:0.015504 5:0.031008 6:0 7:0 8:0 9:0.007752 10:0.015504 11:0 12:0 13:0.007752 14:0 15:0 16:0 17:0.015504 18:0 19:0.007752 20:0 21:0.031008 22:0 23:0.031008 24:0.007752 25:0.031008 26:0 27:0 28:0.007752 29:0.007752 30:0.007752 31:0.007752 32:0 33:0.007752 34:0.023256 35:0.023256 36:0.007752 37:0 38:0.139535 39:0.015504 40:0.015504 41:0 42:0 43:0.007752 44:0 45:0.015504 46:0.031008 47:0 48:0 49:0.007752 50:0.007752 51:0 52:0 53:0.007752 54:0 55:0 56:0 57:0.007752 58:0.007752 59:0.015504 60:0 61:0.007752 62:0 63:0.007752 64:0 65:0.007752 66:0.015504 67:0 68:0.015504 69:0 70:0 71:0.031008 72:0.007752 73:0 74:0.007752 75:0.007752 76:0.015504 77:0 78:0.031008 79:0 80:0 81:0 82:0.015504 83:0.03876 84:0 85:0.007752 86:0 87:0 88:0 89:0 90:0 91:0.015504 92:0.031008 93:0 94:0.015504 95:0 96:0 97:0.116279 98:0 99:0.015504 100:0 
-56 1:0 2:0 3:0.014599 4:0.029197 5:0 6:0 7:0 8:0.007299 9:0.021898 10:0.021898 11:0.021898 12:0.021898 13:0.014599 14:0 15:0.021898 16:0 17:0.007299 18:0.007299 19:0.021898 20:0 21:0.021898 22:0 23:0 24:0 25:0.021898 26:0.007299 27:0.021898 28:0.014599 29:0.021898 30:0.014599 31:0.029197 32:0.029197 33:0.007299 34:0 35:0 36:0 37:0 38:0.036496 39:0.014599 40:0.014599 41:0.029197 42:0.014599 43:0.007299 44:0.007299 45:0.007299 46:0 47:0 48:0.007299 49:0 50:0.014599 51:0.021898 52:0 53:0 54:0.014599 55:0.014599 56:0 57:0 58:0.014599 59:0.014599 60:0 61:0 62:0 63:0.014599 64:0.021898 65:0.007299 66:0.029197 67:0 68:0 69:0.007299 70:0.007299 71:0.007299 72:0.021898 73:0 74:0 75:0.043796 76:0 77:0 78:0.007299 79:0.007299 80:0.014599 81:0.007299 82:0.007299 83:0.014599 84:0 85:0.007299 86:0 87:0.007299 88:0 89:0 90:0.014599 91:0.007299 92:0.021898 93:0.007299 94:0 95:0.014599 96:0 97:0.014599 98:0.021898 99:0.014599 100:0.014599 
-56 1:0 2:0 3:0.007299 4:0.007299 5:0.007299 6:0.007299 7:0 8:0 9:0.014599 10:0.014599 11:0.007299 12:0 13:0.007299 14:0.014599 15:0.007299 16:0.014599 17:0 18:0.021898 19:0.029197 20:0.007299 21:0.021898 22:0.007299 23:0.007299 24:0.007299 25:0.036496 26:0 27:0 28:0.007299 29:0.007299 30:0.021898 31:0 32:0.014599 33:0.043796 34:0 35:0 36:0 37:0.007299 38:0.007299 39:0 40:0.014599 41:0.021898 42:0 43:0.007299 44:0.021898 45:0.029197 46:0.007299 47:0.007299 48:0.014599 49:0 50:0.007299 51:0.007299 52:0.007299 53:0.007299 54:0.007299 55:0.007299 56:0 57:0 58:0.014599 59:0 60:0 61:0.014599 62:0.014599 63:0.014599 64:0.014599 65:0.007299 66:0.043796 67:0.007299 68:0 69:0.014599 70:0 71:0.014599 72:0 73:0.007299 74:0.029197 75:0.007299 76:0.007299 77:0 78:0 79:0 80:0.021898 81:0.007299 82:0.021898 83:0.007299 84:0.021898 85:0 86:0.007299 87:0.014599 88:0 89:0.007299 90:0.029197 91:0.007299 92:0 93:0 94:0.007299 95:0 96:0.021898 97:0.021898 98:0.014599 99:0.036496 100:0.014599 
-56 1:0.00821 2:0.008621 3:0.006568 4:0.0078 5:0.006568 6:0.005337 7:0.00821 8:0.004516 9:0.005337 10:0.014778 11:0.010673 12:0.0078 13:0.004516 14:0.028325 15:0.003284 16:0.013136 17:0.010673 18:0.004105 19:0.0078 20:0.011905 21:0.006158 22:0.015189 23:0.01601 24:0.005747 25:0.003284 26:0.010263 27:0.009852 28:0.009442 29:0.002874 30:0.004926 31:0.004926 32:0.025041 33:0.004105 34:0.009031 35:0.006979 36:0.006568 37:0.004105 38:0.006979 39:0.00821 40:0.003284 41:0.004105 42:0.003695 43:0.018883 44:0.00821 45:0.004926 46:0.004926 47:0.004926 48:0.004926 49:0.013136 50:0.014368 51:0.009852 52:0.011905 53:0.003284 54:0.006979 55:0.004516 56:0.013136 57:0.004926 58:0.006568 59:0.00821 60:0.004516 61:0.009852 62:0.004926 63:0.004926 64:0.003695 65:0.009442 66:0.015599 67:0.005747 68:0.009852 69:0.004926 70:0.003695 71:0.000411 72:0.006158 73:0.010263 74:0.003695 75:0.004516 76:0.007389 77:0.009852 78:0.059524 79:0.006979 80:0.006158 81:0.004516 82:0.004926 83:0.000411 84:0.007389 85:0.003695 86:0.006158 87:0.014778 88:0.005337 89:0.004926 90:0.014368 91:0.003284 92:0.06486 93:0.004926 94:0.009031 95:0.020525 96:0.081691 97:0.006568 98:0.041872 99:0.005747 100:0.010263 
-56 1:0.021053 2:0 3:0 4:0.010526 5:0.010526 6:0.021053 7:0 8:0 9:0 10:0 11:0.010526 12:0.042105 13:0.021053 14:0.010526 15:0.010526 16:0.010526 17:0 18:0.010526 19:0.010526 20:0.010526 21:0.010526 22:0.010526 23:0.021053 24:0 25:0 26:0.010526 27:0 28:0.010526 29:0.010526 30:0.031579 31:0 32:0.031579 33:0.010526 34:0.010526 35:0.010526 36:0.010526 37:0 38:0.010526 39:0.010526 40:0.010526 41:0 42:0 43:0.042105 44:0 45:0 46:0.031579 47:0.010526 48:0.021053 49:0.021053 50:0 51:0 52:0.010526 53:0.031579 54:0.010526 55:0.010526 56:0 57:0 58:0 59:0 60:0.010526 61:0.031579 62:0 63:0 64:0.010526 65:0 66:0.010526 67:0 68:0.021053 69:0 70:0 71:0 72:0.010526 73:0.021053 74:0 75:0.031579 76:0.021053 77:0.010526 78:0.010526 79:0.010526 80:0.010526 81:0.010526 82:0.010526 83:0 84:0 85:0.010526 86:0.010526 87:0.010526 88:0.021053 89:0 90:0.021053 91:0 92:0.010526 93:0 94:0 95:0.010526 96:0 97:0.010526 98:0.031579 99:0.010526 100:0.021053 
-56 1:0.006289 2:0.012579 3:0.012579 4:0.012579 5:0 6:0.006289 7:0.025157 8:0.031447 9:0.006289 10:0 11:0.025157 12:0 13:0 14:0 15:0 16:0.006289 17:0.012579 18:0 19:0.012579 20:0.006289 21:0.006289 22:0.018868 23:0.006289 24:0 25:0 26:0.018868 27:0.006289 28:0.025157 29:0 30:0 31:0.012579 32:0.050314 33:0 34:0.012579 35:0 36:0 37:0.006289 38:0 39:0.012579 40:0.018868 41:0 42:0.006289 43:0.006289 44:0.006289 45:0.006289 46:0 47:0 48:0.012579 49:0 50:0.075472 51:0 52:0 53:0.018868 54:0.006289 55:0 56:0.025157 57:0 58:0.006289 59:0.012579 60:0.006289 61:0.006289 62:0.031447 63:0 64:0.012579 65:0.006289 66:0.018868 67:0.018868 68:0.012579 69:0 70:0.025157 71:0 72:0.012579 73:0.044025 74:0 75:0 76:0 77:0.012579 78:0.006289 79:0.037736 80:0 81:0 82:0.006289 83:0 84:0 85:0 86:0.031447 87:0.012579 88:0 89:0.025157 90:0.006289 91:0.006289 92:0.006289 93:0 94:0.012579 95:0.018868 96:0.025157 97:0 98:0.018868 99:0.006289 100:0.018868 
-56 1:0.001357 2:0.005427 3:0.008141 4:0.008141 5:0 6:0.008141 7:0.006784 8:0.012212 9:0 10:0.013569 11:0.016282 12:0.006784 13:0.012212 14:0.02171 15:0.001357 16:0.005427 17:0.012212 18:0.002714 19:0.005427 20:0.006784 21:0.004071 22:0.014925 23:0.013569 24:0.001357 25:0.014925 26:0.009498 27:0.018996 28:0.010855 29:0.002714 30:0.014925 31:0.005427 32:0.010855 33:0.010855 34:0.009498 35:0.001357 36:0.001357 37:0.002714 38:0.005427 39:0.016282 40:0.006784 41:0.002714 42:0.002714 43:0.014925 44:0.009498 45:0.004071 46:0.009498 47:0.020353 48:0.002714 49:0.016282 50:0.017639 51:0.002714 52:0.010855 53:0.013569 54:0.005427 55:0.014925 56:0.020353 57:0.006784 58:0.016282 59:0.02578 60:0.005427 61:0.020353 62:0.002714 63:0.002714 64:0.006784 65:0.012212 66:0.02578 67:0.010855 68:0.020353 69:0.006784 70:0.014925 71:0.006784 72:0.014925 73:0.018996 74:0.009498 75:0.005427 76:0.004071 77:0.02171 78:0.02171 79:0.016282 80:0.006784 81:0.006784 82:0.004071 83:0.006784 84:0.004071 85:0.013569 86:0.016282 87:0.008141 88:0.004071 89:0.010855 90:0.008141 91:0.010855 92:0.024423 93:0.004071 94:0.005427 95:0.005427 96:0.032564 97:0.005427 98:0.008141 99:0.010855 100:0.006784 
-56 1:0.007082 2:0.009915 3:0.018414 4:0.005666 5:0.008499 6:0.014164 7:0.001416 8:0.014164 9:0.009915 10:0.004249 11:0.021246 12:0.007082 13:0.008499 14:0.015581 15:0.007082 16:0.005666 17:0.024079 18:0.001416 19:0.001416 20:0.007082 21:0.008499 22:0.014164 23:0.014164 24:0.005666 25:0.009915 26:0.015581 27:0.002833 28:0.014164 29:0.004249 30:0.009915 31:0.002833 32:0.009915 33:0.008499 34:0.009915 35:0.007082 36:0.008499 37:0.005666 38:0.004249 39:0.025496 40:0.007082 41:0.011331 42:0.008499 43:0.012748 44:0.007082 45:0.008499 46:0.005666 47:0.009915 48:0.011331 49:0.014164 50:0.008499 51:0.008499 52:0.009915 53:0.008499 54:0.008499 55:0.012748 56:0.007082 57:0.004249 58:0.011331 59:0.01983 60:0.007082 61:0.009915 62:0.012748 63:0.001416 64:0.008499 65:0.014164 66:0.021246 67:0.001416 68:0.009915 69:0.004249 70:0.008499 71:0.007082 72:0.01983 73:0.024079 74:0.002833 75:0 76:0.004249 77:0.009915 78:0.024079 79:0.026912 80:0.009915 81:0.002833 82:0.007082 83:0.007082 84:0.011331 85:0.009915 86:0.005666 87:0.009915 88:0.001416 89:0.01983 90:0.008499 91:0.004249 92:0.033994 93:0.007082 94:0.011331 95:0.008499 96:0.015581 97:0.008499 98:0.009915 99:0.012748 100:0.007082 
-56 1:0 2:0.008264 3:0 4:0.008264 5:0.016529 6:0.008264 7:0 8:0.008264 9:0 10:0.024793 11:0.041322 12:0 13:0.008264 14:0.008264 15:0 16:0 17:0.008264 18:0.008264 19:0.016529 20:0 21:0.016529 22:0 23:0.016529 24:0.016529 25:0 26:0.008264 27:0.024793 28:0.008264 29:0 30:0.024793 31:0.008264 32:0.024793 33:0.016529 34:0.016529 35:0 36:0 37:0 38:0.016529 39:0.024793 40:0.008264 41:0 42:0 43:0.016529 44:0.016529 45:0.008264 46:0 47:0.008264 48:0 49:0.016529 50:0.016529 51:0.008264 52:0.008264 53:0 54:0.024793 55:0 56:0 57:0 58:0.016529 59:0.008264 60:0.008264 61:0.024793 62:0 63:0 64:0.008264 65:0.016529 66:0.008264 67:0.008264 68:0.008264 69:0.008264 70:0 71:0 72:0 73:0 74:0 75:0.024793 76:0 77:0.008264 78:0.066116 79:0 80:0.008264 81:0.024793 82:0.008264 83:0.016529 84:0.016529 85:0 86:0.016529 87:0 88:0 89:0.024793 90:0.016529 91:0 92:0.024793 93:0 94:0 95:0.033058 96:0.008264 97:0.008264 98:0.016529 99:0.016529 100:0.024793 
-56 1:0.004329 2:0.004329 3:0.012987 4:0.017316 5:0.012987 6:0.017316 7:0 8:0.004329 9:0.008658 10:0 11:0 12:0.025974 13:0.025974 14:0 15:0.012987 16:0.004329 17:0.021645 18:0.012987 19:0.004329 20:0.012987 21:0 22:0.004329 23:0.012987 24:0.004329 25:0.004329 26:0.004329 27:0.004329 28:0.008658 29:0.012987 30:0.004329 31:0.008658 32:0.030303 33:0.008658 34:0.008658 35:0.004329 36:0.008658 37:0.008658 38:0.008658 39:0.004329 40:0 41:0.021645 42:0.004329 43:0.017316 44:0.021645 45:0.008658 46:0.012987 47:0 48:0.008658 49:0 50:0 51:0.004329 52:0.004329 53:0 54:0.008658 55:0.004329 56:0.004329 57:0.008658 58:0.025974 59:0.004329 60:0.008658 61:0.017316 62:0.012987 63:0.004329 64:0.017316 65:0.008658 66:0.021645 67:0 68:0 69:0.012987 70:0 71:0.012987 72:0.004329 73:0.030303 74:0.021645 75:0.021645 76:0.008658 77:0 78:0.025974 79:0.008658 80:0.004329 81:0.004329 82:0.017316 83:0.012987 84:0.004329 85:0.004329 86:0.008658 87:0 88:0.017316 89:0.025974 90:0.021645 91:0.012987 92:0.017316 93:0.008658 94:0.008658 95:0.012987 96:0.017316 97:0 98:0.038961 99:0 100:0.008658 
-56 1:0.029412 2:0.009804 3:0.009804 4:0.019608 5:0 6:0.009804 7:0 8:0.009804 9:0 10:0.019608 11:0.019608 12:0 13:0 14:0.019608 15:0 16:0 17:0.019608 18:0.009804 19:0.009804 20:0.009804 21:0.009804 22:0 23:0 24:0 25:0.009804 26:0 27:0.019608 28:0.009804 29:0 30:0.029412 31:0.009804 32:0.029412 33:0.039216 34:0 35:0.019608 36:0.009804 37:0 38:0 39:0 40:0.019608 41:0.019608 42:0.039216 43:0 44:0.029412 45:0.009804 46:0.009804 47:0 48:0 49:0.009804 50:0.029412 51:0.019608 52:0 53:0 54:0.009804 55:0 56:0 57:0 58:0.019608 59:0 60:0.009804 61:0.019608 62:0 63:0 64:0.009804 65:0.009804 66:0 67:0 68:0.009804 69:0.009804 70:0.009804 71:0 72:0 73:0.019608 74:0.009804 75:0.009804 76:0 77:0 78:0.029412 79:0.009804 80:0.009804 81:0.029412 82:0 83:0 84:0.009804 85:0 86:0 87:0.039216 88:0.009804 89:0.019608 90:0.019608 91:0.009804 92:0 93:0 94:0.009804 95:0.019608 96:0.019608 97:0 98:0.019608 99:0.019608 100:0.009804 
-56 1:0.01105 2:0.01105 3:0.005525 4:0.016575 5:0.016575 6:0 7:0.01105 8:0.005525 9:0.005525 10:0.027624 11:0.016575 12:0.016575 13:0.01105 14:0.066298 15:0 16:0.01105 17:0.016575 18:0.01105 19:0.005525 20:0.01105 21:0.01105 22:0 23:0 24:0 25:0.01105 26:0 27:0.005525 28:0.005525 29:0.005525 30:0.01105 31:0.01105 32:0.022099 33:0.016575 34:0 35:0.01105 36:0.005525 37:0 38:0.005525 39:0.01105 40:0.016575 41:0 42:0.016575 43:0.033149 44:0.01105 45:0 46:0 47:0 48:0.016575 49:0.01105 50:0.016575 51:0.01105 52:0 53:0.005525 54:0.016575 55:0 56:0.022099 57:0.005525 58:0.01105 59:0.005525 60:0.016575 61:0.005525 62:0.01105 63:0.005525 64:0.01105 65:0.01105 66:0 67:0.005525 68:0.01105 69:0.016575 70:0.01105 71:0 72:0.027624 73:0.01105 74:0.005525 75:0.005525 76:0.005525 77:0.01105 78:0.005525 79:0.005525 80:0 81:0 82:0.01105 83:0 84:0.022099 85:0.016575 86:0.01105 87:0.005525 88:0.027624 89:0 90:0.027624 91:0.005525 92:0.016575 93:0.01105 94:0.01105 95:0.033149 96:0 97:0 98:0 99:0.005525 100:0.005525 
-56 1:0.004808 2:0 3:0.004808 4:0.019231 5:0.033654 6:0.004808 7:0 8:0 9:0.014423 10:0.038462 11:0.004808 12:0.019231 13:0.024038 14:0.024038 15:0.004808 16:0 17:0.004808 18:0.004808 19:0.014423 20:0.009615 21:0.004808 22:0.009615 23:0 24:0 25:0.019231 26:0 27:0.009615 28:0.004808 29:0.014423 30:0.019231 31:0.014423 32:0.014423 33:0.009615 34:0.004808 35:0.004808 36:0 37:0.004808 38:0.038462 39:0.004808 40:0 41:0.004808 42:0.004808 43:0 44:0.014423 45:0.024038 46:0.024038 47:0.009615 48:0.004808 49:0 50:0.004808 51:0.004808 52:0.004808 53:0 54:0.004808 55:0.009615 56:0.014423 57:0.004808 58:0.009615 59:0.009615 60:0.004808 61:0 62:0.004808 63:0.009615 64:0.028846 65:0.014423 66:0.028846 67:0 68:0.028846 69:0.033654 70:0.004808 71:0.014423 72:0 73:0 74:0.014423 75:0.004808 76:0 77:0.004808 78:0.014423 79:0 80:0 81:0.004808 82:0.004808 83:0.038462 84:0.014423 85:0.009615 86:0 87:0 88:0.004808 89:0.014423 90:0.009615 91:0 92:0.019231 93:0.019231 94:0.019231 95:0.009615 96:0.004808 97:0.033654 98:0 99:0.004808 100:0.014423 
-56 1:0 2:0.011364 3:0.011364 4:0.011364 5:0 6:0.011364 7:0 8:0 9:0 10:0.022727 11:0.045455 12:0 13:0.011364 14:0 15:0.011364 16:0 17:0 18:0.011364 19:0.011364 20:0 21:0 22:0 23:0.034091 24:0 25:0.034091 26:0 27:0.034091 28:0 29:0 30:0 31:0.011364 32:0.011364 33:0 34:0 35:0.011364 36:0 37:0.011364 38:0.011364 39:0.011364 40:0.011364 41:0 42:0 43:0.011364 44:0 45:0 46:0 47:0.034091 48:0.011364 49:0.022727 50:0.022727 51:0 52:0.056818 53:0 54:0 55:0.022727 56:0 57:0 58:0.034091 59:0 60:0.022727 61:0 62:0 63:0.011364 64:0.011364 65:0.056818 66:0.011364 67:0 68:0 69:0 70:0.022727 71:0.022727 72:0 73:0.022727 74:0 75:0.034091 76:0 77:0.011364 78:0.011364 79:0.011364 80:0 81:0.011364 82:0 83:0.034091 84:0 85:0.022727 86:0 87:0 88:0 89:0 90:0 91:0.011364 92:0.056818 93:0.022727 94:0.011364 95:0.011364 96:0 97:0.011364 98:0 99:0 100:0 
-56 1:0.017751 2:0 3:0.005917 4:0.017751 5:0 6:0.029586 7:0 8:0 9:0.017751 10:0.023669 11:0 12:0.005917 13:0.005917 14:0.029586 15:0 16:0 17:0 18:0.029586 19:0.005917 20:0.005917 21:0.005917 22:0 23:0.023669 24:0 25:0.005917 26:0.011834 27:0.005917 28:0.011834 29:0.011834 30:0.035503 31:0.005917 32:0.017751 33:0.017751 34:0.005917 35:0 36:0.011834 37:0 38:0.017751 39:0.017751 40:0.005917 41:0.017751 42:0 43:0.011834 44:0.023669 45:0.011834 46:0.005917 47:0 48:0.005917 49:0.029586 50:0 51:0.011834 52:0.005917 53:0.005917 54:0.005917 55:0.005917 56:0.011834 57:0.005917 58:0.011834 59:0.005917 60:0.005917 61:0.005917 62:0.011834 63:0 64:0.017751 65:0 66:0.017751 67:0 68:0.017751 69:0.005917 70:0.005917 71:0.011834 72:0.011834 73:0 74:0.005917 75:0.029586 76:0.023669 77:0.005917 78:0 79:0 80:0 81:0.017751 82:0.005917 83:0.005917 84:0.023669 85:0.017751 86:0.005917 87:0.017751 88:0 89:0.029586 90:0.005917 91:0 92:0.017751 93:0 94:0.005917 95:0.011834 96:0 97:0.017751 98:0.011834 99:0.011834 100:0.029586 
-56 1:0.004167 2:0.004167 3:0.0125 4:0.004167 5:0.029167 6:0.004167 7:0 8:0.004167 9:0.016667 10:0.020833 11:0.0125 12:0.004167 13:0.016667 14:0.016667 15:0.008333 16:0.004167 17:0.0125 18:0.004167 19:0.008333 20:0.004167 21:0.008333 22:0.008333 23:0.008333 24:0.004167 25:0 26:0.008333 27:0.008333 28:0 29:0.008333 30:0.016667 31:0.004167 32:0 33:0 34:0.008333 35:0.008333 36:0.004167 37:0 38:0.058333 39:0 40:0.004167 41:0.008333 42:0.004167 43:0.004167 44:0.020833 45:0.033333 46:0.041667 47:0 48:0.016667 49:0.016667 50:0 51:0.020833 52:0.0125 53:0 54:0.008333 55:0.0125 56:0 57:0.004167 58:0.008333 59:0 60:0.016667 61:0.0125 62:0.008333 63:0.004167 64:0.004167 65:0.0125 66:0.008333 67:0 68:0.0125 69:0.004167 70:0 71:0.020833 72:0.004167 73:0 74:0.008333 75:0.004167 76:0.0125 77:0 78:0.025 79:0 80:0.004167 81:0.004167 82:0 83:0.045833 84:0.0125 85:0.004167 86:0 87:0 88:0.016667 89:0.008333 90:0.020833 91:0.0125 92:0.041667 93:0.025 94:0.008333 95:0.004167 96:0 97:0.041667 98:0.0125 99:0.0125 100:0.004167 
-56 1:0.00578 2:0.011561 3:0.011561 4:0.011561 5:0 6:0 7:0.00578 8:0 9:0.028902 10:0.00578 11:0.023121 12:0.011561 13:0.040462 14:0.011561 15:0.011561 16:0 17:0.017341 18:0.00578 19:0 20:0.00578 21:0 22:0 23:0.017341 24:0.011561 25:0.00578 26:0.00578 27:0.023121 28:0.017341 29:0 30:0.011561 31:0.011561 32:0.00578 33:0 34:0 35:0 36:0.00578 37:0 38:0.046243 39:0.011561 40:0 41:0.011561 42:0 43:0.00578 44:0.017341 45:0.034682 46:0.011561 47:0.00578 48:0.00578 49:0.028902 50:0 51:0.00578 52:0 53:0.00578 54:0.00578 55:0 56:0 57:0 58:0 59:0.011561 60:0 61:0 62:0.023121 63:0.011561 64:0.00578 65:0 66:0.023121 67:0 68:0 69:0.00578 70:0.00578 71:0.046243 72:0 73:0.011561 74:0.034682 75:0.011561 76:0 77:0 78:0.052023 79:0.00578 80:0 81:0.00578 82:0.00578 83:0.080925 84:0 85:0 86:0.00578 87:0 88:0 89:0.011561 90:0 91:0.00578 92:0.040462 93:0.011561 94:0 95:0 96:0 97:0.052023 98:0 99:0 100:0.011561 
-56 1:0.011628 2:0 3:0.023256 4:0.023256 5:0 6:0 7:0 8:0.011628 9:0.034884 10:0 11:0 12:0 13:0 14:0.011628 15:0.034884 16:0 17:0.011628 18:0.011628 19:0.011628 20:0 21:0 22:0 23:0.023256 24:0 25:0.011628 26:0.011628 27:0 28:0.011628 29:0 30:0.034884 31:0 32:0 33:0.023256 34:0.011628 35:0.023256 36:0 37:0.011628 38:0.023256 39:0.011628 40:0.023256 41:0 42:0 43:0.034884 44:0.023256 45:0.011628 46:0 47:0.046512 48:0 49:0 50:0.011628 51:0.011628 52:0 53:0.011628 54:0.011628 55:0.023256 56:0.023256 57:0.011628 58:0 59:0.023256 60:0.023256 61:0.023256 62:0 63:0 64:0 65:0.011628 66:0.011628 67:0 68:0.011628 69:0.011628 70:0 71:0.011628 72:0 73:0.023256 74:0.011628 75:0 76:0 77:0 78:0.011628 79:0.011628 80:0 81:0.011628 82:0 83:0 84:0.023256 85:0.023256 86:0 87:0.023256 88:0 89:0.023256 90:0 91:0.046512 92:0.011628 93:0 94:0 95:0 96:0.023256 97:0 98:0 99:0 100:0 
