svm_type c_svc
kernel_type linear
nr_class 2
total_sv 60
rho -0.131394
label 0 3
nr_sv 31 29
SV
4.792248690449036 1:0.015504 2:0.011628 3:0.01938 4:0.011628 5:0.003876 6:0 7:0.003876 8:0 9:0.015504 10:0.007752 11:0.011628 12:0.003876 13:0 14:0.007752 15:0.007752 16:0.007752 17:0.007752 18:0.007752 19:0.011628 20:0.007752 21:0.003876 22:0.007752 23:0.007752 24:0.011628 25:0.015504 26:0.007752 27:0 28:0 29:0 30:0.007752 31:0.011628 32:0.007752 33:0.023256 34:0.01938 35:0.007752 36:0.01938 37:0.003876 38:0.015504 39:0.011628 40:0.011628 41:0.003876 42:0.031008 43:0.015504 44:0.011628 45:0.01938 46:0 47:0.011628 48:0.011628 49:0.027132 50:0 51:0.01938 52:0.015504 53:0 54:0.003876 55:0.003876 56:0 57:0 58:0.007752 59:0.011628 60:0.011628 61:0 62:0 63:0.007752 64:0.007752 65:0.015504 66:0.007752 67:0.015504 68:0.015504 69:0 70:0.011628 71:0.011628 72:0 73:0.023256 74:0.003876 75:0 76:0.031008 77:0.011628 78:0.046512 79:0.015504 80:0 81:0 82:0.003876 83:0.007752 84:0 85:0.015504 86:0.007752 87:0 88:0.023256 89:0.007752 90:0.011628 91:0.015504 92:0.027132 93:0.015504 94:0.01938 95:0.007752 96:0.007752 97:0.011628 98:0.015504 99:0 100:0.015504 
56 1:0.00304 2:0.006079 3:0.00304 4:0.009119 5:0.00304 6:0.015198 7:0.00304 8:0.012158 9:0.00304 10:0.00304 11:0.006079 12:0 13:0.009119 14:0.018237 15:0.006079 16:0.00304 17:0.012158 18:0.00304 19:0 20:0.006079 21:0.009119 22:0.018237 23:0.012158 24:0 25:0.015198 26:0.015198 27:0.021277 28:0.015198 29:0 30:0.018237 31:0 32:0.021277 33:0.024316 34:0.027356 35:0.00304 36:0.006079 37:0.006079 38:0 39:0.015198 40:0.00304 41:0.006079 42:0 43:0.012158 44:0.009119 45:0 46:0.015198 47:0.00304 48:0.00304 49:0.012158 50:0.021277 51:0.015198 52:0.012158 53:0.006079 54:0.009119 55:0.009119 56:0.015198 57:0 58:0.015198 59:0.006079 60:0.012158 61:0.021277 62:0.006079 63:0.006079 64:0.012158 65:0.012158 66:0.009119 67:0.00304 68:0.018237 69:0.00304 70:0 71:0.009119 72:0.012158 73:0.012158 74:0.00304 75:0.006079 76:0.018237 77:0.00304 78:0.048632 79:0.00304 80:0.015198 81:0.021277 82:0.006079 83:0.012158 84:0.018237 85:0.00304 86:0.009119 87:0.006079 88:0 89:0.012158 90:0.012158 91:0.00304 92:0.048632 93:0.00304 94:0.021277 95:0.006079 96:0.033435 97:0 98:0.012158 99:0.012158 100:0 
56 1:0 2:0.012987 3:0 4:0.004329 5:0.012987 6:0.017316 7:0.004329 8:0 9:0 10:0.021645 11:0.025974 12:0.04329 13:0 14:0 15:0.004329 16:0.004329 17:0.008658 18:0.004329 19:0.012987 20:0.008658 21:0.008658 22:0.004329 23:0 24:0.012987 25:0.004329 26:0.017316 27:0.004329 28:0.017316 29:0 30:0.017316 31:0.017316 32:0.030303 33:0.012987 34:0.004329 35:0.004329 36:0 37:0.008658 38:0.021645 39:0.008658 40:0 41:0.012987 42:0.017316 43:0 44:0.017316 45:0.008658 46:0 47:0.004329 48:0 49:0.021645 50:0.004329 51:0.008658 52:0.012987 53:0.012987 54:0.004329 55:0.004329 56:0.012987 57:0.004329 58:0.017316 59:0.017316 60:0.030303 61:0 62:0.008658 63:0 64:0.012987 65:0.004329 66:0.004329 67:0.008658 68:0 69:0 70:0.008658 71:0 72:0.004329 73:0.017316 74:0.008658 75:0 76:0.025974 77:0.004329 78:0.012987 79:0.008658 80:0.004329 81:0 82:0.008658 83:0.008658 84:0 85:0.025974 86:0.008658 87:0.008658 88:0.008658 89:0.030303 90:0.025974 91:0.008658 92:0.017316 93:0.004329 94:0.004329 95:0.034632 96:0.004329 97:0.021645 98:0.030303 99:0.008658 100:0.012987 
42.33246754791433 1:0 2:0.006803 3:0.020408 4:0 5:0.006803 6:0.006803 7:0.006803 8:0.020408 9:0.020408 10:0.006803 11:0.061224 12:0.020408 13:0 14:0.006803 15:0 16:0.013605 17:0 18:0.013605 19:0.006803 20:0 21:0.013605 22:0.013605 23:0.006803 24:0.027211 25:0 26:0.006803 27:0.006803 28:0 29:0 30:0 31:0.006803 32:0.047619 33:0.006803 34:0.013605 35:0 36:0.006803 37:0 38:0.013605 39:0.034014 40:0.006803 41:0.006803 42:0.013605 43:0.013605 44:0 45:0.006803 46:0 47:0.006803 48:0 49:0 50:0 51:0.006803 52:0 53:0 54:0.006803 55:0 56:0.006803 57:0.006803 58:0.013605 59:0.020408 60:0.013605 61:0.006803 62:0 63:0 64:0.006803 65:0.006803 66:0.013605 67:0.013605 68:0.006803 69:0 70:0 71:0 72:0 73:0.047619 74:0.027211 75:0.020408 76:0 77:0.013605 78:0.006803 79:0.020408 80:0 81:0.006803 82:0 83:0.013605 84:0.006803 85:0 86:0.020408 87:0.006803 88:0.006803 89:0.013605 90:0.027211 91:0 92:0.006803 93:0 94:0 95:0.020408 96:0.034014 97:0.020408 98:0.027211 99:0.013605 100:0.034014 
56 1:0.009524 2:0.028571 3:0 4:0.009524 5:0 6:0.009524 7:0.019048 8:0 9:0 10:0 11:0.028571 12:0.019048 13:0 14:0.009524 15:0 16:0 17:0.019048 18:0 19:0.009524 20:0.019048 21:0.009524 22:0.028571 23:0.009524 24:0 25:0.019048 26:0.028571 27:0.009524 28:0 29:0 30:0.019048 31:0 32:0 33:0.028571 34:0.009524 35:0 36:0.028571 37:0 38:0.019048 39:0.019048 40:0.028571 41:0.009524 42:0.019048 43:0.019048 44:0 45:0 46:0 47:0 48:0 49:0.019048 50:0.009524 51:0.019048 52:0 53:0 54:0.019048 55:0 56:0 57:0.009524 58:0.009524 59:0.019048 60:0 61:0 62:0.009524 63:0 64:0 65:0 66:0 67:0 68:0 69:0.009524 70:0 71:0 72:0.019048 73:0.028571 74:0.009524 75:0.009524 76:0 77:0.028571 78:0 79:0.019048 80:0 81:0.019048 82:0 83:0 84:0.009524 85:0.009524 86:0 87:0.009524 88:0.009524 89:0.009524 90:0.009524 91:0.038095 92:0.009524 93:0.019048 94:0 95:0.038095 96:0.019048 97:0 98:0.057143 99:0 100:0.019048 
56 1:0 2:0.010753 3:0.005376 4:0.021505 5:0.026882 6:0 7:0.005376 8:0 9:0 10:0.026882 11:0.010753 12:0.005376 13:0.010753 14:0.005376 15:0.005376 16:0 17:0.016129 18:0.005376 19:0.016129 20:0 21:0.010753 22:0.010753 23:0.021505 24:0.005376 25:0 26:0 27:0.010753 28:0.005376 29:0 30:0 31:0.005376 32:0.005376 33:0 34:0.010753 35:0.016129 36:0.016129 37:0 38:0.016129 39:0.016129 40:0.016129 41:0.010753 42:0.016129 43:0.010753 44:0 45:0.005376 46:0.005376 47:0.016129 48:0.016129 49:0.010753 50:0.016129 51:0.021505 52:0.032258 53:0.005376 54:0 55:0.005376 56:0.005376 57:0.010753 58:0.016129 59:0 60:0.016129 61:0.005376 62:0.005376 63:0.026882 64:0.010753 65:0.005376 66:0.016129 67:0 68:0 69:0.016129 70:0.010753 71:0 72:0 73:0.005376 74:0.016129 75:0.010753 76:0.037634 77:0.016129 78:0.005376 79:0.016129 80:0.005376 81:0 82:0 83:0 84:0 85:0.010753 86:0 87:0.010753 88:0.043011 89:0.005376 90:0.016129 91:0.016129 92:0.021505 93:0.010753 94:0 95:0.005376 96:0.048387 97:0.010753 98:0.016129 99:0.010753 100:0.005376 
56 1:0.02 2:0.02 3:0.02 4:0.01 5:0.03 6:0.01 7:0.02 8:0 9:0.01 10:0 11:0 12:0 13:0.01 14:0.05 15:0.03 16:0.01 17:0.04 18:0 19:0.01 20:0.01 21:0 22:0 23:0 24:0 25:0.01 26:0.01 27:0.02 28:0 29:0.01 30:0.01 31:0.01 32:0 33:0.01 34:0 35:0.01 36:0.02 37:0 38:0.04 39:0 40:0.01 41:0 42:0 43:0.04 44:0 45:0.01 46:0 47:0 48:0.01 49:0.01 50:0.01 51:0 52:0 53:0.01 54:0.01 55:0.01 56:0.01 57:0.01 58:0.03 59:0.02 60:0 61:0.01 62:0 63:0.01 64:0 65:0.01 66:0.01 67:0.02 68:0.01 69:0.03 70:0.02 71:0 72:0 73:0 74:0 75:0.01 76:0 77:0.01 78:0 79:0.03 80:0.01 81:0 82:0 83:0 84:0 85:0.02 86:0.01 87:0 88:0.01 89:0.02 90:0.01 91:0.01 92:0.01 93:0.01 94:0.01 95:0.03 96:0.01 97:0.03 98:0 99:0 100:0 
56 1:0.006645 2:0.009967 3:0.003322 4:0.016611 5:0.006645 6:0.013289 7:0.003322 8:0 9:0.003322 10:0.053156 11:0.009967 12:0.076412 13:0.006645 14:0.003322 15:0.006645 16:0.006645 17:0.013289 18:0.019934 19:0.006645 20:0.003322 21:0.006645 22:0 23:0.006645 24:0.016611 25:0.009967 26:0.013289 27:0.006645 28:0.013289 29:0.003322 30:0.023256 31:0.003322 32:0.039867 33:0.009967 34:0.006645 35:0 36:0.003322 37:0.003322 38:0.009967 39:0.009967 40:0.003322 41:0.009967 42:0.003322 43:0.003322 44:0.019934 45:0.013289 46:0.009967 47:0.009967 48:0.003322 49:0 50:0.003322 51:0.003322 52:0.006645 53:0.003322 54:0.016611 55:0 56:0.003322 57:0 58:0.006645 59:0.003322 60:0.013289 61:0.003322 62:0.016611 63:0.016611 64:0.003322 65:0.003322 66:0.016611 67:0 68:0.003322 69:0.009967 70:0.003322 71:0.009967 72:0.013289 73:0.009967 74:0.019934 75:0.019934 76:0.006645 77:0 78:0.013289 79:0.003322 80:0.003322 81:0.003322 82:0.009967 83:0.013289 84:0.013289 85:0 86:0.009967 87:0.003322 88:0.013289 89:0.006645 90:0.019934 91:0 92:0.019934 93:0.009967 94:0.009967 95:0.019934 96:0.013289 97:0.006645 98:0.006645 99:0 100:0.053156 
56 1:0.018605 2:0.009302 3:0.013953 4:0 5:0.009302 6:0.018605 7:0 8:0.004651 9:0.004651 10:0.009302 11:0.023256 12:0.009302 13:0 14:0 15:0.018605 16:0.004651 17:0.018605 18:0.009302 19:0.009302 20:0.009302 21:0.004651 22:0.009302 23:0.009302 24:0.004651 25:0.004651 26:0.013953 27:0.009302 28:0.023256 29:0.004651 30:0.013953 31:0 32:0.013953 33:0.009302 34:0.009302 35:0.009302 36:0 37:0.023256 38:0 39:0.009302 40:0.004651 41:0.009302 42:0.009302 43:0.027907 44:0.023256 45:0.004651 46:0.027907 47:0 48:0.009302 49:0.009302 50:0.009302 51:0.013953 52:0.004651 53:0.023256 54:0.004651 55:0 56:0.013953 57:0.009302 58:0.004651 59:0.009302 60:0.018605 61:0.018605 62:0.013953 63:0.004651 64:0.013953 65:0.004651 66:0.004651 67:0.009302 68:0.009302 69:0.004651 70:0.009302 71:0 72:0.04186 73:0.018605 74:0 75:0.018605 76:0 77:0.023256 78:0.023256 79:0.009302 80:0.009302 81:0.004651 82:0.004651 83:0.004651 84:0.013953 85:0.009302 86:0.013953 87:0.013953 88:0.004651 89:0.004651 90:0 91:0.004651 92:0.018605 93:0 94:0.013953 95:0 96:0.013953 97:0.004651 98:0.004651 99:0 100:0.027907 
56 1:0.025424 2:0 3:0.016949 4:0.008475 5:0 6:0.008475 7:0.008475 8:0.008475 9:0.008475 10:0.008475 11:0.025424 12:0.016949 13:0 14:0.008475 15:0 16:0 17:0 18:0 19:0 20:0.008475 21:0 22:0.008475 23:0 24:0.008475 25:0.008475 26:0 27:0.008475 28:0.008475 29:0.025424 30:0 31:0.008475 32:0.025424 33:0.008475 34:0 35:0.025424 36:0 37:0.008475 38:0.008475 39:0.016949 40:0 41:0 42:0.008475 43:0.016949 44:0.008475 45:0.008475 46:0 47:0.025424 48:0.016949 49:0.008475 50:0 51:0.016949 52:0.008475 53:0.008475 54:0.016949 55:0 56:0.016949 57:0.025424 58:0.025424 59:0.016949 60:0 61:0.008475 62:0 63:0 64:0.008475 65:0 66:0.016949 67:0 68:0.025424 69:0.025424 70:0.008475 71:0.016949 72:0 73:0.025424 74:0.008475 75:0.008475 76:0.008475 77:0.008475 78:0 79:0.033898 80:0.008475 81:0 82:0.016949 83:0.016949 84:0 85:0.016949 86:0 87:0.016949 88:0.008475 89:0.016949 90:0.025424 91:0.025424 92:0.016949 93:0.008475 94:0.016949 95:0.016949 96:0 97:0 98:0.008475 99:0.008475 100:0.016949 
56 1:0 2:0 3:0 4:0.006098 5:0.006098 6:0.018293 7:0.018293 8:0.006098 9:0.006098 10:0.021341 11:0.012195 12:0.006098 13:0.012195 14:0.039634 15:0.012195 16:0.006098 17:0.006098 18:0.012195 19:0.015244 20:0.006098 21:0.02439 22:0.009146 23:0.003049 24:0.015244 25:0 26:0.015244 27:0.003049 28:0.003049 29:0.003049 30:0.009146 31:0.003049 32:0.018293 33:0.012195 34:0.012195 35:0.012195 36:0.003049 37:0.009146 38:0.003049 39:0.003049 40:0.009146 41:0.003049 42:0.003049 43:0.009146 44:0.006098 45:0.015244 46:0.021341 47:0.018293 48:0.009146 49:0.006098 50:0 51:0.015244 52:0.009146 53:0.021341 54:0.003049 55:0.003049 56:0.006098 57:0.006098 58:0.012195 59:0.012195 60:0.009146 61:0.003049 62:0.006098 63:0.015244 64:0.015244 65:0.006098 66:0.006098 67:0 68:0.021341 69:0.006098 70:0.009146 71:0.006098 72:0.015244 73:0.012195 74:0.003049 75:0.012195 76:0.003049 77:0 78:0.006098 79:0.006098 80:0.012195 81:0.009146 82:0.003049 83:0 84:0.018293 85:0.015244 86:0.012195 87:0.009146 88:0.018293 89:0.009146 90:0.045732 91:0.009146 92:0.006098 93:0.003049 94:0.009146 95:0.021341 96:0.018293 97:0.003049 98:0.033537 99:0.006098 100:0.015244 
36.06000015444448 1:0 2:0 3:0.040816 4:0.020408 5:0 6:0 7:0 8:0 9:0.040816 10:0 11:0.040816 12:0 13:0.040816 14:0 15:0 16:0 17:0.020408 18:0 19:0.040816 20:0 21:0 22:0 23:0.020408 24:0 25:0 26:0 27:0 28:0 29:0.020408 30:0.020408 31:0 32:0.061224 33:0 34:0.020408 35:0 36:0 37:0 38:0.040816 39:0 40:0 41:0 42:0 43:0 44:0.020408 45:0 46:0 47:0 48:0 49:0.020408 50:0 51:0 52:0 53:0 54:0 55:0 56:0 57:0.020408 58:0.040816 59:0.020408 60:0 61:0 62:0 63:0 64:0 65:0 66:0 67:0.020408 68:0 69:0.020408 70:0.020408 71:0.020408 72:0 73:0 74:0.020408 75:0 76:0.040816 77:0 78:0 79:0 80:0 81:0.020408 82:0.040816 83:0 84:0.020408 85:0 86:0 87:0 88:0 89:0.061224 90:0.040816 91:0 92:0 93:0.020408 94:0.020408 95:0 96:0 97:0.020408 98:0 99:0 100:0.061224 
26.49324327787049 1:0 2:0 3:0.019802 4:0.019802 5:0.009901 6:0.019802 7:0.029703 8:0 9:0 10:0.009901 11:0.019802 12:0 13:0 14:0.029703 15:0.009901 16:0.019802 17:0.009901 18:0.019802 19:0.009901 20:0.019802 21:0 22:0.019802 23:0 24:0.009901 25:0 26:0 27:0 28:0 29:0.009901 30:0 31:0.019802 32:0 33:0.019802 34:0.039604 35:0.019802 36:0 37:0.009901 38:0.019802 39:0.029703 40:0.029703 41:0.009901 42:0 43:0 44:0 45:0 46:0 47:0.009901 48:0.009901 49:0.009901 50:0.009901 51:0.049505 52:0 53:0.009901 54:0.009901 55:0.009901 56:0.009901 57:0.009901 58:0 59:0 60:0.009901 61:0.019802 62:0.009901 63:0 64:0.009901 65:0 66:0 67:0 68:0 69:0.009901 70:0.019802 71:0.029703 72:0 73:0.019802 74:0 75:0 76:0 77:0 78:0 79:0.019802 80:0 81:0.009901 82:0.049505 83:0 84:0.009901 85:0.009901 86:0 87:0 88:0 89:0 90:0.009901 91:0.029703 92:0 93:0.019802 94:0 95:0.029703 96:0 97:0.039604 98:0 99:0 100:0.019802 
10.08082910723058 1:0.016949 2:0 3:0 4:0 5:0 6:0 7:0 8:0 9:0.016949 10:0.016949 11:0.050847 12:0.033898 13:0.033898 14:0 15:0.016949 16:0 17:0.016949 18:0 19:0 20:0 21:0.016949 22:0 23:0.016949 24:0.016949 25:0 26:0.033898 27:0 28:0 29:0 30:0 31:0.033898 32:0.016949 33:0.016949 34:0.016949 35:0 36:0.016949 37:0 38:0.016949 39:0.084746 40:0 41:0.016949 42:0.016949 43:0 44:0.016949 45:0 46:0 47:0 48:0 49:0 50:0.016949 51:0.067797 52:0.050847 53:0 54:0 55:0 56:0 57:0 58:0 59:0 60:0 61:0 62:0 63:0 64:0 65:0 66:0.033898 67:0 68:0 69:0.016949 70:0.016949 71:0.050847 72:0 73:0 74:0 75:0 76:0 77:0.016949 78:0.016949 79:0 80:0 81:0.016949 82:0 83:0.033898 84:0 85:0.016949 86:0.033898 87:0 88:0 89:0 90:0 91:0 92:0 93:0 94:0 95:0 96:0 97:0.016949 98:0 99:0.016949 100:0.033898 
56 1:0.005747 2:0.005747 3:0.011494 4:0.005747 5:0.011494 6:0 7:0.017241 8:0 9:0.034483 10:0.028736 11:0 12:0.028736 13:0.017241 14:0.011494 15:0 16:0.005747 17:0.011494 18:0 19:0.022989 20:0.011494 21:0 22:0 23:0.045977 24:0.005747 25:0 26:0.017241 27:0.005747 28:0 29:0 30:0.017241 31:0.017241 32:0.028736 33:0 34:0.005747 35:0.011494 36:0.005747 37:0.011494 38:0.022989 39:0.005747 40:0.005747 41:0.011494 42:0.005747 43:0 44:0.022989 45:0.022989 46:0 47:0.017241 48:0.005747 49:0.005747 50:0 51:0.017241 52:0.011494 53:0 54:0 55:0 56:0 57:0 58:0.017241 59:0.005747 60:0.005747 61:0 62:0 63:0 64:0 65:0.017241 66:0.005747 67:0 68:0.005747 69:0.005747 70:0.005747 71:0.017241 72:0.005747 73:0.011494 74:0.034483 75:0.017241 76:0 77:0 78:0.028736 79:0.005747 80:0 81:0 82:0.011494 83:0.011494 84:0.005747 85:0.017241 86:0 87:0.011494 88:0 89:0.011494 90:0.011494 91:0 92:0.057471 93:0.011494 94:0.005747 95:0.022989 96:0.017241 97:0.04023 98:0 99:0.005747 100:0.011494 
56 1:0.009009 2:0 3:0 4:0.027027 5:0 6:0 7:0 8:0.009009 9:0 10:0.027027 11:0.018018 12:0.009009 13:0 14:0.027027 15:0.018018 16:0 17:0.018018 18:0.009009 19:0.018018 20:0.027027 21:0.009009 22:0.009009 23:0.009009 24:0.018018 25:0.009009 26:0.009009 27:0.009009 28:0.009009 29:0.009009 30:0.009009 31:0.009009 32:0.009009 33:0 34:0 35:0 36:0.009009 37:0.009009 38:0.018018 39:0.018018 40:0.027027 41:0.009009 42:0.009009 43:0 44:0.009009 45:0 46:0 47:0.009009 48:0.009009 49:0.036036 50:0 51:0 52:0.009009 53:0.009009 54:0.009009 55:0 56:0 57:0.018018 58:0.009009 59:0.018018 60:0 61:0 62:0 63:0.009009 64:0.018018 65:0.009009 66:0.018018 67:0.009009 68:0.009009 69:0.009009 70:0.009009 71:0.009009 72:0.027027 73:0.009009 74:0.036036 75:0.009009 76:0.009009 77:0.009009 78:0.018018 79:0 80:0 81:0 82:0 83:0 84:0 85:0 86:0.018018 87:0.009009 88:0.018018 89:0 90:0 91:0.027027 92:0.027027 93:0.009009 94:0.009009 95:0.018018 96:0.009009 97:0.036036 98:0.018018 99:0 100:0.018018 
41.01656643206979 1:0.006993 2:0.013986 3:0.006993 4:0.006993 5:0.013986 6:0 7:0.006993 8:0 9:0.006993 10:0.027972 11:0 12:0.027972 13:0 14:0.020979 15:0.006993 16:0.006993 17:0.006993 18:0.006993 19:0.006993 20:0.006993 21:0.006993 22:0 23:0.020979 24:0.013986 25:0 26:0.013986 27:0 28:0 29:0 30:0.013986 31:0.013986 32:0.06993 33:0 34:0.013986 35:0.013986 36:0.006993 37:0.020979 38:0.034965 39:0.006993 40:0.006993 41:0.006993 42:0.013986 43:0 44:0.027972 45:0.020979 46:0 47:0.006993 48:0.006993 49:0 50:0 51:0.034965 52:0.013986 53:0 54:0 55:0 56:0.006993 57:0 58:0.013986 59:0.013986 60:0.006993 61:0 62:0.013986 63:0 64:0 65:0 66:0.006993 67:0 68:0.006993 69:0.006993 70:0.006993 71:0.020979 72:0 73:0.013986 74:0.034965 75:0.006993 76:0.006993 77:0 78:0.006993 79:0.006993 80:0 81:0 82:0.006993 83:0.027972 84:0.006993 85:0.006993 86:0 87:0 88:0 89:0.006993 90:0.013986 91:0.013986 92:0.034965 93:0.020979 94:0 95:0.006993 96:0.006993 97:0.027972 98:0 99:0.006993 100:0.055944 
42.49438555869276 1:0.030864 2:0.006173 3:0.018519 4:0.006173 5:0.012346 6:0 7:0.024691 8:0 9:0.012346 10:0.006173 11:0 12:0.006173 13:0 14:0.006173 15:0.018519 16:0.006173 17:0.006173 18:0 19:0.012346 20:0 21:0 22:0 23:0.012346 24:0.012346 25:0 26:0.006173 27:0.012346 28:0.037037 29:0.012346 30:0 31:0.024691 32:0 33:0.006173 34:0.012346 35:0.012346 36:0.012346 37:0.006173 38:0.018519 39:0 40:0 41:0.012346 42:0.006173 43:0 44:0 45:0 46:0.006173 47:0.006173 48:0.018519 49:0.006173 50:0 51:0.024691 52:0.006173 53:0.012346 54:0.012346 55:0.006173 56:0 57:0 58:0.006173 59:0.006173 60:0.018519 61:0.012346 62:0.012346 63:0.030864 64:0.006173 65:0 66:0.030864 67:0 68:0.012346 69:0.012346 70:0 71:0.012346 72:0.006173 73:0.012346 74:0.012346 75:0.006173 76:0 77:0.006173 78:0.049383 79:0.006173 80:0.006173 81:0.006173 82:0.006173 83:0.012346 84:0.006173 85:0.018519 86:0 87:0.012346 88:0.018519 89:0.006173 90:0.012346 91:0.006173 92:0.037037 93:0.030864 94:0.012346 95:0.006173 96:0.012346 97:0.024691 98:0.018519 99:0 100:0.012346 
56 1:0.00625 2:0.00625 3:0.003125 4:0.00625 5:0.00625 6:0.0125 7:0.00625 8:0.00625 9:0.003125 10:0.0125 11:0.0125 12:0.003125 13:0.00625 14:0.003125 15:0 16:0 17:0.0125 18:0.003125 19:0.021875 20:0.01875 21:0 22:0.0125 23:0.021875 24:0.00625 25:0.01875 26:0 27:0.003125 28:0.00625 29:0.00625 30:0.021875 31:0.003125 32:0.009375 33:0 34:0.021875 35:0.0125 36:0.009375 37:0.0125 38:0.009375 39:0 40:0.003125 41:0.003125 42:0.003125 43:0.015625 44:0.00625 45:0.003125 46:0.00625 47:0.009375 48:0.0125 49:0.0125 50:0 51:0.003125 52:0.009375 53:0.03125 54:0.00625 55:0.01875 56:0.00625 57:0.00625 58:0.0125 59:0.009375 60:0.021875 61:0.009375 62:0.00625 63:0.003125 64:0.00625 65:0.015625 66:0.003125 67:0.009375 68:0.003125 69:0.0125 70:0.009375 71:0.00625 72:0.003125 73:0.021875 74:0.00625 75:0.00625 76:0.025 77:0.015625 78:0.034375 79:0.00625 80:0.00625 81:0.0125 82:0 83:0.003125 84:0.003125 85:0.003125 86:0.00625 87:0.025 88:0.01875 89:0 90:0.040625 91:0.00625 92:0.034375 93:0.009375 94:0.009375 95:0.025 96:0.028125 97:0.009375 98:0.01875 99:0.00625 100:0.00625 
56 1:0.011811 2:0.003937 3:0.019685 4:0.011811 5:0.003937 6:0.003937 7:0.003937 8:0 9:0.023622 10:0.019685 11:0.011811 12:0 13:0.027559 14:0.007874 15:0.007874 16:0.007874 17:0.015748 18:0.003937 19:0.011811 20:0.011811 21:0.003937 22:0 23:0.035433 24:0.003937 25:0.019685 26:0 27:0.003937 28:0 29:0.007874 30:0.007874 31:0.003937 32:0.019685 33:0.011811 34:0.003937 35:0.011811 36:0.011811 37:0.007874 38:0.019685 39:0.003937 40:0 41:0 42:0.003937 43:0.003937 44:0.019685 45:0.011811 46:0.011811 47:0.003937 48:0.011811 49:0.007874 50:0 51:0.011811 52:0.011811 53:0.011811 54:0.003937 55:0.003937 56:0 57:0.003937 58:0.011811 59:0.015748 60:0.007874 61:0.007874 62:0 63:0 64:0.003937 65:0.019685 66:0.003937 67:0 68:0.027559 69:0 70:0.003937 71:0.011811 72:0.007874 73:0.003937 74:0.007874 75:0.011811 76:0.035433 77:0 78:0.043307 79:0.003937 80:0 81:0.003937 82:0.011811 83:0.019685 84:0.019685 85:0.011811 86:0.003937 87:0.011811 88:0.019685 89:0.003937 90:0.007874 91:0.003937 92:0.011811 93:0.003937 94:0.015748 95:0.015748 96:0.043307 97:0.023622 98:0.011811 99:0.003937 100:0.015748 
44.02307257010637 1:0.003597 2:0.007194 3:0.010791 4:0 5:0.017986 6:0.014388 7:0.014388 8:0.014388 9:0.007194 10:0.017986 11:0.003597 12:0.017986 13:0.003597 14:0.010791 15:0.014388 16:0.014388 17:0.007194 18:0.010791 19:0.003597 20:0.010791 21:0 22:0.007194 23:0.007194 24:0.010791 25:0.007194 26:0.010791 27:0.010791 28:0.003597 29:0 30:0.007194 31:0.003597 32:0.010791 33:0.010791 34:0.028777 35:0.003597 36:0.007194 37:0 38:0.003597 39:0.007194 40:0.007194 41:0.007194 42:0.014388 43:0.021583 44:0.003597 45:0.007194 46:0.003597 47:0.007194 48:0.010791 49:0.010791 50:0.010791 51:0.032374 52:0.014388 53:0.010791 54:0.007194 55:0.010791 56:0 57:0.003597 58:0.007194 59:0.021583 60:0.010791 61:0.017986 62:0.007194 63:0.010791 64:0.007194 65:0.007194 66:0.007194 67:0.003597 68:0.017986 69:0.010791 70:0.010791 71:0.003597 72:0.003597 73:0.007194 74:0.017986 75:0.010791 76:0.014388 77:0 78:0.035971 79:0.007194 80:0.014388 81:0.010791 82:0.014388 83:0 84:0.003597 85:0.014388 86:0.003597 87:0.007194 88:0.003597 89:0.007194 90:0.007194 91:0.007194 92:0.043165 93:0.010791 94:0.010791 95:0.02518 96:0.007194 97:0.007194 98:0.017986 99:0.007194 100:0.007194 
56 1:0.009693 2:0.012924 3:0.009693 4:0.012924 5:0.012924 6:0.004847 7:0.012924 8:0.004847 9:0.006462 10:0.037157 11:0.01454 12:0.021002 13:0.009693 14:0.027464 15:0.017771 16:0.004847 17:0.019386 18:0.011309 19:0.009693 20:0.006462 21:0.004847 22:0.004847 23:0.016155 24:0.009693 25:0.008078 26:0.012924 27:0.008078 28:0.004847 29:0.009693 30:0.009693 31:0.008078 32:0.012924 33:0.006462 34:0.012924 35:0.004847 36:0.004847 37:0.008078 38:0.011309 39:0.009693 40:0.01454 41:0.001616 42:0 43:0.01454 44:0.008078 45:0.009693 46:0.012924 47:0.008078 48:0.011309 49:0.008078 50:0 51:0.009693 52:0.019386 53:0.006462 54:0.004847 55:0.006462 56:0.008078 57:0.008078 58:0.016155 59:0.006462 60:0.001616 61:0.006462 62:0.004847 63:0.008078 64:0.004847 65:0.009693 66:0.001616 67:0.009693 68:0.006462 69:0.011309 70:0.006462 71:0.006462 72:0.008078 73:0.009693 74:0.012924 75:0.003231 76:0.012924 77:0.008078 78:0.024233 79:0.003231 80:0.016155 81:0.003231 82:0.001616 83:0.004847 84:0.008078 85:0.012924 86:0.012924 87:0.006462 88:0.008078 89:0.008078 90:0.011309 91:0.008078 92:0.017771 93:0.003231 94:0.008078 95:0.017771 96:0.009693 97:0.01454 98:0.024233 99:0.012924 100:0.021002 
56 1:0.009346 2:0.018692 3:0.018692 4:0.018692 5:0.009346 6:0 7:0 8:0.009346 9:0.009346 10:0.028037 11:0.009346 12:0.018692 13:0 14:0.018692 15:0 16:0.009346 17:0.028037 18:0 19:0 20:0 21:0.018692 22:0 23:0 24:0.018692 25:0.018692 26:0 27:0.009346 28:0 29:0 30:0.018692 31:0.009346 32:0.018692 33:0.018692 34:0.009346 35:0 36:0.018692 37:0.009346 38:0.018692 39:0.028037 40:0.009346 41:0 42:0 43:0.028037 44:0.009346 45:0 46:0 47:0 48:0.009346 49:0 50:0 51:0 52:0.018692 53:0.009346 54:0 55:0.018692 56:0 57:0.018692 58:0.018692 59:0.009346 60:0 61:0.018692 62:0.028037 63:0 64:0.009346 65:0.028037 66:0.056075 67:0 68:0.009346 69:0.009346 70:0.009346 71:0 72:0.018692 73:0.009346 74:0 75:0 76:0.018692 77:0 78:0 79:0.018692 80:0.009346 81:0 82:0 83:0 84:0.018692 85:0.009346 86:0 87:0 88:0.009346 89:0.009346 90:0 91:0 92:0.028037 93:0 94:0 95:0 96:0.009346 97:0.018692 98:0.028037 99:0 100:0.056075 
51.68871338340203 1:0.004566 2:0.009132 3:0.018265 4:0.018265 5:0.004566 6:0 7:0.009132 8:0.009132 9:0.018265 10:0 11:0.031963 12:0.009132 13:0.022831 14:0.009132 15:0.009132 16:0 17:0.018265 18:0 19:0.031963 20:0.004566 21:0 22:0.004566 23:0.022831 24:0.009132 25:0.009132 26:0.018265 27:0.013699 28:0.004566 29:0.022831 30:0.004566 31:0.004566 32:0.027397 33:0.009132 34:0.018265 35:0.004566 36:0 37:0 38:0.022831 39:0.018265 40:0.009132 41:0.013699 42:0.013699 43:0.013699 44:0.004566 45:0.013699 46:0 47:0.004566 48:0.009132 49:0.009132 50:0 51:0.031963 52:0.022831 53:0 54:0 55:0.013699 56:0.004566 57:0.004566 58:0.009132 59:0.009132 60:0 61:0.004566 62:0 63:0 64:0.013699 65:0.004566 66:0.013699 67:0.004566 68:0.004566 69:0.018265 70:0 71:0.013699 72:0.004566 73:0.013699 74:0 75:0.009132 76:0.009132 77:0.004566 78:0.041096 79:0.018265 80:0 81:0.004566 82:0 83:0.018265 84:0 85:0.004566 86:0.009132 87:0.009132 88:0 89:0.013699 90:0.009132 91:0 92:0.018265 93:0.013699 94:0 95:0.004566 96:0.009132 97:0.018265 98:0.022831 99:0.004566 100:0.031963 
39.24080760910604 1:0.011299 2:0 3:0.00565 4:0.00565 5:0.022599 6:0 7:0.022599 8:0.00565 9:0.00565 10:0.011299 11:0.016949 12:0.022599 13:0.00565 14:0.016949 15:0 16:0.00565 17:0 18:0.011299 19:0.00565 20:0.00565 21:0.00565 22:0 23:0.022599 24:0.011299 25:0.011299 26:0 27:0.016949 28:0.016949 29:0.00565 30:0.00565 31:0.00565 32:0.028249 33:0.00565 34:0.028249 35:0.016949 36:0 37:0 38:0.022599 39:0.00565 40:0.011299 41:0.00565 42:0 43:0 44:0.011299 45:0.00565 46:0 47:0.011299 48:0 49:0.011299 50:0 51:0.011299 52:0.00565 53:0.011299 54:0 55:0.011299 56:0.011299 57:0 58:0.00565 59:0 60:0.011299 61:0 62:0.022599 63:0.00565 64:0.00565 65:0.011299 66:0.016949 67:0.016949 68:0 69:0.016949 70:0.00565 71:0.00565 72:0.00565 73:0.016949 74:0.016949 75:0 76:0.016949 77:0.00565 78:0.039548 79:0.016949 80:0.00565 81:0 82:0.011299 83:0.011299 84:0.00565 85:0.00565 86:0 87:0.011299 88:0 89:0.016949 90:0.033898 91:0.011299 92:0.016949 93:0.00565 94:0.00565 95:0.039548 96:0.016949 97:0.011299 98:0.028249 99:0.011299 100:0.011299 
32.86969630218984 1:0.010753 2:0.016129 3:0.010753 4:0.005376 5:0.010753 6:0.010753 7:0.016129 8:0.005376 9:0.026882 10:0.016129 11:0 12:0.016129 13:0.026882 14:0.021505 15:0.010753 16:0 17:0.005376 18:0 19:0.032258 20:0 21:0 22:0 23:0.021505 24:0.021505 25:0.021505 26:0 27:0 28:0 29:0 30:0.010753 31:0.026882 32:0.005376 33:0 34:0.010753 35:0 36:0.021505 37:0.010753 38:0.016129 39:0.010753 40:0 41:0.005376 42:0 43:0.005376 44:0.005376 45:0.005376 46:0.053763 47:0 48:0 49:0.010753 50:0 51:0.026882 52:0.005376 53:0.010753 54:0 55:0.005376 56:0 57:0.005376 58:0 59:0.010753 60:0.005376 61:0.021505 62:0 63:0 64:0 65:0.005376 66:0.010753 67:0.005376 68:0.026882 69:0.021505 70:0.005376 71:0 72:0.005376 73:0.005376 74:0 75:0.010753 76:0.026882 77:0 78:0.043011 79:0 80:0 81:0.005376 82:0.010753 83:0 84:0.005376 85:0.010753 86:0 87:0.016129 88:0.005376 89:0.005376 90:0.010753 91:0 92:0.037634 93:0.016129 94:0.032258 95:0 96:0.010753 97:0.010753 98:0.043011 99:0.005376 100:0.010753 
56 1:0 2:0.013793 3:0.006897 4:0.013793 5:0.006897 6:0 7:0.006897 8:0 9:0.006897 10:0.02069 11:0.006897 12:0 13:0.034483 14:0.013793 15:0.013793 16:0.013793 17:0.006897 18:0.013793 19:0 20:0.02069 21:0 22:0.006897 23:0.013793 24:0 25:0.013793 26:0 27:0.013793 28:0 29:0 30:0.006897 31:0.006897 32:0.02069 33:0.013793 34:0.034483 35:0.027586 36:0 37:0.006897 38:0.02069 39:0 40:0.006897 41:0.013793 42:0.006897 43:0.02069 44:0.006897 45:0 46:0.013793 47:0.006897 48:0.013793 49:0.013793 50:0 51:0.013793 52:0.013793 53:0.02069 54:0.027586 55:0.027586 56:0.006897 57:0 58:0 59:0.013793 60:0.006897 61:0.006897 62:0.013793 63:0 64:0.006897 65:0.006897 66:0.034483 67:0.006897 68:0.006897 69:0.006897 70:0 71:0.006897 72:0.006897 73:0.006897 74:0 75:0.006897 76:0.027586 77:0.006897 78:0.013793 79:0.013793 80:0 81:0.006897 82:0.02069 83:0.006897 84:0.006897 85:0 86:0.006897 87:0 88:0 89:0.013793 90:0.02069 91:0 92:0.034483 93:0.006897 94:0.006897 95:0.013793 96:0.02069 97:0.006897 98:0.006897 99:0.006897 100:0.013793 
56 1:0.005291 2:0.021164 3:0.010582 4:0.005291 5:0.010582 6:0.021164 7:0.015873 8:0.005291 9:0 10:0.005291 11:0 12:0.010582 13:0.015873 14:0.005291 15:0.005291 16:0.005291 17:0 18:0.010582 19:0.005291 20:0.010582 21:0.005291 22:0.015873 23:0.015873 24:0.010582 25:0 26:0.005291 27:0 28:0.015873 29:0.005291 30:0.005291 31:0.005291 32:0.005291 33:0 34:0.026455 35:0.005291 36:0.005291 37:0 38:0.021164 39:0.010582 40:0.005291 41:0.015873 42:0.010582 43:0.026455 44:0.005291 45:0.015873 46:0.005291 47:0.005291 48:0 49:0.005291 50:0.010582 51:0.015873 52:0.015873 53:0.010582 54:0.005291 55:0.010582 56:0.010582 57:0 58:0.005291 59:0 60:0.005291 61:0.005291 62:0.005291 63:0.021164 64:0.005291 65:0.010582 66:0.026455 67:0.015873 68:0.015873 69:0.010582 70:0.005291 71:0.021164 72:0.005291 73:0.031746 74:0.005291 75:0.021164 76:0.010582 77:0.015873 78:0.021164 79:0.005291 80:0.010582 81:0.005291 82:0.015873 83:0.026455 84:0 85:0.026455 86:0.005291 87:0.021164 88:0.005291 89:0 90:0 91:0.005291 92:0.021164 93:0.015873 94:0.010582 95:0.010582 96:0.021164 97:0.005291 98:0.021164 99:0 100:0 
12.27758045235155 1:0 2:0 3:0.010753 4:0.010753 5:0.010753 6:0 7:0 8:0.021505 9:0.010753 10:0.032258 11:0.021505 12:0.010753 13:0.010753 14:0.010753 15:0 16:0 17:0.010753 18:0.053763 19:0.021505 20:0.010753 21:0 22:0 23:0.010753 24:0.010753 25:0 26:0 27:0 28:0 29:0.010753 30:0.010753 31:0.021505 32:0.010753 33:0 34:0 35:0 36:0 37:0 38:0.010753 39:0.010753 40:0 41:0.010753 42:0.010753 43:0.021505 44:0.032258 45:0.010753 46:0 47:0.010753 48:0 49:0 50:0 51:0.021505 52:0.021505 53:0 54:0 55:0 56:0.010753 57:0 58:0.010753 59:0.010753 60:0 61:0 62:0.010753 63:0.021505 64:0 65:0 66:0.010753 67:0 68:0.010753 69:0.043011 70:0 71:0 72:0 73:0.010753 74:0.053763 75:0.010753 76:0.043011 77:0 78:0 79:0.010753 80:0 81:0.021505 82:0.021505 83:0.010753 84:0.010753 85:0 86:0 87:0 88:0.021505 89:0 90:0.032258 91:0 92:0.010753 93:0.043011 94:0 95:0.021505 96:0 97:0.043011 98:0 99:0 100:0.021505 
56 1:0.012481 2:0.012481 3:0.010212 4:0.009834 5:0.007564 6:0.048033 7:0.004917 8:0.00416 9:0.016263 10:0.007943 11:0.006051 12:0.003026 13:0.009077 14:0.002269 15:0.013994 16:0.001135 17:0.006808 18:0.007943 19:0.005295 20:0.011346 21:0.010212 22:0.01059 23:0.014372 24:0.008321 25:0.007564 26:0.00643 27:0.004917 28:0.009834 29:0.010968 30:0.013994 31:0.00416 32:0.010212 33:0.005673 34:0.007564 35:0.011725 36:0.013616 37:0.016641 38:0.005295 39:0.005673 40:0.004539 41:0.012103 42:0.011346 43:0.005673 44:0.007943 45:0.011346 46:0.013994 47:0.008321 48:0.008699 49:0.007943 50:0.00643 51:0.005673 52:0.012481 53:0.019667 54:0.024962 55:0.010212 56:0.001513 57:0.006051 58:0.008321 59:0.010212 60:0.005673 61:0.026853 62:0.010212 63:0.013238 64:0.006808 65:0.008699 66:0.010212 67:0.003782 68:0.009455 69:0.007186 70:0.009455 71:0.009834 72:0.007943 73:0.009455 74:0.007943 75:0.010968 76:0.003026 77:0.003404 78:0.017398 79:0.007186 80:0.034039 81:0.008699 82:0.024206 83:0.007186 84:0.013238 85:0.00643 86:0.004539 87:0.003404 88:0.003404 89:0.00643 90:0.010968 91:0.005673 92:0.023449 93:0.002648 94:0.009455 95:0.004917 96:0.015885 97:0.00643 98:0.027231 99:0.012103 100:0.004917 
38.277576173312 1:0 2:0.01626 3:0.00813 4:0.00813 5:0 6:0 7:0.01626 8:0 9:0.01626 10:0 11:0.01626 12:0.03252 13:0.00813 14:0 15:0 16:0.00813 17:0.00813 18:0 19:0.03252 20:0 21:0.00813 22:0.01626 23:0.02439 24:0.01626 25:0 26:0.01626 27:0.00813 28:0.00813 29:0.02439 30:0.01626 31:0.00813 32:0 33:0.01626 34:0.01626 35:0.00813 36:0 37:0.00813 38:0.01626 39:0.02439 40:0.00813 41:0 42:0 43:0.02439 44:0 45:0.01626 46:0 47:0.00813 48:0.00813 49:0 50:0 51:0.00813 52:0.00813 53:0 54:0.00813 55:0 56:0 57:0.00813 58:0 59:0.00813 60:0.01626 61:0 62:0.01626 63:0.00813 64:0.03252 65:0.00813 66:0.01626 67:0 68:0.04878 69:0.03252 70:0.01626 71:0.00813 72:0.01626 73:0.02439 74:0 75:0 76:0 77:0.00813 78:0.01626 79:0.03252 80:0 81:0 82:0 83:0 84:0.00813 85:0.01626 86:0.02439 87:0 88:0.00813 89:0.00813 90:0 91:0 92:0.01626 93:0.00813 94:0.03252 95:0 96:0.01626 97:0.02439 98:0 99:0.00813 100:0.01626 
-56 1:0.014815 2:0 3:0.007407 4:0.007407 5:0.007407 6:0 7:0.007407 8:0 9:0.007407 10:0 11:0.007407 12:0.02963 13:0 14:0.022222 15:0.02963 16:0.022222 17:0.014815 18:0.022222 19:0 20:0.007407 21:0.014815 22:0 23:0.022222 24:0 25:0.014815 26:0.007407 27:0.007407 28:0.007407 29:0.007407 30:0.007407 31:0.007407 32:0 33:0.02963 34:0 35:0.014815 36:0.007407 37:0 38:0.022222 39:0.014815 40:0.014815 41:0 42:0.007407 43:0.014815 44:0.014815 45:0.007407 46:0 47:0.022222 48:0.007407 49:0 50:0.014815 51:0.007407 52:0.007407 53:0.007407 54:0.022222 55:0 56:0.014815 57:0 58:0.007407 59:0.014815 60:0.007407 61:0 62:0 63:0.007407 64:0.022222 65:0.007407 66:0.014815 67:0 68:0 69:0.014815 70:0 71:0.014815 72:0.007407 73:0 74:0.007407 75:0 76:0.014815 77:0.02963 78:0.044444 79:0 80:0.014815 81:0 82:0.007407 83:0 84:0.02963 85:0.02963 86:0 87:0.014815 88:0.014815 89:0.014815 90:0 91:0.02963 92:0.022222 93:0.014815 94:0 95:0.007407 96:0.007407 97:0 98:0 99:0 100:0.022222 
-56 1:0.006849 2:0.010274 3:0.010274 4:0.013699 5:0 6:0.023973 7:0.003425 8:0.003425 9:0.013699 10:0.006849 11:0.010274 12:0.030822 13:0.006849 14:0.003425 15:0.030822 16:0.003425 17:0.013699 18:0 19:0.020548 20:0.003425 21:0 22:0.027397 23:0.003425 24:0.003425 25:0.003425 26:0.010274 27:0.017123 28:0 29:0.006849 30:0.010274 31:0.006849 32:0.006849 33:0.013699 34:0.003425 35:0.017123 36:0.006849 37:0.027397 38:0.003425 39:0.010274 40:0.003425 41:0.013699 42:0.003425 43:0.006849 44:0.010274 45:0.013699 46:0.030822 47:0.006849 48:0.013699 49:0.010274 50:0 51:0 52:0 53:0.006849 54:0.010274 55:0.010274 56:0.010274 57:0.013699 58:0.006849 59:0.013699 60:0.023973 61:0.013699 62:0.013699 63:0 64:0 65:0.017123 66:0.017123 67:0 68:0.010274 69:0.003425 70:0.003425 71:0.006849 72:0.017123 73:0.006849 74:0.017123 75:0.003425 76:0.010274 77:0.006849 78:0.003425 79:0.013699 80:0.006849 81:0.010274 82:0.006849 83:0.010274 84:0.013699 85:0.013699 86:0.013699 87:0.006849 88:0.003425 89:0.013699 90:0.027397 91:0.017123 92:0.013699 93:0 94:0.010274 95:0.013699 96:0.017123 97:0.003425 98:0.017123 99:0.006849 100:0.006849 
-39.13461930884121 1:0 2:0.003311 3:0.006623 4:0 5:0.003311 6:0.049669 7:0 8:0.003311 9:0.006623 10:0.006623 11:0 12:0 13:0.003311 14:0.009934 15:0.016556 16:0.009934 17:0.009934 18:0.003311 19:0.006623 20:0.013245 21:0.02649 22:0.036424 23:0.013245 24:0.006623 25:0.009934 26:0.006623 27:0 28:0.009934 29:0.013245 30:0.033113 31:0 32:0.009934 33:0.003311 34:0.003311 35:0.006623 36:0.006623 37:0.003311 38:0.006623 39:0.003311 40:0 41:0.003311 42:0.009934 43:0.006623 44:0.016556 45:0.019868 46:0.006623 47:0 48:0.003311 49:0.003311 50:0.02649 51:0.003311 52:0.009934 53:0.013245 54:0.003311 55:0.009934 56:0 57:0 58:0.003311 59:0.016556 60:0.009934 61:0.062914 62:0.019868 63:0.003311 64:0.013245 65:0.019868 66:0 67:0.02649 68:0.016556 69:0 70:0.029801 71:0 72:0.009934 73:0 74:0 75:0.009934 76:0.003311 77:0.003311 78:0.003311 79:0.003311 80:0.036424 81:0.019868 82:0.009934 83:0.003311 84:0.003311 85:0 86:0.006623 87:0.016556 88:0 89:0 90:0.003311 91:0.003311 92:0.006623 93:0.003311 94:0.003311 95:0.009934 96:0.049669 97:0.006623 98:0.02649 99:0.033113 100:0.016556 
-21.67826467416549 1:0.013333 2:0.013333 3:0 4:0 5:0.026667 6:0 7:0 8:0 9:0 10:0.026667 11:0 12:0.026667 13:0 14:0 15:0 16:0 17:0 18:0 19:0 20:0 21:0 22:0 23:0 24:0 25:0.013333 26:0.013333 27:0.04 28:0 29:0.013333 30:0 31:0.026667 32:0 33:0.013333 34:0.013333 35:0.013333 36:0 37:0 38:0.026667 39:0 40:0.013333 41:0.026667 42:0 43:0 44:0.026667 45:0 46:0.013333 47:0 48:0 49:0.026667 50:0 51:0 52:0 53:0 54:0.04 55:0.013333 56:0 57:0 58:0.013333 59:0.013333 60:0.013333 61:0 62:0 63:0.013333 64:0 65:0 66:0.013333 67:0 68:0.013333 69:0.026667 70:0.013333 71:0.053333 72:0.026667 73:0 74:0 75:0 76:0 77:0 78:0.04 79:0 80:0 81:0.026667 82:0 83:0.066667 84:0.013333 85:0 86:0 87:0 88:0 89:0 90:0.026667 91:0.013333 92:0.066667 93:0.013333 94:0 95:0.013333 96:0.013333 97:0.026667 98:0 99:0.013333 100:0.026667 
-51.97002542034215 1:0 2:0.013158 3:0.026316 4:0 5:0 6:0.013158 7:0.039474 8:0 9:0.026316 10:0.026316 11:0.026316 12:0 13:0.026316 14:0.052632 15:0 16:0 17:0.026316 18:0 19:0.013158 20:0 21:0 22:0 23:0.026316 24:0.013158 25:0.026316 26:0.013158 27:0.039474 28:0 29:0.013158 30:0.013158 31:0 32:0 33:0.013158 34:0 35:0 36:0.013158 37:0 38:0.026316 39:0 40:0.013158 41:0 42:0 43:0.026316 44:0 45:0 46:0.026316 47:0.013158 48:0 49:0.013158 50:0.013158 51:0 52:0 53:0 54:0 55:0 56:0.013158 57:0.013158 58:0 59:0 60:0.026316 61:0 62:0 63:0.013158 64:0 65:0 66:0 67:0 68:0 69:0 70:0 71:0.013158 72:0 73:0.013158 74:0.026316 75:0.026316 76:0 77:0.013158 78:0 79:0.013158 80:0.013158 81:0 82:0.013158 83:0.013158 84:0.013158 85:0.026316 86:0 87:0.013158 88:0.026316 89:0 90:0.026316 91:0.013158 92:0 93:0 94:0.026316 95:0.013158 96:0.013158 97:0.013158 98:0.013158 99:0 100:0 
-52.78454303705404 1:0 2:0.009091 3:0 4:0 5:0 6:0.009091 7:0.009091 8:0.009091 9:0.009091 10:0.045455 11:0 12:0.018182 13:0 14:0.045455 15:0.009091 16:0 17:0 18:0 19:0.009091 20:0.009091 21:0.027273 22:0.009091 23:0.018182 24:0 25:0 26:0 27:0.009091 28:0.018182 29:0.009091 30:0.027273 31:0.027273 32:0.027273 33:0 34:0.009091 35:0 36:0 37:0.009091 38:0.027273 39:0.009091 40:0.009091 41:0.018182 42:0 43:0 44:0 45:0.009091 46:0 47:0 48:0.009091 49:0.018182 50:0.027273 51:0 52:0 53:0 54:0.009091 55:0 56:0.027273 57:0 58:0 59:0 60:0 61:0 62:0.009091 63:0 64:0.009091 65:0 66:0 67:0.009091 68:0 69:0 70:0.036364 71:0 72:0.009091 73:0.009091 74:0 75:0.027273 76:0.009091 77:0 78:0 79:0.009091 80:0.009091 81:0 82:0.009091 83:0.018182 84:0.018182 85:0 86:0 87:0.009091 88:0.018182 89:0.009091 90:0.027273 91:0.027273 92:0 93:0 94:0 95:0.009091 96:0 97:0.009091 98:0.018182 99:0.009091 100:0.145455 
-45.65804318646981 1:0.010989 2:0 3:0.010989 4:0 5:0 6:0.010989 7:0 8:0.010989 9:0 10:0.021978 11:0.010989 12:0.010989 13:0.021978 14:0.054945 15:0 16:0 17:0.010989 18:0.010989 19:0.010989 20:0 21:0.010989 22:0.010989 23:0.010989 24:0.010989 25:0.021978 26:0 27:0 28:0 29:0 30:0 31:0 32:0.010989 33:0.010989 34:0 35:0.010989 36:0.010989 37:0 38:0.010989 39:0.010989 40:0.010989 41:0.010989 42:0 43:0.065934 44:0.010989 45:0 46:0 47:0.010989 48:0 49:0 50:0.021978 51:0.010989 52:0 53:0 54:0 55:0.010989 56:0 57:0 58:0 59:0 60:0.010989 61:0.010989 62:0 63:0 64:0 65:0 66:0 67:0.021978 68:0.010989 69:0 70:0.010989 71:0.021978 72:0.010989 73:0.021978 74:0.010989 75:0 76:0.010989 77:0.010989 78:0 79:0.010989 80:0 81:0 82:0.010989 83:0.021978 84:0.010989 85:0.010989 86:0 87:0 88:0.043956 89:0 90:0.032967 91:0 92:0.054945 93:0.010989 94:0.010989 95:0.065934 96:0.043956 97:0 98:0 99:0 100:0.032967 
-51.23667384335686 1:0 2:0.010417 3:0 4:0 5:0.010417 6:0 7:0 8:0.020833 9:0.020833 10:0.020833 11:0 12:0 13:0 14:0.083333 15:0.010417 16:0 17:0.010417 18:0 19:0 20:0.010417 21:0 22:0.03125 23:0.03125 24:0.020833 25:0.010417 26:0.010417 27:0 28:0 29:0 30:0.010417 31:0.010417 32:0.010417 33:0 34:0 35:0.020833 36:0.010417 37:0.010417 38:0.03125 39:0.010417 40:0 41:0 42:0 43:0.0625 44:0.020833 45:0 46:0 47:0 48:0.010417 49:0.010417 50:0.010417 51:0.020833 52:0 53:0 54:0.020833 55:0 56:0 57:0 58:0.020833 59:0.020833 60:0.020833 61:0.010417 62:0.010417 63:0 64:0 65:0 66:0 67:0 68:0.010417 69:0.010417 70:0.010417 71:0 72:0.010417 73:0.010417 74:0.010417 75:0.010417 76:0.020833 77:0.010417 78:0.03125 79:0.020833 80:0 81:0 82:0 83:0 84:0 85:0.020833 86:0.010417 87:0 88:0.0625 89:0 90:0.020833 91:0 92:0.03125 93:0 94:0.010417 95:0 96:0.010417 97:0.010417 98:0 99:0 100:0.010417 
-46.18157138984994 1:0 2:0 3:0.013158 4:0.013158 5:0.013158 6:0.013158 7:0.013158 8:0 9:0.026316 10:0.013158 11:0.013158 12:0.013158 13:0 14:0 15:0 16:0 17:0 18:0.026316 19:0.026316 20:0 21:0.013158 22:0.013158 23:0.013158 24:0 25:0 26:0.013158 27:0 28:0.013158 29:0.013158 30:0.026316 31:0.013158 32:0 33:0 34:0.013158 35:0 36:0 37:0 38:0.026316 39:0.013158 40:0 41:0.026316 42:0 43:0.026316 44:0 45:0 46:0 47:0.013158 48:0 49:0.013158 50:0 51:0 52:0 53:0 54:0 55:0 56:0.013158 57:0.026316 58:0.026316 59:0.013158 60:0.026316 61:0.026316 62:0 63:0 64:0 65:0.026316 66:0 67:0 68:0 69:0.026316 70:0.013158 71:0.013158 72:0 73:0 74:0 75:0.026316 76:0 77:0 78:0.026316 79:0 80:0 81:0.013158 82:0.013158 83:0.026316 84:0 85:0.026316 86:0 87:0 88:0 89:0.026316 90:0.039474 91:0 92:0.078947 93:0.026316 94:0 95:0.013158 96:0 97:0.013158 98:0.013158 99:0.013158 100:0 
-56 1:0.012195 2:0.006098 3:0.012195 4:0 5:0.02439 6:0.006098 7:0 8:0.006098 9:0.006098 10:0.018293 11:0.02439 12:0 13:0.02439 14:0.012195 15:0 16:0 17:0.018293 18:0.018293 19:0.012195 20:0.006098 21:0.018293 22:0 23:0.012195 24:0 25:0 26:0.036585 27:0 28:0.006098 29:0.018293 30:0.012195 31:0.012195 32:0.012195 33:0 34:0 35:0 36:0.006098 37:0.012195 38:0.018293 39:0.012195 40:0.018293 41:0.018293 42:0.006098 43:0.006098 44:0.030488 45:0.02439 46:0.012195 47:0 48:0.018293 49:0.006098 50:0 51:0.006098 52:0.012195 53:0.012195 54:0.012195 55:0 56:0.006098 57:0.006098 58:0.006098 59:0.012195 60:0.018293 61:0.006098 62:0 63:0.006098 64:0.006098 65:0.012195 66:0.012195 67:0.012195 68:0.006098 69:0.006098 70:0.012195 71:0.018293 72:0.018293 73:0 74:0.012195 75:0.02439 76:0.006098 77:0.006098 78:0.006098 79:0.012195 80:0.006098 81:0.012195 82:0 83:0 84:0.006098 85:0.006098 86:0.006098 87:0 88:0 89:0.042683 90:0.02439 91:0.012195 92:0 93:0 94:0.012195 95:0.018293 96:0 97:0.012195 98:0.006098 99:0.018293 100:0.018293 
-8.085524193953306 1:0 2:0.012739 3:0.006369 4:0 5:0 6:0.006369 7:0 8:0 9:0.012739 10:0.031847 11:0.012739 12:0.006369 13:0 14:0.006369 15:0.012739 16:0 17:0.006369 18:0.012739 19:0.006369 20:0 21:0 22:0.006369 23:0.025478 24:0.006369 25:0.006369 26:0.006369 27:0.012739 28:0 29:0.012739 30:0.012739 31:0.006369 32:0 33:0 34:0 35:0.012739 36:0.012739 37:0.006369 38:0.031847 39:0.025478 40:0.012739 41:0.025478 42:0 43:0 44:0.006369 45:0.006369 46:0.025478 47:0.006369 48:0.019108 49:0 50:0.012739 51:0.012739 52:0.006369 53:0 54:0 55:0.006369 56:0 57:0.006369 58:0.006369 59:0.019108 60:0.006369 61:0.019108 62:0.006369 63:0.006369 64:0.019108 65:0.025478 66:0.044586 67:0.012739 68:0.019108 69:0.012739 70:0.006369 71:0.025478 72:0 73:0 74:0.025478 75:0.006369 76:0 77:0 78:0.025478 79:0 80:0.019108 81:0 82:0.006369 83:0.031847 84:0.025478 85:0.019108 86:0 87:0 88:0.012739 89:0.031847 90:0 91:0.006369 92:0.050955 93:0 94:0 95:0.012739 96:0 97:0.025478 98:0 99:0.006369 100:0 
-30.85659953427681 1:0.007752 2:0.007752 3:0 4:0.015504 5:0.031008 6:0 7:0 8:0 9:0.007752 10:0.015504 11:0 12:0 13:0.007752 14:0 15:0 16:0 17:0.015504 18:0 19:0.007752 20:0 21:0.031008 22:0 23:0.031008 24:0.007752 25:0.031008 26:0 27:0 28:0.007752 29:0.007752 30:0.007752 31:0.007752 32:0 33:0.007752 34:0.023256 35:0.023256 36:0.007752 37:0 38:0.139535 39:0.015504 40:0.015504 41:0 42:0 43:0.007752 44:0 45:0.015504 46:0.031008 47:0 48:0 49:0.007752 50:0.007752 51:0 52:0 53:0.007752 54:0 55:0 56:0 57:0.007752 58:0.007752 59:0.015504 60:0 61:0.007752 62:0 63:0.007752 64:0 65:0.007752 66:0.015504 67:0 68:0.015504 69:0 70:0 71:0.031008 72:0.007752 73:0 74:0.007752 75:0.007752 76:0.015504 77:0 78:0.031008 79:0 80:0 81:0 82:0.015504 83:0.03876 84:0 85:0.007752 86:0 87:0 88:0 89:0 90:0 91:0.015504 92:0.031008 93:0 94:0.015504 95:0 96:0 97:0.116279 98:0 99:0.015504 100:0 
-56 1:0 2:0 3:0.014599 4:0.029197 5:0 6:0 7:0 8:0.007299 9:0.021898 10:0.021898 11:0.021898 12:0.021898 13:0.014599 14:0 15:0.021898 16:0 17:0.007299 18:0.007299 19:0.021898 20:0 21:0.021898 22:0 23:0 24:0 25:0.021898 26:0.007299 27:0.021898 28:0.014599 29:0.021898 30:0.014599 31:0.029197 32:0.029197 33:0.007299 34:0 35:0 36:0 37:0 38:0.036496 39:0.014599 40:0.014599 41:0.029197 42:0.014599 43:0.007299 44:0.007299 45:0.007299 46:0 47:0 48:0.007299 49:0 50:0.014599 51:0.021898 52:0 53:0 54:0.014599 55:0.014599 56:0 57:0 58:0.014599 59:0.014599 60:0 61:0 62:0 63:0.014599 64:0.021898 65:0.007299 66:0.029197 67:0 68:0 69:0.007299 70:0.007299 71:0.007299 72:0.021898 73:0 74:0 75:0.043796 76:0 77:0 78:0.007299 79:0.007299 80:0.014599 81:0.007299 82:0.007299 83:0.014599 84:0 85:0.007299 86:0 87:0.007299 88:0 89:0 90:0.014599 91:0.007299 92:0.021898 93:0.007299 94:0 95:0.014599 96:0 97:0.014599 98:0.021898 99:0.014599 100:0.014599 
-56 1:0 2:0 3:0.007299 4:0.007299 5:0.007299 6:0.007299 7:0 8:0 9:0.014599 10:0.014599 11:0.007299 12:0 13:0.007299 14:0.014599 15:0.007299 16:0.014599 17:0 18:0.021898 19:0.029197 20:0.007299 21:0.021898 22:0.007299 23:0.007299 24:0.007299 25:0.036496 26:0 27:0 28:0.007299 29:0.007299 30:0.021898 31:0 32:0.014599 33:0.043796 34:0 35:0 36:0 37:0.007299 38:0.007299 39:0 40:0.014599 41:0.021898 42:0 43:0.007299 44:0.021898 45:0.029197 46:0.007299 47:0.007299 48:0.014599 49:0 50:0.007299 51:0.007299 52:0.007299 53:0.007299 54:0.007299 55:0.007299 56:0 57:0 58:0.014599 59:0 60:0 61:0.014599 62:0.014599 63:0.014599 64:0.014599 65:0.007299 66:0.043796 67:0.007299 68:0 69:0.014599 70:0 71:0.014599 72:0 73:0.007299 74:0.029197 75:0.007299 76:0.007299 77:0 78:0 79:0 80:0.021898 81:0.007299 82:0.021898 83:0.007299 84:0.021898 85:0 86:0.007299 87:0.014599 88:0 89:0.007299 90:0.029197 91:0.007299 92:0 93:0 94:0.007299 95:0 96:0.021898 97:0.021898 98:0.014599 99:0.036496 100:0.014599 
-56 1:0.00821 2:0.008621 3:0.006568 4:0.0078 5:0.006568 6:0.005337 7:0.00821 8:0.004516 9:0.005337 10:0.014778 11:0.010673 12:0.0078 13:0.004516 14:0.028325 15:0.003284 16:0.013136 17:0.010673 18:0.004105 19:0.0078 20:0.011905 21:0.006158 22:0.015189 23:0.01601 24:0.005747 25:0.003284 26:0.010263 27:0.009852 28:0.009442 29:0.002874 30:0.004926 31:0.004926 32:0.025041 33:0.004105 34:0.009031 35:0.006979 36:0.006568 37:0.004105 38:0.006979 39:0.00821 40:0.003284 41:0.004105 42:0.003695 43:0.018883 44:0.00821 45:0.004926 46:0.004926 47:0.004926 48:0.004926 49:0.013136 50:0.014368 51:0.009852 52:0.011905 53:0.003284 54:0.006979 55:0.004516 56:0.013136 57:0.004926 58:0.006568 59:0.00821 60:0.004516 61:0.009852 62:0.004926 63:0.004926 64:0.003695 65:0.009442 66:0.015599 67:0.005747 68:0.009852 69:0.004926 70:0.003695 71:0.000411 72:0.006158 73:0.010263 74:0.003695 75:0.004516 76:0.007389 77:0.009852 78:0.059524 79:0.006979 80:0.006158 81:0.004516 82:0.004926 83:0.000411 84:0.007389 85:0.003695 86:0.006158 87:0.014778 88:0.005337 89:0.004926 90:0.014368 91:0.003284 92:0.06486 93:0.004926 94:0.009031 95:0.020525 96:0.081691 97:0.006568 98:0.041872 99:0.005747 100:0.010263 
-56 1:0.021053 2:0 3:0 4:0.010526 5:0.010526 6:0.021053 7:0 8:0 9:0 10:0 11:0.010526 12:0.042105 13:0.021053 14:0.010526 15:0.010526 16:0.010526 17:0 18:0.010526 19:0.010526 20:0.010526 21:0.010526 22:0.010526 23:0.021053 24:0 25:0 26:0.010526 27:0 28:0.010526 29:0.010526 30:0.031579 31:0 32:0.031579 33:0.010526 34:0.010526 35:0.010526 36:0.010526 37:0 38:0.010526 39:0.010526 40:0.010526 41:0 42:0 43:0.042105 44:0 45:0 46:0.031579 47:0.010526 48:0.021053 49:0.021053 50:0 51:0 52:0.010526 53:0.031579 54:0.010526 55:0.010526 56:0 57:0 58:0 59:0 60:0.010526 61:0.031579 62:0 63:0 64:0.010526 65:0 66:0.010526 67:0 68:0.021053 69:0 70:0 71:0 72:0.010526 73:0.021053 74:0 75:0.031579 76:0.021053 77:0.010526 78:0.010526 79:0.010526 80:0.010526 81:0.010526 82:0.010526 83:0 84:0 85:0.010526 86:0.010526 87:0.010526 88:0.021053 89:0 90:0.021053 91:0 92:0.010526 93:0 94:0 95:0.010526 96:0 97:0.010526 98:0.031579 99:0.010526 100:0.021053 
-56 1:0.006289 2:0.012579 3:0.012579 4:0.012579 5:0 6:0.006289 7:0.025157 8:0.031447 9:0.006289 10:0 11:0.025157 12:0 13:0 14:0 15:0 16:0.006289 17:0.012579 18:0 19:0.012579 20:0.006289 21:0.006289 22:0.018868 23:0.006289 24:0 25:0 26:0.018868 27:0.006289 28:0.025157 29:0 30:0 31:0.012579 32:0.050314 33:0 34:0.012579 35:0 36:0 37:0.006289 38:0 39:0.012579 40:0.018868 41:0 42:0.006289 43:0.006289 44:0.006289 45:0.006289 46:0 47:0 48:0.012579 49:0 50:0.075472 51:0 52:0 53:0.018868 54:0.006289 55:0 56:0.025157 57:0 58:0.006289 59:0.012579 60:0.006289 61:0.006289 62:0.031447 63:0 64:0.012579 65:0.006289 66:0.018868 67:0.018868 68:0.012579 69:0 70:0.025157 71:0 72:0.012579 73:0.044025 74:0 75:0 76:0 77:0.012579 78:0.006289 79:0.037736 80:0 81:0 82:0.006289 83:0 84:0 85:0 86:0.031447 87:0.012579 88:0 89:0.025157 90:0.006289 91:0.006289 92:0.006289 93:0 94:0.012579 95:0.018868 96:0.025157 97:0 98:0.018868 99:0.006289 100:0.018868 
-56 1:0.001357 2:0.005427 3:0.008141 4:0.008141 5:0 6:0.008141 7:0.006784 8:0.012212 9:0 10:0.013569 11:0.016282 12:0.006784 13:0.012212 14:0.02171 15:0.001357 16:0.005427 17:0.012212 18:0.002714 19:0.005427 20:0.006784 21:0.004071 22:0.014925 23:0.013569 24:0.001357 25:0.014925 26:0.009498 27:0.018996 28:0.010855 29:0.002714 30:0.014925 31:0.005427 32:0.010855 33:0.010855 34:0.009498 35:0.001357 36:0.001357 37:0.002714 38:0.005427 39:0.016282 40:0.006784 41:0.002714 42:0.002714 43:0.014925 44:0.009498 45:0.004071 46:0.009498 47:0.020353 48:0.002714 49:0.016282 50:0.017639 51:0.002714 52:0.010855 53:0.013569 54:0.005427 55:0.014925 56:0.020353 57:0.006784 58:0.016282 59:0.02578 60:0.005427 61:0.020353 62:0.002714 63:0.002714 64:0.006784 65:0.012212 66:0.02578 67:0.010855 68:0.020353 69:0.006784 70:0.014925 71:0.006784 72:0.014925 73:0.018996 74:0.009498 75:0.005427 76:0.004071 77:0.02171 78:0.02171 79:0.016282 80:0.006784 81:0.006784 82:0.004071 83:0.006784 84:0.004071 85:0.013569 86:0.016282 87:0.008141 88:0.004071 89:0.010855 90:0.008141 91:0.010855 92:0.024423 93:0.004071 94:0.005427 95:0.005427 96:0.032564 97:0.005427 98:0.008141 99:0.010855 100:0.006784 
-56 1:0.007082 2:0.009915 3:0.018414 4:0.005666 5:0.008499 6:0.014164 7:0.001416 8:0.014164 9:0.009915 10:0.004249 11:0.021246 12:0.007082 13:0.008499 14:0.015581 15:0.007082 16:0.005666 17:0.024079 18:0.001416 19:0.001416 20:0.007082 21:0.008499 22:0.014164 23:0.014164 24:0.005666 25:0.009915 26:0.015581 27:0.002833 28:0.014164 29:0.004249 30:0.009915 31:0.002833 32:0.009915 33:0.008499 34:0.009915 35:0.007082 36:0.008499 37:0.005666 38:0.004249 39:0.025496 40:0.007082 41:0.011331 42:0.008499 43:0.012748 44:0.007082 45:0.008499 46:0.005666 47:0.009915 48:0.011331 49:0.014164 50:0.008499 51:0.008499 52:0.009915 53:0.008499 54:0.008499 55:0.012748 56:0.007082 57:0.004249 58:0.011331 59:0.01983 60:0.007082 61:0.009915 62:0.012748 63:0.001416 64:0.008499 65:0.014164 66:0.021246 67:0.001416 68:0.009915 69:0.004249 70:0.008499 71:0.007082 72:0.01983 73:0.024079 74:0.002833 75:0 76:0.004249 77:0.009915 78:0.024079 79:0.026912 80:0.009915 81:0.002833 82:0.007082 83:0.007082 84:0.011331 85:0.009915 86:0.005666 87:0.009915 88:0.001416 89:0.01983 90:0.008499 91:0.004249 92:0.033994 93:0.007082 94:0.011331 95:0.008499 96:0.015581 97:0.008499 98:0.009915 99:0.012748 100:0.007082 
-56 1:0 2:0.008264 3:0 4:0.008264 5:0.016529 6:0.008264 7:0 8:0.008264 9:0 10:0.024793 11:0.041322 12:0 13:0.008264 14:0.008264 15:0 16:0 17:0.008264 18:0.008264 19:0.016529 20:0 21:0.016529 22:0 23:0.016529 24:0.016529 25:0 26:0.008264 27:0.024793 28:0.008264 29:0 30:0.024793 31:0.008264 32:0.024793 33:0.016529 34:0.016529 35:0 36:0 37:0 38:0.016529 39:0.024793 40:0.008264 41:0 42:0 43:0.016529 44:0.016529 45:0.008264 46:0 47:0.008264 48:0 49:0.016529 50:0.016529 51:0.008264 52:0.008264 53:0 54:0.024793 55:0 56:0 57:0 58:0.016529 59:0.008264 60:0.008264 61:0.024793 62:0 63:0 64:0.008264 65:0.016529 66:0.008264 67:0.008264 68:0.008264 69:0.008264 70:0 71:0 72:0 73:0 74:0 75:0.024793 76:0 77:0.008264 78:0.066116 79:0 80:0.008264 81:0.024793 82:0.008264 83:0.016529 84:0.016529 85:0 86:0.016529 87:0 88:0 89:0.024793 90:0.016529 91:0 92:0.024793 93:0 94:0 95:0.033058 96:0.008264 97:0.008264 98:0.016529 99:0.016529 100:0.024793 
-56 1:0.004329 2:0.004329 3:0.012987 4:0.017316 5:0.012987 6:0.017316 7:0 8:0.004329 9:0.008658 10:0 11:0 12:0.025974 13:0.025974 14:0 15:0.012987 16:0.004329 17:0.021645 18:0.012987 19:0.004329 20:0.012987 21:0 22:0.004329 23:0.012987 24:0.004329 25:0.004329 26:0.004329 27:0.004329 28:0.008658 29:0.012987 30:0.004329 31:0.008658 32:0.030303 33:0.008658 34:0.008658 35:0.004329 36:0.008658 37:0.008658 38:0.008658 39:0.004329 40:0 41:0.021645 42:0.004329 43:0.017316 44:0.021645 45:0.008658 46:0.012987 47:0 48:0.008658 49:0 50:0 51:0.004329 52:0.004329 53:0 54:0.008658 55:0.004329 56:0.004329 57:0.008658 58:0.025974 59:0.004329 60:0.008658 61:0.017316 62:0.012987 63:0.004329 64:0.017316 65:0.008658 66:0.021645 67:0 68:0 69:0.012987 70:0 71:0.012987 72:0.004329 73:0.030303 74:0.021645 75:0.021645 76:0.008658 77:0 78:0.025974 79:0.008658 80:0.004329 81:0.004329 82:0.017316 83:0.012987 84:0.004329 85:0.004329 86:0.008658 87:0 88:0.017316 89:0.025974 90:0.021645 91:0.012987 92:0.017316 93:0.008658 94:0.008658 95:0.012987 96:0.017316 97:0 98:0.038961 99:0 100:0.008658 
-56 1:0.029412 2:0.009804 3:0.009804 4:0.019608 5:0 6:0.009804 7:0 8:0.009804 9:0 10:0.019608 11:0.019608 12:0 13:0 14:0.019608 15:0 16:0 17:0.019608 18:0.009804 19:0.009804 20:0.009804 21:0.009804 22:0 23:0 24:0 25:0.009804 26:0 27:0.019608 28:0.009804 29:0 30:0.029412 31:0.009804 32:0.029412 33:0.039216 34:0 35:0.019608 36:0.009804 37:0 38:0 39:0 40:0.019608 41:0.019608 42:0.039216 43:0 44:0.029412 45:0.009804 46:0.009804 47:0 48:0 49:0.009804 50:0.029412 51:0.019608 52:0 53:0 54:0.009804 55:0 56:0 57:0 58:0.019608 59:0 60:0.009804 61:0.019608 62:0 63:0 64:0.009804 65:0.009804 66:0 67:0 68:0.009804 69:0.009804 70:0.009804 71:0 72:0 73:0.019608 74:0.009804 75:0.009804 76:0 77:0 78:0.029412 79:0.009804 80:0.009804 81:0.029412 82:0 83:0 84:0.009804 85:0 86:0 87:0.039216 88:0.009804 89:0.019608 90:0.019608 91:0.009804 92:0 93:0 94:0.009804 95:0.019608 96:0.019608 97:0 98:0.019608 99:0.019608 100:0.009804 
-56 1:0.01105 2:0.01105 3:0.005525 4:0.016575 5:0.016575 6:0 7:0.01105 8:0.005525 9:0.005525 10:0.027624 11:0.016575 12:0.016575 13:0.01105 14:0.066298 15:0 16:0.01105 17:0.016575 18:0.01105 19:0.005525 20:0.01105 21:0.01105 22:0 23:0 24:0 25:0.01105 26:0 27:0.005525 28:0.005525 29:0.005525 30:0.01105 31:0.01105 32:0.022099 33:0.016575 34:0 35:0.01105 36:0.005525 37:0 38:0.005525 39:0.01105 40:0.016575 41:0 42:0.016575 43:0.033149 44:0.01105 45:0 46:0 47:0 48:0.016575 49:0.01105 50:0.016575 51:0.01105 52:0 53:0.005525 54:0.016575 55:0 56:0.022099 57:0.005525 58:0.01105 59:0.005525 60:0.016575 61:0.005525 62:0.01105 63:0.005525 64:0.01105 65:0.01105 66:0 67:0.005525 68:0.01105 69:0.016575 70:0.01105 71:0 72:0.027624 73:0.01105 74:0.005525 75:0.005525 76:0.005525 77:0.01105 78:0.005525 79:0.005525 80:0 81:0 82:0.01105 83:0 84:0.022099 85:0.016575 86:0.01105 87:0.005525 88:0.027624 89:0 90:0.027624 91:0.005525 92:0.016575 93:0.01105 94:0.01105 95:0.033149 96:0 97:0 98:0 99:0.005525 100:0.005525 
-56 1:0.004808 2:0 3:0.004808 4:0.019231 5:0.033654 6:0.004808 7:0 8:0 9:0.014423 10:0.038462 11:0.004808 12:0.019231 13:0.024038 14:0.024038 15:0.004808 16:0 17:0.004808 18:0.004808 19:0.014423 20:0.009615 21:0.004808 22:0.009615 23:0 24:0 25:0.019231 26:0 27:0.009615 28:0.004808 29:0.014423 30:0.019231 31:0.014423 32:0.014423 33:0.009615 34:0.004808 35:0.004808 36:0 37:0.004808 38:0.038462 39:0.004808 40:0 41:0.004808 42:0.004808 43:0 44:0.014423 45:0.024038 46:0.024038 47:0.009615 48:0.004808 49:0 50:0.004808 51:0.004808 52:0.004808 53:0 54:0.004808 55:0.009615 56:0.014423 57:0.004808 58:0.009615 59:0.009615 60:0.004808 61:0 62:0.004808 63:0.009615 64:0.028846 65:0.014423 66:0.028846 67:0 68:0.028846 69:0.033654 70:0.004808 71:0.014423 72:0 73:0 74:0.014423 75:0.004808 76:0 77:0.004808 78:0.014423 79:0 80:0 81:0.004808 82:0.004808 83:0.038462 84:0.014423 85:0.009615 86:0 87:0 88:0.004808 89:0.014423 90:0.009615 91:0 92:0.019231 93:0.019231 94:0.019231 95:0.009615 96:0.004808 97:0.033654 98:0 99:0.004808 100:0.014423 
-56 1:0 2:0.011364 3:0.011364 4:0.011364 5:0 6:0.011364 7:0 8:0 9:0 10:0.022727 11:0.045455 12:0 13:0.011364 14:0 15:0.011364 16:0 17:0 18:0.011364 19:0.011364 20:0 21:0 22:0 23:0.034091 24:0 25:0.034091 26:0 27:0.034091 28:0 29:0 30:0 31:0.011364 32:0.011364 33:0 34:0 35:0.011364 36:0 37:0.011364 38:0.011364 39:0.011364 40:0.011364 41:0 42:0 43:0.011364 44:0 45:0 46:0 47:0.034091 48:0.011364 49:0.022727 50:0.022727 51:0 52:0.056818 53:0 54:0 55:0.022727 56:0 57:0 58:0.034091 59:0 60:0.022727 61:0 62:0 63:0.011364 64:0.011364 65:0.056818 66:0.011364 67:0 68:0 69:0 70:0.022727 71:0.022727 72:0 73:0.022727 74:0 75:0.034091 76:0 77:0.011364 78:0.011364 79:0.011364 80:0 81:0.011364 82:0 83:0.034091 84:0 85:0.022727 86:0 87:0 88:0 89:0 90:0 91:0.011364 92:0.056818 93:0.022727 94:0.011364 95:0.011364 96:0 97:0.011364 98:0 99:0 100:0 
-56 1:0.017751 2:0 3:0.005917 4:0.017751 5:0 6:0.029586 7:0 8:0 9:0.017751 10:0.023669 11:0 12:0.005917 13:0.005917 14:0.029586 15:0 16:0 17:0 18:0.029586 19:0.005917 20:0.005917 21:0.005917 22:0 23:0.023669 24:0 25:0.005917 26:0.011834 27:0.005917 28:0.011834 29:0.011834 30:0.035503 31:0.005917 32:0.017751 33:0.017751 34:0.005917 35:0 36:0.011834 37:0 38:0.017751 39:0.017751 40:0.005917 41:0.017751 42:0 43:0.011834 44:0.023669 45:0.011834 46:0.005917 47:0 48:0.005917 49:0.029586 50:0 51:0.011834 52:0.005917 53:0.005917 54:0.005917 55:0.005917 56:0.011834 57:0.005917 58:0.011834 59:0.005917 60:0.005917 61:0.005917 62:0.011834 63:0 64:0.017751 65:0 66:0.017751 67:0 68:0.017751 69:0.005917 70:0.005917 71:0.011834 72:0.011834 73:0 74:0.005917 75:0.029586 76:0.023669 77:0.005917 78:0 79:0 80:0 81:0.017751 82:0.005917 83:0.005917 84:0.023669 85:0.017751 86:0.005917 87:0.017751 88:0 89:0.029586 90:0.005917 91:0 92:0.017751 93:0 94:0.005917 95:0.011834 96:0 97:0.017751 98:0.011834 99:0.011834 100:0.029586 
-56 1:0.004167 2:0.004167 3:0.0125 4:0.004167 5:0.029167 6:0.004167 7:0 8:0.004167 9:0.016667 10:0.020833 11:0.0125 12:0.004167 13:0.016667 14:0.016667 15:0.008333 16:0.004167 17:0.0125 18:0.004167 19:0.008333 20:0.004167 21:0.008333 22:0.008333 23:0.008333 24:0.004167 25:0 26:0.008333 27:0.008333 28:0 29:0.008333 30:0.016667 31:0.004167 32:0 33:0 34:0.008333 35:0.008333 36:0.004167 37:0 38:0.058333 39:0 40:0.004167 41:0.008333 42:0.004167 43:0.004167 44:0.020833 45:0.033333 46:0.041667 47:0 48:0.016667 49:0.016667 50:0 51:0.020833 52:0.0125 53:0 54:0.008333 55:0.0125 56:0 57:0.004167 58:0.008333 59:0 60:0.016667 61:0.0125 62:0.008333 63:0.004167 64:0.004167 65:0.0125 66:0.008333 67:0 68:0.0125 69:0.004167 70:0 71:0.020833 72:0.004167 73:0 74:0.008333 75:0.004167 76:0.0125 77:0 78:0.025 79:0 80:0.004167 81:0.004167 82:0 83:0.045833 84:0.0125 85:0.004167 86:0 87:0 88:0.016667 89:0.008333 90:0.020833 91:0.0125 92:0.041667 93:0.025 94:0.008333 95:0.004167 96:0 97:0.041667 98:0.0125 99:0.0125 100:0.004167 
-30.90688097977809 1:0.00578 2:0.011561 3:0.011561 4:0.011561 5:0 6:0 7:0.00578 8:0 9:0.028902 10:0.00578 11:0.023121 12:0.011561 13:0.040462 14:0.011561 15:0.011561 16:0 17:0.017341 18:0.00578 19:0 20:0.00578 21:0 22:0 23:0.017341 24:0.011561 25:0.00578 26:0.00578 27:0.023121 28:0.017341 29:0 30:0.011561 31:0.011561 32:0.00578 33:0 34:0 35:0 36:0.00578 37:0 38:0.046243 39:0.011561 40:0 41:0.011561 42:0 43:0.00578 44:0.017341 45:0.034682 46:0.011561 47:0.00578 48:0.00578 49:0.028902 50:0 51:0.00578 52:0 53:0.00578 54:0.00578 55:0 56:0 57:0 58:0 59:0.011561 60:0 61:0 62:0.023121 63:0.011561 64:0.00578 65:0 66:0.023121 67:0 68:0 69:0.00578 70:0.00578 71:0.046243 72:0 73:0.011561 74:0.034682 75:0.011561 76:0 77:0 78:0.052023 79:0.00578 80:0 81:0.00578 82:0.00578 83:0.080925 84:0 85:0 86:0.00578 87:0 88:0 89:0.011561 90:0 91:0.00578 92:0.040462 93:0.011561 94:0 95:0 96:0 97:0.052023 98:0 99:0 100:0.011561 
-43.1544416910516 1:0.011628 2:0 3:0.023256 4:0.023256 5:0 6:0 7:0 8:0.011628 9:0.034884 10:0 11:0 12:0 13:0 14:0.011628 15:0.034884 16:0 17:0.011628 18:0.011628 19:0.011628 20:0 21:0 22:0 23:0.023256 24:0 25:0.011628 26:0.011628 27:0 28:0.011628 29:0 30:0.034884 31:0 32:0 33:0.023256 34:0.011628 35:0.023256 36:0 37:0.011628 38:0.023256 39:0.011628 40:0.023256 41:0 42:0 43:0.034884 44:0.023256 45:0.011628 46:0 47:0.046512 48:0 49:0 50:0.011628 51:0.011628 52:0 53:0.011628 54:0.011628 55:0.023256 56:0.023256 57:0.011628 58:0 59:0.023256 60:0.023256 61:0.023256 62:0 63:0 64:0 65:0.011628 66:0.011628 67:0 68:0.011628 69:0.011628 70:0 71:0.011628 72:0 73:0.023256 74:0.011628 75:0 76:0 77:0 78:0.011628 79:0.011628 80:0 81:0.011628 82:0 83:0 84:0.023256 85:0.023256 86:0 87:0.023256 88:0 89:0.023256 90:0 91:0.046512 92:0.011628 93:0 94:0 95:0 96:0.023256 97:0 98:0 99:0 100:0 
